-5.651211142539978027e-01 -8.131615519523620605e-01 -3.645312786102294922e-02 8.881819993257522583e-02 -1.031956434249877930e+00 1.874764710664749146e-01 -7.764601707458496094e-01 -5.685545802116394043e-01 7.885652780532836914e-01 -8.297947645187377930e-01
-8.161512203514575958e-03 -2.291682362556457520e-01 6.161292195320129395e-01 2.169761508703231812e-01 2.664147019386291504e-01 -4.062245041131973267e-02 -1.769944131374359131e-01 2.875948846340179443e-01 -2.572458982467651367e-01 -1.670427471399307251e-01
3.077358603477478027e-01 3.206761479377746582e-01 -5.823832750320434570e-01 -3.505271077156066895e-01 2.755200564861297607e-01 -1.207162886857986450e-01 3.066309392452239990e-01 1.134511381387710571e-01 -3.313604295253753662e-01 2.036387920379638672e-01
-9.593663364648818970e-02 7.079402357339859009e-02 7.109746336936950684e-03 -1.063058376312255859e-01 -4.767549633979797363e-01 -4.182941019535064697e-01 -1.750809252262115479e-01 -6.301074624061584473e-01 2.958799600601196289e-01 -1.081257462501525879e-01
-5.702796578407287598e-01 -9.156116247177124023e-01 6.212569475173950195e-01 8.757818937301635742e-01 -1.656474173069000244e-01 -2.859863042831420898e-01 -5.863143801689147949e-01 -4.613977670669555664e-01 6.111911535263061523e-01 -9.689192287623882294e-03
4.025074541568756104e-01 4.911574721336364746e-01 -4.851474463939666748e-01 -2.362707257270812988e-01 1.581532955169677734e-01 1.191608071327209473e+00 3.069122433662414551e-01 9.829327464103698730e-01 -1.382233351469039917e-01 -1.856634318828582764e-01
2.156392186880111694e-01 5.609906911849975586e-01 -3.994057774543762207e-01 -6.630673408508300781e-01 3.951475918292999268e-01 -6.136252880096435547e-01 1.641671508550643921e-01 1.491494476795196533e-01 -1.531782448291778564e-01 4.778766334056854248e-01
6.399602890014648438e-01 3.938316702842712402e-01 -6.275528669357299805e-01 -5.669033527374267578e-01 1.263260394334793091e-01 2.720994055271148682e-01 -6.105317547917366028e-02 7.773383259773254395e-01 -7.487373352050781250e-01 -2.066982984542846680e-01
-2.118351906538009644e-01 -2.230526953935623169e-01 3.538136780261993408e-01 3.598236739635467529e-01 -1.689013391733169556e-01 -8.517168462276458740e-02 2.699743509292602539e-01 2.388222664594650269e-01 3.437260985374450684e-01 1.702903211116790771e-02
-7.993480563163757324e-01 6.471079587936401367e-01 -2.133952230215072632e-01 -6.809670329093933105e-01 -3.484233915805816650e-01 4.533116519451141357e-02 -1.709032803773880005e-02 -6.681870222091674805e-01 2.005105614662170410e-01 1.134422272443771362e-01
