8.208490014076232910e-01 -7.623489499092102051e-01 1.769938766956329346e-01 5.075011253356933594e-01 3.983518183231353760e-01 1.298029124736785889e-01 -5.358948111534118652e-01 4.861922860145568848e-01 -1.009996771812438965e+00 -1.908302426338195801e+00
4.098191261291503906e-01 -8.030197024345397949e-01 3.206789195537567139e-01 -3.486058413982391357e-01 -5.149665474891662598e-01 -6.965771913528442383e-01 -4.659258201718330383e-02 -7.872623205184936523e-01 6.455969810485839844e-01 -8.308792114257812500e-01
2.914039492607116699e-01 -2.763282954692840576e-01 4.668781161308288574e-01 1.837751269340515137e-01 6.199911832809448242e-01 4.594562351703643799e-01 -2.409828454256057739e-01 8.442049026489257812e-01 -1.113300099968910217e-01 4.527783691883087158e-01
3.431236147880554199e-01 -9.329068064689636230e-01 1.451549082994461060e-01 1.527509391307830811e-01 6.295312047004699707e-01 4.522673785686492920e-01 -2.549548745155334473e-01 8.962298184633255005e-02 -2.341451048851013184e-01 -6.228786706924438477e-01
8.032553195953369141e-01 -6.249285340309143066e-01 4.084368944168090820e-01 1.372149884700775146e-01 -2.041462063789367676e-01 -2.231205403804779053e-01 -3.610698282718658447e-01 -5.248363614082336426e-01 5.680673718452453613e-01 -9.728247523307800293e-01
3.130717277526855469e-01 1.976616680622100830e-01 5.902140736579895020e-01 2.265245318412780762e-01 -5.699454247951507568e-02 -1.083577722311019897e-01 -2.559657096862792969e-01 -1.156015694141387939e-01 8.715586662292480469e-01 1.069831252098083496e+00
1.904351115226745605e-01 -8.115091919898986816e-02 -2.237073145806789398e-02 5.688709020614624023e-01 6.807918548583984375e-01 7.755341529846191406e-01 -3.658499717712402344e-01 9.082143306732177734e-01 -3.595222830772399902e-01 2.100970037281513214e-02
7.879094034433364868e-02 -3.070809543132781982e-01 9.371284977532923222e-04 1.856904476881027222e-01 6.950370073318481445e-01 3.827769756317138672e-01 -4.716889858245849609e-01 7.439754009246826172e-01 -3.787446916103363037e-01 7.473916411399841309e-01
2.575754821300506592e-01 -2.137801982462406158e-02 -1.413939893245697021e-01 -2.402999401092529297e-01 -1.269056499004364014e-01 -1.324206739664077759e-01 3.727444112300872803e-01 -2.499625533819198608e-01 9.493932873010635376e-02 -2.383148372173309326e-01
6.516079902648925781e-01 -4.033111035823822021e-01 -2.165350914001464844e-01 9.197347164154052734e-01 1.475781321525573730e+00 1.166916131973266602e+00 -7.480412721633911133e-01 1.968793392181396484e+00 -1.488368391990661621e+00 -2.387915611267089844e+00
