6.964668631553649902e-01 -2.901948094367980957e-01 -2.500955946743488312e-02 -3.775841891765594482e-01 -4.051903188228607178e-01 -2.636592090129852295e-01 -2.012398093938827515e-01 -3.358755707740783691e-01 2.040134817361831665e-01 -1.852978020906448364e-01
-6.195531487464904785e-01 -1.159051299095153809e+00 -3.673881888389587402e-01 -9.790638089179992676e-01 1.045951724052429199e+00 -1.052238702774047852e+00 8.031558990478515625e-01 1.225843906402587891e+00 -3.043276071548461914e-01 -8.674567216075956821e-04
-6.343161463737487793e-01 1.960717737674713135e-01 6.077115535736083984e-01 4.229471087455749512e-01 -1.546244770288467407e-01 2.610831558704376221e-01 1.310284137725830078e-01 -4.773318395018577576e-02 -1.677012890577316284e-01 -7.743802666664123535e-02
-2.642903029918670654e-01 7.724283933639526367e-01 3.566104471683502197e-01 4.969483017921447754e-01 4.735867679119110107e-01 -2.428612411022186279e-01 -3.026663959026336670e-01 2.807547152042388916e-01 -2.128605842590332031e-01 -1.491297315806150436e-02
6.724964976310729980e-01 -3.046713471412658691e-01 -1.822514832019805908e-01 -9.389163553714752197e-02 -4.763665795326232910e-01 6.624858826398849487e-02 -5.832736492156982422e-01 -3.778052031993865967e-01 4.746915400028228760e-01 -1.468412578105926514e-01
2.556739747524261475e-01 5.782065987586975098e-01 -6.071778535842895508e-01 2.927089631557464600e-01 3.660494387149810791e-01 -4.038114845752716064e-01 -4.766601622104644775e-01 6.477768421173095703e-01 -1.474555581808090210e-01 -1.171216741204261780e-01
5.316683053970336914e-01 -1.872715204954147339e-01 -5.620362758636474609e-01 -3.644558191299438477e-01 -3.508780002593994141e-01 -2.385668754577636719e-01 -1.446284353733062744e-01 -4.735847562551498413e-02 4.650791585445404053e-01 9.241010248661041260e-02
-4.065068960189819336e-01 1.884238868951797485e-01 5.153108239173889160e-01 7.389467209577560425e-02 3.590521514415740967e-01 6.030689477920532227e-01 6.760931015014648438e-02 4.321427941322326660e-01 -9.819953888654708862e-02 -5.752961337566375732e-02
4.436098635196685791e-01 -4.979188442230224609e-01 -1.172702480107545853e-02 -5.319454073905944824e-01 -3.168483078479766846e-01 -2.265392839908599854e-01 -6.110589951276779175e-02 -3.008506596088409424e-01 3.554338216781616211e-01 -2.360022217035293579e-01
-1.446476280689239502e-01 3.988886475563049316e-01 6.862484812736511230e-01 -1.977136917412281036e-02 1.291136443614959717e-01 5.515640377998352051e-01 5.532283186912536621e-01 -5.326255410909652710e-02 1.399388313293457031e-01 -2.843405902385711670e-01
