4.525642693042755127e-01 4.789354205131530762e-01 -7.853247523307800293e-01 4.680965840816497803e-01 -5.796604156494140625e-01 -6.907825469970703125e-01 3.230450153350830078e-01 5.244267582893371582e-01 6.808965206146240234e-01 3.311178833246231079e-02
-2.223937034606933594e+00 8.405011892318725586e-02 -9.168485403060913086e-01 -8.012769222259521484e-01 -3.433806896209716797e-01 -2.442064046859741211e+00 -6.906546354293823242e-01 4.380970895290374756e-01 -7.057199478149414062e-01 1.692832112312316895e+00
-1.944411277770996094e+00 1.494079828262329102e-01 8.474876880645751953e-01 -6.586091518402099609e-01 2.247438430786132812e-01 1.199095606803894043e+00 -2.811594009399414062e-01 -2.598941028118133545e-01 -4.444223046302795410e-01 -4.713489860296249390e-02
-3.669319868087768555e+00 1.087956279516220093e-01 1.211059451103210449e+00 -6.823554635047912598e-01 3.257758617401123047e-01 5.607289075851440430e-01 -7.256183624267578125e-01 1.060234103351831436e-02 -7.299940586090087891e-01 1.807268977165222168e+00
3.799581825733184814e-01 5.423469543457031250e-01 -4.313249588012695312e-01 6.225349307060241699e-01 -1.360161304473876953e-01 -8.432825207710266113e-01 6.300854086875915527e-01 5.036093592643737793e-01 4.517917037010192871e-01 -1.216415017843246460e-01
1.660769104957580566e+00 5.146278142929077148e-01 -6.092035174369812012e-01 7.214758396148681641e-01 -8.608550429344177246e-01 -1.133748292922973633e+00 8.920643925666809082e-01 -2.862481474876403809e-01 3.718469738960266113e-01 -1.319115042686462402e+00
7.906908988952636719e-01 4.798729419708251953e-01 -4.070651829242706299e-01 8.755481243133544922e-01 -6.314873099327087402e-01 -6.694908738136291504e-01 6.703912615776062012e-01 6.072342395782470703e-01 4.578352868556976318e-01 2.713234424591064453e-01
-5.385093688964843750e-01 -3.683499097824096680e-01 2.337332367897033691e-01 -1.657313108444213867e-01 -8.375707082450389862e-03 6.197151541709899902e-01 -2.438184320926666260e-01 -5.056865811347961426e-01 -2.321045100688934326e-01 1.428506225347518921e-01
6.922999024391174316e-01 6.435523629188537598e-01 -1.087519884109497070e+00 8.364512920379638672e-01 -6.017090082168579102e-01 -1.161770224571228027e+00 5.681765675544738770e-01 6.020268201828002930e-01 2.046920061111450195e-01 7.834523320198059082e-01
-1.235122680664062500e+00 -5.936977863311767578e-01 5.531290173530578613e-01 -3.914721906185150146e-01 3.007967472076416016e-01 8.542380332946777344e-01 -4.008289277553558350e-01 -3.749936819076538086e-01 -1.064244210720062256e-01 -3.125311732292175293e-01
