1.599307358264923096e-01 -1.509815901517868042e-01 7.637397050857543945e-01 7.114040255546569824e-01 -4.613119661808013916e-01 4.741509854793548584e-01 6.511380076408386230e-01 6.201796531677246094e-01 -7.927008867263793945e-01 3.874546885490417480e-01
-1.076739057898521423e-01 6.452215909957885742e-01 -2.714007794857025146e-01 -5.330717563629150391e-02 -1.854418218135833740e-02 -1.855829805135726929e-01 4.635631293058395386e-02 4.282826185226440430e-02 1.953094899654388428e-01 -2.610560655593872070e-01
-3.835574090480804443e-01 -7.640910744667053223e-01 6.868238449096679688e-01 -5.447854474186897278e-02 -7.208675742149353027e-01 3.732392936944961548e-02 2.520746588706970215e-01 -2.745939493179321289e-01 6.026179194450378418e-01 -3.906615078449249268e-01
9.033431857824325562e-02 -5.190341472625732422e-01 2.023490667343139648e-01 2.306509464979171753e-01 -8.635852932929992676e-01 2.093587666749954224e-01 3.355353474617004395e-01 -3.088696002960205078e-01 5.600463747978210449e-01 -3.083754479885101318e-01
6.763997673988342285e-02 6.574809551239013672e-01 -5.450191497802734375e-01 -2.585099339485168457e-01 3.725563585758209229e-01 1.556291729211807251e-01 -3.571687340736389160e-01 -6.205829977989196777e-01 -1.731497794389724731e-01 -3.887993097305297852e-02
-1.738387823104858398e+00 3.087046146392822266e-01 -1.751821637153625488e-01 -7.708358764648437500e-01 1.140480041503906250e+00 -7.836947441101074219e-01 -5.280062556266784668e-01 4.589956402778625488e-01 -2.654467821121215820e-01 9.262624371331185102e-05
-1.456007361412048340e+00 -2.738305628299713135e-01 3.078446388244628906e-01 -1.341379880905151367e+00 6.569296121597290039e-01 -1.119338989257812500e+00 -8.137606978416442871e-01 3.974606096744537354e-01 7.902347445487976074e-01 1.336015313863754272e-01
-1.918765902519226074e-01 -5.023782849311828613e-01 7.219769954681396484e-01 3.245776295661926270e-01 -5.918201804161071777e-01 6.521500945091247559e-01 2.211195230484008789e-01 4.988053739070892334e-01 -1.423215568065643311e-01 1.053695827722549438e-01
2.256061881780624390e-01 6.204369664192199707e-01 -4.047532379627227783e-01 8.779300004243850708e-02 -3.634558757767081261e-03 1.633074730634689331e-01 -4.217745065689086914e-01 -3.032255172729492188e-01 4.400771856307983398e-02 -1.204213574528694153e-01
-3.043558895587921143e-01 5.011206269264221191e-01 -3.624006807804107666e-01 -3.648245930671691895e-01 1.109997853636741638e-01 -4.772667288780212402e-01 -4.492615759372711182e-01 -3.007330372929573059e-02 3.355775177478790283e-01 -2.634035646915435791e-01
