-3.467557430267333984e-01 5.091799497604370117e-01 -8.747425079345703125e-01 9.019460678100585938e-01 6.527130007743835449e-01 3.006162941455841064e-01 5.045440196990966797e-01 7.548707723617553711e-01 -4.310525953769683838e-01 8.291977047920227051e-01
-5.736923962831497192e-02 4.782986268401145935e-02 1.892347633838653564e-01 -2.423566728830337524e-01 -5.493575930595397949e-01 6.437683477997779846e-04 -4.552313983440399170e-01 -2.311045080423355103e-01 -3.773239254951477051e-02 -2.142239809036254883e-01
-1.961310505867004395e-01 4.308750033378601074e-01 -1.749810129404067993e-01 2.931986749172210693e-01 3.986274898052215576e-01 1.242035984992980957e+00 2.069361805915832520e-01 -7.667824625968933105e-01 -7.370336055755615234e-01 -1.062937140464782715e+00
-1.636949628591537476e-01 3.097978532314300537e-01 -3.142736554145812988e-01 4.616884887218475342e-01 1.650771051645278931e-01 1.056194186210632324e+00 4.710909724235534668e-01 -4.474956989288330078e-01 -7.626781463623046875e-01 -5.620930194854736328e-01
3.794973790645599365e-01 2.468382269144058228e-01 1.580145716667175293e+00 -9.734166860580444336e-01 -9.828389436006546021e-02 -1.604956686496734619e-01 -5.427076816558837891e-01 -8.350834250450134277e-01 9.129847884178161621e-01 -5.827632546424865723e-01
-1.444090064615011215e-02 3.685245215892791748e-01 1.118053197860717773e+00 -1.166656494140625000e+00 -3.882303535938262939e-01 1.389902591705322266e+00 2.053625695407390594e-02 -1.846259236335754395e+00 -5.295946002006530762e-01 -2.394306421279907227e+00
3.817721307277679443e-01 1.909589045681059361e-03 6.164681315422058105e-01 -7.568263411521911621e-01 -2.467191405594348907e-02 7.374492883682250977e-01 2.609165310859680176e-01 -7.213949561119079590e-01 -1.813811063766479492e-01 -1.691259026527404785e+00
-5.903595685958862305e-01 6.260342001914978027e-01 -7.676272988319396973e-01 7.847679853439331055e-01 6.624258756637573242e-01 5.566865205764770508e-01 5.269445180892944336e-01 7.944745421409606934e-01 1.560457795858383179e-01 6.511512398719787598e-01
2.017979621887207031e-01 -4.134510457515716553e-01 1.239035129547119141e+00 -9.930303096771240234e-01 -2.776136994361877441e-01 -6.564504932612180710e-03 -4.746948480606079102e-01 -7.085864543914794922e-01 9.424680471420288086e-01 -6.018250584602355957e-01
1.939579658210277557e-02 -2.240646332502365112e-01 2.831816375255584717e-01 -3.429333567619323730e-01 -4.021563529968261719e-01 2.213296107947826385e-02 -2.285363674163818359e-01 -5.956095457077026367e-01 2.368099093437194824e-01 -6.280851364135742188e-01
