-4.063162803649902344e-01 -4.465094208717346191e-01 4.355116188526153564e-01 -4.785748720169067383e-01 6.857512891292572021e-02 3.487104773521423340e-01 2.934758961200714111e-01 1.444787234067916870e-01 3.681855499744415283e-01 -6.134480237960815430e-01
2.267566919326782227e-01 5.001582503318786621e-01 -1.843875944614410400e-01 -5.780227184295654297e-01 2.350841909646987915e-01 -2.417948246002197266e-01 -4.596675932407379150e-01 6.021281480789184570e-01 -4.029211103916168213e-01 1.604839712381362915e-01
-5.475715398788452148e-01 1.245105788111686707e-01 -5.671123862266540527e-01 -1.597901731729507446e-01 6.706384420394897461e-01 -5.209386348724365234e-01 -3.118980228900909424e-01 -6.454820185899734497e-02 -2.633286714553833008e-01 -7.363209128379821777e-02
6.952028721570968628e-02 3.233348727226257324e-01 -4.378088414669036865e-01 -1.202777698636054993e-01 1.223035603761672974e-01 -4.101923108100891113e-01 -1.128258332610130310e-01 3.979157507419586182e-01 -2.335429489612579346e-01 3.271782696247100830e-01
-6.521264463663101196e-02 -5.994667112827301025e-02 3.540795743465423584e-01 -3.431629240512847900e-01 -3.471318632364273071e-02 2.688011825084686279e-01 5.345994830131530762e-01 1.844536513090133667e-01 3.760484158992767334e-01 1.106747612357139587e-01
-4.240199327468872070e-01 6.062357425689697266e-01 -3.422217667102813721e-01 -4.696541428565979004e-01 1.781480759382247925e-01 -1.224272400140762329e-01 -5.298778414726257324e-01 3.648310899734497070e-01 -4.515380859375000000e-01 4.627887010574340820e-01
-4.654956161975860596e-01 7.774978131055831909e-02 -3.676677942276000977e-01 -2.873071432113647461e-01 6.278998851776123047e-01 -3.089793026447296143e-01 -7.016327232122421265e-02 3.704074323177337646e-01 -3.554536104202270508e-01 1.792788505554199219e-01
8.890074491500854492e-01 -6.889994144439697266e-01 1.092320382595062256e-01 -9.077311754226684570e-01 -9.760876297950744629e-01 2.856352627277374268e-01 6.616651415824890137e-01 1.633115857839584351e-01 -6.164653897285461426e-01 5.940189957618713379e-01
9.347027540206909180e-01 -7.422800064086914062e-01 4.935021698474884033e-01 -6.426568627357482910e-01 -6.839029788970947266e-01 5.531101822853088379e-01 4.962137043476104736e-01 -1.932232528924942017e-01 2.053018808364868164e-01 -2.188488990068435669e-01
6.411546468734741211e-02 2.469074130058288574e-01 -6.521032191812992096e-03 4.309885799884796143e-01 -4.247436821460723877e-01 2.358299791812896729e-01 -2.569868788123130798e-02 -1.812469065189361572e-01 -1.508877612650394440e-02 1.082970667630434036e-02
