2.884462773799896240e-01 1.477888375520706177e-01 6.736097931861877441e-01 1.639008671045303345e-01 5.886087417602539062e-01 -1.268136024475097656e+00 -2.160714268684387207e-01 3.665956556797027588e-01 2.187514007091522217e-01 -3.702039122581481934e-01
-5.884140133857727051e-01 -3.469976484775543213e-01 -6.650388240814208984e-01 -4.789054095745086670e-01 -1.876435726881027222e-01 1.826684623956680298e-01 5.149791762232780457e-02 2.643273770809173584e-01 1.562478542327880859e-01 3.279081583023071289e-01
-5.387071371078491211e-01 -5.425173044204711914e-01 -4.071899950504302979e-01 -1.571457460522651672e-02 2.143703168258070946e-03 -2.090391665697097778e-01 -3.690663874149322510e-01 2.091113328933715820e-01 5.341862440109252930e-01 -2.912431769073009491e-02
-2.941700443625450134e-02 -2.496454715728759766e-01 -2.856355309486389160e-01 -2.097567170858383179e-01 -1.235826164484024048e-01 1.138055846095085144e-01 -1.129163801670074463e-01 4.462755918502807617e-01 2.569716572761535645e-01 4.036619365215301514e-01
2.304016947746276855e-01 1.625611484050750732e-01 5.081179738044738770e-01 6.603286266326904297e-01 7.226493954658508301e-02 -1.375275373458862305e+00 -2.225461602210998535e-02 1.088716834783554077e-01 9.702058881521224976e-02 -4.710925519466400146e-01
-3.953647613525390625e-01 -3.876309990882873535e-01 -3.426115512847900391e-01 -4.629837870597839355e-01 -2.751195728778839111e-01 4.542806446552276611e-01 -3.911712467670440674e-01 3.261500895023345947e-01 4.324777424335479736e-01 2.351346611976623535e-01
-5.207415223121643066e-01 -2.089367480948567390e-03 -1.950106769800186157e-01 -7.061514258384704590e-02 4.301863536238670349e-02 2.712588608264923096e-01 -5.617942810058593750e-01 6.259588599205017090e-01 3.068949282169342041e-01 3.866924643516540527e-01
-1.164796590805053711e+00 -1.147876858711242676e+00 -9.396901726722717285e-01 -1.170905232429504395e+00 -7.598689794540405273e-01 1.802514314651489258e+00 -1.219622790813446045e-01 6.175140142440795898e-01 -3.390140365809202194e-03 1.584178924560546875e+00
2.176393270492553711e-01 8.844695687294006348e-01 7.578245401382446289e-01 9.294301271438598633e-01 7.895564436912536621e-01 -1.309596657752990723e+00 4.443307518959045410e-01 -9.018254280090332031e-02 -2.691482603549957275e-01 -6.136949658393859863e-01
3.674014508724212646e-01 3.349509835243225098e-01 -2.031992524862289429e-01 -3.239374160766601562e-01 1.258568465709686279e-01 -4.887747764587402344e-02 -1.003223806619644165e-01 -1.658111661672592163e-01 -2.036080211400985718e-01 1.395778059959411621e-01
