1.405152976512908936e-01 4.365615844726562500e-01 -3.776035830378532410e-02 -4.774641096591949463e-01 -5.339416265487670898e-01 3.873569369316101074e-01 6.944941282272338867e-01 -6.517645120620727539e-01 -4.088400006294250488e-01 4.903022646903991699e-01
6.581897139549255371e-01 -8.071249127388000488e-01 -2.641165554523468018e-01 8.515458106994628906e-01 3.676708042621612549e-02 3.528676331043243408e-01 3.515350818634033203e-01 1.178794261068105698e-02 -3.875009119510650635e-01 -2.654660344123840332e-01
6.435565948486328125e-01 -8.088332414627075195e-01 5.456038117408752441e-01 5.358709692955017090e-01 -5.270638465881347656e-01 -3.375024497509002686e-01 2.394341826438903809e-01 -4.009508490562438965e-01 -7.151877880096435547e-02 1.052454113960266113e-01
2.881025075912475586e-01 -4.792019426822662354e-01 1.824518740177154541e-01 2.244004011154174805e-01 -3.857453465461730957e-01 -1.397433727979660034e-01 1.078738272190093994e-01 -3.508007153868675232e-02 6.173228099942207336e-02 -3.279499709606170654e-01
-4.804362654685974121e-01 7.656134366989135742e-01 -5.217756628990173340e-01 -5.024504065513610840e-01 3.082266151905059814e-01 4.079783335328102112e-02 -4.537463784217834473e-01 1.262274533510208130e-01 -2.249763011932373047e-01 1.727734506130218506e-01
-2.953151762485504150e-01 2.881579995155334473e-01 -3.837127089500427246e-01 -5.249282717704772949e-01 2.598704099655151367e-01 3.492224514484405518e-01 5.492207407951354980e-01 1.075146645307540894e-01 -4.846998676657676697e-02 -2.477818578481674194e-01
2.666483819484710693e-01 5.436075851321220398e-02 5.743145346641540527e-01 2.281096875667572021e-01 -8.170825242996215820e-01 -5.989463925361633301e-01 -1.686380505561828613e-01 -2.485571205615997314e-01 4.046898484230041504e-01 3.246347308158874512e-01
4.091895520687103271e-01 -5.410841703414916992e-01 2.821854054927825928e-01 1.576868444681167603e-01 -6.657338738441467285e-01 -4.159020483493804932e-01 2.175952345132827759e-01 1.292825490236282349e-01 2.780860960483551025e-01 -2.435009032487869263e-01
-3.279863893985748291e-01 1.523559391498565674e-01 -4.356576800346374512e-01 -2.449028193950653076e-01 5.314328074455261230e-01 3.114195764064788818e-01 3.656714409589767456e-02 -3.754586279392242432e-01 -2.495850436389446259e-02 -2.908918559551239014e-01
-3.422370254993438721e-01 1.217183619737625122e-01 -4.456326961517333984e-01 2.097231568768620491e-03 3.080374896526336670e-01 5.305790305137634277e-01 6.379855275154113770e-01 -1.912842839956283569e-01 -4.022608101367950439e-01 -2.237908542156219482e-01
