5.461901426315307617e-01 5.798562765121459961e-01 1.270942330360412598e+00 7.689379453659057617e-01 -1.630662441253662109e+00 -6.819612383842468262e-01 8.476940989494323730e-01 -8.232469111680984497e-02 -1.037091851234436035e+00 -6.739839911460876465e-02
-1.163719773292541504e+00 -1.850312948226928711e-01 -1.691713571548461914e+00 -9.128484725952148438e-01 2.836247205734252930e+00 1.385715723037719727e+00 -1.463321447372436523e+00 -7.517266273498535156e-02 1.860192656517028809e+00 -1.954688310623168945e+00
-1.014654040336608887e+00 -8.315387368202209473e-01 -9.132133722305297852e-01 -7.821223735809326172e-01 6.314879655838012695e-01 2.076451927423477173e-01 -6.899227499961853027e-01 -7.783851027488708496e-01 1.828680783510208130e-01 -6.345149278640747070e-01
-3.777327835559844971e-01 -2.253657579421997070e-01 -4.657018184661865234e-01 -5.138243362307548523e-02 -3.773106038570404053e-01 2.013457864522933960e-01 -3.876334428787231445e-01 -1.127329468727111816e-01 4.226156175136566162e-01 -1.329660117626190186e-01
5.269265770912170410e-01 3.048902451992034912e-01 2.895257472991943359e-01 7.570742070674896240e-02 1.117376089096069336e+00 -1.298029422760009766e-01 6.908991932868957520e-01 1.048383116722106934e+00 3.403832912445068359e-01 3.176898062229156494e-01
3.057614862918853760e-01 7.106490135192871094e-01 3.349505364894866943e-01 6.751648187637329102e-01 -3.781823441386222839e-03 -5.065051317214965820e-01 5.384227037429809570e-01 3.044759631156921387e-01 -4.587689787149429321e-02 6.968052387237548828e-01
-6.567836403846740723e-01 -3.948056399822235107e-01 -2.854965209960937500e+00 -1.211625218391418457e+00 3.215855598449707031e+00 9.162324666976928711e-01 -9.720472097396850586e-01 -4.066679477691650391e-01 1.249533534049987793e+00 3.225291371345520020e-01
-4.205145835876464844e-01 -1.181642636656761169e-01 -1.007508397102355957e+00 -3.810436129570007324e-01 7.809283733367919922e-01 3.681133985519409180e-01 -7.772369384765625000e-01 -2.133048921823501587e-01 4.336570799350738525e-01 -3.281549513339996338e-01
3.635848462581634521e-01 6.401485800743103027e-01 1.530054956674575806e-01 4.939944148063659668e-01 -3.903010394424200058e-03 -5.631723254919052124e-02 6.011204719543457031e-01 2.645960748195648193e-01 -3.927171826362609863e-01 4.069538414478302002e-01
2.435656040906906128e-01 7.062576413154602051e-01 2.692473530769348145e-01 7.096251249313354492e-01 -5.999591946601867676e-01 -5.551840662956237793e-01 4.797368049621582031e-01 1.917086392641067505e-01 -7.612803578376770020e-01 6.329008936882019043e-01
