3.528748750686645508e-01 -7.372785210609436035e-01 -3.085021674633026123e-02 5.689441561698913574e-01 8.106868863105773926e-01 -1.085027027875185013e-02 -5.392085313796997070e-01 1.051682829856872559e+00 2.249585688114166260e-01 1.725658923387527466e-01
7.366593182086944580e-02 9.823120832443237305e-01 -1.349938511848449707e-01 -6.820337772369384766e-01 -9.013819694519042969e-01 -2.338407747447490692e-02 1.821132600307464600e-01 -6.054278612136840820e-01 -3.143395781517028809e-01 -7.006706297397613525e-02
-2.091305702924728394e-01 5.918177962303161621e-01 -5.805713534355163574e-01 -5.051606893539428711e-01 -8.522969484329223633e-01 1.909043788909912109e-01 4.193626940250396729e-01 -5.787330865859985352e-01 -1.229149103164672852e-01 -1.803527474403381348e-01
-4.429847896099090576e-01 -1.665948033332824707e-01 -1.374785322695970535e-02 2.834054827690124512e-02 -2.452174723148345947e-01 6.072210073471069336e-01 5.224322080612182617e-01 2.058329880237579346e-01 4.011675119400024414e-01 2.044182121753692627e-01
3.034390211105346680e-01 -5.285337939858436584e-02 -5.588261038064956665e-02 5.141714811325073242e-01 2.503429055213928223e-01 -4.520460069179534912e-01 -1.791555583477020264e-01 -4.782687500119209290e-02 -3.463321030139923096e-01 1.717334538698196411e-01
-2.173113226890563965e-01 4.317398667335510254e-01 -4.272584319114685059e-01 -6.301258802413940430e-01 -2.978389859199523926e-01 1.591269820928573608e-01 3.481704592704772949e-01 4.348994493484497070e-01 4.466802775859832764e-01 -3.273924067616462708e-02
-4.625530242919921875e-01 -8.749107718467712402e-01 2.300650477409362793e-01 6.155582070350646973e-01 7.089315056800842285e-01 3.197026439011096954e-03 9.410826861858367920e-02 -1.093656182289123535e+00 -4.310301840305328369e-01 -6.734609603881835938e-02
-4.350796043872833252e-01 -3.330531120300292969e-01 -3.265433013439178467e-01 -5.859730839729309082e-01 -2.273116111755371094e-01 2.906774878501892090e-01 1.655121445655822754e-01 3.682465851306915283e-01 5.483743548393249512e-01 1.703001558780670166e-01
-9.028363823890686035e-01 -3.287867605686187744e-01 -3.669044375419616699e-01 -2.543963789939880371e-01 1.187315061688423157e-01 6.905441880226135254e-01 5.072118043899536133e-01 2.339310944080352783e-01 2.638262324035167694e-02 -4.839004948735237122e-02
1.360806077718734741e-01 -3.654272258281707764e-01 3.294808864593505859e-01 4.449146687984466553e-01 2.133550643920898438e-01 -1.044990718364715576e-01 4.058460704982280731e-03 7.205319404602050781e-02 -1.834157556295394897e-01 -2.577590756118297577e-02
