-2.570596933364868164e+00 5.944897532463073730e-01 2.528098344802856445e+00 -1.252819657325744629e+00 3.974317610263824463e-01 -1.465873718261718750e-01 -2.660784721374511719e-01 -7.551714181900024414e-01 -5.199596285820007324e-01 8.112611174583435059e-01
2.169298753142356873e-02 1.153089478611946106e-01 8.243239521980285645e-01 -2.373342365026473999e-01 -1.949079185724258423e-01 5.408902168273925781e-01 -5.655136108398437500e-01 1.082030758261680603e-01 2.846519947052001953e-01 6.477119922637939453e-01
5.442972183227539062e-01 -3.952547609806060791e-01 1.403278708457946777e-01 3.583272099494934082e-01 -6.304759979248046875e-01 7.453081011772155762e-01 -4.169802963733673096e-01 9.320869296789169312e-02 1.551478058099746704e-01 4.472774565219879150e-01
5.421857237815856934e-01 -2.706535756587982178e-01 -9.253493547439575195e-01 8.196034431457519531e-01 -7.442493438720703125e-01 1.926505416631698608e-01 -7.904382050037384033e-02 6.316111683845520020e-01 2.655839323997497559e-01 2.153544872999191284e-01
6.637116521596908569e-02 2.273935079574584961e-01 2.561728954315185547e-01 -4.934171140193939209e-01 2.448633760213851929e-01 5.627623200416564941e-02 -1.066392734646797180e-01 -3.459863066673278809e-01 -2.990502715110778809e-01 2.452563494443893433e-01
7.689061164855957031e-01 -4.124215543270111084e-01 1.556285321712493896e-01 4.901928901672363281e-01 -8.231328129768371582e-01 5.578477978706359863e-01 -7.005792856216430664e-01 7.768973708152770996e-01 3.932172656059265137e-01 -8.398488909006118774e-02
-3.202840089797973633e+00 1.076166033744812012e+00 2.262877464294433594e+00 -7.492288947105407715e-01 3.619059026241302490e-01 -2.988602519035339355e-01 8.950877189636230469e-02 -1.647717356681823730e-01 -3.324628993868827820e-02 -8.773111701011657715e-01
4.167942404747009277e-01 -5.296409130096435547e-01 -6.140166521072387695e-01 8.862029314041137695e-01 -8.082971572875976562e-01 3.013115227222442627e-01 -3.522804975509643555e-01 6.754367947578430176e-01 1.970534175634384155e-01 1.267161071300506592e-01
8.150025010108947754e-01 -6.838030815124511719e-01 -1.205639004707336426e+00 1.083226799964904785e+00 -6.872020363807678223e-01 6.503316760063171387e-01 -8.492875099182128906e-02 8.449313640594482422e-01 5.730506181716918945e-01 2.859878540039062500e-01
-5.866442322731018066e-01 2.758618295192718506e-01 1.144162937998771667e-01 -1.736736148595809937e-01 2.607911229133605957e-01 -5.574912428855895996e-01 3.317410945892333984e-01 3.597092116251587868e-03 -4.023477435111999512e-01 -1.000423207879066467e-01
