-2.620609700679779053e-01 5.079387873411178589e-02 6.904780268669128418e-01 -3.942587673664093018e-01 6.092238426208496094e-01 -6.322525739669799805e-01 1.951625049114227295e-01 3.810158073902130127e-01 -3.279739618301391602e-01 2.219873964786529541e-01
-4.296672344207763672e-02 -4.540611207485198975e-01 4.926599264144897461e-01 -6.496136784553527832e-01 4.643867611885070801e-01 -4.841349720954895020e-01 3.991242051124572754e-01 4.800379574298858643e-01 -6.259935498237609863e-01 4.708231389522552490e-01
6.263771653175354004e-01 -9.479527473449707031e-01 -5.086059570312500000e-01 3.639218509197235107e-01 -6.532715559005737305e-01 3.270911872386932373e-01 1.327458143234252930e+00 -3.720919787883758545e-01 -2.900553345680236816e-01 -1.332602202892303467e-01
8.465371131896972656e-01 -1.037545323371887207e+00 -2.894403636455535889e-01 1.577091366052627563e-01 -4.808038771152496338e-01 1.647892743349075317e-01 4.766957759857177734e-01 -2.481596916913986206e-01 9.526476263999938965e-02 2.692242264747619629e-01
-4.785397350788116455e-01 4.269783496856689453e-01 5.612668991088867188e-01 -5.858467891812324524e-02 6.631743311882019043e-01 -1.539994776248931885e-01 -2.034530341625213623e-01 4.742729961872100830e-01 -1.854444742202758789e-01 -9.180326014757156372e-02
8.504313975572586060e-02 -2.148407697677612305e-01 -5.223740935325622559e-01 5.433014631271362305e-01 -1.236451193690299988e-01 5.153660774230957031e-01 3.244744241237640381e-01 -3.671758174896240234e-01 2.216177880764007568e-01 -1.481575518846511841e-01
9.482046365737915039e-01 -9.762933254241943359e-01 -3.636204600334167480e-01 -8.192832767963409424e-02 -6.810614466667175293e-01 -4.829573258757591248e-02 1.021187663078308105e+00 -5.417904853820800781e-01 -2.721960246562957764e-01 7.275623083114624023e-02
1.544508058577775955e-02 -6.732514500617980957e-01 6.372237205505371094e-01 -8.154351115226745605e-01 3.251243755221366882e-02 -7.681847810745239258e-01 4.497795701026916504e-01 4.970296919345855713e-01 -6.953505277633666992e-01 2.298344969749450684e-01
-6.193382143974304199e-01 7.046492695808410645e-01 8.287812769412994385e-02 2.154208719730377197e-01 2.500865459442138672e-01 -3.931054770946502686e-01 -5.890508890151977539e-01 4.955220520496368408e-01 -1.643574088811874390e-01 -1.036645770072937012e-01
-5.527994632720947266e-01 4.604901075363159180e-01 6.388811469078063965e-01 -5.006697773933410645e-01 6.280204057693481445e-01 -1.550884842872619629e-01 -6.399298906326293945e-01 5.632128119468688965e-01 1.768832653760910034e-01 1.942868977785110474e-01
