6.598882079124450684e-01 4.948867559432983398e-01 -2.620930373668670654e-01 -5.181804895401000977e-01 -5.717676281929016113e-01 4.558327198028564453e-01 -5.362477898597717285e-01 -3.253474831581115723e-01 4.503504335880279541e-01 5.753417015075683594e-01
9.434658885002136230e-01 1.604292690753936768e-01 -4.873085319995880127e-01 -1.059041261672973633e+00 -2.814241051673889160e-01 5.619531869888305664e-01 -5.086112022399902344e-01 -5.246069431304931641e-01 1.907454729080200195e-01 5.961672067642211914e-01
-2.118947505950927734e+00 -9.283367991447448730e-01 7.124413847923278809e-01 9.291398525238037109e-01 8.021816611289978027e-01 -2.882758341729640961e-02 6.047291755676269531e-01 4.415438473224639893e-01 -1.162962079048156738e+00 4.653309881687164307e-01
-2.445956230163574219e+00 -1.280949354171752930e+00 4.366211891174316406e-01 2.247023344039916992e+00 1.266862511634826660e+00 -8.872651457786560059e-01 4.434610307216644287e-01 3.941687345504760742e-01 3.136800602078437805e-02 -2.729109823703765869e-01
-2.134441137313842773e-01 1.928620785474777222e-01 -3.556568324565887451e-01 7.024943362921476364e-03 -5.028370022773742676e-01 2.685435116291046143e-01 -6.997923254966735840e-01 -3.361226990818977356e-02 1.109277844429016113e+00 3.778027892112731934e-01
-6.357076168060302734e-01 -3.617853671312332153e-02 1.163493394851684570e-01 1.055533170700073242e+00 6.210532784461975098e-01 -3.202262520790100098e-01 4.008063971996307373e-01 -1.423700153827667236e-01 -4.496469795703887939e-01 -2.769794762134552002e-01
-1.304140448570251465e+00 -6.233839392662048340e-01 6.951718926429748535e-01 4.586023986339569092e-01 9.281703233718872070e-01 -6.092715263366699219e-01 3.670667111873626709e-01 8.096673339605331421e-02 1.688190996646881104e-01 -5.419650077819824219e-01
1.059688448905944824e+00 6.283066868782043457e-01 -2.119915038347244263e-01 -1.330063939094543457e+00 -6.749132275581359863e-01 8.700065612792968750e-01 -3.336769640445709229e-01 -6.100128889083862305e-01 2.557023763656616211e-01 5.998040437698364258e-01
-3.601105809211730957e-01 -9.550227969884872437e-02 -2.967508137226104736e-01 4.986175894737243652e-01 -3.285565078258514404e-01 6.420822441577911377e-02 -4.211491048336029053e-01 -1.456810832023620605e-01 -5.100803822278976440e-02 3.816664814949035645e-01
1.021177228540182114e-02 2.620791196823120117e-01 -2.460220605134963989e-01 -5.144531130790710449e-01 -7.525321841239929199e-01 5.261323228478431702e-02 -5.627948641777038574e-01 -1.592661291360855103e-01 -6.265659928321838379e-01 7.182859778404235840e-01
