-1.690465956926345825e-01 -4.432156085968017578e-01 5.024101734161376953e-01 -6.057205796241760254e-01 -4.215754568576812744e-02 -1.002154685556888580e-02 2.705549895763397217e-01 1.174596667289733887e+00 7.920275628566741943e-02 -1.401294767856597900e-01 5.343341231346130371e-01 -7.473198771476745605e-01 2.835022509098052979e-01 -8.156356960535049438e-02 -3.844132125377655029e-01 7.749572992324829102e-01 -5.580636262893676758e-01 -6.098055243492126465e-01 5.367414951324462891e-01 -4.719437658786773682e-01
4.676565900444984436e-02 6.556155532598495483e-02 -3.416055738925933838e-01 2.568036019802093506e-01 -3.476762175559997559e-01 2.221333794295787811e-02 1.693450510501861572e-01 -8.933375030755996704e-02 -2.355610430240631104e-01 1.420637220144271851e-01 1.506529897451400757e-01 4.193869829177856445e-01 2.330712229013442993e-01 -3.846547603607177734e-01 -4.847068712115287781e-02 -4.806732386350631714e-02 -2.189233899116516113e-01 -2.939104735851287842e-01 1.214269846677780151e-01 -8.072321116924285889e-02
1.192039623856544495e-01 2.142004966735839844e-01 -2.090379968285560608e-02 1.663729920983314514e-02 -4.074753820896148682e-01 1.515414565801620483e-01 -6.662335991859436035e-02 -1.927037164568901062e-02 -1.223442703485488892e-01 3.433175981044769287e-01 -7.905250787734985352e-02 2.871958613395690918e-01 2.341377735137939453e-01 -3.030978739261627197e-01 -3.150965273380279541e-01 -1.125854626297950745e-01 -3.684259355068206787e-01 -1.151836663484573364e-01 2.243501506745815277e-02 -7.385795563459396362e-02
-7.651127129793167114e-02 -3.746623694896697998e-01 2.609442472457885742e-01 -1.384980678558349609e-01 3.750708103179931641e-01 4.278481751680374146e-02 2.297665737569332123e-02 3.303747177124023438e-01 -5.566813796758651733e-02 -9.957879036664962769e-02 2.056415379047393799e-01 -6.574869751930236816e-01 -3.119680285453796387e-01 4.811221659183502197e-01 3.084417879581451416e-01 3.224783241748809814e-01 7.941935211420059204e-02 1.871783286333084106e-01 3.276237249374389648e-01 -3.315036892890930176e-01
-6.333430409431457520e-01 2.090032547712326050e-01 1.453672200441360474e-01 -4.363782405853271484e-01 -4.294349253177642822e-02 -3.646422922611236572e-01 -3.532089293003082275e-01 -1.039514899253845215e+00 1.084171980619430542e-01 1.537723988294601440e-01 4.459710121154785156e-01 8.033236265182495117e-01 -3.214599192142486572e-01 -3.779959515668451786e-04 -1.821534521877765656e-02 -5.767840519547462463e-02 4.721070230007171631e-01 -1.977505721151828766e-02 -3.170427978038787842e-01 3.868645429611206055e-01
1.546412147581577301e-02 -4.070118367671966553e-01 1.210374459624290466e-01 -6.533820182085037231e-02 1.877906471490859985e-01 -2.908224165439605713e-01 -1.675091087818145752e-01 3.951900601387023926e-01 1.884962171316146851e-01 -1.684511601924896240e-01 -8.870165050029754639e-02 -9.187567979097366333e-02 -8.588363975286483765e-02 3.544370234012603760e-01 -3.138154745101928711e-02 6.170978397130966187e-02 -4.878843575716018677e-02 1.497786492109298706e-01 -1.276110112667083740e-01 -2.973166108131408691e-01
3.858141899108886719e-01 2.527590692043304443e-01 -2.919669747352600098e-01 2.993202805519104004e-01 -4.359892606735229492e-01 -3.774120286107063293e-02 -2.339120768010616302e-02 -3.702943921089172363e-01 -2.626135647296905518e-01 8.354426920413970947e-02 -3.109907209873199463e-01 4.500153362751007080e-01 1.576178222894668579e-01 -4.622355699539184570e-01 -3.259733021259307861e-01 -1.757710576057434082e-01 4.251523315906524658e-02 6.547398120164871216e-02 8.559479564428329468e-02 9.433849900960922241e-02
2.823512554168701172e-01 1.662634164094924927e-01 -1.157971173524856567e-01 1.809194386005401611e-01 -2.188601642847061157e-01 1.157687082886695862e-01 4.489732161164283752e-02 5.908888950943946838e-02 -3.389014601707458496e-01 1.961488127708435059e-01 -2.282503843307495117e-01 4.513381049036979675e-02 4.625588655471801758e-01 -3.805979192256927490e-01 -3.385390639305114746e-01 -8.122407644987106323e-02 -2.820690274238586426e-01 3.567497804760932922e-02 1.586495488882064819e-01 1.758401989936828613e-01
-7.746249437332153320e-01 -1.772787570953369141e-01 4.218433201313018799e-01 -7.274447083473205566e-01 -1.471042484045028687e-01 -3.668628334999084473e-01 -4.638192057609558105e-01 -2.712589502334594727e-01 2.438047826290130615e-01 3.364629447460174561e-01 1.084228277206420898e+00 7.078414559364318848e-01 -3.099645674228668213e-01 -1.171526908874511719e-01 -5.207276344299316406e-01 5.339722633361816406e-01 1.576655656099319458e-01 -2.794789969921112061e-01 2.434403896331787109e-01 -2.815304398536682129e-01
2.143132686614990234e-01 1.424479782581329346e-01 4.732306301593780518e-02 2.367781847715377808e-01 -3.052757382392883301e-01 5.487431213259696960e-02 1.997715234756469727e-01 2.164566665887832642e-01 -7.939246296882629395e-02 3.342217206954956055e-01 -1.666275560855865479e-01 -1.386253237724304199e-01 3.135524094104766846e-01 -2.262513190507888794e-01 -3.227041363716125488e-01 -2.100704163312911987e-01 -4.002988934516906738e-01 -5.314815640449523926e-01 2.399957031011581421e-01 -1.384371519088745117e-01
3.043605983257293701e-01 2.972361147403717041e-01 -3.702829480171203613e-01 1.656298190355300903e-01 -3.442908525466918945e-01 1.357683390378952026e-01 1.921681612730026245e-01 -4.445577859878540039e-01 -3.243858814239501953e-01 3.698649108409881592e-01 -2.098201811313629150e-01 3.651698231697082520e-01 4.291087985038757324e-01 -4.770417809486389160e-01 -9.921050816774368286e-02 -2.814526259899139404e-01 -1.775665134191513062e-01 7.771635055541992188e-02 -1.881761252880096436e-01 7.043841481208801270e-02
-2.183682918548583984e-01 -1.740320771932601929e-01 4.291728138923645020e-01 -9.052137285470962524e-02 1.533105671405792236e-01 -3.981911540031433105e-01 -3.205605447292327881e-01 -3.857706785202026367e-01 6.159088760614395142e-02 1.906586810946464539e-02 1.059962734580039978e-01 3.405584990978240967e-01 -4.001756310462951660e-01 3.545726239681243896e-01 1.295397132635116577e-01 1.858693659305572510e-01 4.035189151763916016e-01 2.439486831426620483e-01 -3.561422824859619141e-01 2.530083358287811279e-01
6.776189059019088745e-02 1.468006819486618042e-01 -2.115438729524612427e-01 -3.177928552031517029e-02 -3.231770917773246765e-02 3.053807020187377930e-01 2.587861120700836182e-01 3.802429437637329102e-01 -1.425881087779998779e-01 2.775189280509948730e-01 -3.326708078384399414e-01 -1.644270271062850952e-01 3.096943497657775879e-01 -2.206486910581588745e-01 -1.711990237236022949e-01 -2.587285041809082031e-01 -3.019792139530181885e-01 -3.591399490833282471e-01 3.047234117984771729e-01 -1.743191182613372803e-01
3.026485443115234375e-01 3.860283792018890381e-01 -7.408209890127182007e-02 8.547548204660415649e-02 -4.460347890853881836e-01 1.830256879329681396e-01 2.774827778339385986e-01 -8.145885169506072998e-02 -1.323662549257278442e-01 -1.287092803977429867e-03 -1.595535278320312500e-01 3.852598965167999268e-01 2.913295924663543701e-01 -4.028909504413604736e-01 -3.003191053867340088e-01 -1.744012683629989624e-01 -9.295131266117095947e-02 -1.672333180904388428e-01 1.612468436360359192e-02 -1.924256384372711182e-01
-5.794518589973449707e-01 -7.298618555068969727e-01 5.542295575141906738e-01 -3.513251841068267822e-01 -5.844251438975334167e-02 -8.485538959503173828e-01 -3.488731086254119873e-01 5.589137077331542969e-01 5.957078933715820312e-01 -3.122275471687316895e-01 2.696285247802734375e-01 1.308932155370712280e-01 9.221764206886291504e-01 -1.013327836990356445e+00 5.845078229904174805e-01 6.306998133659362793e-01 3.222691714763641357e-01 -8.691344857215881348e-01 9.324125945568084717e-02 -1.955639421939849854e-01
1.624765396118164062e-01 4.100152254104614258e-01 -8.456228673458099365e-02 2.658115327358245850e-01 -3.558581173419952393e-01 -1.303689926862716675e-01 9.776730835437774658e-02 -2.904921770095825195e-01 -2.119775712490081787e-01 3.916352987289428711e-01 -5.717856436967849731e-02 3.721956312656402588e-01 1.666308790445327759e-01 -2.786929607391357422e-01 3.957310691475868225e-03 -2.035157233476638794e-01 -2.638125717639923096e-01 1.691990494728088379e-01 -6.663814187049865723e-02 -5.959403142333030701e-02
-1.256209909915924072e-01 -2.282838970422744751e-01 3.562722206115722656e-01 -1.021372377872467041e-01 3.701803088188171387e-01 -2.312306128442287445e-02 -2.285942137241363525e-01 3.444952964782714844e-01 6.693331897258758545e-02 -1.536328345537185669e-01 2.063181623816490173e-02 -4.599839150905609131e-01 -1.153874546289443970e-01 1.083963736891746521e-01 1.355293542146682739e-01 2.689865529537200928e-01 2.756259143352508545e-01 1.420502066612243652e-01 1.062424555420875549e-01 5.929910764098167419e-02
2.508432865142822266e-01 -2.235413640737533569e-01 -2.144277095794677734e-01 2.511396706104278564e-01 -1.181719452142715454e-01 3.526794165372848511e-02 5.239607691764831543e-01 9.189707636833190918e-01 8.252520929090678692e-04 -2.606735229492187500e-01 -2.578801512718200684e-01 -9.996201992034912109e-01 6.502030491828918457e-01 -5.438464879989624023e-01 2.434569746255874634e-01 -2.874986454844474792e-02 -5.979515910148620605e-01 -5.002299547195434570e-01 1.070736870169639587e-01 -1.430328786373138428e-01
-2.261557430028915405e-01 -5.896149873733520508e-01 5.136527419090270996e-01 -6.167839169502258301e-01 2.980200946331024170e-01 -1.653152853250503540e-01 -3.855280876159667969e-01 6.643912792205810547e-01 3.264302611351013184e-01 -2.588115334510803223e-01 -7.453509420156478882e-02 -9.049957990646362305e-01 1.830885261297225952e-01 -5.319560877978801727e-03 4.124690294265747070e-01 4.871458113193511963e-01 -1.140947570092976093e-03 -4.212112724781036377e-01 2.775513529777526855e-01 -1.906721144914627075e-01
-9.354099631309509277e-02 -5.123684406280517578e-01 8.820765465497970581e-02 -5.041524767875671387e-01 7.965290546417236328e-02 -3.502245545387268066e-01 -5.071736574172973633e-01 4.802105128765106201e-01 2.533448934555053711e-01 -3.002589344978332520e-01 3.322069644927978516e-01 -2.141429781913757324e-01 -8.328666538000106812e-02 4.219977185130119324e-02 2.722268998622894287e-01 2.310265749692916870e-01 1.542256474494934082e-01 -2.042686790227890015e-01 2.241710424423217773e-01 -7.489508483558893204e-03
