1.136061623692512512e-01 4.257620871067047119e-01 1.932369619607925415e-01 -1.282760798931121826e-01 3.711479008197784424e-01 -6.059278249740600586e-01 -6.787565350532531738e-01 8.890296816825866699e-01 -1.021498918533325195e+00 -1.179482221603393555e+00 -1.377953052520751953e+00 -7.125399112701416016e-01 -8.342814445495605469e-01 -1.295254468917846680e+00 1.105772972106933594e+00 1.434261202812194824e+00 -6.867721080780029297e-01 8.062455803155899048e-02 2.116709351539611816e-01 -6.485064029693603516e-01
6.623137742280960083e-02 8.439201116561889648e-02 3.467043042182922363e-01 -1.508233696222305298e-01 5.423603951930999756e-02 1.227313503623008728e-01 -1.572410948574542999e-02 4.306560158729553223e-01 -2.383334785699844360e-01 -1.167014092206954956e-01 -5.003466084599494934e-02 1.405610293149948120e-01 -3.422183990478515625e-01 -1.082018166780471802e-01 2.357516586780548096e-01 1.840927600860595703e-01 -3.213226422667503357e-02 2.306112945079803467e-01 3.465119376778602600e-02 -1.507003158330917358e-01
4.169527888298034668e-01 3.820183873176574707e-02 3.191173821687698364e-02 -3.395294249057769775e-01 -2.377327084541320801e-01 3.050780296325683594e-01 -4.569655954837799072e-01 4.656311869621276855e-01 -2.147698700428009033e-01 -1.568264961242675781e-01 -4.368763044476509094e-02 2.840463221073150635e-01 -4.756539463996887207e-01 -2.390942722558975220e-01 4.227626025676727295e-01 2.903783619403839111e-01 -3.539673686027526855e-01 1.963309794664382935e-01 -1.114786341786384583e-01 -8.480017632246017456e-02
-4.624319970607757568e-01 -5.183719396591186523e-01 -2.530524134635925293e-01 5.502302646636962891e-01 9.024236351251602173e-02 -1.300285756587982178e-01 1.720018237829208374e-01 -4.354662299156188965e-01 3.032504320144653320e-01 4.216878414154052734e-01 2.722123265266418457e-01 -4.428301751613616943e-01 3.487464487552642822e-01 2.214028537273406982e-01 -5.307686328887939453e-01 -1.041408702731132507e-01 -4.068192541599273682e-01 5.070770978927612305e-01 1.037743806838989258e+00 2.801741659641265869e-01
2.957489788532257080e-01 5.238668918609619141e-01 4.402174353599548340e-01 -2.069043517112731934e-01 -2.579561173915863037e-01 6.998338550329208374e-02 -2.548994421958923340e-01 4.371198117733001709e-01 -5.286930799484252930e-01 -8.037002086639404297e-01 4.154670238494873047e-01 4.848505258560180664e-01 -3.941648900508880615e-01 -4.058256745338439941e-01 -6.435186862945556641e-01 -8.785507678985595703e-01 6.279523372650146484e-01 -1.859914898872375488e+00 -7.798437476158142090e-01 -1.495615005493164062e+00
-2.106167227029800415e-01 -2.713509369641542435e-03 -5.570142716169357300e-02 2.776755690574645996e-01 1.490457057952880859e-01 1.462371796369552612e-01 9.977124631404876709e-02 -1.830585598945617676e-01 4.648403823375701904e-01 4.087187945842742920e-01 4.203894436359405518e-01 -1.079780980944633484e-02 2.827914655208587646e-01 3.000988960266113281e-01 -3.556171655654907227e-01 -2.703645229339599609e-01 -2.369000017642974854e-02 1.514937132596969604e-01 4.023247957229614258e-02 3.193698227405548096e-01
4.509181156754493713e-02 8.097504079341888428e-02 2.811344265937805176e-01 -1.348174177110195160e-02 -2.422991693019866943e-01 1.937578022480010986e-01 -2.367912828922271729e-01 1.131951157003641129e-02 -4.181452989578247070e-01 -4.531076550483703613e-01 -8.515527471899986267e-03 1.012488231062889099e-01 -2.741998136043548584e-01 -2.956851422786712646e-01 1.057058647274971008e-01 8.607165515422821045e-02 -3.955414891242980957e-02 7.743556052446365356e-02 -4.007419943809509277e-02 -2.058184444904327393e-01
3.430710732936859131e-01 -4.774466156959533691e-02 7.089371979236602783e-02 -2.033756077289581299e-01 -6.449010223150253296e-02 2.807331085205078125e-01 -1.038719192147254944e-01 2.697674036026000977e-01 -1.937895566225051880e-01 -2.676698863506317139e-01 -7.665556669235229492e-02 1.504820138216018677e-01 -2.748950123786926270e-01 -5.240838974714279175e-02 1.827145814895629883e-01 4.262398481369018555e-01 -1.128126159310340881e-01 -2.344228476285934448e-01 -3.742963820695877075e-02 -2.472653388977050781e-01
2.733121514320373535e-01 -1.064498573541641235e-01 -1.443505436182022095e-01 -8.874983340501785278e-02 4.190074652433395386e-02 -1.935021728277206421e-01 -4.384542405605316162e-01 -7.823409140110015869e-02 -9.017695486545562744e-02 -1.060307025909423828e+00 2.338518947362899780e-01 1.450624018907546997e-01 8.497558534145355225e-02 5.281060934066772461e-02 -9.103138446807861328e-01 -1.347991466522216797e+00 2.528955698013305664e+00 -3.553440809249877930e+00 -2.604211568832397461e+00 -4.548444271087646484e+00
2.434171289205551147e-01 8.791086822748184204e-02 1.046058386564254761e-01 -2.222207188606262207e-01 3.403779119253158569e-02 -1.563223451375961304e-01 -2.403336763381958008e-01 3.486765623092651367e-01 -1.563277542591094971e-01 -3.864758014678955078e-01 -3.383574485778808594e-01 -8.440675586462020874e-02 -9.379313141107559204e-02 -2.742656469345092773e-01 2.926800847053527832e-01 4.409651756286621094e-01 -5.911539867520332336e-02 -6.239024922251701355e-03 -2.302606552839279175e-01 -5.448120459914207458e-02
4.691893756389617920e-01 2.277627289295196533e-01 4.151811599731445312e-01 -3.859283626079559326e-01 -2.577443718910217285e-01 1.199538484215736389e-01 -3.979794681072235107e-01 8.967004716396331787e-02 -2.829023599624633789e-01 -4.085524678230285645e-01 -6.099982932209968567e-02 3.349077403545379639e-01 -4.198480546474456787e-01 -9.340364485979080200e-02 -9.645581245422363281e-02 3.445113301277160645e-01 -6.014769151806831360e-02 -6.315156817436218262e-02 -4.482258856296539307e-01 -1.512683629989624023e-01
-4.654068872332572937e-02 1.553886681795120239e-01 -9.024699777364730835e-02 2.137970551848411560e-02 -4.508163779973983765e-02 2.591637074947357178e-01 -2.256928682327270508e-01 -7.901985943317413330e-02 -1.472008675336837769e-01 -1.370625644922256470e-01 1.751294136047363281e-01 3.985673189163208008e-01 -4.261747002601623535e-02 1.349764019250869751e-01 -5.113745927810668945e-01 -2.582278847694396973e-01 -8.117653429508209229e-02 -9.581360220909118652e-02 4.223907738924026489e-02 -1.184835806488990784e-01
1.255813837051391602e-01 2.703020572662353516e-01 -7.499242573976516724e-02 5.100808292627334595e-02 -8.454550057649612427e-03 1.017472669482231140e-01 -1.119632571935653687e-01 -1.416616439819335938e-01 -3.095784485340118408e-01 -6.344261765480041504e-02 -3.068397939205169678e-01 -1.261140108108520508e-01 -2.242037355899810791e-01 -3.857249617576599121e-01 1.344420909881591797e-01 3.831211030483245850e-01 -3.894203156232833862e-02 -2.378212809562683105e-01 3.965426981449127197e-02 4.997391998767852783e-02
1.268586516380310059e-01 3.231347501277923584e-01 2.178597599267959595e-01 3.472385182976722717e-02 -1.534421443939208984e-01 1.414596289396286011e-01 -4.277712702751159668e-01 1.006338074803352356e-01 -3.354981541633605957e-02 -4.495250582695007324e-01 -3.451232314109802246e-01 1.579751670360565186e-01 -3.622951805591583252e-01 -4.371322095394134521e-01 2.105847746133804321e-02 3.384552597999572754e-01 -9.997984021902084351e-02 2.972636520862579346e-01 -3.108963556587696075e-02 -2.753497660160064697e-01
-9.984467178583145142e-02 -2.922365367412567139e-01 -4.761989712715148926e-01 2.349904626607894897e-01 -5.327474325895309448e-02 1.433033496141433716e-01 6.263747811317443848e-01 -5.652899742126464844e-01 9.318303465843200684e-01 1.534715533256530762e+00 7.057574391365051270e-01 4.788527190685272217e-01 9.002612233161926270e-01 1.038189530372619629e+00 -1.551626086235046387e+00 -1.525438189506530762e+00 2.226159811019897461e+00 -1.918106317520141602e+00 -1.545305848121643066e+00 -1.014188885688781738e+00
5.507775396108627319e-02 3.460485637187957764e-01 1.014201790094375610e-01 -2.644871473312377930e-01 -2.341883629560470581e-01 4.231849312782287598e-02 -1.085022836923599243e-01 2.014347314834594727e-01 -4.588821828365325928e-01 -2.066508233547210693e-01 -5.984332039952278137e-02 -3.941626846790313721e-02 -2.227528840303421021e-01 -2.383171170949935913e-01 1.076542139053344727e-01 4.500497505068778992e-02 -6.633735448122024536e-02 -3.500709310173988342e-02 1.435061097145080566e-01 -9.019537270069122314e-02
1.304060034453868866e-02 1.432914473116397858e-02 -1.119211092591285706e-01 -5.255979672074317932e-02 1.652420163154602051e-01 -1.272293627262115479e-01 8.089055866003036499e-02 -3.312517106533050537e-01 4.377852082252502441e-01 2.710360586643218994e-01 2.254989743232727051e-01 3.103024363517761230e-01 3.541957437992095947e-01 5.619725584983825684e-01 -5.293405055999755859e-01 -3.721743822097778320e-01 1.116162315011024475e-01 3.746354281902313232e-01 4.978629201650619507e-02 5.293881893157958984e-01
-1.092720851302146912e-01 4.859632626175880432e-02 3.193238377571105957e-01 -3.250634372234344482e-01 1.144946217536926270e-01 -1.172445341944694519e-01 -4.768154323101043701e-01 2.802418470382690430e-01 -3.840344846248626709e-01 -6.474006772041320801e-01 -8.978855609893798828e-01 -1.258655339479446411e-01 -5.278179049491882324e-01 -5.337304472923278809e-01 6.779858469963073730e-01 7.219990491867065430e-01 -1.904922276735305786e-01 -9.657506346702575684e-01 -7.018032073974609375e-01 -5.430188775062561035e-01
-2.093063890933990479e-01 -4.193187057971954346e-01 -4.980235695838928223e-01 2.064195126295089722e-01 7.875697314739227295e-02 4.888895899057388306e-02 6.786910295486450195e-01 -6.976965069770812988e-01 5.078621506690979004e-01 8.969649672508239746e-01 7.965303659439086914e-01 1.475119590759277344e-01 8.750512003898620605e-01 5.775297880172729492e-01 -8.540502786636352539e-01 -7.790645360946655273e-01 5.311330556869506836e-01 -7.819134742021560669e-02 9.166862815618515015e-02 3.608190119266510010e-01
7.153301686048507690e-02 -1.355150640010833740e-01 -5.990456044673919678e-02 3.506236970424652100e-01 1.715723872184753418e-01 -1.629856228828430176e-01 3.235726952552795410e-01 -6.322209537029266357e-02 3.524640798568725586e-01 3.523827493190765381e-01 3.367808163166046143e-01 1.611911356449127197e-01 6.108586788177490234e-01 4.475287795066833496e-01 -4.589511752128601074e-01 -3.698883056640625000e-01 3.259025216102600098e-01 9.189324826002120972e-02 -5.941547453403472900e-02 2.194904237985610962e-01
