4.268139600753784180e-01 6.424781084060668945e-01 -9.477621316909790039e-01 -5.267168283462524414e-01 -4.468573629856109619e-01 -3.531893789768218994e-01 2.812037765979766846e-01 -1.218070792674552649e-05 -1.370900988578796387e+00 5.745411515235900879e-01
7.965006679296493530e-02 -3.228897750377655029e-01 5.894100666046142578e-01 -5.779099464416503906e-02 -1.142247691750526428e-01 3.717325925827026367e-01 -1.487803757190704346e-01 -4.908575713634490967e-01 -1.518598496913909912e-01 3.178845718502998352e-02
3.513024747371673584e-01 -2.520547509193420410e-01 3.519513905048370361e-01 4.211064577102661133e-01 4.692852795124053955e-01 4.973597526550292969e-01 -1.504583656787872314e-01 -5.125116109848022461e-01 -4.742231965065002441e-01 -2.743733860552310944e-02
-5.166587233543395996e-01 4.297135174274444580e-01 2.376700937747955322e-02 -6.050412654876708984e-01 -4.828564524650573730e-01 -7.350435107946395874e-02 3.895571231842041016e-01 2.150887846946716309e-01 5.711185932159423828e-01 -4.549710080027580261e-02
5.884283781051635742e-01 -1.809626817703247070e-01 6.262112259864807129e-01 -4.259091913700103760e-01 -8.930057287216186523e-02 7.148277163505554199e-01 -4.589923024177551270e-01 -7.045519948005676270e-01 -1.122667312622070312e+00 7.543343305587768555e-01
1.697918027639389038e-01 -3.531283140182495117e-01 1.595142632722854614e-01 4.345678687095642090e-01 5.270797610282897949e-01 4.280282258987426758e-01 -1.865593940019607544e-01 -2.777789831161499023e-01 -3.535672649741172791e-02 1.278743296861648560e-01
-1.179225146770477295e-01 3.639390468597412109e-01 2.025363445281982422e-01 -8.892917633056640625e-01 -3.854803442955017090e-01 1.378536820411682129e-01 -3.209018111228942871e-01 -1.473236680030822754e-01 2.424139976501464844e-01 -1.001898720860481262e-01
-6.434297561645507812e-01 3.058461248874664307e-01 3.991718590259552002e-01 -5.491211414337158203e-01 -7.502548098564147949e-01 1.955062896013259888e-01 -2.261147648096084595e-01 -2.840233147144317627e-01 1.115808486938476562e+00 -6.172901391983032227e-01
-5.509890913963317871e-01 5.196695923805236816e-01 9.640696644783020020e-02 -2.696308791637420654e-01 -7.579921483993530273e-01 -1.348613649606704712e-01 -1.370578557252883911e-01 1.030360609292984009e-01 5.142614841461181641e-01 -1.557612270116806030e-01
4.165048003196716309e-01 -7.702108025550842285e-01 5.166829228401184082e-01 1.036414980888366699e+00 6.515237092971801758e-01 -4.867067560553550720e-02 1.380999237298965454e-01 -2.120359987020492554e-01 3.816928863525390625e-01 -5.830966234207153320e-01
