-8.039892911911010742e-01 -9.898928999900817871e-01 5.760754346847534180e-01 5.673314929008483887e-01 -1.823945164680480957e+00 2.393272161483764648e+00 1.643679738044738770e+00 -1.919980496168136597e-01 2.793872952461242676e-01 -5.562945827841758728e-02
2.849426269531250000e-01 4.703736901283264160e-01 -1.392968893051147461e-01 8.429282903671264648e-02 7.802363634109497070e-01 -8.430135250091552734e-01 -9.212501645088195801e-01 7.801277637481689453e-01 -5.964947342872619629e-01 5.758723616600036621e-01
8.118816465139389038e-02 8.211392909288406372e-02 1.781340390443801880e-01 4.489837288856506348e-01 4.551925957202911377e-01 -6.297684907913208008e-01 -3.526417315006256104e-01 6.077802181243896484e-01 -3.143241405487060547e-01 3.385680615901947021e-01
-3.782814443111419678e-01 -6.292562484741210938e-01 -2.610787749290466309e-01 -2.794848978519439697e-01 -5.904651880264282227e-01 5.431233346462249756e-02 8.955018520355224609e-01 -4.449663758277893066e-01 6.195386648178100586e-01 -1.845421642065048218e-01
6.613869071006774902e-01 6.591203808784484863e-01 -1.769272261299192905e-03 2.734122574329376221e-01 1.408338665962219238e+00 -1.045499086380004883e+00 -1.009582519531250000e+00 5.728006958961486816e-01 -3.799734413623809814e-01 1.059139445424079895e-01
5.249946117401123047e-01 3.876602053642272949e-01 6.598687767982482910e-01 1.254154086112976074e+00 1.678878664970397949e-01 -8.821454830467700958e-03 -5.492566227912902832e-01 6.883375644683837891e-01 -1.047337651252746582e-01 6.796575337648391724e-02
-6.443706154823303223e-02 -5.945430994033813477e-01 1.307297050952911377e-01 6.727120280265808105e-02 -6.781336665153503418e-01 9.218834340572357178e-02 1.359789967536926270e+00 -7.565695047378540039e-02 4.318490624427795410e-01 -6.791043877601623535e-01
-6.770176440477371216e-02 -4.924697279930114746e-01 1.008527994155883789e+00 9.518817663192749023e-01 -2.012421607971191406e+00 9.048666357994079590e-01 1.964097619056701660e+00 -4.999352097511291504e-01 8.012146949768066406e-01 -1.386304020881652832e+00
4.429240152239799500e-02 -1.464810520410537720e-01 7.346495389938354492e-01 4.876280725002288818e-01 -1.366549253463745117e+00 1.055062890052795410e+00 1.095762848854064941e+00 -7.899877429008483887e-01 4.348701834678649902e-01 -8.954299688339233398e-01
4.355465769767761230e-01 4.828179776668548584e-01 9.199432730674743652e-01 5.811479091644287109e-01 -5.199414491653442383e-01 5.367716550827026367e-01 -3.410601615905761719e-01 5.494970083236694336e-01 -6.610505580902099609e-01 5.465789437294006348e-01
