-2.752023935317993164e-01 -4.265691936016082764e-01 7.933859825134277344e-01 -7.689777016639709473e-01 2.658603191375732422e-01 -8.548603951930999756e-02 -5.584927741438150406e-03 -1.482450217008590698e-01 5.157051980495452881e-02 -9.945315867662429810e-02
8.508253842592239380e-02 -6.421273946762084961e-02 -5.298799276351928711e-01 3.513818979263305664e-01 -2.413488477468490601e-01 -3.934801518917083740e-01 1.890678554773330688e-01 -1.895705610513687134e-01 -1.047418862581253052e-01 5.689590051770210266e-02
4.879780709743499756e-01 3.737918436527252197e-01 -4.127154648303985596e-01 6.187664270401000977e-01 -4.069507122039794922e-02 -2.037859857082366943e-01 2.701021730899810791e-01 -4.770325124263763428e-01 -1.817014515399932861e-01 -1.129593774676322937e-01
4.180852472782135010e-01 3.572035431861877441e-01 -4.217089116573333740e-01 5.734376311302185059e-01 -4.661436975002288818e-01 2.814193069934844971e-01 3.126213550567626953e-01 1.418069750070571899e-01 1.896962225437164307e-01 3.260426223278045654e-01
-3.049511313438415527e-01 -6.102488636970520020e-01 1.159927770495414734e-01 -2.909646928310394287e-01 3.142460584640502930e-01 7.532642781734466553e-02 -4.169544279575347900e-01 3.805628418922424316e-01 1.454229950904846191e-01 6.612594425678253174e-02
-4.009497761726379395e-01 -5.785703063011169434e-01 -5.218544229865074158e-02 -3.104289248585700989e-02 5.517251491546630859e-01 3.636652827262878418e-01 -4.965881407260894775e-01 4.613136649131774902e-01 4.885052517056465149e-02 1.057034581899642944e-01
-4.872188270092010498e-01 -4.287527203559875488e-01 5.460806488990783691e-01 -5.671346783638000488e-01 3.676626980304718018e-01 3.908699154853820801e-01 -5.730758309364318848e-01 5.003784894943237305e-01 1.683841794729232788e-01 2.119325846433639526e-01
-4.475931823253631592e-01 -1.331650931388139725e-02 6.040183901786804199e-01 -1.000988557934761047e-01 5.881651639938354492e-01 4.668158590793609619e-01 -7.214906215667724609e-01 3.749988079071044922e-01 5.388039723038673401e-02 5.771361589431762695e-01
1.214334130287170410e+00 -4.774177372455596924e-01 -1.228652596473693848e-01 9.436525702476501465e-01 2.178897261619567871e-01 -6.222429275512695312e-01 1.747553050518035889e-01 1.943972110748291016e-01 6.525552868843078613e-01 9.235675334930419922e-01
4.828303456306457520e-01 -3.678558170795440674e-01 8.140347003936767578e-01 -7.391529083251953125e-01 -4.212054610252380371e-02 -7.927004694938659668e-01 7.964181900024414062e-01 -1.318860411643981934e+00 -4.249527156352996826e-01 -5.236555337905883789e-01
