-6.118450760841369629e-01 -5.301956534385681152e-01 2.103000730276107788e-01 1.951864659786224365e-01 -6.325666904449462891e-01 3.588632941246032715e-01 1.682205051183700562e-01 -1.199640929698944092e-01 -6.825613379478454590e-01 8.181027173995971680e-01
-1.540205627679824829e-01 3.150501847267150879e-01 -1.174995899200439453e-01 -3.611574172973632812e-01 -3.767417967319488525e-01 -5.943682789802551270e-01 -6.876332163810729980e-01 1.054515838623046875e+00 3.818021714687347412e-01 -8.754844218492507935e-02
1.100084558129310608e-01 2.511836774647235870e-02 -2.027213722467422485e-01 -3.572971522808074951e-01 -8.152854442596435547e-02 -3.704801201820373535e-01 -7.171742916107177734e-01 1.247170448303222656e+00 5.494562983512878418e-01 1.172478590160608292e-02
5.482172369956970215e-01 4.720965027809143066e-01 -1.865949332714080811e-01 -2.539503872394561768e-01 3.503900766372680664e-01 -9.743107557296752930e-01 -3.605593740940093994e-01 7.081646323204040527e-01 3.505221381783485413e-02 -2.570167779922485352e-01
-1.972162723541259766e-01 -4.835835993289947510e-01 4.448109567165374756e-01 4.044348299503326416e-01 1.542167365550994873e-01 3.058305382728576660e-01 5.504170656204223633e-01 -2.355773150920867920e-01 -6.049839407205581665e-02 2.624408006668090820e-01
-1.432995200157165527e-01 -4.965427219867706299e-01 2.398491464555263519e-02 5.567345619201660156e-01 -2.654030025005340576e-01 6.918241381645202637e-01 4.179548025131225586e-01 -5.462079644203186035e-01 7.881823778152465820e-01 -9.909981489181518555e-02
-3.445453047752380371e-01 -3.803532943129539490e-02 2.307177782058715820e-01 6.234803795814514160e-01 -1.985451728105545044e-01 6.843577623367309570e-01 7.284755110740661621e-01 -5.206109285354614258e-01 -4.907544851303100586e-01 3.294389247894287109e-01
-1.422201693058013916e-01 -4.086993336677551270e-01 1.065498962998390198e-02 7.616295814514160156e-01 2.175961285829544067e-01 6.405267119407653809e-01 8.520673513412475586e-01 -9.838812351226806641e-01 -3.845788538455963135e-01 5.000167489051818848e-01
8.407688885927200317e-02 -2.282533645629882812e-01 -2.591361999511718750e-01 -2.465223312377929688e+00 -8.996012210845947266e-01 -3.950812578201293945e+00 -2.082979202270507812e+00 3.157305479049682617e+00 -3.150257825851440430e+00 1.549108147621154785e+00
-1.446815580129623413e-01 -6.354712843894958496e-01 5.718645453453063965e-01 -6.396093368530273438e-01 -9.409804940223693848e-01 -1.741868495941162109e+00 -1.093024730682373047e+00 -7.018927484750747681e-02 -2.244072437286376953e+00 1.638096094131469727e+00
