-6.443331241607666016e-01 -2.750139832496643066e-01 1.832012385129928589e-01 1.025233604013919830e-02 5.101320147514343262e-01 -4.702956974506378174e-01 6.929951906204223633e-01 3.066297769546508789e-01 2.105178087949752808e-01 -1.543987095355987549e-01
3.501667380332946777e-01 -9.191499948501586914e-01 3.154362738132476807e-01 4.259810149669647217e-01 -4.101837873458862305e-01 -2.366014569997787476e-01 -6.979683786630630493e-02 -1.017246618866920471e-01 1.317539215087890625e-01 -8.486795425415039062e-02
7.084596753120422363e-01 6.260919570922851562e-01 -1.133513689041137695e+00 1.335633754730224609e+00 -1.676769852638244629e-01 8.256267309188842773e-01 -3.752679228782653809e-01 4.673611521720886230e-01 3.675857484340667725e-01 -3.329530358314514160e-01
-1.846076846122741699e-01 -4.949174225330352783e-01 6.549314260482788086e-01 -4.255103766918182373e-01 -9.751257486641407013e-03 -6.825345158576965332e-01 5.568310022354125977e-01 -3.338572755455970764e-02 -3.149965703487396240e-01 8.629038184881210327e-02
-5.615788102149963379e-01 6.003580689430236816e-01 -7.796930074691772461e-01 -1.279324889183044434e-01 7.628012299537658691e-01 -2.083556652069091797e-01 6.896193027496337891e-01 8.732132911682128906e-01 9.405443072319030762e-02 -3.786500692367553711e-01
-3.926046788692474365e-01 -3.453617990016937256e-01 2.670087218284606934e-01 -2.747929990291595459e-01 5.235411971807479858e-02 -2.572024762630462646e-01 2.348280102014541626e-01 -3.658896982669830322e-01 9.256653487682342529e-02 1.277083903551101685e-01
4.114906489849090576e-01 6.443474888801574707e-01 -4.784895777702331543e-01 -1.473927199840545654e-01 -3.230887055397033691e-01 4.974404275417327881e-01 -2.655132412910461426e-01 -1.096508800983428955e-01 -2.761039137840270996e-01 1.888987421989440918e-01
6.244532018899917603e-02 9.865579605102539062e-01 -6.401129364967346191e-01 -6.517989635467529297e-01 2.625592947006225586e-01 -1.699777087196707726e-03 -2.903146147727966309e-01 8.701229095458984375e-02 -2.449565976858139038e-01 1.202437579631805420e-01
-3.835095465183258057e-01 -1.867563426494598389e-01 1.487840861082077026e-01 1.290917843580245972e-01 -6.579204648733139038e-02 -5.018634796142578125e-01 4.923803806304931641e-01 2.612253427505493164e-01 -3.888384252786636353e-02 -3.959646522998809814e-01
-5.545597076416015625e-01 -6.149610877037048340e-01 5.881922245025634766e-01 -9.063948690891265869e-02 2.880562543869018555e-01 -3.522694110870361328e-01 5.760356187820434570e-01 3.953979611396789551e-01 3.100579679012298584e-01 7.770836353302001953e-02
