-5.507893562316894531e-01 9.237711876630783081e-02 8.642110824584960938e-01 -3.710485398769378662e-01 -3.194490373134613037e-01 -4.806321859359741211e-01 -5.315292477607727051e-01 8.268474936485290527e-01 -1.460008621215820312e-01 5.337947607040405273e-01
-2.465859502553939819e-01 1.278856582939624786e-02 1.229719147086143494e-01 7.534948587417602539e-01 1.505167365074157715e+00 -1.229908019304275513e-01 -2.381689101457595825e-02 -1.806767463684082031e+00 -2.735113203525543213e-01 3.013706505298614502e-01
-2.036076039075851440e-01 -2.005053907632827759e-01 -9.031463265419006348e-01 1.875259280204772949e+00 1.804958701133728027e+00 -4.733262956142425537e-01 5.264486074447631836e-01 -2.093538761138916016e+00 2.054433077573776245e-01 3.838765621185302734e-01
-4.505002796649932861e-01 2.776426970958709717e-01 5.973199605941772461e-01 -3.303236067295074463e-01 1.487767249345779419e-01 -3.536405265331268311e-01 -1.641232371330261230e-01 -2.059088647365570068e-01 -5.728766322135925293e-01 5.041125416755676270e-01
4.220719337463378906e-01 -2.643347084522247314e-01 1.079318284988403320e+00 -2.714401245117187500e+00 -1.492848277091979980e+00 -5.240174010396003723e-02 -6.683588027954101562e-01 6.906815767288208008e-01 -6.370068341493606567e-02 8.406270742416381836e-01
-3.678138852119445801e-01 5.393557548522949219e-01 3.204538226127624512e-01 -7.644030451774597168e-01 -6.764323264360427856e-02 -5.526314973831176758e-01 -5.526086688041687012e-01 4.467250779271125793e-02 -2.976177036762237549e-01 6.595764756202697754e-01
3.559902906417846680e-01 -6.665217876434326172e-02 -6.200214028358459473e-01 4.163080453872680664e-01 3.118070960044860840e-01 2.176584899425506592e-01 2.829689681529998779e-01 -2.765465378761291504e-01 3.123215436935424805e-01 -1.375288218259811401e-01
3.158693313598632812e-01 1.202828586101531982e-01 -5.360494256019592285e-01 2.367802143096923828e+00 1.105260252952575684e+00 1.223773121833801270e+00 9.091791510581970215e-01 4.241499006748199463e-01 9.381558299064636230e-01 -6.900108456611633301e-01
-3.619989752769470215e-01 4.179765284061431885e-01 4.482989013195037842e-01 -5.852475166320800781e-01 -5.103625059127807617e-01 -4.013629555702209473e-01 -2.760185897350311279e-01 3.552565872669219971e-01 -1.147713214159011841e-01 9.270930290222167969e-02
-5.075501799583435059e-01 6.720434427261352539e-01 5.473850965499877930e-01 -5.161154270172119141e-01 -5.072677135467529297e-01 -4.682546555995941162e-01 -4.220687150955200195e-01 8.386873602867126465e-01 -3.270137310028076172e-01 4.322626292705535889e-01
