-5.948410555720329285e-02 -5.014888644218444824e-01 -5.738880038261413574e-01 -2.989494204521179199e-01 -4.358884990215301514e-01 4.506774246692657471e-01 7.031678408384323120e-02 -3.156966269016265869e-01 5.562789440155029297e-01 2.100865393877029419e-01
-5.565699189901351929e-02 2.793630957603454590e-01 8.779618144035339355e-01 2.693743705749511719e-01 -6.986033171415328979e-02 -6.481124758720397949e-01 -2.439537346363067627e-01 4.804960489273071289e-01 1.670193523168563843e-01 6.131674349308013916e-02
-5.235357880592346191e-01 2.307054996490478516e-01 1.321086883544921875e+00 7.495029270648956299e-02 -6.539658308029174805e-01 -6.554920077323913574e-01 -3.570995330810546875e-01 7.839646935462951660e-01 6.326216459274291992e-02 -5.448449403047561646e-02
1.015048861503601074e+00 -7.499303221702575684e-01 -2.353223860263824463e-01 -3.371342122554779053e-01 2.200072765350341797e+00 7.130401730537414551e-01 1.263350695371627808e-01 -5.304605364799499512e-01 -3.862671554088592529e-01 6.997761316597461700e-03
-7.586603760719299316e-01 6.686587333679199219e-01 6.754409521818161011e-02 2.955379486083984375e-01 -1.219163060188293457e+00 -7.788645625114440918e-01 3.567895889282226562e-01 1.471447348594665527e-01 -3.171921968460083008e-01 -1.620359420776367188e-01
-8.934161067008972168e-01 8.335168957710266113e-01 -1.205663308501243591e-01 6.645351648330688477e-01 4.977668225765228271e-01 -3.043032884597778320e-01 4.427173435688018799e-01 -7.752414345741271973e-01 -5.959201455116271973e-01 2.220020890235900879e-01
2.869464755058288574e-01 -1.519505083560943604e-01 -8.025304675102233887e-01 -4.404141604900360107e-01 -7.548227906227111816e-01 3.651875257492065430e-01 -3.177776634693145752e-01 5.061767697334289551e-01 4.059414863586425781e-01 8.917418122291564941e-02
-3.023022115230560303e-01 4.135617315769195557e-01 3.154519572854042053e-02 4.333985745906829834e-01 9.515566825866699219e-01 -3.511063158512115479e-01 8.025282025337219238e-01 -9.311216473579406738e-01 -3.551003634929656982e-01 2.595085203647613525e-01
5.989196896553039551e-01 -6.602718234062194824e-01 -2.597852051258087158e-01 -3.925057351589202881e-01 -1.990129053592681885e-02 6.101379394531250000e-01 -1.440049558877944946e-01 -5.098234489560127258e-02 -1.157702878117561340e-01 -1.439632177352905273e-01
-1.981571912765502930e-01 9.451362490653991699e-02 -1.148538827896118164e+00 -1.309619247913360596e-01 -1.239737272262573242e+00 2.070259004831314087e-01 -2.490750551223754883e-01 -2.997125387191772461e-01 7.577934861183166504e-01 -8.050860837101936340e-03
