1.189876720309257507e-01 4.335775375366210938e-01 -5.901796221733093262e-01 -6.096609234809875488e-01 2.419650703668594360e-01 -9.131214618682861328e-01 -6.179496049880981445e-01 5.710194706916809082e-01 -4.326471090316772461e-01 -4.046266674995422363e-01
2.794734239578247070e-01 -3.434027731418609619e-01 1.131619960069656372e-01 -2.470402270555496216e-01 -6.252233982086181641e-01 7.006966322660446167e-02 -4.811604693531990051e-02 -7.304476499557495117e-01 4.598377943038940430e-01 7.246545553207397461e-01
-3.919505476951599121e-01 -4.286642968654632568e-01 -1.074737086892127991e-01 -3.741367459297180176e-01 -5.738989114761352539e-01 1.292914301156997681e-01 4.821339249610900879e-02 -7.992869019508361816e-01 2.845744192600250244e-01 1.013584017753601074e+00
1.794829964637756348e+00 4.907650053501129150e-01 -5.893700718879699707e-01 -2.650564432144165039e+00 1.301945686340332031e+00 -5.724950432777404785e-01 -7.793423533439636230e-02 -1.691045761108398438e-01 -3.787858784198760986e-01 1.167041659355163574e+00
-1.034806966781616211e+00 -5.524623990058898926e-01 6.264578104019165039e-01 4.154196977615356445e-01 -7.487653493881225586e-01 4.970400929450988770e-01 3.093014955520629883e-01 -8.412104845046997070e-01 4.028572440147399902e-01 3.780699670314788818e-01
-4.524718225002288818e-01 -2.864999473094940186e-01 9.007750749588012695e-01 4.738236069679260254e-01 -3.350149095058441162e-01 8.863774538040161133e-01 8.253496289253234863e-01 -4.662979245185852051e-01 2.808467447757720947e-01 -1.587160229682922363e-01
8.156996965408325195e-01 7.084398865699768066e-01 -5.705876350402832031e-01 -6.258682012557983398e-01 7.286262512207031250e-02 -1.399093866348266602e+00 -8.073619008064270020e-01 3.649124205112457275e-01 -2.229232788085937500e-01 -1.874116361141204834e-01
-4.930354356765747070e-01 -5.979298949241638184e-01 5.941305756568908691e-01 5.070888400077819824e-01 -4.052873551845550537e-01 4.674914777278900146e-01 6.875843405723571777e-01 -1.039984449744224548e-01 3.539069592952728271e-01 -4.142128229141235352e-01
5.510991811752319336e-01 1.316206604242324829e-01 -4.349490702152252197e-01 -6.507945656776428223e-01 9.198404550552368164e-01 -2.855913043022155762e-01 -4.439111351966857910e-01 -2.179561927914619446e-02 -9.873094409704208374e-02 4.002562165260314941e-01
4.416169643402099609e+00 -2.295153886079788208e-01 -7.602301239967346191e-01 -2.878297567367553711e+00 1.552007198333740234e+00 -8.301566243171691895e-01 -3.534404337406158447e-01 4.360929727554321289e-01 -7.744905948638916016e-01 2.178314886987209320e-02
