-4.841898977756500244e-01 3.648414313793182373e-01 -5.927500128746032715e-01 -1.638489961624145508e-02 1.842319667339324951e-01 4.885961413383483887e-01 -4.096540063619613647e-02 3.239255771040916443e-02 -2.091605365276336670e-01 -1.118909493088722229e-01
1.849047690629959106e-01 -7.445915341377258301e-01 7.545912861824035645e-01 -3.221589028835296631e-01 -5.143339037895202637e-01 -3.723117411136627197e-01 -1.523001212626695633e-02 4.291096627712249756e-01 -2.801920101046562195e-02 -1.764076501131057739e-01
-1.382394880056381226e-01 -9.189622402191162109e-01 4.816846549510955811e-01 7.528834342956542969e-01 2.417701296508312225e-02 -4.016778171062469482e-01 -1.680858582258224487e-01 -9.340686798095703125e-01 -6.213797926902770996e-01 1.458512991666793823e-01
-5.727514624595642090e-01 2.129251211881637573e-01 -4.891117811203002930e-01 -2.983037829399108887e-01 5.401072502136230469e-01 9.982406347990036011e-02 -1.356240063905715942e-01 -2.927410900592803955e-01 -3.854707479476928711e-01 4.544645547866821289e-01
1.960653364658355713e-01 7.570937871932983398e-01 5.010447502136230469e-01 -1.020142436027526855e+00 -1.210719570517539978e-01 9.764297306537628174e-02 -4.428562819957733154e-01 -9.187603741884231567e-02 -1.136965602636337280e-01 2.243568152189254761e-01
6.887689828872680664e-01 -4.004856944084167480e-01 6.367914080619812012e-01 -4.087841808795928955e-01 -3.823047578334808350e-01 -5.446124076843261719e-01 8.647658675909042358e-02 2.715606093406677246e-01 1.383743882179260254e-01 9.069947898387908936e-02
2.934233248233795166e-01 -1.637522727251052856e-01 1.554040461778640747e-01 -8.610921502113342285e-01 -6.918327212333679199e-01 1.751204878091812134e-01 -4.527273587882518768e-03 7.198260426521301270e-01 5.836583375930786133e-01 -6.446637511253356934e-01
-4.752653837203979492e-01 4.410415887832641602e-01 -7.161590456962585449e-02 -1.003987193107604980e-01 4.839133322238922119e-01 1.422781217843294144e-02 -1.177426576614379883e-01 -1.771924644708633423e-01 -4.666484594345092773e-01 1.964623332023620605e-01
-5.950317718088626862e-04 2.172978036105632782e-02 -7.758841514587402344e-01 4.569802880287170410e-01 4.175944924354553223e-01 1.763426512479782104e-01 3.120087273418903351e-02 -2.506838142871856689e-01 -1.336226910352706909e-01 1.418538987636566162e-01
-1.589066535234451294e-01 6.856920123100280762e-01 -1.443010568618774414e-01 7.416910678148269653e-02 4.154419898986816406e-01 -6.831957399845123291e-02 -3.784850835800170898e-01 -2.971868515014648438e-01 -4.178275167942047119e-01 -4.639795981347560883e-03
