6.328021883964538574e-01 7.002311348915100098e-01 1.060217395424842834e-01 2.433917373418807983e-01 2.777150273323059082e-01 -2.985118329524993896e-01 -4.282900094985961914e-01 3.532513082027435303e-01 -2.035929858684539795e-01 -7.916635274887084961e-01
-2.345626801252365112e-01 -7.906690835952758789e-01 -6.624159216880798340e-01 -5.901991128921508789e-01 -6.654335260391235352e-01 5.672682523727416992e-01 7.595148682594299316e-01 3.329799771308898926e-01 -3.752807378768920898e-01 6.186119914054870605e-01
-8.722119927406311035e-01 1.415056884288787842e-01 -9.686893224716186523e-01 -9.258043766021728516e-01 -1.135901451110839844e+00 5.306352376937866211e-01 8.903247714042663574e-01 1.301421523094177246e+00 -4.086994528770446777e-01 -1.814593791961669922e+00
2.925274372100830078e-01 4.135726690292358398e-01 2.930043637752532959e-01 3.715696632862091064e-01 1.393893547356128693e-02 -2.738722860813140869e-01 -1.534557044506072998e-01 -3.418015837669372559e-01 -1.431112885475158691e-01 -7.826692461967468262e-01
-6.062952876091003418e-01 -1.065075516700744629e+00 -1.014797091484069824e+00 -7.079784274101257324e-01 -2.983874082565307617e+00 1.802802324295043945e+00 1.487137198448181152e+00 5.456745028495788574e-01 -1.771480441093444824e-01 -4.017028212547302246e-01
-5.374494791030883789e-01 -4.598404169082641602e-01 -5.308855175971984863e-01 -5.040131807327270508e-01 -3.033134639263153076e-01 2.172071337699890137e-01 4.282553791999816895e-01 5.557895302772521973e-01 -3.281140327453613281e-01 5.885691046714782715e-01
-2.428181469440460205e-01 -8.727153539657592773e-01 -2.153859734535217285e-01 -5.255086421966552734e-01 -1.716634929180145264e-01 2.301623225212097168e-01 4.769149124622344971e-01 -5.539513230323791504e-01 2.750012576580047607e-01 1.070870280265808105e+00
4.418760240077972412e-01 4.897413849830627441e-01 4.125385880470275879e-01 3.503221869468688965e-01 1.913057565689086914e-01 -8.223274350166320801e-01 -3.060300350189208984e-01 -2.206571847200393677e-01 4.197427928447723389e-01 -2.831901311874389648e-01
-2.341847866773605347e-01 5.632198452949523926e-01 1.240668296813964844e-01 7.066355645656585693e-02 1.003221035003662109e+00 -2.300097942352294922e-01 -4.044845104217529297e-01 8.281908929347991943e-02 -1.895675659179687500e-01 -9.394429326057434082e-01
2.893059253692626953e-01 7.208987474441528320e-01 1.754869669675827026e-01 2.431149780750274658e-01 1.626738190650939941e+00 -7.991745471954345703e-01 -6.783218979835510254e-01 -1.044579781591892242e-02 -3.712361454963684082e-01 -1.375030755996704102e+00
