3.908393532037734985e-02 -5.111243128776550293e-01 7.483676075935363770e-02 1.155509501695632935e-01 -3.846068382263183594e-01 -3.351610600948333740e-01 3.746642172336578369e-01 2.798299863934516907e-02 -3.053083121776580811e-01 -4.316517710685729980e-01 3.167006373405456543e-01 9.460674226284027100e-02 -3.342168033123016357e-01 -2.916014753282070160e-02 -1.948417276144027710e-01 8.654595166444778442e-02 -3.262122273445129395e-01 -2.223057299852371216e-01 -1.349589205347001553e-03 -2.493658661842346191e-01
2.997863590717315674e-01 -8.039752393960952759e-02 2.680909335613250732e-01 -5.579386651515960693e-02 7.376316934823989868e-02 -3.522677347064018250e-02 1.272929161787033081e-01 5.478541925549507141e-02 -3.057147860527038574e-01 5.202187690883874893e-03 1.263637393712997437e-01 2.792209088802337646e-01 -1.352539360523223877e-01 -8.949329704046249390e-02 5.073061957955360413e-02 1.491558849811553955e-01 -2.746143639087677002e-01 -3.188789784908294678e-01 -1.947227120399475098e-01 2.490928582847118378e-02
1.474063843488693237e-01 -5.006451606750488281e-01 -3.763878643512725830e-01 4.094626903533935547e-01 -5.557855367660522461e-01 -4.613584578037261963e-01 5.405868887901306152e-01 -1.506269425153732300e-01 7.657255232334136963e-02 -1.459496915340423584e-01 2.314797788858413696e-01 2.017196416854858398e-01 6.749825179576873779e-02 -6.039535999298095703e-02 -1.340299695730209351e-01 1.704598516225814819e-01 1.370595246553421021e-01 2.271609455347061157e-01 1.922687441110610962e-01 -8.463049679994583130e-02
8.018524944782257080e-02 -5.189636349678039551e-01 -2.912631034851074219e-01 3.567151427268981934e-01 -3.523930311203002930e-01 -2.771456241607666016e-01 5.218337178230285645e-01 -2.937760949134826660e-01 -1.314548105001449585e-01 -3.738290667533874512e-01 5.174273252487182617e-01 5.726169049739837646e-02 -2.309156358242034912e-01 -1.711972206830978394e-01 -3.292925655841827393e-03 1.670335978269577026e-02 -8.221105486154556274e-02 2.426376938819885254e-01 2.908755838871002197e-01 1.654968410730361938e-02
7.897725701332092285e-02 3.812326863408088684e-02 1.640173643827438354e-01 -9.208302944898605347e-02 -9.034711867570877075e-02 -9.129744023084640503e-02 -2.177923470735549927e-01 6.043660044670104980e-01 -3.593633770942687988e-01 -2.986319065093994141e-01 -1.582971028983592987e-02 1.922647505998611450e-01 -1.744038797914981842e-02 -8.617871999740600586e-02 9.335488826036453247e-02 2.944065630435943604e-01 -3.892346918582916260e-01 -3.724909722805023193e-01 -3.827760219573974609e-01 9.443411976099014282e-02
-3.584981560707092285e-01 4.515193402767181396e-01 -3.851194307208061218e-02 -3.609658777713775635e-02 2.931433320045471191e-01 6.580270826816558838e-03 -6.808308511972427368e-02 -1.839296221733093262e-01 3.179933130741119385e-01 2.327412962913513184e-01 -4.752063155174255371e-01 -3.580700457096099854e-01 2.154767513275146484e-01 1.481046229600906372e-01 2.019212543964385986e-01 -1.153686866164207458e-01 5.340822786092758179e-02 -2.577876746654510498e-01 4.901299998164176941e-02 1.767576038837432861e-01
-1.974188238382339478e-01 3.660758733749389648e-01 -3.990575969219207764e-01 1.376388035714626312e-02 2.395371049642562866e-01 2.008994966745376587e-01 -2.870224416255950928e-02 -5.403049588203430176e-01 3.416125178337097168e-01 1.267527937889099121e-01 -3.879049420356750488e-01 -4.325090348720550537e-01 2.893945276737213135e-01 3.074550926685333252e-01 2.112748175859451294e-01 3.477629646658897400e-02 3.654230833053588867e-01 -3.242087364196777344e-01 -1.958438567817211151e-02 -1.375755071640014648e-01
-3.620156347751617432e-01 2.419702410697937012e-01 7.380243390798568726e-02 -8.763643354177474976e-02 6.020360067486763000e-02 2.645294666290283203e-01 -8.174344152212142944e-02 -4.192101955413818359e-01 3.080774247646331787e-01 1.302941888570785522e-01 -3.145019114017486572e-01 -4.664251506328582764e-01 3.254092931747436523e-01 4.419078826904296875e-01 3.676547408103942871e-01 -2.805742919445037842e-01 3.509282469749450684e-01 3.834123164415359497e-02 -9.821547567844390869e-02 3.804906010627746582e-01
2.753137946128845215e-01 -1.049579009413719177e-01 2.326327562332153320e-01 1.317052394151687622e-01 -3.409088253974914551e-01 -3.123942017555236816e-01 1.977443993091583252e-01 2.560661137104034424e-01 -1.688165664672851562e-01 -1.753515452146530151e-01 1.510649174451828003e-01 2.527431249618530273e-01 -7.012751698493957520e-02 -3.497408926486968994e-01 2.473076805472373962e-02 3.407729417085647583e-02 -1.403779238462448120e-01 -3.003590106964111328e-01 -3.588767647743225098e-01 -1.260425150394439697e-01
-1.771523803472518921e-01 1.815040558576583862e-01 6.354753971099853516e-01 -4.922704696655273438e-01 5.612525343894958496e-01 -5.935201421380043030e-03 -5.258111357688903809e-01 7.151734828948974609e-01 -5.911874771118164062e-01 -3.017543256282806396e-01 -9.287235736846923828e-01 3.913885951042175293e-01 1.187662556767463684e-01 -2.862897217273712158e-01 4.972030520439147949e-01 6.387498974800109863e-01 -1.627958267927169800e-01 -1.012482881546020508e+00 -6.968015432357788086e-01 -4.501868039369583130e-02
8.515971153974533081e-02 -2.744501829147338867e-01 -4.351429641246795654e-02 2.444024980068206787e-01 -4.169954955577850342e-01 -3.179445266723632812e-01 3.126551210880279541e-01 1.619969606399536133e-01 -4.751589894294738770e-01 -3.358586728572845459e-01 3.337794542312622070e-01 1.948827356100082397e-01 -2.986248433589935303e-01 -2.060906738042831421e-01 -2.284034192562103271e-01 7.008747756481170654e-02 -2.948525249958038330e-01 1.324911415576934814e-01 -2.066193670034408569e-01 1.571028232574462891e-01
2.105542123317718506e-01 -2.454083561897277832e-01 7.015727460384368896e-02 2.371804565191268921e-01 -9.797517955303192139e-02 -2.776496708393096924e-01 4.110887050628662109e-01 -1.071891337633132935e-01 -3.823397755622863770e-01 -3.273777365684509277e-01 3.804518580436706543e-01 3.980302810668945312e-01 4.815772548317909241e-02 -2.395800203084945679e-01 3.625249862670898438e-02 8.666991442441940308e-02 1.104572638869285583e-01 -1.596045121550559998e-02 2.902150899171829224e-02 1.450396925210952759e-01
4.336148202419281006e-01 -1.054469868540763855e-02 1.656819134950637817e-01 1.502649933099746704e-01 -5.638680979609489441e-02 -3.458849787712097168e-01 2.941615879535675049e-01 -7.355482876300811768e-02 -1.472040861845016479e-01 -3.417082726955413818e-01 2.597441971302032471e-01 3.552574515342712402e-01 4.516320675611495972e-02 -3.544747233390808105e-01 2.843541465699672699e-02 1.664157956838607788e-01 -3.553859889507293701e-01 -2.934904396533966064e-01 -2.163547128438949585e-01 -7.381852716207504272e-02
-4.953984543681144714e-02 3.451855480670928955e-01 2.600095272064208984e-01 -3.502118885517120361e-01 2.299584448337554932e-01 2.342177033424377441e-01 -4.202340841293334961e-01 1.698096841573715210e-01 -4.300361499190330505e-02 2.908644378185272217e-01 -4.583571553230285645e-01 -2.083977162837982178e-01 3.464998006820678711e-01 2.931886315345764160e-01 2.484302669763565063e-01 2.092630118131637573e-01 1.824734508991241455e-01 -2.021970450878143311e-01 -2.586653232574462891e-01 1.006132885813713074e-01
3.174851238727569580e-01 -1.045754104852676392e-01 3.450191617012023926e-01 8.264444768428802490e-02 -1.488685160875320435e-01 -3.362174332141876221e-01 -5.594616010785102844e-02 4.038952589035034180e-01 -4.585932195186614990e-01 -4.097108542919158936e-01 2.855815589427947998e-01 1.488997489213943481e-01 -1.510275006294250488e-01 -2.695710659027099609e-01 4.937381297349929810e-02 2.954245209693908691e-01 -3.677866756916046143e-01 -2.232397496700286865e-01 -1.862352788448333740e-01 -4.617436975240707397e-02
4.618152678012847900e-01 -3.705278933048248291e-01 -2.827311158180236816e-01 4.128810465335845947e-01 -1.198973134160041809e-01 -5.482171103358268738e-02 2.340978533029556274e-01 -3.251610100269317627e-01 6.248583644628524780e-02 -6.583222746849060059e-02 9.503827244043350220e-02 -9.160785377025604248e-02 -7.530735433101654053e-02 -2.748836278915405273e-01 1.161377131938934326e-01 8.578099310398101807e-02 -4.711150191724300385e-03 4.587342962622642517e-02 9.963903576135635376e-02 -1.052283793687820435e-01
-4.748921990394592285e-01 1.838691234588623047e-01 2.692030370235443115e-01 -3.886496126651763916e-01 2.651939094066619873e-01 2.978480160236358643e-01 -1.679497808218002319e-01 5.454416871070861816e-01 2.977143228054046631e-01 1.503659784793853760e-01 -3.651919960975646973e-01 9.855713695287704468e-02 2.078628400340676308e-03 2.138445079326629639e-01 3.193231821060180664e-01 2.377698719501495361e-01 5.417622625827789307e-02 -2.869967818260192871e-01 -3.089804649353027344e-01 -1.255422681570053101e-01
-7.998963445425033569e-02 8.919198811054229736e-02 -1.752697229385375977e-01 -2.488341629505157471e-01 4.724848270416259766e-02 3.492923974990844727e-01 -7.252247631549835205e-02 -9.766378253698348999e-02 2.042542248964309692e-01 2.710200846195220947e-01 -5.533162951469421387e-01 -3.269445002079010010e-01 3.032644391059875488e-01 2.658867239952087402e-01 -5.975417420268058777e-02 1.490910500288009644e-01 3.648706376552581787e-01 -2.018195241689682007e-01 1.632482856512069702e-01 1.869854144752025604e-02
4.152224063873291016e-01 -7.860230654478073120e-02 2.570801787078380585e-02 2.639992535114288330e-01 -4.343820214271545410e-01 -2.807421386241912842e-01 1.624494418501853943e-02 -5.848805606365203857e-02 -1.902070641517639160e-01 4.066016525030136108e-02 3.236367702484130859e-01 -6.052846554666757584e-03 -3.233376145362854004e-01 -1.476878225803375244e-01 -2.110481709241867065e-01 -8.150465041399002075e-02 -1.554757952690124512e-01 -1.883993595838546753e-01 -2.301564812660217285e-01 4.271488264203071594e-02
1.343683153390884399e-01 -3.969494700431823730e-01 4.233714565634727478e-02 1.714621782302856445e-01 -3.773752450942993164e-01 -3.305635750293731689e-01 2.384763956069946289e-01 -1.681133508682250977e-01 -3.601315319538116455e-01 3.098949557170271873e-03 9.414459764957427979e-02 3.193028867244720459e-01 -2.493480443954467773e-01 -1.582941561937332153e-01 1.075297966599464417e-01 1.441313605755567551e-02 1.218774616718292236e-01 9.621819108724594116e-02 4.250194132328033447e-02 1.374977678060531616e-01
