1.781262755393981934e-01 3.922436237335205078e-01 -3.710389137268066406e-01 -2.164023518562316895e-01 -2.968001961708068848e-01 3.115856051445007324e-01 -1.774878501892089844e-01 2.459964156150817871e-01 1.468760669231414795e-01 -2.007031291723251343e-01 1.413134336471557617e-01 2.736196517944335938e-01 2.211961597204208374e-01 2.336382120847702026e-01 4.826904833316802979e-01 3.360998630523681641e-01 9.869842976331710815e-02 -5.007627606391906738e-01 3.798018097877502441e-01 4.567478299140930176e-01
3.286684677004814148e-02 -1.463196426630020142e-01 1.868198513984680176e-01 1.926150619983673096e-01 -1.734080761671066284e-01 -1.770063936710357666e-01 2.092485576868057251e-01 7.235654443502426147e-02 -2.330268621444702148e-01 -1.273354440927505493e-01 -8.869048207998275757e-02 2.523845434188842773e-01 2.175585627555847168e-01 -1.211135759949684143e-01 3.068183064460754395e-01 1.375434696674346924e-01 6.408002227544784546e-02 -3.929663598537445068e-01 4.263075292110443115e-01 9.143950045108795166e-02
1.161827147006988525e-01 4.893290698528289795e-01 -3.774836361408233643e-01 -2.649090886116027832e-01 -4.747920036315917969e-01 1.810067296028137207e-01 -3.807653784751892090e-01 4.784148335456848145e-01 4.061725139617919922e-01 -6.671257317066192627e-02 2.719784975051879883e-01 1.029805764555931091e-01 3.871830999851226807e-01 3.727540075778961182e-01 1.908927559852600098e-01 -2.130768634378910065e-02 3.036382794380187988e-01 1.139124408364295959e-01 7.437855005264282227e-02 5.212584733963012695e-01
3.905409276485443115e-01 2.642418146133422852e-01 -3.158772885799407959e-01 -4.327774047851562500e-01 -1.160106956958770752e-01 1.999074667692184448e-01 -2.972630560398101807e-01 3.222186863422393799e-01 4.586028456687927246e-01 -3.025262355804443359e-01 3.088110983371734619e-01 5.868601426482200623e-02 -2.140554971992969513e-02 4.242560267448425293e-01 1.809501051902770996e-01 5.143098533153533936e-02 2.901339828968048096e-01 -1.821432113647460938e-01 -1.086620315909385681e-01 5.999023914337158203e-01
-1.769976615905761719e-01 -5.195287615060806274e-02 1.290469057857990265e-02 -1.449079662561416626e-01 -1.612638831138610840e-01 9.584248065948486328e-02 -1.753919124603271484e-01 -1.083073765039443970e-01 4.024801775813102722e-02 -9.763106703758239746e-02 2.381980866193771362e-01 1.984419375658035278e-01 1.849289834499359131e-01 -1.755826175212860107e-02 6.553015708923339844e-01 5.143358707427978516e-01 2.330885827541351318e-01 -7.825552225112915039e-01 1.547309756278991699e-01 -6.629469245672225952e-02
1.607149988412857056e-01 1.709169596433639526e-01 -2.947675883769989014e-01 -2.076153755187988281e-01 -1.887436211109161377e-01 -6.857668980956077576e-03 -2.926360368728637695e-01 -1.541995815932750702e-02 1.977611482143402100e-01 -2.307248860597610474e-01 1.030620038509368896e-01 2.220838665962219238e-01 3.426926210522651672e-02 2.746676206588745117e-01 -3.936424851417541504e-01 -2.630122601985931396e-01 -4.081315994262695312e-01 8.410373926162719727e-01 -3.362962901592254639e-01 -3.343800604343414307e-01
3.791587352752685547e-01 6.526979804039001465e-02 -2.655652761459350586e-01 -3.022103905677795410e-01 -3.599941730499267578e-01 2.762007899582386017e-02 1.822038926184177399e-02 3.279721736907958984e-02 7.869102805852890015e-02 -2.810270786285400391e-01 1.723681986331939697e-01 7.651703059673309326e-02 2.066800147294998169e-01 2.272339165210723877e-01 -3.345839381217956543e-01 -2.686064839363098145e-01 -5.344875454902648926e-01 9.345616698265075684e-01 -5.298700332641601562e-01 -1.190319061279296875e-01
2.155528366565704346e-01 1.504676640033721924e-01 -3.042778968811035156e-01 -3.658860549330711365e-02 1.029586121439933777e-01 1.135941892862319946e-01 1.226464286446571350e-01 7.969704456627368927e-03 1.295726597309112549e-01 5.615387856960296631e-02 -1.460568010807037354e-01 9.427820891141891479e-02 4.675843939185142517e-02 4.493985474109649658e-01 -3.324794173240661621e-01 -3.825923502445220947e-01 -2.871274650096893311e-01 6.144400238990783691e-01 -3.261498510837554932e-01 -1.420463919639587402e-01
5.969064310193061829e-02 2.852839529514312744e-01 -2.130221724510192871e-01 -1.849610954523086548e-01 -6.733684986829757690e-02 1.802266985177993774e-01 -1.282390113919973373e-02 2.024748325347900391e-01 1.896052658557891846e-01 -4.198434948921203613e-02 2.508139237761497498e-02 1.192602738738059998e-01 2.493722587823867798e-01 7.133095711469650269e-02 5.363415479660034180e-01 3.995900452136993408e-01 1.854896992444992065e-01 -2.802208364009857178e-01 4.950919747352600098e-01 2.676642239093780518e-01
6.137443184852600098e-01 7.833973169326782227e-01 -5.657340288162231445e-01 -5.204124450683593750e-01 -4.765114188194274902e-01 7.052946090698242188e-01 -4.691249728202819824e-01 5.111159086227416992e-01 4.607350826263427734e-01 -7.420505285263061523e-01 4.850444793701171875e-01 3.745542168617248535e-01 3.420678079128265381e-01 6.826096177101135254e-01 1.428336381912231445e+00 1.191805481910705566e+00 9.441993236541748047e-01 -9.593961238861083984e-01 1.061800122261047363e+00 -5.527915954589843750e-01
3.485587537288665771e-01 3.695060312747955322e-01 -1.707345396280288696e-01 -1.578537970781326294e-01 -2.683297395706176758e-01 1.595790535211563110e-01 -2.238396108150482178e-01 1.608617603778839111e-01 3.185108304023742676e-01 -1.697879731655120850e-01 3.608262240886688232e-01 2.512563169002532959e-01 -2.947049774229526520e-02 -7.330600172281265259e-02 2.224613130092620850e-01 2.291017770767211914e-01 4.871448576450347900e-01 -4.864998459815979004e-01 2.898056805133819580e-01 4.807726144790649414e-01
3.244161307811737061e-01 3.032885789871215820e-01 -2.461306750774383545e-01 -9.726139903068542480e-02 -6.410304456949234009e-02 1.521144509315490723e-01 -2.072841525077819824e-01 3.908874392509460449e-01 1.230368111282587051e-02 -1.559773832559585571e-01 1.349459886550903320e-01 3.059556782245635986e-01 1.315731406211853027e-01 3.512765467166900635e-01 3.027943372726440430e-01 2.468744367361068726e-01 2.072456479072570801e-01 -4.010658264160156250e-01 1.765144988894462585e-02 1.952782720327377319e-01
7.075206935405731201e-02 8.334075100719928741e-03 4.412518441677093506e-02 -1.907952129840850830e-01 -1.055566743016242981e-01 1.355726271867752075e-01 -1.178652420639991760e-02 -1.112358178943395615e-02 3.134274482727050781e-02 2.315970510244369507e-02 1.390426456928253174e-01 2.973705530166625977e-01 3.266579210758209229e-01 3.146706223487854004e-01 2.020436376333236694e-01 2.188471555709838867e-01 4.597653746604919434e-01 -3.223597407341003418e-01 4.446161985397338867e-01 2.517064511775970459e-01
-1.469431966543197632e-01 -8.693456649780273438e-02 2.350713759660720825e-01 1.564886718988418579e-01 6.147199496626853943e-02 -1.377393156290054321e-01 -4.382603615522384644e-02 3.108374960720539093e-02 -1.594933122396469116e-01 1.952288150787353516e-01 -1.892143040895462036e-01 -1.115843355655670166e-01 -1.929547339677810669e-01 -2.648887224495410919e-02 -3.955999910831451416e-01 -2.786951363086700439e-01 -1.840902119874954224e-01 1.143375158309936523e+00 -1.836703419685363770e-01 -2.197354137897491455e-01
2.653691470623016357e-01 -8.086651563644409180e-02 -1.441982807591557503e-03 -1.422463506460189819e-01 -6.941013783216476440e-02 -1.175633221864700317e-01 -6.792858988046646118e-02 2.646879255771636963e-01 -4.088462889194488525e-02 1.470041722059249878e-01 1.526425182819366455e-01 2.150436341762542725e-01 2.161264270544052124e-01 6.812037527561187744e-02 4.782049953937530518e-01 4.155712127685546875e-01 2.873827219009399414e-01 -7.476390004158020020e-01 5.604531168937683105e-01 4.091049730777740479e-01
1.867139190435409546e-01 3.208735883235931396e-01 -1.364230811595916748e-01 -3.899061977863311768e-01 -1.790616512298583984e-01 2.875041663646697998e-01 -2.596530914306640625e-01 1.816354393959045410e-01 2.760496139526367188e-01 -3.879216313362121582e-01 2.968766093254089355e-01 4.274637699127197266e-01 3.643811047077178955e-01 4.145278036594390869e-01 2.903985977172851562e-01 1.435496844351291656e-02 3.442606627941131592e-01 3.720094859600067139e-01 -1.150412112474441528e-01 6.058889031410217285e-01
-2.351980954408645630e-01 -1.869624108076095581e-01 3.208033740520477295e-01 2.334063500165939331e-01 3.840111196041107178e-01 9.691004641354084015e-03 8.400809019804000854e-02 -3.907749056816101074e-01 -2.894677817821502686e-01 2.710079848766326904e-01 -2.163792103528976440e-01 -1.153074726462364197e-01 -1.039386242628097534e-01 -1.673586070537567139e-01 -4.855593740940093994e-01 -3.966240584850311279e-01 -3.960000872611999512e-01 7.183638811111450195e-01 -1.238622441887855530e-01 -2.420358955860137939e-01
1.413358002901077271e-01 2.698290050029754639e-01 -5.871153622865676880e-02 4.581263288855552673e-02 -3.196696043014526367e-01 2.391791045665740967e-01 -1.482834201306104660e-02 1.569631844758987427e-01 1.249271705746650696e-01 1.208191271871328354e-02 1.012302488088607788e-01 1.621799468994140625e-01 1.924290787428617477e-03 7.958103716373443604e-02 -2.619096934795379639e-01 -4.930804967880249023e-01 -5.700888037681579590e-01 1.048653841018676758e+00 -5.772669315338134766e-01 -2.123380005359649658e-01
3.815861046314239502e-01 1.401764806360006332e-02 -1.146114170551300049e-01 -2.454619109630584717e-01 -1.780136078596115112e-01 2.211311608552932739e-01 -3.236010968685150146e-01 2.286340147256851196e-01 6.544659845530986786e-03 -3.010372221469879150e-01 8.217401802539825439e-02 3.177133798599243164e-01 -1.413052678108215332e-01 2.771081328392028809e-01 1.804145127534866333e-01 2.325664013624191284e-01 1.893306821584701538e-01 -2.125727236270904541e-01 4.217460751533508301e-01 3.891221880912780762e-01
8.155171573162078857e-02 2.230518311262130737e-01 -3.535022437572479248e-01 -3.628663718700408936e-01 -2.724719047546386719e-01 5.542543530464172363e-02 6.628359109163284302e-02 2.369948327541351318e-01 -4.862162843346595764e-02 -5.578511580824851990e-02 1.160446703433990479e-01 2.563453018665313721e-01 8.414592593908309937e-02 1.812219321727752686e-01 -4.516190662980079651e-02 1.708970367908477783e-01 2.578580677509307861e-01 -1.499246656894683838e-01 1.372256875038146973e-01 2.669127881526947021e-01
