-1.256743967533111572e-01 -7.316872477531433105e-01 4.020125567913055420e-01 1.154775545001029968e-01 2.854524850845336914e-01 5.784893631935119629e-01 4.728109538555145264e-01 3.413180410861968994e-01 -3.092761635780334473e-01 -6.439369916915893555e-02
-3.392995893955230713e-01 -5.562371611595153809e-01 2.256890088319778442e-01 3.179467916488647461e-01 -1.419753432273864746e-01 2.026386111974716187e-01 -1.512126773595809937e-01 4.070546030998229980e-01 -3.362924456596374512e-01 1.137058958411216736e-01
-2.087278515100479126e-01 -6.060924753546714783e-02 2.738927900791168213e-01 2.830327749252319336e-01 1.777442842721939087e-01 5.143332481384277344e-01 1.462601274251937866e-01 8.145702630281448364e-02 -4.044183492660522461e-01 1.552733182907104492e-01
-4.824692904949188232e-01 -3.837449550628662109e-01 3.591859042644500732e-01 2.035419791936874390e-01 4.150010347366333008e-01 2.641683816909790039e-01 8.629652671515941620e-03 1.540247201919555664e-01 -2.205011099576950073e-01 2.004495710134506226e-01
1.886058598756790161e-01 5.902662873268127441e-01 9.457051753997802734e-01 -3.077478110790252686e-01 1.173491328954696655e-01 -8.347043395042419434e-01 -1.753417849540710449e+00 -6.901510804891586304e-02 4.054949432611465454e-02 -2.074574120342731476e-02
7.600840926170349121e-01 4.296441376209259033e-02 -9.397474527359008789e-01 -2.949585616588592529e-01 -7.493127584457397461e-01 1.159156709909439087e-01 9.819568395614624023e-01 -1.724865734577178955e-01 6.347236037254333496e-01 -2.389173209667205811e-01
-7.298221588134765625e-01 -3.581760078668594360e-02 5.331203341484069824e-01 -2.844154834747314453e-01 5.982134938240051270e-01 8.072832226753234863e-02 5.599774718284606934e-01 -2.842748723924160004e-02 -4.122078120708465576e-01 -5.124109238386154175e-02
-2.230311036109924316e-01 -3.285470008850097656e-01 1.475433260202407837e-01 1.994327008724212646e-01 -4.176612570881843567e-02 9.313244372606277466e-02 3.660664856433868408e-01 2.497555613517761230e-01 -4.947303533554077148e-01 -2.421945631504058838e-01
7.262309789657592773e-01 6.350387930870056152e-01 -3.744697272777557373e-01 -4.388368427753448486e-01 -8.308618068695068359e-01 -4.193896055221557617e-01 -7.759515047073364258e-01 1.040346324443817139e-01 6.092709302902221680e-01 4.142312705516815186e-02
-1.570136994123458862e-01 -5.880149006843566895e-01 3.388810753822326660e-01 5.651064515113830566e-01 -1.215717315673828125e+00 5.469296574592590332e-01 -4.828026294708251953e-01 6.730596423149108887e-01 -4.504380375146865845e-02 1.219707950949668884e-01
