5.321680307388305664e-01 7.661238312721252441e-01 3.260262310504913330e-01 -5.262048244476318359e-01 -3.961615562438964844e-01 -4.308138191699981689e-01 5.924987196922302246e-01 -2.355768680572509766e-01 3.680582344532012939e-01 5.110675692558288574e-01
5.121426582336425781e-01 7.505544424057006836e-01 6.206887364387512207e-01 -2.738791704177856445e-01 -6.176154613494873047e-01 -3.606778085231781006e-01 2.516663372516632080e-01 -2.351957112550735474e-01 -7.850890606641769409e-02 2.736330032348632812e-01
1.850819736719131470e-01 6.047835350036621094e-01 6.488484740257263184e-01 -6.237771511077880859e-01 -6.041482090950012207e-01 -1.599530130624771118e-01 2.401042282581329346e-01 9.939394891262054443e-02 2.831998765468597412e-01 4.459527879953384399e-02
4.328962564468383789e-01 2.195083647966384888e-01 5.454065799713134766e-01 -2.028308212757110596e-01 -2.334859687834978104e-03 -1.690018363296985626e-02 6.042365431785583496e-01 4.404910504817962646e-01 -7.851984351873397827e-02 4.005629718303680420e-01
-2.022679448127746582e-01 -4.309110939502716064e-01 -1.346444934606552124e-01 1.057164445519447327e-01 1.053556561470031738e+00 1.264209985733032227e+00 -4.946358203887939453e-01 8.401765227317810059e-01 6.345143914222717285e-02 6.993416696786880493e-02
-1.626975536346435547e-01 -1.667964100837707520e+00 -1.717048287391662598e+00 5.403432846069335938e-01 1.249579906463623047e+00 1.631418704986572266e+00 -6.841705441474914551e-01 1.804321765899658203e+00 -1.437173604965209961e+00 -1.163727283477783203e+00
5.580707788467407227e-01 1.840654909610748291e-01 -3.011097908020019531e-01 -6.049354076385498047e-01 -1.255030483007431030e-01 3.886564671993255615e-01 -3.056826591491699219e-01 8.265639543533325195e-01 3.793179690837860107e-01 4.822812676429748535e-01
6.599254906177520752e-02 9.590851515531539917e-02 2.476415783166885376e-01 -4.167437255382537842e-01 -4.047049283981323242e-01 -6.015616059303283691e-01 3.877466619014739990e-01 4.902087152004241943e-02 3.722465783357620239e-02 2.292407602071762085e-01
-5.272822976112365723e-01 -1.091430664062500000e+00 -1.449405074119567871e+00 2.961020469665527344e-01 6.580623388290405273e-01 7.979681491851806641e-01 -5.214814543724060059e-01 2.109287261962890625e+00 -2.145354300737380981e-01 -4.006370306015014648e-01
5.180430412292480469e-01 9.652022123336791992e-01 9.596452116966247559e-01 -7.126423120498657227e-01 -6.502572894096374512e-01 -8.197618126869201660e-01 9.095303416252136230e-01 -8.682608008384704590e-01 -1.990982443094253540e-01 3.462635278701782227e-01
