6.384249776601791382e-02 8.939669728279113770e-01 -8.943552523851394653e-02 -3.003367185592651367e-01 -3.309567272663116455e-01 7.809249758720397949e-01 3.835838437080383301e-01 1.407111249864101410e-02 1.598686873912811279e-01 -1.958748996257781982e-01 1.643937975168228149e-01 -1.534828096628189087e-01 -3.266914784908294678e-01 6.777386367321014404e-02 2.349744923412799835e-02 -2.590438425540924072e-01 3.418158888816833496e-01 -2.140158861875534058e-01 1.629573702812194824e-01 -2.016791254281997681e-01
2.800329327583312988e-01 8.211952447891235352e-02 -2.603861391544342041e-01 -3.011118471622467041e-01 8.992339372634887695e-01 5.572993755340576172e-01 4.677320420742034912e-01 -2.660694122314453125e-01 -5.116230845451354980e-01 3.521344661712646484e-01 -6.749127805233001709e-02 1.695863604545593262e-01 -3.003269135951995850e-01 -2.545408308506011963e-01 -1.408710330724716187e-01 -1.668443679809570312e-01 3.287254571914672852e-01 -1.275380551815032959e-01 -8.495474457740783691e-01 4.731079936027526855e-01
-3.359143435955047607e-01 -1.945597827434539795e-01 1.372876167297363281e-01 1.688085496425628662e-01 -4.588410556316375732e-01 -2.238132655620574951e-01 -1.061941906809806824e-01 1.129148155450820923e-01 1.262770593166351318e-01 -1.606793403625488281e-01 3.904151022434234619e-01 4.466035366058349609e-01 2.943640053272247314e-01 -2.459129877388477325e-02 -2.062653005123138428e-01 2.750131487846374512e-01 -2.309735268354415894e-01 -2.181646078824996948e-01 1.349591910839080811e-01 2.010689489543437958e-02
2.686116993427276611e-01 3.403375446796417236e-01 -9.493669867515563965e-02 -1.145787760615348816e-01 7.871748208999633789e-01 2.147010713815689087e-01 7.390908896923065186e-02 -2.684370577335357666e-01 -2.128428965806961060e-01 3.327946960926055908e-01 -2.771112024784088135e-01 -9.850610792636871338e-02 -1.784948557615280151e-01 -3.201709091663360596e-01 -7.098630070686340332e-02 -8.017208427190780640e-02 3.983435928821563721e-01 -1.237134560942649841e-01 -5.825997591018676758e-01 4.613997042179107666e-01
-2.735990583896636963e-01 -3.036777377128601074e-01 1.749973148107528687e-01 7.818828523159027100e-02 -6.112208962440490723e-01 1.631299704313278198e-01 -3.417685627937316895e-01 2.745957970619201660e-01 4.038322865962982178e-01 -2.041927278041839600e-01 4.585956037044525146e-01 2.539139091968536377e-01 3.199541941285133362e-02 3.070610463619232178e-01 7.749991118907928467e-02 1.284658014774322510e-01 1.139920949935913086e-01 1.339581310749053955e-01 1.535321921110153198e-01 -2.194389700889587402e-01
2.863224828615784645e-03 5.549614131450653076e-02 3.271499872207641602e-01 2.766756415367126465e-01 -3.885079920291900635e-02 -4.384401440620422363e-01 -2.301097661256790161e-01 1.794929802417755127e-01 2.067635804414749146e-01 -2.695635259151458740e-01 3.952067345380783081e-03 3.552418351173400879e-01 -5.259630456566810608e-02 7.709505409002304077e-02 -3.287337720394134521e-01 1.668878942728042603e-01 -3.719484210014343262e-01 -3.085147440433502197e-01 -3.949628770351409912e-01 1.568558812141418457e-01
-4.233829677104949951e-01 2.261108309030532837e-01 3.119293749332427979e-01 2.077040076255798340e-01 -3.257834315299987793e-01 -1.417184323072433472e-01 -3.863881155848503113e-02 2.281020730733871460e-01 2.082658112049102783e-01 -4.268903285264968872e-02 4.008821845054626465e-01 2.461980283260345459e-01 2.662028670310974121e-01 8.098172396421432495e-02 -2.963999807834625244e-01 2.358950227499008179e-01 -2.402390986680984497e-01 -2.544541470706462860e-02 -4.907850548624992371e-02 1.811277866363525391e-01
6.464825570583343506e-02 2.897689938545227051e-01 -1.224403306841850281e-01 -2.740738093852996826e-01 4.713720381259918213e-01 3.393686115741729736e-01 3.108211159706115723e-01 -9.787705540657043457e-02 -2.856822609901428223e-01 1.366644501686096191e-01 -9.000734984874725342e-02 -1.610684543848037720e-01 -2.911074757575988770e-01 -2.604068517684936523e-01 1.005035042762756348e-01 -1.431781649589538574e-01 1.841069944202899933e-02 2.259744554758071899e-01 3.994495570659637451e-01 -1.600936353206634521e-01
1.411360949277877808e-01 8.984951674938201904e-02 -1.125477906316518784e-02 2.173486202955245972e-01 1.921075880527496338e-01 -1.774734020233154297e+00 -1.781435459852218628e-01 6.673497613519430161e-03 3.321517705917358398e-01 2.510787546634674072e-01 -9.265093207359313965e-01 -2.517995536327362061e-01 2.261876612901687622e-01 1.334842853248119354e-02 1.482808291912078857e-01 -1.469235420227050781e-01 -3.025729954242706299e-01 1.281289458274841309e+00 -3.781138733029365540e-02 3.062725365161895752e-01
5.374898910522460938e-01 2.222916930913925171e-01 -3.090960085391998291e-01 -3.254328668117523193e-01 9.309105277061462402e-01 1.855075955390930176e-01 1.565185189247131348e-01 -3.014126121997833252e-01 -4.078612029552459717e-01 1.197643727064132690e-01 -7.854095101356506348e-02 -1.676143854856491089e-01 -8.741759695112705231e-03 -2.253798991441726685e-01 7.445029169321060181e-02 -1.381486356258392334e-01 2.259426116943359375e-01 -2.199935019016265869e-01 -7.657855749130249023e-01 3.548980653285980225e-01
6.925286650657653809e-01 2.497678399085998535e-01 -4.089954495429992676e-01 2.856854796409606934e-01 1.283419966697692871e+00 3.957783877849578857e-01 3.131321072578430176e-01 -1.752297580242156982e-01 -2.455069571733474731e-01 -1.630635708570480347e-01 -1.953059993684291840e-02 -5.329454317688941956e-02 -3.503074944019317627e-01 -6.992762088775634766e-01 -6.731643676757812500e-01 3.114837408065795898e-01 3.066846430301666260e-01 -4.709280133247375488e-01 -7.746445536613464355e-01 1.299651265144348145e-01
-1.997404992580413818e-01 -1.922617782838642597e-03 1.785361170768737793e-01 -1.225261949002742767e-02 1.131425946950912476e-01 4.304682090878486633e-02 6.838414072990417480e-02 1.134007573127746582e-01 2.516005337238311768e-01 -3.925178050994873047e-01 1.839920431375503540e-01 3.066097199916839600e-01 2.381707578897476196e-01 2.471552416682243347e-02 -1.150716245174407959e-01 3.140207529067993164e-01 -3.308561444282531738e-01 -2.064162343740463257e-01 -8.535074442625045776e-02 1.078773215413093567e-01
-4.079692065715789795e-01 7.889999449253082275e-02 2.273352444171905518e-01 2.111107856035232544e-01 -6.403751969337463379e-01 -1.882238835096359253e-01 -1.722082644701004028e-01 1.976926922798156738e-01 3.709204494953155518e-02 -3.130625188350677490e-01 3.321801424026489258e-01 2.828049659729003906e-01 1.899301111698150635e-01 3.507739305496215820e-01 -3.142663538455963135e-01 -5.429355055093765259e-02 3.728748299181461334e-03 -1.471617072820663452e-01 3.351294994354248047e-02 -1.638679765164852142e-02
1.762196570634841919e-01 -3.359851241111755371e-01 -3.991292417049407959e-01 -2.751440405845642090e-01 7.797209620475769043e-01 1.874304264783859253e-01 3.102563321590423584e-01 3.250998631119728088e-02 -2.776442766189575195e-01 3.805417716503143311e-01 -3.651714622974395752e-01 1.373014003038406372e-01 -3.014668822288513184e-01 -1.339719742536544800e-01 -7.834577560424804688e-02 7.866851240396499634e-02 8.911129832267761230e-02 -2.155955508351325989e-02 -1.652190387248992920e-01 3.120472431182861328e-01
2.641391754150390625e-01 -2.941450178623199463e-01 -4.555833935737609863e-01 -1.844882071018218994e-01 4.468218088150024414e-01 -1.462901756167411804e-02 2.450389415025711060e-02 7.069067656993865967e-02 -3.332043588161468506e-01 3.354685604572296143e-01 -1.474971175193786621e-01 -8.774390816688537598e-02 -1.508016586303710938e-01 -1.019343584775924683e-01 1.262354850769042969e-01 -1.396577209234237671e-01 1.813841164112091064e-01 1.983798891305923462e-01 -1.780924201011657715e-01 9.662668406963348389e-02
-4.964658319950103760e-01 -4.742611944675445557e-01 3.836181461811065674e-01 4.747198820114135742e-01 -4.245718717575073242e-01 5.071575194597244263e-02 -4.002169668674468994e-01 2.354886084794998169e-01 9.507165849208831787e-02 -4.094085097312927246e-01 4.381670951843261719e-01 1.956129819154739380e-01 2.653045952320098877e-01 3.518530726432800293e-02 -2.794984579086303711e-01 8.086968213319778442e-03 -2.974941432476043701e-01 -2.706792354583740234e-01 1.401875168085098267e-01 -1.500390768051147461e-01
2.401366643607616425e-02 2.316828966140747070e-01 -3.890036642551422119e-01 5.353113263845443726e-02 5.224612951278686523e-01 1.174785494804382324e-01 8.236539363861083984e-02 1.193090677261352539e-01 -7.568933814764022827e-02 -1.180687546730041504e-02 -6.396361440420150757e-02 9.338384121656417847e-02 9.053866565227508545e-02 -2.571923136711120605e-01 -1.828672178089618683e-02 -2.621692121028900146e-01 4.982999525964260101e-03 -1.747194379568099976e-01 -4.209321737289428711e-01 7.094779610633850098e-02
2.624819278717041016e-01 2.853029489517211914e+00 1.073023602366447449e-01 3.646022677421569824e-01 -4.506366550922393799e-01 7.480821013450622559e-02 1.239122003316879272e-01 -4.261603057384490967e-01 8.479902148246765137e-01 -5.642489194869995117e-01 -2.279083877801895142e-01 -1.488102793693542480e+00 -8.853685855865478516e-01 2.597023248672485352e-01 6.375971436500549316e-01 -3.202006518840789795e-01 4.091549217700958252e-01 2.621656060218811035e-01 -5.968764424324035645e-01 3.995518684387207031e-01
-1.169543266296386719e-01 -4.938862100243568420e-02 3.668302893638610840e-01 4.861090779304504395e-01 -3.393521159887313843e-02 -2.509149610996246338e-01 -1.357465237379074097e-01 3.610820472240447998e-01 1.586148291826248169e-01 -4.278927147388458252e-01 1.210513785481452942e-01 1.992042064666748047e-01 -7.768079638481140137e-03 1.470207720994949341e-01 -4.604268372058868408e-01 1.139988750219345093e-01 -4.024545252323150635e-01 -2.398641556501388550e-01 -3.450590670108795166e-01 3.761360645294189453e-01
3.398843705654144287e-01 -1.349185407161712646e-01 -3.658134639263153076e-01 -3.636439144611358643e-02 5.923740863800048828e-01 5.522336438298225403e-02 1.893994957208633423e-01 -2.806791961193084717e-01 -1.210995987057685852e-01 2.882704734802246094e-01 -1.606841683387756348e-01 9.761201590299606323e-02 -2.108324915170669556e-01 -1.836550086736679077e-01 2.859676480293273926e-01 -1.541572362184524536e-01 2.881796658039093018e-01 6.912262644618749619e-03 -5.792250856757164001e-02 1.248069182038307190e-01
