-1.249628141522407532e-01 1.779158115386962891e-01 2.328474633395671844e-02 -2.977478504180908203e-01 -2.991613149642944336e-01 -3.963899612426757812e-01 -6.365625262260437012e-01 2.709601819515228271e-01 -1.216245442628860474e-01 4.877770841121673584e-01 7.297163009643554688e-01 6.990808248519897461e-01 -4.328495979309082031e+00 -4.219233512878417969e+00 1.052414298057556152e+00 2.014495730400085449e-01 -2.121595621109008789e+00 -3.384119570255279541e-01 -1.199686527252197266e+00 -9.982281923294067383e-01
1.999529898166656494e-01 2.344913780689239502e-01 1.440633237361907959e-01 -1.214146316051483154e-01 -1.945385783910751343e-01 -3.982873857021331787e-01 -2.946714758872985840e-01 8.831981420516967773e-01 7.571192383766174316e-01 4.500121176242828369e-01 6.069842353463172913e-02 7.650566101074218750e-01 -2.596275210380554199e-01 -9.235078096389770508e-01 2.006172388792037964e-01 -2.764225006103515625e-02 -1.186044692993164062e+00 -2.486791163682937622e-01 -1.244550585746765137e+00 -1.127657055854797363e+00
-1.993856728076934814e-01 -1.164585947990417480e-01 2.367232739925384521e-01 -1.666754633188247681e-01 -2.613562345504760742e-01 4.824154824018478394e-02 1.754457950592041016e-01 -3.150709271430969238e-01 -1.359100788831710815e-01 1.901440769433975220e-01 5.252177119255065918e-01 -7.247307151556015015e-02 4.018472135066986084e-01 4.491220414638519287e-02 3.878462016582489014e-01 4.000614285469055176e-01 1.659780591726303101e-01 -1.214840486645698547e-01 -7.843460440635681152e-01 6.502823531627655029e-02
8.554206043481826782e-02 2.488432973623275757e-01 -3.606430441141128540e-02 4.662118107080459595e-02 -4.962263628840446472e-02 -2.105311900377273560e-01 -3.245207965373992920e-01 6.084586977958679199e-01 8.549116849899291992e-01 -2.418055534362792969e-01 -1.449922472238540649e-01 5.760792493820190430e-01 -7.146100401878356934e-01 -4.991983771324157715e-01 -4.259237088263034821e-03 -2.698076665401458740e-01 -6.330745220184326172e-01 3.664138317108154297e-01 -3.002564609050750732e-01 -5.601336956024169922e-01
-8.329457789659500122e-02 -4.153307974338531494e-01 2.194496542215347290e-01 -4.432766735553741455e-01 -2.223958373069763184e-01 4.643645286560058594e-01 1.033517196774482727e-01 -1.346211880445480347e-01 -3.379237055778503418e-01 5.742592215538024902e-01 2.781013846397399902e-01 -1.846109777688980103e-01 2.499267309904098511e-01 -5.055327713489532471e-02 5.836546421051025391e-01 4.544194042682647705e-01 2.541275620460510254e-01 -3.792119324207305908e-01 1.124892532825469971e-01 -2.250605970621109009e-01
1.098447814583778381e-01 -1.080313250422477722e-01 8.528006263077259064e-03 -1.448343545198440552e-01 6.817483156919479370e-02 1.804154366254806519e-01 2.438763082027435303e-01 -3.384785950183868408e-01 -1.344351619482040405e-01 3.065470159053802490e-01 3.667280077934265137e-01 -5.196172595024108887e-01 9.773403406143188477e-02 5.619622468948364258e-01 1.997455656528472900e-01 2.124809622764587402e-01 5.226956009864807129e-01 -2.205786556005477905e-01 3.088507652282714844e-01 6.869108080863952637e-01
-1.472222506999969482e-01 -2.953015267848968506e-01 7.516530156135559082e-02 -2.724140584468841553e-01 4.330288246273994446e-02 -4.875453934073448181e-02 2.978754341602325439e-01 -6.232101470232009888e-02 -2.123207785189151764e-02 4.379172623157501221e-01 9.554254263639450073e-02 -1.223917677998542786e-01 2.043969035148620605e-01 9.099326282739639282e-02 -1.489610783755779266e-02 2.287266999483108521e-01 4.687799215316772461e-01 -2.506870925426483154e-01 6.727556884288787842e-02 2.033943086862564087e-01
7.544877380132675171e-02 -8.070914074778556824e-03 -1.571801304817199707e-01 -8.281652629375457764e-02 -7.745353132486343384e-02 -1.817753314971923828e-01 -3.121218085289001465e-01 8.451773524284362793e-01 5.021557211875915527e-01 -2.930395901203155518e-01 -2.181582450866699219e-01 3.821148574352264404e-01 -5.282822251319885254e-01 -2.967663407325744629e-01 4.097202420234680176e-02 2.641719579696655273e-02 -3.268255591392517090e-01 4.041314423084259033e-01 -4.182406067848205566e-01 -2.118839472532272339e-01
3.520664200186729431e-02 1.123276278376579285e-01 -1.989507526159286499e-01 2.739185690879821777e-01 3.063935935497283936e-01 -4.760285317897796631e-01 -4.310356974601745605e-01 1.071081638336181641e+00 7.331473231315612793e-01 -2.496949881315231323e-01 -3.193858861923217773e-01 -1.184251606464385986e-01 5.613138154149055481e-02 6.256000697612762451e-02 -6.293284893035888672e-02 -2.373907156288623810e-02 2.895484566688537598e-01 5.986757278442382812e-01 2.022182792425155640e-01 2.906526625156402588e-01
-1.600227260496467352e-04 2.301421910524368286e-01 2.922751940786838531e-02 1.672382801771163940e-01 9.766355901956558228e-02 -1.311959475278854370e-01 -3.102948367595672607e-01 1.662611514329910278e-01 2.561966180801391602e-01 -2.468411773443222046e-01 -9.883103519678115845e-02 5.865031480789184570e-01 -3.403708934783935547e-01 -7.820649147033691406e-01 -1.305008679628372192e-01 -2.318193465471267700e-01 -4.788764715194702148e-01 1.212651431560516357e-01 -2.455205023288726807e-01 -5.011295080184936523e-01
1.585375219583511353e-01 -2.958502471446990967e-01 -9.525964856147766113e-01 1.154734611511230469e+00 9.007757902145385742e-01 4.203540384769439697e-01 8.181841373443603516e-01 -2.660300731658935547e+00 -2.089096784591674805e+00 1.171601772308349609e+00 1.341068267822265625e+00 -1.024029970169067383e+00 2.881406068801879883e+00 2.211816787719726562e+00 -1.931487619876861572e-01 4.347958862781524658e-01 1.156836032867431641e+00 -2.009303331375122070e+00 6.981817483901977539e-01 5.034547671675682068e-02
-3.027592003345489502e-01 3.927659615874290466e-02 1.772132962942123413e-01 -8.273556083440780640e-02 -2.128744572401046753e-01 7.723653106950223446e-04 1.515241414308547974e-01 -4.276774078607559204e-02 7.047589123249053955e-02 2.513856887817382812e-01 4.032373726367950439e-01 -3.506110012531280518e-01 3.728069663047790527e-01 1.226143315434455872e-01 3.404094371944665909e-03 3.056544959545135498e-01 6.572386622428894043e-02 -1.157709360122680664e-01 1.160247623920440674e-01 2.143465876579284668e-01
-2.657483816146850586e-01 2.824692428112030029e-02 2.188243418931961060e-01 -5.086571723222732544e-02 -1.384287923574447632e-01 -1.246983278542757034e-02 3.024932444095611572e-01 -8.957120776176452637e-02 -3.178556561470031738e-01 4.004307985305786133e-01 1.774878054857254028e-01 -4.490636885166168213e-01 3.614377677440643311e-01 4.310181736946105957e-01 3.442109823226928711e-01 4.313341379165649414e-01 1.520516723394393921e-01 -1.770891398191452026e-01 4.651778563857078552e-02 3.387438058853149414e-01
2.666269838809967041e-01 2.024152278900146484e-01 9.655040502548217773e-02 8.858451247215270996e-02 2.303178161382675171e-01 -3.589982390403747559e-01 -3.120531737804412842e-01 9.217593073844909668e-02 5.076748132705688477e-01 -2.366660386323928833e-01 -4.462646245956420898e-01 1.042151078581809998e-01 -2.413586080074310303e-01 -6.082164049148559570e-01 -1.922035515308380127e-01 -3.599568307399749756e-01 -3.371481299400329590e-01 4.028910100460052490e-01 -5.555847883224487305e-01 -3.770663738250732422e-01
1.838192194700241089e-01 2.440690696239471436e-01 -1.204831004142761230e-01 -1.040769442915916443e-01 -2.019399255514144897e-01 -1.258247196674346924e-01 -1.554141938686370850e-01 6.269907951354980469e-01 8.909084200859069824e-01 -5.892942100763320923e-02 -4.035865366458892822e-01 -2.077040672302246094e-01 -2.019111961126327515e-01 -4.349773228168487549e-01 -3.456883132457733154e-01 -3.355731964111328125e-01 -1.692487448453903198e-01 2.300201356410980225e-01 -4.214241504669189453e-01 -3.065848946571350098e-01
-1.017032936215400696e-01 -3.047770634293556213e-02 3.411277532577514648e-01 -2.114851027727127075e-01 -3.132784068584442139e-01 2.878956794738769531e-01 3.040697574615478516e-01 -2.392918765544891357e-01 -4.070257842540740967e-01 3.519918024539947510e-01 1.926092654466629028e-01 -3.585613369941711426e-01 2.964621782302856445e-01 3.770879209041595459e-01 3.954049944877624512e-01 1.942512840032577515e-01 1.762605011463165283e-01 -2.818060219287872314e-01 3.881112635135650635e-01 2.700752206146717072e-02
-8.230543136596679688e-02 -1.070718988776206970e-01 4.215876758098602295e-01 -4.059497117996215820e-01 -3.283087015151977539e-01 -3.502346342429518700e-03 -4.436970874667167664e-02 6.446946859359741211e-01 1.954884678125381470e-01 -1.674219667911529541e-01 -1.567337363958358765e-01 4.035291671752929688e-01 -3.144688010215759277e-01 -3.363079428672790527e-01 -1.699510961771011353e-01 -1.606221497058868408e-01 1.279949303716421127e-02 2.477330565452575684e-01 -2.362869977951049805e-01 -5.741013288497924805e-01
-1.637068390846252441e-01 2.722337841987609863e-01 -5.501763150095939636e-02 -1.958301663398742676e-01 -1.620310395956039429e-01 -2.611805796623229980e-01 -5.298047661781311035e-01 -1.735332608222961426e+00 -1.658531546592712402e+00 1.072213530540466309e+00 1.011745095252990723e+00 2.143477439880371094e+00 -1.119341492652893066e+00 -1.858319282531738281e+00 1.841073393821716309e+00 5.773321390151977539e-01 -1.883344054222106934e+00 -5.785527825355529785e-01 -4.634702503681182861e-01 -2.510666131973266602e+00
7.334465533494949341e-02 -1.278255581855773926e-01 2.004918903112411499e-01 -6.401319056749343872e-02 -6.339445710182189941e-02 7.789988070726394653e-02 1.262561976909637451e-01 -2.594485282897949219e-01 -3.705179393291473389e-01 7.317299395799636841e-02 3.188576698303222656e-01 -5.364851355552673340e-01 9.888997673988342285e-02 4.969866871833801270e-01 2.169719934463500977e-01 1.695572137832641602e-01 2.987127304077148438e-01 -7.656227052211761475e-02 5.449655652046203613e-01 5.728539228439331055e-01
-1.279461011290550232e-02 9.032863378524780273e-02 1.126437783241271973e-01 -1.281784325838088989e-01 -2.073297947645187378e-01 -4.920030757784843445e-02 -1.327896416187286377e-01 3.746418654918670654e-01 4.564239382743835449e-01 -2.175963819026947021e-01 -1.330114454030990601e-01 1.957500874996185303e-01 -3.625933527946472168e-01 -3.263721466064453125e-01 -2.767263650894165039e-01 -8.647057414054870605e-02 -3.495860099792480469e-01 3.564651012420654297e-01 -2.365471869707107544e-01 -5.942559838294982910e-01
