-1.611762866377830505e-02 -2.833613455295562744e-01 -8.388103917241096497e-03 -3.830346837639808655e-02 -4.494939744472503662e-01 2.859707474708557129e-01 2.754832506179809570e-01 3.148118555545806885e-01 2.029227167367935181e-01 -1.698788553476333618e-01 8.878787606954574585e-02 2.729454040527343750e-01 -1.007530540227890015e-01 -2.771866619586944580e-01 -1.810635253787040710e-02 -1.094825193285942078e-01 2.538383305072784424e-01 -7.206310331821441650e-02 -1.068302392959594727e-01 -1.617221683263778687e-01
-2.453867346048355103e-02 -1.429512739181518555e+00 4.601703956723213196e-02 2.623875141143798828e-01 -8.169748783111572266e-01 -2.476152479648590088e-01 1.316071152687072754e-01 3.177729845046997070e-01 3.602278530597686768e-01 -2.285274714231491089e-01 2.979453504085540771e-01 7.596576809883117676e-01 1.621030867099761963e-01 -8.293771743774414062e-01 4.103806018829345703e-01 4.733336344361305237e-02 -1.365576684474945068e-01 1.278457641601562500e-01 -5.321863889694213867e-01 5.481527447700500488e-01
2.070281952619552612e-01 2.046782821416854858e-01 -4.027619957923889160e-01 -4.148716852068901062e-02 2.407487779855728149e-01 -3.376949727535247803e-01 -1.656620204448699951e-01 -2.905396819114685059e-01 -3.129161000251770020e-01 1.904421299695968628e-01 -3.382031619548797607e-01 -2.138600796461105347e-01 4.858370125293731689e-01 4.339577555656433105e-01 -2.726605348289012909e-02 6.720642000436782837e-02 -4.391453787684440613e-02 -3.650443255901336670e-01 -1.810173094272613525e-01 -1.330361366271972656e-01
-8.524040877819061279e-02 -4.272886812686920166e-01 2.881118953227996826e-01 2.313398867845535278e-01 -4.515396058559417725e-01 1.031024903059005737e-01 1.993478834629058838e-01 7.182962726801633835e-03 1.677746176719665527e-01 -3.654083237051963806e-02 1.239310726523399353e-01 2.140612453222274780e-01 -2.675469517707824707e-01 -8.426854759454727173e-02 2.302466779947280884e-01 1.065339818596839905e-01 2.306698411703109741e-01 1.168914791196584702e-02 2.469346970319747925e-01 3.210809081792831421e-02
2.882550060749053955e-01 4.697919785976409912e-01 6.452442705631256104e-02 4.842650145292282104e-02 3.800335153937339783e-02 -1.692392081022262573e-01 -4.198163449764251709e-01 -1.574769467115402222e-01 -2.732940018177032471e-02 1.665882468223571777e-01 -7.670820690691471100e-03 -2.393242670223116875e-03 8.627193421125411987e-02 -4.824778735637664795e-01 -3.875550627708435059e-01 -3.467223048210144043e-01 -4.133335053920745850e-01 6.109082102775573730e-01 -4.776703119277954102e-01 4.140457808971405029e-01
3.681374192237854004e-01 2.019984126091003418e-01 -3.636738061904907227e-01 -1.883836984634399414e-01 3.787025511264801025e-01 -1.852750331163406372e-01 -3.008138015866279602e-02 -2.246066778898239136e-01 -3.385324478149414062e-01 1.770860254764556885e-01 -1.154811456799507141e-01 -2.591487169265747070e-01 3.392260372638702393e-01 3.868815302848815918e-01 3.329739347100257874e-02 1.174643710255622864e-01 -2.017034217715263367e-03 -1.467456817626953125e-01 1.245367676019668579e-01 8.142321556806564331e-02
-3.911996632814407349e-02 3.000191152095794678e-01 7.553228735923767090e-02 2.923506796360015869e-01 -1.301395744085311890e-01 1.719788461923599243e-01 -8.881275425665080547e-04 -7.418841868638992310e-02 2.000221312046051025e-01 -4.263505935668945312e-01 2.762147188186645508e-01 4.256638884544372559e-02 -8.188564181327819824e-01 -1.446567028760910034e-01 1.323196440935134888e-01 -4.827222228050231934e-02 2.164649665355682373e-01 5.921181440353393555e-01 1.865356415510177612e-01 -6.964932382106781006e-02
2.721456289291381836e-01 -1.867717355489730835e-01 -1.814853847026824951e-01 -3.966494500637054443e-01 3.762256205081939697e-01 8.371438831090927124e-02 -1.536709219217300415e-01 -2.691231854259967804e-02 -2.245463579893112183e-01 4.000861346721649170e-01 -3.929355144500732422e-01 1.027560532093048096e-01 4.914098680019378662e-01 3.105753064155578613e-01 -1.558367758989334106e-01 -2.787655591964721680e-01 -3.280791044235229492e-01 -5.059847608208656311e-02 -9.792550653219223022e-02 -8.948729187250137329e-02
1.220491826534271240e-01 -1.494498014450073242e+00 -3.932796120643615723e-01 3.086766600608825684e-01 -4.908055961132049561e-01 -3.830429315567016602e-01 1.923123896121978760e-01 1.988498121500015259e-02 2.048330456018447876e-01 3.846168816089630127e-01 1.831623464822769165e-01 5.284675955772399902e-01 7.214373350143432617e-01 -5.624489784240722656e-01 3.583607450127601624e-02 -1.360745579004287720e-01 -5.023133754730224609e-01 -1.240452751517295837e-01 -3.944986760616302490e-01 5.015038251876831055e-01
1.249647140502929688e-01 4.108449444174766541e-02 -3.976846933364868164e-01 -8.584666997194290161e-02 3.095532581210136414e-02 -3.397817909717559814e-01 -2.220366448163986206e-01 -4.247328639030456543e-01 -9.801196306943893433e-02 3.197851181030273438e-01 1.157647743821144104e-02 -6.672754883766174316e-02 4.907894730567932129e-01 -1.982683539390563965e-01 7.004459202289581299e-02 -3.044634461402893066e-01 -2.884082794189453125e-01 7.216583192348480225e-02 -5.463816225528717041e-02 6.111763790249824524e-02
-5.356068164110183716e-02 1.285812854766845703e-01 -2.400425970554351807e-01 1.581609547138214111e-01 -2.238658964633941650e-01 -1.942295432090759277e-01 -7.735229283571243286e-02 -3.818686902523040771e-01 -1.589479893445968628e-01 -2.472501248121261597e-03 2.357209771871566772e-01 -2.325751185417175293e-01 3.016885817050933838e-01 -6.871063113212585449e-01 -4.638277590274810791e-01 -3.000673651695251465e-01 -1.378791332244873047e-01 7.455593347549438477e-01 -5.355322957038879395e-01 6.419509053230285645e-01
-8.351120352745056152e-01 1.253239870071411133e+00 3.694016039371490479e-01 4.321839213371276855e-01 3.774919733405113220e-02 -6.423584651201963425e-03 -5.819424390792846680e-01 1.288865208625793457e-01 -1.116884946823120117e-01 -3.873948454856872559e-01 9.949958920478820801e-01 -7.941291332244873047e-01 -9.883248209953308105e-01 -3.263222575187683105e-01 -8.380038738250732422e-01 -2.077609896659851074e-01 3.181752860546112061e-01 7.737324833869934082e-01 -1.452148146927356720e-02 1.098122596740722656e-01
-9.128950238227844238e-01 5.266930460929870605e-01 1.903684288263320923e-01 6.083287000656127930e-01 6.766948103904724121e-01 -1.794960498809814453e-01 -1.199271976947784424e-01 6.985095143318176270e-01 9.222816675901412964e-03 5.642522573471069336e-01 2.835361659526824951e-01 -3.334175646305084229e-01 1.822176128625869751e-01 -1.061029195785522461e+00 3.885813951492309570e-01 5.234334468841552734e-01 -1.322617679834365845e-01 -2.568720281124114990e-01 1.686646640300750732e-01 3.500838279724121094e-01
2.980274856090545654e-01 -2.150967270135879517e-01 -2.826514244079589844e-01 -2.284008264541625977e-01 2.379966825246810913e-01 -1.553059667348861694e-01 -2.843000888824462891e-01 -8.950861543416976929e-02 -3.011577725410461426e-01 1.566418260335922241e-01 -6.185476481914520264e-02 -1.054544299840927124e-01 4.110930562019348145e-01 -1.741434782743453979e-01 -8.415084332227706909e-02 -3.655229806900024414e-01 -1.849356442689895630e-01 1.714130491018295288e-01 -2.453072965145111084e-01 2.175571769475936890e-01
1.464210450649261475e-01 -7.985836267471313477e-01 3.006773591041564941e-01 3.336873352527618408e-01 -5.531916618347167969e-01 2.158635258674621582e-01 2.839546501636505127e-01 1.713456064462661743e-01 1.370975077152252197e-01 -3.201133012771606445e-01 2.612647116184234619e-01 6.045782566070556641e-01 4.795942455530166626e-03 -5.021609663963317871e-01 2.754731774330139160e-01 3.541570529341697693e-02 -1.126390136778354645e-02 -1.447305381298065186e-01 -2.236425578594207764e-01 2.606039643287658691e-01
-3.180089173838496208e-03 -5.459988713264465332e-01 2.269223630428314209e-01 2.972320616245269775e-01 -4.614003598690032959e-01 -1.120900511741638184e-01 2.650640904903411865e-01 1.188586577773094177e-01 8.813575655221939087e-02 -3.530879616737365723e-01 1.375353895127773285e-02 3.381458222866058350e-01 -1.594829708337783813e-01 -1.707712113857269287e-01 3.472242951393127441e-01 7.286541908979415894e-02 -2.824373729526996613e-02 7.058501988649368286e-02 -4.982891678810119629e-02 2.772165536880493164e-01
3.036793172359466553e-01 1.021094843745231628e-01 -1.859641075134277344e-01 4.156025871634483337e-02 -1.593135446310043335e-01 -3.395990431308746338e-01 -2.269327640533447266e-01 -3.577985465526580811e-01 -1.114743724465370178e-01 2.773885130882263184e-01 -1.041309386491775513e-01 -2.058005183935165405e-01 1.503334492444992065e-01 -3.210008740425109863e-01 -7.346548140048980713e-02 -2.442337870597839355e-01 -3.583482205867767334e-01 2.070636302232742310e-01 -3.316548466682434082e-01 5.043007135391235352e-01
-6.034421175718307495e-02 -3.229537904262542725e-01 1.199825573712587357e-02 -5.542408209294080734e-03 -7.154341340065002441e-01 -4.061390087008476257e-02 -2.855260111391544342e-02 7.735201716423034668e-02 2.792543172836303711e-01 -2.929165661334991455e-01 1.502875685691833496e-01 4.192565977573394775e-01 -3.359740972518920898e-01 -1.746090203523635864e-01 3.076375424861907959e-01 7.884844392538070679e-02 9.578956663608551025e-02 1.452659666538238525e-01 -8.514724671840667725e-02 2.335532605648040771e-01
1.716099381446838379e-01 4.206981882452964783e-02 -2.946867048740386963e-01 -1.492123007774353027e-01 8.397120237350463867e-01 1.129570156335830688e-01 -2.042390257120132446e-01 -9.714648872613906860e-02 -9.742637723684310913e-02 2.779892385005950928e-01 -5.410029888153076172e-01 -1.371296495199203491e-01 3.433770239353179932e-01 7.629598379135131836e-01 9.581563621759414673e-02 -1.614283025264739990e-01 9.855495393276214600e-02 -4.745834469795227051e-01 2.721102237701416016e-01 -2.882351279258728027e-01
-8.294170349836349487e-02 -3.516196012496948242e-01 1.024753823876380920e-01 3.451904058456420898e-01 -6.163432002067565918e-01 -1.226030290126800537e-02 9.575887024402618408e-02 1.528076678514480591e-01 2.916722595691680908e-01 -2.823619544506072998e-01 2.810690701007843018e-01 1.740298718214035034e-01 -4.053680598735809326e-01 -3.054707348346710205e-01 2.445201277732849121e-01 5.362050235271453857e-02 -6.699513643980026245e-02 2.521337941288948059e-02 5.184984579682350159e-02 -1.025770008563995361e-01
