1.088220328092575073e-01 -2.127779833972454071e-02 -3.606839105486869812e-02 3.430552780628204346e-01 -2.711511552333831787e-01 -3.429080843925476074e-01 -3.017613478004932404e-02 1.234905049204826355e-02 1.378803402185440063e-01 3.240976929664611816e-01 8.907082676887512207e-02 2.496274709701538086e-01 2.218555212020874023e-01 -1.530372202396392822e-01 -4.825068414211273193e-01 -3.758988678455352783e-01 -2.443904802203178406e-02 2.038784176111221313e-01 -1.662477552890777588e-01 -6.676357239484786987e-02
-3.469757735729217529e-02 3.034075200557708740e-01 1.248285472393035889e-01 2.796778380870819092e-01 1.488923095166683197e-02 -1.617646664381027222e-01 1.592410653829574585e-01 -3.286967575550079346e-01 -1.023892685770988464e-01 4.169991314411163330e-01 1.926834881305694580e-01 3.994135558605194092e-01 9.625084996223449707e-01 -7.994593381881713867e-01 -1.747332334518432617e+00 -3.235518336296081543e-01 1.051135778427124023e+00 7.319208979606628418e-01 -9.228359460830688477e-01 -2.983631789684295654e-01
-3.186373412609100342e-01 -9.771378338336944580e-02 -2.197556346654891968e-01 -4.098389297723770142e-02 1.023376956582069397e-01 -1.352468226104974747e-02 -3.109356164932250977e-01 1.871948242187500000e-01 -1.966050714254379272e-01 -1.868932694196701050e-01 -3.156427741050720215e-01 -4.271503388881683350e-01 -2.176141291856765747e-01 3.042775094509124756e-01 -2.102262824773788452e-01 -2.740765362977981567e-02 4.377868473529815674e-01 -2.459906488656997681e-01 2.407580763101577759e-01 4.447419047355651855e-01
4.726302623748779297e-02 2.958105318248271942e-02 9.554573148488998413e-02 2.577520906925201416e-01 5.532909929752349854e-02 -2.826396562159061432e-02 2.217663973569869995e-01 -3.990840539336204529e-02 1.217810958623886108e-01 1.128994822502136230e-01 6.025584880262613297e-03 2.145688422024250031e-02 1.489298045635223389e-01 -2.384411394596099854e-01 -1.592336446046829224e-01 -2.573196291923522949e-01 2.529173493385314941e-01 3.471924737095832825e-02 -1.474706679582595825e-01 -9.701902978122234344e-03
-1.889024078845977783e-01 9.515883028507232666e-02 3.055315697565674782e-03 -3.420138359069824219e-01 -1.212006360292434692e-01 2.663598656654357910e-01 -8.891984075307846069e-02 2.671865746378898621e-02 -1.214978694915771484e-01 -2.131712436676025391e-01 -1.770446300506591797e-01 3.755984008312225342e-01 -1.959497630596160889e-01 4.963408708572387695e-01 3.583430051803588867e-01 2.221842110157012939e-01 -3.756173253059387207e-01 -1.664329171180725098e-01 5.186419486999511719e-01 -2.566509544849395752e-01
-1.911780983209609985e-01 -1.345090270042419434e-01 -2.473870664834976196e-01 1.109676714986562729e-02 9.583345055580139160e-02 2.355021536350250244e-01 -3.104223608970642090e-01 1.637057960033416748e-01 -2.865849733352661133e-01 -3.204613327980041504e-01 -1.453341841697692871e-01 -2.667472660541534424e-01 -3.173290193080902100e-02 3.872999548912048340e-01 -6.906137615442276001e-02 -8.360593020915985107e-02 5.836363509297370911e-02 -1.786184012889862061e-01 6.668329238891601562e-02 1.346513628959655762e-01
-3.461197912693023682e-01 -5.161966681480407715e-01 -3.878814578056335449e-01 -3.068805336952209473e-01 5.530365705490112305e-01 1.091248542070388794e-01 -1.462907195091247559e-01 -2.962989546358585358e-02 -4.862317144870758057e-01 1.234463825821876526e-01 -3.539026379585266113e-01 1.287354707717895508e+00 1.457234323024749756e-01 -8.085130453109741211e-01 -1.211092710494995117e+00 -5.663903951644897461e-01 -3.386452496051788330e-01 6.122370958328247070e-01 -5.052374005317687988e-01 -1.859966367483139038e-01
-1.401595324277877808e-01 -1.797647029161453247e-01 -1.523846238851547241e-01 -2.068994194269180298e-01 1.261622011661529541e-01 2.034810781478881836e-01 1.627406030893325806e-01 -6.609679758548736572e-02 -2.244517356157302856e-01 -1.948078870773315430e-01 2.169560194015502930e-01 -8.466683626174926758e-01 -5.188512429594993591e-02 2.013214975595474243e-01 -1.290851086378097534e-01 3.655142337083816528e-02 -2.871912159025669098e-02 -3.886346518993377686e-01 3.218833208084106445e-01 4.423272907733917236e-01
5.164842009544372559e-01 2.056757658720016479e-01 7.255817055702209473e-01 4.535188898444175720e-02 -3.994829952716827393e-01 -5.452594757080078125e-01 1.111284941434860229e-01 7.740515470504760742e-02 4.316040575504302979e-01 -9.108901023864746094e-02 1.732258945703506470e-01 -7.703868746757507324e-01 -2.294471859931945801e-01 6.294063925743103027e-01 9.477249383926391602e-01 7.117911577224731445e-01 3.571607470512390137e-01 -9.348846077919006348e-01 9.648066163063049316e-01 1.341588497161865234e+00
-1.453802287578582764e-01 -1.423495113849639893e-01 -2.753828167915344238e-01 -1.201802864670753479e-01 1.809906810522079468e-01 1.607576310634613037e-01 -2.431061714887619019e-01 1.529041379690170288e-01 -4.210072383284568787e-02 -7.552211731672286987e-02 -3.310158550739288330e-01 -3.877910673618316650e-01 -2.515563368797302246e-01 4.075488150119781494e-01 4.195455312728881836e-01 4.100896120071411133e-01 -1.073127090930938721e-01 -1.312924325466156006e-01 4.369037747383117676e-01 3.833986446261405945e-02
1.232719719409942627e-01 -5.735484138131141663e-02 2.819248661398887634e-02 -3.128737807273864746e-01 -1.487384587526321411e-01 8.193976432085037231e-02 -1.038363054394721985e-01 3.026798367500305176e-01 6.475553661584854126e-02 -8.014132827520370483e-02 -3.737127780914306641e-01 4.301132634282112122e-03 -4.298981428146362305e-01 5.086186528205871582e-01 7.219654917716979980e-01 3.835564851760864258e-01 -7.845761775970458984e-01 -5.828346610069274902e-01 5.962080955505371094e-01 -2.524838447570800781e-01
1.744693040847778320e+00 1.193575024604797363e+00 1.743037343025207520e+00 7.140365242958068848e-01 -1.482204794883728027e+00 -1.134488105773925781e+00 9.966213107109069824e-01 -7.184253931045532227e-01 1.142840504646301270e+00 1.094095706939697266e+00 1.083371162414550781e+00 -1.878163933753967285e+00 9.025629162788391113e-01 -1.111224174499511719e+00 -1.314443707466125488e+00 1.566448509693145752e-01 4.933128356933593750e+00 -4.958108961582183838e-01 -3.595973849296569824e-01 1.435184001922607422e+00
6.855664849281311035e-01 8.376632332801818848e-01 5.450000762939453125e-01 7.807589173316955566e-01 -7.655425071716308594e-01 -6.121696233749389648e-01 5.632529854774475098e-01 -8.115687370300292969e-01 5.566767454147338867e-01 7.032911777496337891e-01 9.311090707778930664e-01 -1.433987021446228027e-01 2.754632949829101562e+00 -2.035886764526367188e+00 -3.251661777496337891e+00 -8.553335070610046387e-01 3.172560930252075195e+00 9.915239214897155762e-01 -1.229541063308715820e+00 7.375210523605346680e-01
-4.995302855968475342e-02 -1.111432388424873352e-01 1.161634251475334167e-01 1.508010365068912506e-02 -1.563417017459869385e-01 1.628343574702739716e-02 -1.002808958292007446e-01 -7.134201936423778534e-03 -1.213223636150360107e-01 -1.336777359247207642e-01 2.745912969112396240e-02 2.989569008350372314e-01 -1.296502053737640381e-01 -1.488883979618549347e-02 2.737336754798889160e-01 3.357064723968505859e-01 2.156580537557601929e-01 -9.009571373462677002e-02 1.755543798208236694e-01 1.154022365808486938e-01
7.377263903617858887e-02 1.682213246822357178e-01 4.316247999668121338e-02 3.645574152469635010e-01 -3.030255734920501709e-01 -1.657351255416870117e-01 1.241522505879402161e-01 -1.696392297744750977e-01 2.514860630035400391e-01 2.773586809635162354e-01 4.696648418903350830e-01 2.060371935367584229e-01 5.117366909980773926e-01 -8.613342046737670898e-01 -1.350040912628173828e+00 -8.553205728530883789e-01 4.284196197986602783e-01 5.696499347686767578e-01 -5.921290516853332520e-01 -3.843793869018554688e-01
-5.224852263927459717e-02 4.708212241530418396e-02 5.567637458443641663e-02 3.660739362239837646e-01 -1.344534307718276978e-01 9.491392225027084351e-02 2.010511755943298340e-01 -1.065441295504570007e-01 -6.459718197584152222e-02 4.556621313095092773e-01 1.780124008655548096e-01 3.149378597736358643e-01 4.319368302822113037e-01 -4.526139795780181885e-01 -7.635629773139953613e-01 -1.411089003086090088e-01 1.461235880851745605e-01 1.861232817173004150e-01 -2.817558050155639648e-01 -4.232966005802154541e-01
-7.665391266345977783e-02 2.667741151526570320e-03 -8.128913491964340210e-02 -1.826657950878143311e-01 1.777937710285186768e-01 2.424480766057968140e-01 3.011740744113922119e-02 3.247042298316955566e-01 -9.087584912776947021e-02 -2.877074778079986572e-01 -3.158102631568908691e-01 -4.947680607438087463e-02 -3.781781792640686035e-01 3.673907816410064697e-01 5.133920907974243164e-01 3.498975634574890137e-01 -3.660844862461090088e-01 -4.276808500289916992e-01 5.703243017196655273e-01 -9.315400570631027222e-02
1.313241720199584961e-01 2.927628755569458008e-01 4.407575726509094238e-02 3.329921066761016846e-01 -3.849028944969177246e-01 -2.879083156585693359e-01 2.221929877996444702e-01 -1.228951960802078247e-01 2.468737214803695679e-01 3.297376632690429688e-01 2.658128440380096436e-01 4.790300726890563965e-01 3.961305618286132812e-01 -1.156603097915649414e-01 -4.521180391311645508e-01 -1.593126654624938965e-01 3.153725564479827881e-01 3.045233488082885742e-01 -1.351030766963958740e-01 -2.504913210868835449e-01
-4.906324148178100586e-01 -1.922485083341598511e-01 -4.437561631202697754e-01 -6.638086587190628052e-02 1.090047061443328857e-01 1.532266885042190552e-01 -1.485647708177566528e-01 1.090509742498397827e-01 -1.623357534408569336e-01 -1.863557994365692139e-01 -5.715904384851455688e-02 -4.315246641635894775e-01 -4.241890739649534225e-03 8.637321740388870239e-02 -2.948887944221496582e-01 -6.077150255441665649e-02 1.377406865358352661e-01 3.708887845277786255e-02 3.474093601107597351e-02 6.301219463348388672e-01
3.040952384471893311e-01 -1.261359751224517822e-01 3.168909251689910889e-02 3.532152250409126282e-02 -1.089945584535598755e-01 -1.550379097461700439e-01 3.211992979049682617e-01 -3.637183010578155518e-01 1.927726268768310547e-01 2.163220494985580444e-01 1.792661473155021667e-02 4.639104902744293213e-01 4.683625996112823486e-01 -3.516604900360107422e-01 -2.669370174407958984e-01 -4.403369128704071045e-01 2.264356464147567749e-01 3.587630987167358398e-01 -3.221848905086517334e-01 -1.581997275352478027e-01
