3.837280571460723877e-01 2.173300534486770630e-01 -1.200894832611083984e+00 -4.958895221352577209e-02 -6.962306499481201172e-01 -4.699768871068954468e-02 -3.638155758380889893e-01 1.293049659579992294e-02 -2.984468936920166016e-01 6.681770086288452148e-02
2.501755058765411377e-01 3.292269408702850342e-01 -6.352522969245910645e-01 -3.600167632102966309e-01 -7.343442440032958984e-01 2.428625375032424927e-01 -3.236020207405090332e-01 -3.637755289673805237e-02 -6.049107387661933899e-02 3.300008475780487061e-01
-1.875031925737857819e-02 5.374058485031127930e-01 -6.194738149642944336e-01 -5.365415215492248535e-01 -6.965404748916625977e-01 3.712076544761657715e-01 -4.504297971725463867e-01 -1.004030227661132812e+00 -3.232748806476593018e-01 4.807492494583129883e-01
6.349533051252365112e-02 7.692948579788208008e-01 -1.025408267974853516e+00 2.015964388847351074e-01 -5.406553745269775391e-01 1.423993259668350220e-01 -2.442212775349617004e-02 3.034698367118835449e-01 -3.757517635822296143e-01 1.700474321842193604e-01
1.433328241109848022e-01 -7.098162770271301270e-01 3.274171948432922363e-01 5.696895718574523926e-01 5.532344579696655273e-01 -6.746951341629028320e-01 3.505611717700958252e-01 -9.821313619613647461e-02 6.246499419212341309e-01 5.014350414276123047e-01
2.138505515176802874e-04 -2.924590408802032471e-01 4.743733108043670654e-01 9.168717861175537109e-01 3.318661153316497803e-01 -6.125885844230651855e-01 6.256027519702911377e-02 1.223310112953186035e+00 -3.461381196975708008e-01 5.543828755617141724e-02
6.285146474838256836e-01 5.634680390357971191e-01 -1.208075881004333496e+00 -3.038937449455261230e-01 -3.730937540531158447e-01 -2.899146825075149536e-02 -3.728395700454711914e-01 1.737302541732788086e-01 -1.492879539728164673e-01 1.314484030008316040e-01
2.045231312513351440e-01 4.897040128707885742e-01 -1.369420170783996582e+00 -3.904427587985992432e-01 -7.405298948287963867e-01 1.835358440876007080e-01 -2.909252643585205078e-01 -1.367346644401550293e-01 3.766265213489532471e-01 3.669871687889099121e-01
-1.394318789243698120e-01 6.011122465133666992e-01 -8.624325394630432129e-01 -1.100645437836647034e-01 -7.306318283081054688e-01 3.683888614177703857e-01 -3.822387456893920898e-01 2.846434712409973145e-01 -1.283338814973831177e-01 -9.252298623323440552e-02
5.264785289764404297e-01 2.229605801403522491e-02 -7.749324440956115723e-01 7.337518334388732910e-01 9.111779928207397461e-02 -7.269648909568786621e-01 7.490004897117614746e-01 7.182233966886997223e-03 8.901785016059875488e-01 2.290063351392745972e-01
