9.384686350822448730e-01 -1.014187693595886230e+00 -9.579763412475585938e-01 5.409200191497802734e-01 1.000639915466308594e+00 3.906219899654388428e-01 -3.080435693264007568e-01 7.378976941108703613e-01 1.104548797011375427e-01 -4.438182413578033447e-01
6.752133369445800781e-01 -5.231515169143676758e-01 -8.079875111579895020e-01 -4.348197951912879944e-02 -1.118995808064937592e-02 3.026804327964782715e-01 -2.839875519275665283e-01 -7.009074836969375610e-02 -3.975806832313537598e-01 2.702316828072071075e-02
6.816422343254089355e-01 -5.209381580352783203e-01 -8.906690478324890137e-01 5.635006427764892578e-01 1.312970370054244995e-01 4.689662158489227295e-01 -4.099363386631011963e-01 3.622124493122100830e-01 -8.209654092788696289e-01 1.403780430555343628e-01
7.678647041320800781e-01 -8.675454258918762207e-01 -9.777438044548034668e-01 2.362881898880004883e-01 9.790499210357666016e-01 2.152104079723358154e-01 -4.666965603828430176e-01 7.055954933166503906e-01 -2.555253207683563232e-01 -5.545718073844909668e-01
-1.661451756954193115e-01 5.343617796897888184e-01 8.162095546722412109e-01 -6.031084060668945312e-01 5.083667114377021790e-02 -5.829228162765502930e-01 7.329698204994201660e-01 -7.088562846183776855e-02 4.978667795658111572e-01 4.700536653399467468e-02
-4.929182529449462891e-01 3.020424582064151764e-02 -8.661232143640518188e-02 -6.906219720840454102e-01 -2.147627353668212891e+00 -3.876079618930816650e-01 3.075112998485565186e-01 -1.185566902160644531e+00 -2.471074759960174561e-01 1.341417789459228516e+00
4.904405474662780762e-01 -8.535577654838562012e-01 -5.707659125328063965e-01 5.180642604827880859e-01 -1.584855616092681885e-01 3.045538961887359619e-01 -7.097331285476684570e-01 1.765791773796081543e-01 -4.713845625519752502e-02 -6.013392806053161621e-01
8.147067427635192871e-01 -1.652001738548278809e+00 -2.065284729003906250e+00 3.953076601028442383e-01 8.842954635620117188e-01 5.905432105064392090e-01 -8.531175255775451660e-01 8.417034745216369629e-01 -6.212278604507446289e-01 6.463574767112731934e-01
1.044010758399963379e+00 -1.360759496688842773e+00 -1.929138302803039551e+00 -2.482621371746063232e-02 2.183080911636352539e+00 6.706940531730651855e-01 -7.947782874107360840e-01 1.249285101890563965e+00 -2.025416344404220581e-01 -4.692672491073608398e-01
-7.052972316741943359e-01 1.166030287742614746e+00 1.106793761253356934e+00 -8.573433756828308105e-02 -1.786853909492492676e+00 -9.653304219245910645e-01 1.072153449058532715e+00 -1.298855543136596680e+00 1.974631845951080322e-01 1.250123381614685059e-01
