1.649079918861389160e-01 5.973390340805053711e-01 -4.097512066364288330e-01 -4.642363488674163818e-01 -2.304579317569732666e-01 3.160759210586547852e-01 -3.583230972290039062e-01 -2.962229214608669281e-02 -1.889157854020595551e-02 -3.130316138267517090e-01
-5.453555583953857422e-01 -2.454053312540054321e-01 2.511667609214782715e-01 5.559091567993164062e-01 -2.094326913356781006e-01 -4.969523847103118896e-01 -2.740438878536224365e-01 6.639605164527893066e-01 2.696790397167205811e-01 1.277821063995361328e-01
1.463122963905334473e-01 1.941518485546112061e-01 -7.327516078948974609e-01 -4.745337665081024170e-01 3.609794366639107466e-04 5.945062041282653809e-01 1.027061864733695984e-01 -2.758005261421203613e-01 -2.428931891918182373e-01 -2.501356303691864014e-01
2.664067447185516357e-01 -2.811743021011352539e-01 -9.032446146011352539e-01 2.923132181167602539e-01 -1.768603026866912842e-01 -4.195840060710906982e-01 1.061028242111206055e+00 -1.010465145111083984e+00 -4.156087338924407959e-02 2.755467891693115234e-01
-7.151731848716735840e-01 -3.086987137794494629e-01 4.838184714317321777e-01 7.201670408248901367e-01 -3.089496195316314697e-01 -6.771181225776672363e-01 8.363192901015281677e-03 4.861250519752502441e-02 1.249896883964538574e-01 -6.853204965591430664e-02
8.060888648033142090e-01 3.414511680603027344e-01 -9.741413593292236328e-01 1.581761240959167480e-02 -1.106864571571350098e+00 -1.766483187675476074e-01 -1.009665966033935547e+00 5.068121850490570068e-02 -8.011252433061599731e-02 -1.115338355302810669e-01
-3.085960149765014648e-01 -5.958250164985656738e-01 2.817057073116302490e-01 5.128952264785766602e-01 -3.057922422885894775e-01 -6.681297421455383301e-01 6.283550858497619629e-01 -3.203717172145843506e-01 4.263457059860229492e-01 4.333576560020446777e-01
2.473788708448410034e-02 3.051905333995819092e-02 -6.061394512653350830e-02 -5.310850739479064941e-01 7.541629076004028320e-01 6.455939412117004395e-01 3.885669112205505371e-01 -3.099056482315063477e-01 -1.281918138265609741e-01 -1.612921357154846191e-01
-3.000762760639190674e-01 -3.491818308830261230e-01 7.507635951042175293e-01 4.352127313613891602e-01 -2.948724031448364258e-01 4.028027132153511047e-02 1.987595856189727783e-01 3.654903173446655273e-01 1.367833465337753296e-01 2.438204884529113770e-01
3.915240466594696045e-01 4.406578838825225830e-01 -2.660821974277496338e-01 -4.630276560783386230e-01 3.059740960597991943e-01 5.564532279968261719e-01 1.238356977701187134e-01 -9.076713323593139648e-01 1.931437999010086060e-01 -2.356562465429306030e-01
