5.496036410331726074e-01 3.447123169898986816e-01 -5.841883420944213867e-01 2.430180013179779053e-01 7.015553712844848633e-01 3.599214553833007812e-01 2.271188199520111084e-01 5.204719901084899902e-01 5.010364651679992676e-01 -2.481888383626937866e-01
-5.870115756988525391e-01 -3.746059238910675049e-01 2.419134527444839478e-01 -3.495786190032958984e-01 -1.069402933120727539e+00 -1.626433730125427246e-01 -2.740850448608398438e-01 -5.134024024009704590e-01 -8.336780667304992676e-01 7.705519199371337891e-01
3.055028617382049561e-01 3.442951738834381104e-01 -5.980631709098815918e-01 2.397907972335815430e-01 1.465796470642089844e+00 4.771724939346313477e-01 6.252461075782775879e-01 5.867266654968261719e-01 9.117929339408874512e-01 -1.292280554771423340e-01
-5.575510859489440918e-01 -7.888598442077636719e-01 1.589893579483032227e+00 -1.249557256698608398e+00 -2.049060583114624023e+00 -6.410261392593383789e-01 -5.157402157783508301e-01 -2.377762943506240845e-01 -1.341561079025268555e+00 -2.424496598541736603e-02
-4.597805738449096680e-01 -7.231834530830383301e-01 3.279473483562469482e-01 -4.804360866546630859e-01 -9.139803647994995117e-01 6.310343742370605469e-01 -6.247098445892333984e-01 -3.270415365695953369e-01 -4.796895086765289307e-01 2.576844394207000732e-01
1.338231116533279419e-01 4.736172854900360107e-01 -7.920644283294677734e-01 1.079045891761779785e+00 1.926024436950683594e+00 8.208976984024047852e-01 3.355136513710021973e-01 5.509628057479858398e-01 1.347728013992309570e+00 -1.346278786659240723e+00
-5.080338120460510254e-01 -6.257247328758239746e-01 8.275077939033508301e-01 -5.996236801147460938e-01 -3.923136889934539795e-01 1.302826851606369019e-01 -7.321918010711669922e-01 -3.026893734931945801e-01 -7.318589687347412109e-01 1.115352846682071686e-02
-2.950916886329650879e-01 1.195632144808769226e-01 -6.434673070907592773e-01 7.039005756378173828e-01 1.280667066574096680e+00 7.004372477531433105e-01 3.855808973312377930e-01 3.546339869499206543e-01 8.035414218902587891e-01 3.258394300937652588e-01
-2.986108362674713135e-01 -7.525486946105957031e-01 5.723361372947692871e-01 -2.359457910060882568e-01 9.446839988231658936e-02 1.309516906738281250e+00 -3.528968095779418945e-01 -3.952587246894836426e-01 -7.280834913253784180e-01 3.690471649169921875e-01
4.254081249237060547e-01 -1.588603705167770386e-01 -5.765704512596130371e-01 3.410408198833465576e-01 8.798903822898864746e-01 8.145523071289062500e-01 3.226403892040252686e-01 2.391062527894973755e-01 6.861366629600524902e-01 -9.798018634319305420e-02
