-1.693735569715499878e-01 -1.686191931366920471e-02 1.694227457046508789e-01 2.268177568912506104e-01 2.034532129764556885e-01 -2.617378830909729004e-01 -1.757566481828689575e-01 3.151208758354187012e-01 1.253683567047119141e-01 -2.055530399084091187e-01 1.935834139585494995e-01 -1.976576820015907288e-02 1.836733222007751465e-01 -2.674751877784729004e-01 -4.648807644844055176e-02 -1.645617038011550903e-01 -1.015130504965782166e-01 2.268616110086441040e-01 -5.957640707492828369e-02 -1.903008073568344116e-01 5.371934548020362854e-02
-3.317203521728515625e-01 -2.403109818696975708e-01 -1.597163826227188110e-01 5.270678177475929260e-02 1.610146313905715942e-01 6.004629135131835938e-01 2.195112854242324829e-01 -8.772768825292587280e-02 -7.703950405120849609e-01 -1.017312109470367432e-01 -2.706308476626873016e-02 3.779417574405670166e-01 -2.235765010118484497e-01 1.782860755920410156e-01 4.432268813252449036e-02 2.944965362548828125e-01 3.936351239681243896e-01 -3.080643117427825928e-01 7.882020473480224609e-01 2.185397446155548096e-01 1.727595329284667969e-01
-4.627530574798583984e-01 -2.602108940482139587e-02 8.645395189523696899e-02 4.643555879592895508e-01 1.607295870780944824e-01 3.070591688156127930e-01 3.716485202312469482e-01 -2.131713032722473145e-01 -2.192813754081726074e-01 -6.529469043016433716e-02 -2.922062873840332031e-01 -3.702484369277954102e-01 6.706380844116210938e-02 8.216375112533569336e-02 8.832799643278121948e-02 -2.178788632154464722e-01 1.077276915311813354e-01 2.413132339715957642e-01 3.431199789047241211e-01 -1.747879385948181152e-01 1.588493585586547852e-01
2.730659246444702148e-01 4.161878302693367004e-02 -2.374066114425659180e-01 -1.575849801301956177e-01 -2.498397827148437500e-01 -2.061593234539031982e-01 4.549654722213745117e-01 4.610158205032348633e-01 7.483325004577636719e-01 -3.261412978172302246e-01 3.981143832206726074e-01 -1.042325794696807861e-01 -2.332006990909576416e-01 -4.591710269451141357e-01 -5.476163700222969055e-02 -4.272834956645965576e-01 -2.881385982036590576e-01 2.888448536396026611e-01 -5.455608367919921875e-01 -2.345227599143981934e-01 -2.287858575582504272e-01
-3.231645226478576660e-01 2.542472779750823975e-01 -7.374448329210281372e-02 3.726024031639099121e-01 -1.050143130123615265e-02 5.610269904136657715e-01 1.079490929841995239e-01 -2.728435397148132324e-01 -2.355545759201049805e-01 7.716232538223266602e-02 -3.717066645622253418e-01 -6.066931784152984619e-02 -6.101485714316368103e-02 2.088576108217239380e-01 3.987429738044738770e-01 -1.301266849040985107e-01 -4.959001019597053528e-02 4.426807165145874023e-01 1.671469658613204956e-01 -7.173275202512741089e-02 3.666498363018035889e-01
-2.315459102392196655e-01 5.409129261970520020e-01 7.300810813903808594e-01 5.021619200706481934e-01 2.482868880033493042e-01 2.269933074712753296e-01 -2.881520390510559082e-01 -5.250239968299865723e-01 4.952203016728162766e-03 -1.245071589946746826e-01 -9.330648183822631836e-01 -1.300237417221069336e+00 5.431946516036987305e-01 -4.499618709087371826e-01 -1.737388521432876587e-01 4.498503208160400391e-01 -2.077603787183761597e-01 4.455295205116271973e-01 -5.497305989265441895e-01 4.184720292687416077e-02 3.041377961635589600e-01
-2.567579448223114014e-01 -5.464437883347272873e-03 5.412196516990661621e-01 5.795223712921142578e-01 2.726914584636688232e-01 -8.788391202688217163e-02 -6.339402794837951660e-01 -7.511986047029495239e-02 -3.177184164524078369e-01 -1.237452328205108643e-01 1.051646471023559570e-01 -5.802425146102905273e-01 3.170886933803558350e-01 1.031973585486412048e-01 4.650509953498840332e-01 7.224714010953903198e-02 -2.227092981338500977e-01 2.665137052536010742e-01 4.254606068134307861e-01 -3.739733397960662842e-01 5.519776940345764160e-01
-1.249733641743659973e-01 -1.513340920209884644e-01 -2.755669178441166878e-03 3.841546773910522461e-01 -4.616600275039672852e-02 8.006996512413024902e-01 3.866193294525146484e-01 -2.151441127061843872e-01 -4.421117305755615234e-01 3.171928524971008301e-01 -7.305749654769897461e-01 3.688070550560951233e-02 -1.625997424125671387e-01 -2.559129297733306885e-01 -9.347956627607345581e-03 -1.370863765478134155e-01 -5.429418385028839111e-02 -7.819808274507522583e-02 -1.191939320415258408e-02 1.948419399559497833e-02 5.484249442815780640e-02
2.863385714590549469e-02 -2.260764315724372864e-02 -1.239631026983261108e-01 -9.858448058366775513e-02 -1.875804215669631958e-01 7.411624491214752197e-02 4.149440526962280273e-01 1.995733529329299927e-01 5.445223450660705566e-01 3.586134314537048340e-02 2.402996420860290527e-01 1.100997477769851685e-01 2.499085217714309692e-01 -3.107796311378479004e-01 2.159784361720085144e-02 -4.283081889152526855e-01 -3.126487135887145996e-01 3.150784075260162354e-01 -2.364812195301055908e-01 -3.286215960979461670e-01 -2.657204568386077881e-01
-2.690761685371398926e-01 2.227717638015747070e-01 2.694943547248840332e-01 1.920515447854995728e-01 6.339931488037109375e-02 3.982120752334594727e-02 -2.923644185066223145e-01 1.536978185176849365e-01 1.416406631469726562e-01 -2.307791262865066528e-01 6.763894855976104736e-02 -4.111709892749786377e-01 -8.881816267967224121e-02 -2.631755173206329346e-01 1.368547081947326660e-01 5.950599536299705505e-02 -1.804504171013832092e-02 1.540334820747375488e-01 1.251321583986282349e-01 -1.584730595350265503e-01 -9.493263810873031616e-02
-2.935631573200225830e-01 2.586954534053802490e-01 2.261403053998947144e-01 1.058107540011405945e-01 -5.502202361822128296e-02 -2.923347651958465576e-01 -2.098012566566467285e-01 2.206777483224868774e-01 1.692328006029129028e-01 -2.960968017578125000e-02 -1.475473642349243164e-01 -6.943919062614440918e-01 6.554048508405685425e-02 -3.282297551631927490e-01 2.425637245178222656e-01 -1.248620916157960892e-02 -1.445338129997253418e-01 -1.449951995164155960e-02 1.630446761846542358e-01 -5.041626095771789551e-02 -4.625586327165365219e-03
3.370400667190551758e-01 -2.486039698123931885e-01 -5.895530581474304199e-01 -4.674054980278015137e-01 -1.232452541589736938e-01 -5.085021257400512695e-01 -3.832353949546813965e-01 5.540115237236022949e-01 -4.175317883491516113e-01 -6.899218261241912842e-02 4.069998264312744141e-01 1.027057409286499023e+00 -2.371218651533126831e-01 3.634352684020996094e-01 2.944788932800292969e-01 1.080411449074745178e-01 4.808314740657806396e-01 -8.022750020027160645e-01 3.118135631084442139e-01 3.026450984179973602e-02 -1.888863295316696167e-01
2.078504115343093872e-01 -5.422215163707733154e-02 -9.955381602048873901e-02 -1.495333313941955566e-01 -1.756834685802459717e-01 5.030282735824584961e-01 2.335943877696990967e-01 -1.727062463760375977e-01 -3.920607864856719971e-01 1.543558537960052490e-01 -2.887865900993347168e-01 5.248100161552429199e-01 -1.324920058250427246e-01 -5.294815301895141602e-01 1.525172591209411621e-01 -3.163321316242218018e-02 -7.360456138849258423e-02 -2.743713855743408203e-01 -1.631663180887699127e-02 -3.356887958943843842e-03 -1.156957522034645081e-01
-1.337781548500061035e-01 -2.415869832038879395e-01 -1.595665365457534790e-01 -1.455178111791610718e-01 1.102261543273925781e-01 3.605036139488220215e-01 1.041834652423858643e-01 -3.435633778572082520e-01 -1.841843724250793457e-01 2.972082048654556274e-02 -3.120471835136413574e-01 6.940262317657470703e-01 -3.330055251717567444e-02 -9.831559658050537109e-02 2.346398383378982544e-01 3.184103369712829590e-01 3.019764125347137451e-01 -2.071352154016494751e-01 3.778918683528900146e-01 2.561147212982177734e-01 6.425916403532028198e-02
4.544355273246765137e-01 -3.155958056449890137e-01 -9.116447567939758301e-01 -2.233523726463317871e-01 -5.044264793395996094e-01 1.750739812850952148e-01 7.565510272979736328e-01 5.418515801429748535e-01 -5.286242365837097168e-01 -1.175725236535072327e-01 -1.246141567826271057e-01 1.491244554519653320e+00 -3.458132147789001465e-01 -2.826519608497619629e-01 3.613274991512298584e-01 -2.088756710290908813e-01 3.064793348312377930e-01 -3.415521085262298584e-01 7.615465521812438965e-01 1.588519513607025146e-01 -2.685298025608062744e-01
-3.625060617923736572e-01 6.425756961107254028e-02 4.327950626611709595e-02 8.693774044513702393e-02 1.636197119951248169e-01 -4.130122065544128418e-01 -1.587141007184982300e-01 8.791990578174591064e-02 -3.687117397785186768e-01 2.308744639158248901e-01 -7.645736932754516602e-01 -2.222218215465545654e-01 -4.897020757198333740e-02 -9.312138557434082031e-01 -3.286324441432952881e-01 8.223971128463745117e-01 3.317237794399261475e-01 -3.858669996261596680e-01 3.384360373020172119e-01 2.304465323686599731e-01 -7.196757197380065918e-02
-6.474746018648147583e-02 1.782853752374649048e-01 -1.793801039457321167e-02 1.721331775188446045e-01 4.752340540289878845e-02 9.083457589149475098e-01 5.111775398254394531e-01 -5.397611260414123535e-01 -4.426105022430419922e-01 -1.317028999328613281e-01 -2.181785106658935547e-01 4.546602070331573486e-01 2.116376161575317383e-01 3.200847208499908447e-01 3.106063306331634521e-01 -3.162750005722045898e-01 5.950680375099182129e-02 3.245816230773925781e-01 2.567390799522399902e-01 -2.781928889453411102e-02 1.326519250869750977e-01
-1.842143386602401733e-01 1.316222250461578369e-01 8.999075740575790405e-02 2.513990402221679688e-01 2.758294641971588135e-01 -6.041596531867980957e-01 -3.875318169593811035e-01 3.395546972751617432e-01 -2.671582996845245361e-01 1.710661798715591431e-01 -3.810402378439903259e-02 -1.892231255769729614e-01 -5.095589160919189453e-02 -5.396108031272888184e-01 1.285331249237060547e-01 2.180411517620086670e-01 7.330784946680068970e-02 -2.839969396591186523e-01 5.222289562225341797e-01 -2.585831582546234131e-01 1.594648510217666626e-01
-2.265040576457977295e-01 7.094130665063858032e-02 6.640417873859405518e-02 2.274379320442676544e-02 3.660998120903968811e-02 2.311207540333271027e-02 -9.506534785032272339e-02 -1.147088874131441116e-02 3.351198136806488037e-01 1.218998339027166367e-03 -3.941003233194351196e-02 -1.523405015468597412e-01 2.075344622135162354e-01 -3.891227394342422485e-02 -1.274029761552810669e-01 -3.072380423545837402e-01 -2.169406861066818237e-01 2.777835130691528320e-01 -1.513553503900766373e-02 -1.015378460288047791e-01 1.116947382688522339e-01
2.922402620315551758e-01 -1.371687203645706177e-01 5.065232142806053162e-02 1.390129029750823975e-01 -3.425838053226470947e-01 1.349395066499710083e-01 -2.960945963859558105e-01 3.007260151207447052e-02 -2.041324675083160400e-01 2.551513314247131348e-01 -3.563414812088012695e-01 -1.506135314702987671e-01 3.607725724577903748e-02 -9.234327008016407490e-04 -1.541459262371063232e-01 1.993340551853179932e-01 -1.675245165824890137e-01 -5.032291635870933533e-02 -4.176972508430480957e-01 1.949636340141296387e-01 7.481034845113754272e-02
7.468243688344955444e-02 1.038401052355766296e-01 -3.227163851261138916e-01 1.148320138454437256e-01 2.429983615875244141e-01 -3.429256081581115723e-01 -4.151064455509185791e-01 -3.618603646755218506e-01 -8.988074213266372681e-02 7.210683077573776245e-02 7.466585636138916016e-01 -3.162010312080383301e-01 2.665834426879882812e-01 8.737750053405761719e-01 1.843186467885971069e-01 -1.282567381858825684e-01 1.492055803537368774e-01 2.904299646615982056e-02 -2.947771251201629639e-01 -1.958153694868087769e-01 -2.199215255677700043e-02
