-2.782257795333862305e-01 -2.724262177944183350e-01 -4.792262986302375793e-02 -1.030912622809410095e-01 3.143625855445861816e-01 3.459481596946716309e-01 -1.370778530836105347e-01 -3.083397150039672852e-01 3.056375682353973389e-01 6.198959797620773315e-02 4.287807941436767578e-01 -2.491614408791065216e-02 2.108262777328491211e-01 -7.537066191434860229e-02 9.635084867477416992e-02 -1.596064865589141846e-01 2.838263846933841705e-02 1.299128830432891846e-01 5.176096037030220032e-02 2.195105999708175659e-01 1.014326065778732300e-01
6.613405942916870117e-01 7.879906147718429565e-02 2.906025052070617676e-01 6.138338446617126465e-01 5.114157125353813171e-02 -2.424600720405578613e-01 3.396263122558593750e-01 3.054652512073516846e-01 1.623998284339904785e-01 -3.447865247726440430e-01 3.940208554267883301e-01 1.182727888226509094e-01 -3.235210180282592773e-01 -4.000638052821159363e-02 -3.026565909385681152e-01 -1.294758319854736328e-01 3.162319539114832878e-03 -4.432032704353332520e-01 -2.765367031097412109e-01 -2.856900990009307861e-01 -3.788614571094512939e-01
8.810201287269592285e-01 3.169899284839630127e-01 -2.885509729385375977e-01 3.300210237503051758e-01 4.641628265380859375e-02 -3.079653382301330566e-01 7.168952822685241699e-01 -1.389527916908264160e-01 6.364183425903320312e-01 -3.484728634357452393e-01 1.005904555320739746e+00 -1.737279891967773438e-01 -2.646296620368957520e-01 1.317811608314514160e-01 -1.513257324695587158e-01 4.680210351943969727e-02 8.278763294219970703e-02 -2.037069499492645264e-01 -3.009411506354808807e-02 -2.462327629327774048e-01 -4.412042498588562012e-01
-1.076264142990112305e+00 -2.812030315399169922e-01 3.029286675155162811e-02 2.558237612247467041e-01 6.202706694602966309e-01 -2.075776606798171997e-01 -1.708107143640518188e-01 -6.950552463531494141e-01 -1.295394897460937500e-01 6.847655177116394043e-01 -3.762619495391845703e-01 -6.372370719909667969e-01 8.077375292778015137e-01 4.724011719226837158e-01 6.736580133438110352e-01 -2.971913516521453857e-01 6.513270735740661621e-01 -6.538686901330947876e-02 2.912970781326293945e-01 6.727665066719055176e-01 4.394361078739166260e-01
6.919702887535095215e-01 6.498009562492370605e-01 -1.793971806764602661e-01 2.085436135530471802e-01 -1.469387765973806381e-02 -3.595093190670013428e-01 9.278499484062194824e-01 -3.117262423038482666e-01 7.549532055854797363e-01 -5.330538749694824219e-01 1.125681281089782715e+00 -5.469648241996765137e-01 -5.468349531292915344e-02 2.531903982162475586e-01 -3.641608655452728271e-01 2.254163175821304321e-01 2.817432582378387451e-01 -2.707981169223785400e-01 1.935772597789764404e-01 -1.915178447961807251e-01 -6.806371212005615234e-01
-4.950390160083770752e-01 9.969664365053176880e-02 -3.402559757232666016e-01 -9.070786237716674805e-01 -5.842342972755432129e-01 4.028451144695281982e-01 7.567326426506042480e-01 -6.295883655548095703e-01 -1.544482167810201645e-02 4.999085664749145508e-01 -1.159932017326354980e-01 1.377936244010925293e+00 -9.370353817939758301e-02 -7.297605276107788086e-01 -1.146300673484802246e+00 -4.347929060459136963e-01 -1.281700015068054199e+00 -1.342157363891601562e+00 5.007361173629760742e-01 1.463432908058166504e-01 -8.699747323989868164e-01
-3.948811590671539307e-01 1.813894659280776978e-01 -1.223774179816246033e-01 -4.005313217639923096e-01 2.120613455772399902e-01 6.562646627426147461e-01 -5.083971619606018066e-01 6.481368094682693481e-02 1.998994946479797363e-01 2.804571986198425293e-01 -1.536906580440700054e-03 7.169337272644042969e-01 8.268042653799057007e-02 1.592220067977905273e-01 -4.299228787422180176e-01 1.783387269824743271e-03 -3.309268057346343994e-01 -4.430861175060272217e-01 1.907747387886047363e-01 -2.329701036214828491e-01 2.872558832168579102e-01
9.404292106628417969e-01 3.776384890079498291e-01 -7.419165223836898804e-02 2.282647043466567993e-01 -5.953904390335083008e-01 -4.896508157253265381e-01 7.789705395698547363e-01 -2.707632780075073242e-01 7.834038138389587402e-02 -3.731599748134613037e-01 1.311397671699523926e+00 -2.399304211139678955e-01 4.303867369890213013e-02 1.671431809663772583e-01 -2.323133498430252075e-01 -1.688989847898483276e-01 -1.022099182009696960e-01 -1.520456969738006592e-01 -9.603986889123916626e-02 -2.993209660053253174e-02 -5.417888164520263672e-01
-7.941763997077941895e-01 1.615170091390609741e-01 -4.119412042200565338e-03 -1.247507110238075256e-01 4.228206574916839600e-01 1.160970889031887054e-02 -1.810004264116287231e-01 -4.639566838741302490e-01 -2.451724857091903687e-01 4.353148937225341797e-01 8.283209055662155151e-03 -2.837770581245422363e-01 3.370729386806488037e-01 2.088876366615295410e-01 3.651638627052307129e-01 -3.000476360321044922e-01 5.052219629287719727e-01 -2.319557666778564453e-01 2.945181131362915039e-01 4.776553511619567871e-01 1.073477603495121002e-02
-6.572723388671875000e-02 -3.509616255760192871e-01 -1.343337893486022949e-01 4.673153534531593323e-02 8.635739237070083618e-02 2.067638337612152100e-01 -3.521777689456939697e-02 -3.314134776592254639e-01 1.831288076937198639e-02 2.468475699424743652e-01 3.624439239501953125e-01 4.837690591812133789e-01 -1.652499437332153320e-01 1.079189404845237732e-01 -2.383175678551197052e-02 1.524264663457870483e-01 6.704004108905792236e-02 -2.128293216228485107e-01 1.749321967363357544e-01 7.285468280315399170e-02 1.246540918946266174e-01
-2.280873954296112061e-01 -1.909169852733612061e-01 -5.808670818805694580e-02 -5.689596384763717651e-02 3.325082734227180481e-02 3.110454380512237549e-01 1.237562820315361023e-01 -4.356562718749046326e-02 2.919545471668243408e-01 3.997157514095306396e-01 9.626142680644989014e-02 2.652819752693176270e-01 6.664294004440307617e-02 5.616386234760284424e-02 1.372388601303100586e-01 -1.894890815019607544e-01 -2.534847855567932129e-01 -2.817479670047760010e-01 2.417457997798919678e-01 1.186825633049011230e-01 1.365755051374435425e-01
-1.421939730644226074e+00 -6.823691129684448242e-01 -7.481961846351623535e-01 -6.163358688354492188e-01 -5.704095959663391113e-01 -2.604825794696807861e-01 -1.168118476867675781e+00 9.831538200378417969e-01 -1.080631852149963379e+00 1.286687254905700684e+00 -1.697423696517944336e+00 1.855068683624267578e+00 1.040418818593025208e-01 -1.060243010520935059e+00 -7.256579399108886719e-01 -2.514320015907287598e-01 -7.433941364288330078e-01 -5.457710027694702148e-01 6.412678956985473633e-01 1.578265726566314697e-01 -3.553552627563476562e-01
3.852832317352294922e-01 3.135690689086914062e-01 1.576967239379882812e-01 1.012544706463813782e-01 2.517256699502468109e-02 -3.812331259250640869e-01 4.199298322200775146e-01 2.633090913295745850e-01 -1.785538196563720703e-01 -2.114663422107696533e-01 3.944003283977508545e-01 -4.745406284928321838e-02 -4.447302967309951782e-02 1.401031464338302612e-01 1.009238958358764648e-01 9.395798295736312866e-02 -1.408382207155227661e-01 -1.109200790524482727e-01 -2.267156243324279785e-01 1.254715770483016968e-01 -2.406589984893798828e-01
1.045818924903869629e+00 2.503322660923004150e-01 3.961061239242553711e-01 9.830825924873352051e-01 9.935365617275238037e-02 -4.217599332332611084e-02 4.579468667507171631e-01 3.347628414630889893e-01 1.526123583316802979e-01 -3.051570653915405273e-01 7.239024639129638672e-01 -4.173553884029388428e-01 -4.251673221588134766e-01 -1.181940510869026184e-01 4.121817275881767273e-02 -8.410401642322540283e-02 -3.599095344543457031e-02 -5.429897904396057129e-01 -1.814729869365692139e-01 -2.737838327884674072e-01 -5.576130747795104980e-01
1.414242029190063477e+00 1.010537028312683105e+00 3.547095656394958496e-01 1.834032237529754639e-01 -5.201068520545959473e-01 -5.546488761901855469e-01 9.934717416763305664e-01 -4.598996341228485107e-01 4.219378530979156494e-01 -5.379455089569091797e-01 1.222929000854492188e+00 -5.144188404083251953e-01 2.825130224227905273e-01 -1.253315508365631104e-01 -7.469572424888610840e-01 2.602683603763580322e-01 -2.184521704912185669e-01 -5.271695256233215332e-01 6.362033486366271973e-01 1.316202990710735321e-02 -1.588556647300720215e+00
1.060384035110473633e+00 -4.506831765174865723e-01 8.861147761344909668e-01 9.445868730545043945e-01 4.907311797142028809e-01 -8.287162333726882935e-02 4.280974566936492920e-01 -2.935836017131805420e-01 4.404898285865783691e-01 -8.473848700523376465e-01 9.377218484878540039e-01 -1.830571651458740234e+00 -2.725845575332641602e-01 8.534526824951171875e-01 7.044455409049987793e-01 8.845911026000976562e-01 9.742415547370910645e-01 9.281021356582641602e-01 -7.952612042427062988e-01 -3.948729932308197021e-01 7.333712577819824219e-01
-1.322275280952453613e+00 -1.101536750793457031e+00 -6.721698641777038574e-01 -1.249701261520385742e+00 1.600912928581237793e+00 6.961966753005981445e-01 -1.938446283340454102e+00 2.058460474014282227e+00 -1.068099737167358398e+00 2.523323893547058105e-01 -1.887410044670104980e+00 1.293332338333129883e+00 8.088313788175582886e-02 -1.260297656059265137e+00 5.447829365730285645e-01 5.600117444992065430e-01 -5.767373442649841309e-01 7.698773741722106934e-01 -6.678819656372070312e-02 -7.179468870162963867e-01 9.089668989181518555e-01
9.656890034675598145e-01 -1.178466603159904480e-01 2.310764938592910767e-01 6.598954796791076660e-01 4.051734805107116699e-01 3.555674552917480469e-01 -9.608248621225357056e-02 7.983021438121795654e-02 6.006350517272949219e-01 -4.897556900978088379e-01 5.796278119087219238e-01 -6.274999380111694336e-01 -2.635959070175886154e-03 4.256018996238708496e-01 5.721547603607177734e-01 9.103235602378845215e-02 5.476775169372558594e-01 4.415310025215148926e-01 -1.879987716674804688e-01 -2.635417878627777100e-01 -1.493686437606811523e-01
-2.788424491882324219e-01 -2.352482527494430542e-01 7.648887485265731812e-02 -2.450009435415267944e-01 -7.649699598550796509e-02 9.041645377874374390e-02 -2.445003390312194824e-01 -7.821068167686462402e-02 -7.073204219341278076e-02 -5.440502986311912537e-02 1.562985032796859741e-01 -1.930136382579803467e-01 1.417693309485912323e-02 1.633773744106292725e-01 3.551858663558959961e-02 -1.794568151235580444e-01 1.927450448274612427e-01 6.031904369592666626e-02 -4.885147884488105774e-02 1.235370337963104248e-01 4.902564734220504761e-02
-3.747492730617523193e-01 -5.926864743232727051e-01 2.083326727151870728e-01 8.325351029634475708e-02 -5.961405113339424133e-02 4.711087346076965332e-01 5.187278389930725098e-01 -7.334252595901489258e-01 -6.252517551183700562e-02 3.437896966934204102e-01 -7.941736578941345215e-01 7.773426771163940430e-01 -8.112430572509765625e-01 -5.998713895678520203e-02 -2.037204951047897339e-01 -1.924042701721191406e-01 -7.665730118751525879e-01 -1.843573302030563354e-01 -5.630257129669189453e-01 -2.717722058296203613e-01 7.961741089820861816e-02
1.567497372627258301e+00 1.530539035797119141e+00 1.150769114494323730e+00 1.442187190055847168e+00 7.689286470413208008e-01 -7.714625000953674316e-01 1.234730243682861328e+00 -8.525106310844421387e-01 1.014943003654479980e+00 -1.524479866027832031e+00 1.648598670959472656e+00 -2.228269338607788086e+00 9.743472933769226074e-01 1.228598475456237793e+00 1.044669389724731445e+00 5.193052887916564941e-01 1.390074968338012695e+00 4.547093212604522705e-01 1.567351520061492920e-01 3.355263173580169678e-01 -1.003253936767578125e+00
