-3.680625557899475098e-01 -5.245391651988029480e-02 -7.386648058891296387e-01 7.468053102493286133e-01 7.968348264694213867e-01 -1.431690901517868042e-01 4.879943430423736572e-01 4.698256775736808777e-02 -5.940144881606101990e-02 -2.225804477930068970e-01
1.085078567266464233e-01 -6.614253669977188110e-02 5.839016437530517578e-01 -1.299677640199661255e-01 -5.114009380340576172e-01 1.697712391614913940e-01 -4.556918144226074219e-01 5.636574029922485352e-01 4.557810425758361816e-01 8.074418455362319946e-02
3.241907358169555664e-01 -1.062645837664604187e-01 2.318754941225051880e-01 -2.857004404067993164e-01 -7.211672067642211914e-01 5.160384178161621094e-01 -2.989431321620941162e-01 1.280380487442016602e-01 5.418250560760498047e-01 3.419844508171081543e-01
-7.864873856306076050e-02 -5.015419721603393555e-01 3.608618974685668945e-01 -2.543980479240417480e-01 -2.425055205821990967e-01 3.300109505653381348e-01 -1.016499921679496765e-01 2.220511436462402344e-01 3.450892493128776550e-02 4.267798364162445068e-02
8.002712130546569824e-01 -8.566400408744812012e-01 1.545495092868804932e-01 -4.795857891440391541e-02 -3.090879023075103760e-01 5.434720590710639954e-02 1.965092718601226807e-01 6.877727508544921875e-01 2.369462512433528900e-02 -7.191967219114303589e-02
3.916878104209899902e-01 -5.124570131301879883e-01 6.939719319343566895e-01 -5.838426947593688965e-01 -5.887920260429382324e-01 1.277004480361938477e-01 -8.600027300417423248e-03 2.599717378616333008e-01 1.965549774467945099e-02 -1.229193508625030518e-01
5.141333341598510742e-01 -5.531787872314453125e-01 2.388890683650970459e-01 1.057938486337661743e-01 -5.057768821716308594e-01 1.072319969534873962e-01 -6.845418829470872879e-03 4.268638193607330322e-01 3.649852275848388672e-01 5.733361840248107910e-02
-7.726367563009262085e-02 -3.401079475879669189e-01 6.465736031532287598e-01 -2.601526677608489990e-01 -6.285877823829650879e-01 3.982247412204742432e-01 -2.412019520998001099e-01 -3.271583914756774902e-01 9.585391730070114136e-02 2.080288231372833252e-01
4.818779826164245605e-01 -3.165801465511322021e-01 3.682195246219635010e-01 -6.307159066200256348e-01 -3.749624192714691162e-01 -6.722649186849594116e-02 -1.710302233695983887e-01 2.788610458374023438e-01 -1.761898845434188843e-01 8.370588719844818115e-02
1.062031462788581848e-01 -9.290130138397216797e-01 -4.400795698165893555e-01 1.087843418121337891e+00 -4.111700057983398438e-01 1.472793817520141602e+00 7.559027522802352905e-02 -8.392174243927001953e-01 7.044048309326171875e-01 3.540167808532714844e-01
