3.399882793426513672e+00 -1.243665255606174469e-02 -1.087066292762756348e+00 -9.572888016700744629e-01 -5.757892131805419922e-01 -8.192839622497558594e-01 9.329574108123779297e-01 3.287531137466430664e-01 -1.906251907348632812e-01 -3.456961512565612793e-01
-6.250143796205520630e-02 -5.754426121711730957e-01 4.647262394428253174e-01 1.968697756528854370e-01 5.624338984489440918e-01 5.976734757423400879e-01 -4.524039626121520996e-01 -2.257431000471115112e-01 -2.723225653171539307e-01 4.073961079120635986e-01
9.499214589595794678e-02 -6.912345886230468750e-01 7.674697041511535645e-01 5.045874714851379395e-01 8.406839370727539062e-01 5.926060080528259277e-01 -5.198498964309692383e-01 -5.625962615013122559e-01 -3.640535175800323486e-01 -9.087652899324893951e-03
2.123268842697143555e-01 -2.966211438179016113e-01 2.453036159276962280e-01 2.873119115829467773e-01 3.270229399204254150e-01 5.813508629798889160e-01 -3.831493854522705078e-01 -1.259812116622924805e-01 -2.258748412132263184e-01 1.135398522019386292e-01
-3.234196901321411133e+00 -2.079325765371322632e-01 3.986728489398956299e-01 4.516338706016540527e-01 7.158476710319519043e-01 6.205847859382629395e-01 -6.795135736465454102e-01 -5.965903401374816895e-01 -1.235283315181732178e-01 1.192098617553710938e+00
-7.173242568969726562e-01 -6.215452551841735840e-01 5.845761895179748535e-01 6.633436083793640137e-01 4.724624752998352051e-01 2.813536226749420166e-01 -5.326064825057983398e-01 -7.253780364990234375e-01 -6.238844394683837891e-01 9.211756289005279541e-02
-8.052478432655334473e-01 -4.675230681896209717e-01 3.689991831779479980e-01 1.840426623821258545e-01 1.561326533555984497e-01 5.919544696807861328e-01 -5.740797519683837891e-01 -4.101068526506423950e-02 1.166497915983200073e-01 2.545641958713531494e-01
1.003831744194030762e+00 -2.073122113943099976e-01 2.480043321847915649e-01 2.108325213193893433e-01 5.349392890930175781e-01 7.202480435371398926e-01 -4.008849859237670898e-01 -1.822795718908309937e-01 -4.065297916531562805e-02 -3.479956462979316711e-02
1.239565983414649963e-01 1.649291627109050751e-02 4.632633030414581299e-01 5.708437561988830566e-01 3.554982841014862061e-01 -2.573535032570362091e-02 -1.131317466497421265e-01 -5.608419179916381836e-01 -2.556006610393524170e-01 4.017255306243896484e-01
-2.254508495330810547e+00 -3.310491144657135010e-01 1.727973580360412598e+00 1.318983554840087891e+00 8.672218918800354004e-01 9.620521068572998047e-01 -8.673723340034484863e-01 2.756871581077575684e-01 4.665597081184387207e-01 -3.476621508598327637e-01
