5.443488061428070068e-02 -6.168751120567321777e-01 4.157028496265411377e-01 -2.627966105937957764e-01 -2.196391522884368896e-01 6.638999581336975098e-01 2.797715067863464355e-01 1.222513336688280106e-02 -2.115314155817031860e-01 -1.144707053899765015e-01
6.604151129722595215e-01 -7.142656445503234863e-01 6.379616260528564453e-01 1.046533659100532532e-01 -2.037265598773956299e-01 4.423565864562988281e-01 7.103460282087326050e-02 -2.737967371940612793e-01 -3.450686037540435791e-01 2.067184448242187500e-02
3.056027293205261230e-01 5.870295763015747070e-01 -6.249284148216247559e-01 8.913214206695556641e-01 7.316215038299560547e-01 -6.213349103927612305e-01 -8.419077396392822266e-01 4.987094998359680176e-01 5.436811447143554688e-01 -7.951091527938842773e-01
3.070057034492492676e-01 -1.883045583963394165e-01 8.503837585449218750e-01 -7.284039855003356934e-01 -2.398102432489395142e-01 5.929456353187561035e-01 -6.002333164215087891e-01 6.376763433218002319e-02 -1.568285077810287476e-01 -5.358927845954895020e-01
-6.198678538203239441e-02 -2.710230052471160889e-01 3.620416224002838135e-01 -1.870097965002059937e-01 -4.520658254623413086e-01 2.783392965793609619e-01 5.195197463035583496e-01 -3.010874092578887939e-01 -2.856523394584655762e-01 5.235567688941955566e-01
7.042265534400939941e-01 -4.319297373294830322e-01 2.929460704326629639e-01 -1.043291240930557251e-01 -5.433420538902282715e-01 2.383547425270080566e-01 -3.442713916301727295e-01 -3.609947562217712402e-01 -1.207353472709655762e-01 5.379004776477813721e-02
-1.886051148176193237e-02 -3.470323681831359863e-01 1.642676591873168945e-01 -2.403664588928222656e-02 -4.430367052555084229e-01 4.106331467628479004e-01 3.931281268596649170e-01 1.291080862283706665e-01 -3.789669275283813477e-01 2.479943782091140747e-01
-8.477997183799743652e-01 8.016961216926574707e-01 3.155508637428283691e-01 -1.148529410362243652e+00 -4.777699708938598633e-01 5.257219076156616211e-01 1.844109147787094116e-01 1.058617115020751953e+00 -8.132904767990112305e-02 -4.591856896877288818e-01
-3.709311187267303467e-01 3.081685900688171387e-01 -6.309331655502319336e-01 -4.549033567309379578e-02 5.911904573440551758e-01 -9.471216201782226562e-01 4.029789865016937256e-01 3.110087811946868896e-01 9.512112289667129517e-02 3.317396342754364014e-01
6.147391200065612793e-01 -6.822119951248168945e-01 3.660475313663482666e-01 1.534384787082672119e-01 -1.439234148710966110e-02 5.742923021316528320e-01 -5.019181221723556519e-02 -1.319780349731445312e-01 -2.599003016948699951e-01 3.972966969013214111e-01
