1.726786941289901733e-01 1.483330130577087402e-01 -2.778216004371643066e-01 5.670517683029174805e-01 4.420333504676818848e-01 -2.269123941659927368e-01 1.297468990087509155e-01 8.644057065248489380e-02 -1.231398880481719971e-01 -4.995109736919403076e-01
-3.401589021086692810e-02 3.506939411163330078e-01 -1.015547633171081543e+00 8.465167880058288574e-01 1.389703273773193359e+00 -5.441154241561889648e-01 2.967226207256317139e-01 -3.305198848247528076e-01 -2.765312790870666504e-01 -6.666119694709777832e-01
-2.122096270322799683e-01 -8.693889975547790527e-01 8.657719492912292480e-01 -5.702146887779235840e-01 -1.021876335144042969e+00 9.258921742439270020e-01 -5.022529363632202148e-01 -2.728181146085262299e-02 2.273706942796707153e-01 6.470682621002197266e-01
4.759300649166107178e-01 8.078893423080444336e-01 -1.428516149520874023e+00 1.608566999435424805e+00 1.809049248695373535e+00 -1.673927664756774902e+00 5.260373353958129883e-01 1.428687930107116699e+00 -2.167340993881225586e+00 -6.983213424682617188e-01
2.911762297153472900e-01 -1.875876784324645996e-01 -1.385235935449600220e-01 -9.759679436683654785e-02 -2.567536234855651855e-01 -6.228595599532127380e-02 -2.849043011665344238e-01 3.091462850570678711e-01 -3.857002854347229004e-01 -1.710321307182312012e-01
4.790098965167999268e-01 7.902600169181823730e-01 -7.256755232810974121e-01 8.174076080322265625e-01 1.812841057777404785e+00 -7.610713243484497070e-01 2.241916507482528687e-01 -8.177322894334793091e-02 -5.307644009590148926e-01 -4.399240612983703613e-01
3.445760309696197510e-01 6.898877620697021484e-01 -6.848425604403018951e-03 -8.382107317447662354e-02 -3.178715705871582031e-01 -4.511368870735168457e-01 -1.235160306096076965e-01 -4.474006127566099167e-03 -2.262692712247371674e-02 -1.553623378276824951e-01
5.821466445922851562e-02 -3.964215517044067383e-01 -2.128690481185913086e+00 1.623100280761718750e+00 4.743407964706420898e-01 -1.541128993034362793e+00 -2.901196479797363281e-01 2.408769607543945312e+00 -2.057762145996093750e+00 -7.054545879364013672e-01
-6.809657216072082520e-01 -2.304229587316513062e-01 5.232009887695312500e-01 -5.272334218025207520e-01 -7.002633810043334961e-01 4.596011042594909668e-01 -7.987480163574218750e-01 1.851662516593933105e+00 -1.233240142464637756e-01 4.090991020202636719e-01
-5.652368068695068359e-02 5.601078271865844727e-01 -3.420526385307312012e-01 5.417618751525878906e-01 8.798888921737670898e-01 -5.683958530426025391e-01 2.378554791212081909e-01 -5.419949293136596680e-01 -3.919394314289093018e-01 -6.214327216148376465e-01
