-2.175993286073207855e-02 1.913215816020965576e-01 -3.573495447635650635e-01 4.129215478897094727e-01 -3.791922926902770996e-01 -3.184943795204162598e-01 3.657748997211456299e-01 2.531920000910758972e-02 2.600481808185577393e-01 2.116937786340713501e-01
4.046510756015777588e-01 -9.966689348220825195e-01 -7.728912681341171265e-02 3.302226662635803223e-01 -3.870232999324798584e-01 -4.479374736547470093e-02 5.896271467208862305e-01 4.151605963706970215e-01 2.830521166324615479e-01 1.475187242031097412e-01
1.321016997098922729e-01 -5.017383098602294922e-01 4.702334403991699219e-01 -2.738918960094451904e-01 2.271490693092346191e-01 -2.109561562538146973e-01 2.799485027790069580e-01 -1.738068908452987671e-01 9.224156290292739868e-02 1.267987489700317383e-01
-1.180412322282791138e-01 2.114946097135543823e-01 -4.538474082946777344e-01 3.356167376041412354e-01 -5.310363173484802246e-01 3.009808063507080078e-01 3.331932127475738525e-01 5.747309327125549316e-01 3.138654828071594238e-01 8.661069720983505249e-02
-1.796272099018096924e-01 5.319435149431228638e-02 4.157049953937530518e-02 -4.376097917556762695e-01 -1.911174878478050232e-02 -2.221857458353042603e-01 -2.441578060388565063e-01 1.209992915391921997e-01 1.791828274726867676e-01 -6.360433995723724365e-03
4.468405544757843018e-01 -6.325725317001342773e-01 3.463299572467803955e-01 -1.848154813051223755e-01 -9.522428363561630249e-02 -1.044600531458854675e-01 -2.664068341255187988e-01 2.685445249080657959e-01 -1.875971853733062744e-01 -1.207092963159084320e-02
-5.124680399894714355e-01 4.586955904960632324e-01 -4.028152823448181152e-01 1.881171017885208130e-01 2.796352468430995941e-02 2.970060706138610840e-01 -1.249150186777114868e-01 1.266179978847503662e-01 -2.171593755483627319e-01 6.728872191160917282e-03
-4.175356030464172363e-01 3.500908911228179932e-01 1.037687882781028748e-01 1.971900463104248047e-01 -1.872012615203857422e-01 2.982960939407348633e-01 4.711436033248901367e-01 2.766306102275848389e-01 2.272906750440597534e-01 4.352452158927917480e-01
-2.262998670339584351e-01 4.321095049381256104e-01 -3.417336642742156982e-01 1.211726218461990356e-01 -5.882434248924255371e-01 -1.725016236305236816e-01 2.275153547525405884e-01 5.051173567771911621e-01 5.002273991703987122e-02 4.095399975776672363e-01
-3.377057015895843506e-01 -1.479733884334564209e-01 -3.630887866020202637e-01 5.194368958473205566e-01 -4.460478127002716064e-01 1.876832842826843262e-01 3.043006062507629395e-01 4.256621301174163818e-01 1.037238314747810364e-01 2.351548671722412109e-01
