4.976050853729248047e-01 3.008490987122058868e-02 6.671712547540664673e-02 3.016630113124847412e-01 2.452750802040100098e-01 -2.416583895683288574e-01 1.766286231577396393e-02 -8.793131262063980103e-02 -3.727135658264160156e-01 7.665535062551498413e-02
1.128971815109252930e+00 -2.060733437538146973e-01 8.001767992973327637e-01 1.522159576416015625e-01 1.151944994926452637e+00 -4.339133799076080322e-01 9.058156609535217285e-02 -9.701298922300338745e-02 3.085167519748210907e-02 -2.666393816471099854e-01
7.173495739698410034e-02 -4.907872527837753296e-02 -2.959011793136596680e-01 -3.299091160297393799e-01 -2.089307606220245361e-01 3.805508017539978027e-01 2.345739006996154785e-01 5.557868480682373047e-01 -2.405828982591629028e-02 -1.068544760346412659e-01
4.052622020244598389e-01 1.549215316772460938e-01 4.563215374946594238e-01 4.814897850155830383e-02 4.874455034732818604e-01 -3.093751668930053711e-01 -1.999184787273406982e-01 2.543217539787292480e-01 -4.633135199546813965e-01 -3.115990161895751953e-01
-1.602610647678375244e-01 4.398370981216430664e-01 1.893775612115859985e-01 -7.676766812801361084e-02 -1.789856851100921631e-01 -6.401328444480895996e-01 -1.294673793017864227e-02 -5.514281615614891052e-02 2.826691269874572754e-01 -2.261442877352237701e-02
-4.847058951854705811e-01 -7.284611463546752930e-01 -3.195068538188934326e-01 -6.951340436935424805e-01 -6.636679172515869141e-01 1.761000975966453552e-02 8.935047388076782227e-01 2.799772322177886963e-01 1.026933640241622925e-01 -3.261801600456237793e-01
4.654389917850494385e-01 2.780111134052276611e-01 -2.396550029516220093e-02 5.625606179237365723e-01 -1.258216351270675659e-01 -1.904414594173431396e-01 -5.594175457954406738e-01 -2.111622095108032227e-01 -1.333568394184112549e-01 5.221890807151794434e-01
3.970972895622253418e-01 -8.572547137737274170e-02 2.498400360345840454e-01 -4.095850046724081039e-03 4.383868575096130371e-01 -4.042702913284301758e-01 -4.372289478778839111e-01 1.657402813434600830e-01 -4.562193751335144043e-01 3.592499792575836182e-01
3.624477982521057129e-01 -1.646761298179626465e-01 3.683161363005638123e-02 4.626161754131317139e-01 1.370965689420700073e-01 -3.342938721179962158e-01 -2.262362241744995117e-01 -3.965971171855926514e-01 -3.564822375774383545e-01 -1.270406395196914673e-01
3.050662577152252197e-01 1.841326504945755005e-01 2.127470821142196655e-01 -2.132552303373813629e-02 6.610020995140075684e-01 -1.363096535205841064e-01 -2.690733969211578369e-01 -1.539699733257293701e-01 -6.158492341637611389e-02 -1.810335516929626465e-01
