3.901143968105316162e-01 4.915860593318939209e-01 4.519042372703552246e-01 -3.339349925518035889e-01 -2.173270434141159058e-01 4.953971505165100098e-01 -8.501734584569931030e-02 -3.776690363883972168e-01 -3.157964944839477539e-01 -1.938899606466293335e-01
5.321158766746520996e-01 6.165943741798400879e-01 5.751200392842292786e-02 -1.919440776109695435e-01 -2.289202064275741577e-01 8.677377104759216309e-01 -2.423178255558013916e-01 -9.945154190063476562e-02 -3.087597191333770752e-01 -5.979704484343528748e-02
1.049931526184082031e+00 -3.354857563972473145e-01 -5.624836087226867676e-01 1.114853769540786743e-01 6.871859431266784668e-01 -6.519454531371593475e-03 4.656285345554351807e-01 -6.647241115570068359e-01 6.082772612571716309e-01 3.284032642841339111e-01
2.954632639884948730e-01 -4.008702337741851807e-01 -4.889027476310729980e-01 6.695808172225952148e-01 5.549662113189697266e-01 4.324559122323989868e-03 -5.053601264953613281e-01 -2.746268808841705322e-01 -1.356100142002105713e-01 -3.005119264125823975e-01
-3.714118003845214844e-01 3.589253425598144531e-01 5.842217803001403809e-01 -9.635901451110839844e-02 -1.196020990610122681e-01 4.116334617137908936e-01 6.352047920227050781e-01 3.651906847953796387e-01 -3.331531882286071777e-01 2.831121385097503662e-01
5.375916361808776855e-01 -5.028542280197143555e-01 -3.073776662349700928e-01 1.970445662736892700e-01 4.849818944931030273e-01 -5.557866096496582031e-01 -2.785770297050476074e-01 -3.757452964782714844e-01 4.891626536846160889e-01 3.424793481826782227e-01
-3.625381886959075928e-01 3.247304856777191162e-01 2.189866900444030762e-01 -5.084552764892578125e-01 -5.053541660308837891e-01 2.400253564119338989e-01 2.851134836673736572e-01 -1.381297260522842407e-01 6.471832096576690674e-02 -1.716416478157043457e-01
5.602042675018310547e-01 7.813972234725952148e-01 4.985459446907043457e-01 -5.690723657608032227e-01 -1.353474855422973633e-01 9.237269163131713867e-01 4.534821808338165283e-01 -3.838828802108764648e-01 -7.154176831245422363e-01 -4.327048063278198242e-01
-4.652293324470520020e-01 -5.406718850135803223e-01 -6.051766276359558105e-01 6.439252495765686035e-01 5.089762806892395020e-01 9.437527507543563843e-02 -9.596605896949768066e-01 9.884066879749298096e-02 -4.809303581714630127e-01 -1.390309035778045654e-01
-4.836699962615966797e-01 1.049714814871549606e-02 5.269858837127685547e-01 -3.864570558071136475e-01 -1.074535101652145386e-01 -7.602889537811279297e-01 1.238728284835815430e+00 3.697589039802551270e-01 8.089839220046997070e-01 4.268177747726440430e-01
