4.181748926639556885e-01 -1.269514918327331543e+00 -9.543566107749938965e-01 -1.324695706367492676e+00 -2.388428449630737305e-01 -8.381847739219665527e-01 2.622510910034179688e+00 -5.558062195777893066e-01 -1.085756301879882812e+00 -5.483657717704772949e-01
-6.527045369148254395e-01 -8.840373158454895020e-02 2.734869718551635742e-01 2.408452481031417847e-01 1.677259206771850586e-01 -1.671797782182693481e-01 -1.494410514831542969e+00 -5.861646682024002075e-02 -7.180990278720855713e-02 6.603416204452514648e-01
2.158997058868408203e-01 7.177616357803344727e-01 7.094933390617370605e-01 7.212660312652587891e-01 -1.636733114719390869e-01 6.957148909568786621e-01 -1.089930772781372070e+00 6.793780922889709473e-01 1.232114076614379883e+00 8.317415416240692139e-02
1.090256690979003906e+00 7.523351311683654785e-01 5.562660098075866699e-01 6.679162979125976562e-01 -6.395638585090637207e-01 7.421098947525024414e-01 -4.978727176785469055e-02 6.663848757743835449e-01 -9.335985034704208374e-02 4.545918405055999756e-01
-1.590184271335601807e-01 -3.923265337944030762e-01 -5.715204477310180664e-01 -4.719455838203430176e-01 3.324700593948364258e-01 -3.201530873775482178e-01 6.969142556190490723e-01 3.512679785490036011e-02 -1.103524923324584961e+00 -7.257063686847686768e-02
3.209031224250793457e-01 4.590880274772644043e-01 6.510167121887207031e-01 1.136928126215934753e-01 -6.610547304153442383e-01 2.745491564273834229e-01 -5.743530988693237305e-01 4.763255715370178223e-01 8.044652938842773438e-01 1.483971923589706421e-01
-1.427836157381534576e-02 -3.473618924617767334e-01 -7.186467051506042480e-01 -2.027311623096466064e-01 -5.747751146554946899e-02 -3.528175354003906250e-01 8.897715806961059570e-01 -1.984594315290451050e-01 -1.236662626266479492e+00 -3.067045658826828003e-02
2.340913563966751099e-01 -1.260819554328918457e+00 -8.598452806472778320e-01 -1.381830453872680664e+00 1.250544786453247070e-01 -7.793061733245849609e-01 2.508533477783203125e+00 -5.469188690185546875e-01 -1.717345952987670898e+00 -6.290701627731323242e-01
1.014623880386352539e+00 3.907156363129615784e-02 3.053693175315856934e-01 2.206979244947433472e-01 -7.863950133323669434e-01 5.197964608669281006e-02 1.211925506591796875e+00 2.996678352355957031e-01 -1.104699134826660156e+00 7.476126551628112793e-01
4.988192319869995117e-01 -1.317358970642089844e+00 -7.045235037803649902e-01 -4.449142515659332275e-01 2.147401124238967896e-01 -1.533863097429275513e-01 2.543065547943115234e+00 1.236137896776199341e-01 -3.248177766799926758e+00 8.696848154067993164e-01
