3.607330098748207092e-02 2.427473217248916626e-01 1.090012192726135254e-01 -3.358902335166931152e-01 -5.167507529258728027e-01 -6.181563735008239746e-01 2.183333784341812134e-01 -3.862687349319458008e-01 -6.989554762840270996e-01 5.138829723000526428e-02
5.806730985641479492e-01 -5.287428498268127441e-01 6.658474206924438477e-01 2.421726733446121216e-01 4.105802774429321289e-01 3.661040961742401123e-01 -5.395060181617736816e-01 -1.498357802629470825e-01 -3.242744207382202148e-01 -3.702254593372344971e-01
-4.053809642791748047e-01 2.363531440496444702e-01 -2.402115315198898315e-01 4.482077360153198242e-01 -6.667922139167785645e-01 -2.189382612705230713e-01 1.200945973396301270e-01 2.072016000747680664e-01 -3.114677965641021729e-01 -1.465215533971786499e-02
-3.068214654922485352e-01 7.295465469360351562e-01 3.425528109073638916e-02 -5.913560986518859863e-01 6.246652081608772278e-02 -1.765650212764739990e-01 5.928964018821716309e-01 -3.025783896446228027e-01 3.572623729705810547e-01 -4.487140849232673645e-02
-5.716228485107421875e-01 5.301313400268554688e-01 -5.074988007545471191e-01 1.779974400997161865e-01 -4.320178627967834473e-01 -4.844723641872406006e-01 5.832452774047851562e-01 4.617654904723167419e-02 7.103318348526954651e-03 2.053767889738082886e-01
2.313233315944671631e-01 4.023370444774627686e-01 5.526630878448486328e-01 -1.229024767875671387e+00 -3.310015797615051270e-02 -5.182371735572814941e-01 1.509381234645843506e-01 -5.520690083503723145e-01 6.937393546104431152e-01 2.181212753057479858e-01
-3.455142257735133171e-03 -4.518660306930541992e-01 2.557855844497680664e-01 -3.760799765586853027e-01 4.522742629051208496e-01 5.186020135879516602e-01 -1.601708084344863892e-01 -1.573992818593978882e-01 -2.488429695367813110e-01 1.046290323138237000e-01
1.291686594486236572e-01 2.372882328927516937e-02 -2.519354782998561859e-02 -1.589613705873489380e-01 7.747272253036499023e-01 3.927404582500457764e-01 -6.460835039615631104e-02 2.714958786964416504e-01 4.666208028793334961e-01 -1.731698364019393921e-01
7.518900632858276367e-01 -6.646181344985961914e-01 1.824549585580825806e-01 -2.574278116226196289e-01 5.291921496391296387e-01 6.219729185104370117e-01 -3.518097996711730957e-01 -5.875613167881965637e-02 1.405627131462097168e-01 -2.105461210012435913e-01
8.429739475250244141e-01 -3.514253720641136169e-02 5.610415339469909668e-01 -7.745697349309921265e-02 2.970704734325408936e-01 4.374489784240722656e-01 -5.757114291191101074e-01 -3.114781379699707031e-01 -7.905663847923278809e-01 2.144250124692916870e-01
