1.302641481161117554e-01 1.646669805049896240e-01 4.988668560981750488e-01 5.126475691795349121e-01 7.936263680458068848e-01 5.245056152343750000e-01 -1.483089447021484375e+00 5.207243561744689941e-01 -5.851420164108276367e-01 8.936896324157714844e-01
2.104876488447189331e-01 -7.364498972892761230e-01 -8.059825897216796875e-01 -1.308008670806884766e+00 -9.227560758590698242e-01 -4.877891242504119873e-01 1.148593664169311523e+00 -6.395358443260192871e-01 -1.820523142814636230e-01 -2.505239658057689667e-02
-3.049341738224029541e-01 1.431704759597778320e-01 -2.868910692632198334e-02 -3.741523623466491699e-02 -9.146547317504882812e-02 4.084102809429168701e-01 3.391948640346527100e-01 4.056115448474884033e-01 -6.221953630447387695e-01 8.821008205413818359e-01
-7.229855060577392578e-01 7.480763196945190430e-01 8.823463320732116699e-01 9.903107285499572754e-01 5.968242883682250977e-01 4.937554597854614258e-01 2.489097267389297485e-01 4.641953408718109131e-01 -2.629769966006278992e-03 -3.968807756900787354e-01
-6.681413054466247559e-01 4.782159626483917236e-01 1.489223390817642212e-01 5.198351144790649414e-01 7.962810993194580078e-01 6.849099993705749512e-01 6.901764869689941406e-01 2.390388697385787964e-01 -4.284515380859375000e-01 3.302604854106903076e-01
-5.626294016838073730e-01 8.236330151557922363e-01 1.232208609580993652e+00 9.866615533828735352e-01 6.584737896919250488e-01 5.842219591140747070e-01 -1.318901300430297852e+00 5.945254564285278320e-01 3.731125295162200928e-01 -7.864647544920444489e-03
3.950561881065368652e-01 2.972793392837047577e-02 -2.010339684784412384e-02 -7.374833822250366211e-01 -1.976827830076217651e-01 -1.585277915000915527e-02 -2.133313715457916260e-01 -4.447706416249275208e-02 8.698360621929168701e-02 -3.173535764217376709e-01
2.586258351802825928e-01 -2.941184341907501221e-01 -2.628378570079803467e-01 -9.643365144729614258e-01 -2.952709794044494629e-01 -2.613250613212585449e-01 1.508244633674621582e+00 -3.423376083374023438e-01 -1.055274531245231628e-01 3.620017766952514648e-01
2.075080201029777527e-02 -3.920992836356163025e-02 -5.644928812980651855e-01 -8.646587133407592773e-01 -7.214069366455078125e-01 -5.486243963241577148e-01 9.754983186721801758e-01 -8.763106167316436768e-02 -1.684199124574661255e-01 7.123731821775436401e-02
4.147763922810554504e-02 -2.558451592922210693e-01 -1.116262078285217285e+00 -1.599449038505554199e+00 -9.062052965164184570e-01 -9.527313113212585449e-01 1.575013995170593262e+00 -4.287179410457611084e-01 6.467893719673156738e-02 1.778129786252975464e-01
