5.712875127792358398e-01 2.673443555831909180e-01 5.693306922912597656e-01 -5.106086134910583496e-01 5.627486109733581543e-01 6.453810930252075195e-01 -4.063518941402435303e-01 2.526468038558959961e-02 -2.607982754707336426e-01 7.816211879253387451e-02
-8.574524521827697754e-02 2.392078340053558350e-01 -3.245262205600738525e-01 8.751105070114135742e-01 -8.751760125160217285e-01 -5.760818123817443848e-01 1.709370762109756470e-01 4.629973769187927246e-01 -6.541110575199127197e-02 3.140088915824890137e-02
-5.717916488647460938e-01 -5.169932842254638672e-01 -6.854231953620910645e-01 5.658140182495117188e-01 -5.240305885672569275e-02 -7.036924362182617188e-02 5.245653390884399414e-01 -3.716626167297363281e-01 -3.934002518653869629e-01 1.095161288976669312e-01
6.232850253582000732e-03 1.807554811239242554e-01 -7.418223470449447632e-02 7.665656805038452148e-01 -7.908292412757873535e-01 -6.582442522048950195e-01 5.071712136268615723e-01 2.467998564243316650e-01 -4.979894757270812988e-01 -2.483050711452960968e-02
-1.593836992979049683e-01 -5.195709466934204102e-01 -5.417968630790710449e-01 2.534271180629730225e-01 -3.883523344993591309e-01 -1.509418785572052002e-01 6.782194375991821289e-01 -2.568016350269317627e-01 1.114531159400939941e-01 2.770849466323852539e-01
-6.476404666900634766e-01 -1.334951519966125488e-01 -2.765077948570251465e-01 7.447018623352050781e-01 -4.738412499427795410e-01 -2.689945399761199951e-01 4.217179417610168457e-01 -2.254260182380676270e-01 -2.935484945774078369e-01 -3.057464025914669037e-02
3.370505273342132568e-01 4.310071468353271484e-01 -2.213886529207229614e-01 -2.240542620420455933e-01 4.442040324211120605e-01 7.092183828353881836e-01 1.462729573249816895e+00 7.053760886192321777e-01 -1.059566855430603027e+00 -2.540892362594604492e-01
-8.466274142265319824e-01 -7.559085488319396973e-01 -6.158643960952758789e-01 2.914633750915527344e-01 3.622498735785484314e-02 2.514569163322448730e-01 4.016665220260620117e-01 -1.123141124844551086e-01 -1.229223683476448059e-01 2.388326078653335571e-02
-5.655082464218139648e-01 -5.727553367614746094e-01 -3.637266159057617188e-01 4.872279763221740723e-01 -2.656987905502319336e-01 2.319460511207580566e-01 4.852163195610046387e-01 -1.617143899202346802e-01 -4.449579864740371704e-02 -1.765321195125579834e-01
-8.967295885086059570e-01 -3.760673105716705322e-01 -4.762469828128814697e-01 6.305647492408752441e-01 -4.562879502773284912e-01 -8.683392405509948730e-02 3.310177028179168701e-01 -3.364054262638092041e-01 -4.399912357330322266e-01 -2.061701714992523193e-01
