-7.564781308174133301e-01 1.079467177391052246e+00 -1.279305573552846909e-02 -2.189146131277084351e-01 -8.787357211112976074e-01 9.699019193649291992e-01 7.325789332389831543e-01 -2.751180715858936310e-02 7.485097050666809082e-01 7.828113436698913574e-01
2.191242128610610962e-01 -7.338156104087829590e-01 4.733026623725891113e-01 7.800059914588928223e-01 3.446922004222869873e-01 -1.263230323791503906e+00 -6.977228522300720215e-01 1.401876688003540039e+00 -2.503905296325683594e-01 1.805950999259948730e-01
5.516731142997741699e-01 -3.957167565822601318e-01 5.102192759513854980e-01 5.562007427215576172e-01 6.973205804824829102e-01 -8.344752788543701172e-01 -3.210404217243194580e-01 -1.723050177097320557e-01 -7.204571273177862167e-03 -2.667791843414306641e-01
4.569364711642265320e-02 -8.103784322738647461e-01 2.862602174282073975e-01 7.155309915542602539e-01 3.674178421497344971e-01 -1.201044917106628418e+00 -6.636426448822021484e-01 1.258619189262390137e+00 -6.325840950012207031e-01 5.164220333099365234e-01
1.988672167062759399e-01 -8.519315719604492188e-01 -1.761524677276611328e-01 4.896107614040374756e-01 2.598714530467987061e-01 -7.360547780990600586e-01 -3.651380240917205811e-01 -5.002700164914131165e-02 -2.323838472366333008e-01 -3.847908675670623779e-01
2.168489396572113037e-01 -7.875118851661682129e-01 4.578917026519775391e-01 6.722845435142517090e-01 5.100548863410949707e-01 -1.154211163520812988e+00 -5.306352376937866211e-01 1.173339247703552246e+00 -5.244509577751159668e-01 1.348135769367218018e-01
5.418379977345466614e-02 7.744312882423400879e-01 -1.019989013671875000e+00 -1.036800026893615723e+00 -4.720546603202819824e-01 4.691800475120544434e-01 8.787367939949035645e-01 -1.259868383407592773e+00 8.586808443069458008e-01 2.091040760278701782e-01
-6.021201238036155701e-02 -1.038827538490295410e+00 1.853589892387390137e+00 1.001486301422119141e+00 -7.803104072809219360e-02 -1.318183541297912598e+00 -8.917692899703979492e-01 1.386022567749023438e+00 1.940930187702178955e-01 -1.052140235900878906e+00
-8.126012235879898071e-02 -8.999239802360534668e-01 1.674564003944396973e+00 1.032566785812377930e+00 1.448067873716354370e-01 -1.232792735099792480e+00 -5.950819253921508789e-01 1.230201363563537598e+00 -4.132545888423919678e-01 -8.607636690139770508e-01
1.693653166294097900e-01 -3.234680593013763428e-01 5.695124864578247070e-01 1.807136833667755127e-01 3.650950193405151367e-01 -1.113033175468444824e+00 -7.975330948829650879e-01 7.856695055961608887e-01 -9.905844926834106445e-03 -6.053870916366577148e-01
