-4.851691722869873047e-01 4.561518132686614990e-01 1.789714246988296509e-01 -2.500076889991760254e-01 8.105425536632537842e-02 8.274756255559623241e-04 -5.709856152534484863e-01 1.986002922058105469e-01 -4.531190916895866394e-02 1.897193342447280884e-01
-4.374778270721435547e-01 1.071287542581558228e-01 6.574590206146240234e-01 -6.233876347541809082e-01 2.532193064689636230e-01 3.526243269443511963e-01 -1.384240090847015381e-01 8.836679905652999878e-02 2.833322882652282715e-01 -5.975795909762382507e-02
6.307818293571472168e-01 -3.412174880504608154e-01 -4.945736825466156006e-01 1.290851235389709473e-01 -5.194165110588073730e-01 -1.409444585442543030e-02 3.638142347335815430e-01 -3.866218924522399902e-01 -3.480650484561920166e-01 -2.920379936695098877e-01
-5.984778404235839844e-01 4.617455303668975830e-01 2.023933231830596924e-01 -5.711674690246582031e-01 4.934252500534057617e-01 6.486887335777282715e-01 -2.718800902366638184e-01 7.525854557752609253e-02 -3.938369154930114746e-01 -6.789439916610717773e-01
-2.638341486454010010e-01 4.401295781135559082e-01 6.832882761955261230e-01 -4.987733662128448486e-01 5.282239317893981934e-01 3.432486671954393387e-03 -1.074982210993766785e-01 3.624845147132873535e-01 5.225751996040344238e-01 -3.924289941787719727e-01
2.369191497564315796e-01 5.314232781529426575e-02 -4.195349216461181641e-01 -5.056884288787841797e-01 -1.602387428283691406e+00 3.462998270988464355e-01 -1.609853096306324005e-02 1.706011056900024414e+00 5.018721818923950195e-01 -5.722182989120483398e-01
4.843613207340240479e-01 -5.012254714965820312e-01 -3.772852420806884766e-01 1.890002563595771790e-02 -3.037848174571990967e-01 -2.206476330757141113e-01 2.752600908279418945e-01 -3.721065223217010498e-01 -6.024253964424133301e-01 -5.199104547500610352e-02
-3.742988705635070801e-01 4.738698303699493408e-01 4.271255731582641602e-01 -4.089119434356689453e-01 7.897476851940155029e-02 2.335603386163711548e-01 1.429457776248455048e-02 1.077490523457527161e-01 6.286482512950897217e-02 -2.085329592227935791e-01
5.434309840202331543e-01 -1.824187636375427246e-01 -4.593568146228790283e-01 3.005476295948028564e-01 -6.792967319488525391e-01 -4.626828730106353760e-01 3.850276470184326172e-01 5.910428613424301147e-02 -4.901831150054931641e-01 -1.619488000869750977e-01
-3.578539192676544189e-01 1.243639588356018066e-01 2.289210557937622070e-01 -3.328933119773864746e-01 -3.092406988143920898e-01 6.368709802627563477e-01 -5.212762951850891113e-01 4.479602910578250885e-03 -6.213098168373107910e-01 -4.409800469875335693e-01
