-1.949744373559951782e-01 1.796253621578216553e-01 -5.188292264938354492e-01 -5.598387122154235840e-01 7.554107904434204102e-01 -1.473909467458724976e-01 -3.238309621810913086e-01 -1.345482766628265381e-01 -3.081693351268768311e-01 3.279114067554473877e-01
-2.973358035087585449e-01 3.114999234676361084e-01 -7.011624574661254883e-01 -3.728048205375671387e-01 8.436493873596191406e-01 -9.115017950534820557e-02 2.937465161085128784e-02 -4.866961836814880371e-01 2.576481103897094727e-01 -8.400699496269226074e-02
1.321151852607727051e+00 -1.261783003807067871e+00 9.250947237014770508e-01 8.714472055435180664e-01 -1.057929873466491699e+00 1.636611104011535645e+00 -4.230104684829711914e-01 -1.225966960191726685e-01 -3.139415383338928223e-02 -3.104283213615417480e-01
-7.624922394752502441e-01 5.119771957397460938e-01 -3.959606587886810303e-01 -6.064977645874023438e-01 7.149945497512817383e-01 -1.192754626274108887e+00 -6.120283007621765137e-01 -7.222809791564941406e-01 -2.632639706134796143e-01 4.484376609325408936e-01
-2.465197592973709106e-01 3.948118388652801514e-01 -7.249463796615600586e-01 -3.347743153572082520e-01 2.442706674337387085e-01 2.132778614759445190e-01 -1.104987859725952148e-01 -4.641356766223907471e-01 -1.239778995513916016e-01 -8.564742654561996460e-02
-1.597707748413085938e+00 1.900784015655517578e+00 -1.192987084388732910e+00 -1.256191253662109375e+00 9.590119123458862305e-01 -1.970491528511047363e+00 1.635575771331787109e+00 -6.219069957733154297e-01 6.629884839057922363e-01 1.069620847702026367e-01
9.547591209411621094e-01 -1.013426661491394043e+00 4.351425468921661377e-01 3.051203191280364990e-01 -4.750501513481140137e-01 1.125573515892028809e+00 -6.561437156051397324e-03 4.626204073429107666e-02 2.283371835947036743e-01 -5.900995135307312012e-01
-6.475276350975036621e-01 4.414652884006500244e-01 -2.690290212631225586e-01 -4.126172363758087158e-01 1.903180629014968872e-01 -3.139107227325439453e-01 -2.663051784038543701e-01 -2.762830555438995361e-01 -2.570039629936218262e-01 2.445479333400726318e-01
1.022170901298522949e+00 -8.513186573982238770e-01 2.041724175214767456e-01 8.284764885902404785e-01 -4.366778731346130371e-01 2.227318763732910156e+00 -2.743249535560607910e-01 6.198703646659851074e-01 -2.449276894330978394e-01 -2.812410593032836914e-01
-6.783673763275146484e-01 7.027628421783447266e-01 -7.160167694091796875e-01 -8.528641462326049805e-01 5.733419060707092285e-01 -1.644335746765136719e+00 -7.006903178989887238e-03 -6.127747893333435059e-01 -1.880901455879211426e-01 7.109189629554748535e-01
