5.784824490547180176e-01 1.131490021944046021e-01 3.397327661514282227e-01 -7.895082235336303711e-01 -6.715308874845504761e-02 -4.191136658191680908e-01 -3.671800345182418823e-02 -7.110652923583984375e-01 4.004669487476348877e-01 2.525458671152591705e-02
3.155390024185180664e-01 4.685001075267791748e-01 1.263706833124160767e-01 6.468528509140014648e-02 -5.648331046104431152e-01 -2.085752040147781372e-01 7.302221059799194336e-01 -1.773823648691177368e-01 2.806078270077705383e-02 -2.952811419963836670e-01
-5.414677411317825317e-02 -3.997521400451660156e-01 -1.267886813730001450e-02 4.150237441062927246e-01 2.699442207813262939e-01 1.340821832418441772e-01 -7.271515130996704102e-01 1.726612299680709839e-01 2.762286365032196045e-01 2.032309025526046753e-01
-1.639769822359085083e-01 -1.708800345659255981e-02 -5.820862650871276855e-01 2.078485935926437378e-01 8.389198780059814453e-01 5.361341238021850586e-01 -7.763344049453735352e-01 2.419660799205303192e-02 3.594871461391448975e-01 -4.890300333499908447e-03
5.952188372611999512e-01 4.409230649471282959e-01 1.983656585216522217e-01 -6.431849598884582520e-01 -1.423027366399765015e-01 -5.180309414863586426e-01 2.644112110137939453e-01 -7.727911323308944702e-02 5.047934651374816895e-01 -1.235444024205207825e-01
-9.095484763383865356e-02 -5.288472175598144531e-01 -3.275052607059478760e-01 2.569399178028106689e-01 9.014116525650024414e-01 2.694310247898101807e-01 -7.610673308372497559e-01 -1.670155227184295654e-01 3.601871728897094727e-01 -1.369358412921428680e-02
-2.086977362632751465e-01 -3.012930452823638916e-01 -5.555135011672973633e-01 -1.052135080099105835e-01 2.857885658740997314e-01 2.771401107311248779e-01 -7.416025996208190918e-01 1.826933920383453369e-01 -2.440358698368072510e-01 -1.816607266664505005e-01
8.536152541637420654e-02 6.468070149421691895e-01 1.266366988420486450e-01 -6.244785189628601074e-01 -2.316650450229644775e-01 -4.723199009895324707e-01 5.947859212756156921e-02 -3.272490203380584717e-01 4.412674605846405029e-01 -1.559458971023559570e-01
2.640770748257637024e-02 -4.384887963533401489e-02 -2.168205380439758301e-01 3.751793801784515381e-01 6.553850173950195312e-01 4.825475215911865234e-01 -4.546020030975341797e-01 -1.657693684101104736e-01 5.664876848459243774e-02 4.937171936035156250e-02
-6.514067947864532471e-02 -3.785030841827392578e-01 3.417312204837799072e-01 8.918267488479614258e-01 -7.653980702161788940e-02 5.195914581418037415e-02 9.197475314140319824e-01 5.871413946151733398e-01 -8.169450759887695312e-01 5.412463545799255371e-01
