-1.832708567380905151e-01 -6.875567436218261719e-01 6.271517872810363770e-01 7.460275292396545410e-01 7.875825166702270508e-01 -2.525542974472045898e-01 2.517487406730651855e-01 3.389675021171569824e-01 5.474598407745361328e-01 -9.967403020709753036e-04
-4.133481085300445557e-01 2.299424409866333008e-01 -7.684782892465591431e-02 3.902226984500885010e-01 -3.970194235444068909e-02 1.816819459199905396e-01 7.629866600036621094e-01 2.644689977169036865e-01 4.120853543281555176e-01 6.250725984573364258e-01
-3.919693231582641602e-01 3.871473670005798340e-01 -3.495809435844421387e-01 -8.732191324234008789e-01 -8.170217275619506836e-01 5.728681087493896484e-01 -9.908431023359298706e-02 -4.735255837440490723e-01 -6.613658070564270020e-01 -2.782550156116485596e-01
3.772706985473632812e-01 2.183596640825271606e-01 -1.083853721618652344e+00 -5.674825310707092285e-01 -1.005103349685668945e+00 6.116008162498474121e-01 -3.281797766685485840e-01 -6.186943054199218750e-01 -2.471765726804733276e-01 -7.812849432229995728e-02
-4.331285357475280762e-01 -2.466178089380264282e-01 5.849479436874389648e-01 3.908788561820983887e-01 3.849721550941467285e-01 -3.559180796146392822e-01 5.842836499214172363e-01 6.790860891342163086e-01 4.515657126903533936e-01 1.995043456554412842e-01
-3.650334477424621582e-01 7.871304750442504883e-01 -1.134279966354370117e+00 -8.853412866592407227e-01 -1.271866917610168457e+00 4.577118158340454102e-01 -1.668081283569335938e-01 -1.089606642723083496e+00 -7.486649751663208008e-01 1.183179840445518494e-01
-5.927605926990509033e-02 3.832573294639587402e-01 -7.557169795036315918e-01 -7.234055399894714355e-01 -2.975903749465942383e-01 4.506925046443939209e-01 -2.203359901905059814e-01 -1.006878852844238281e+00 -8.377503156661987305e-01 -2.649163007736206055e-01
-7.144328951835632324e-02 -6.282287836074829102e-01 8.697671890258789062e-01 7.991340756416320801e-01 6.670637130737304688e-01 -5.109857916831970215e-01 5.711369588971138000e-02 6.052216291427612305e-01 1.503630131483078003e-01 -1.985869836062192917e-03
-2.259195744991302490e-01 4.789845943450927734e-01 -7.147059440612792969e-01 -4.586077630519866943e-01 -9.684779047966003418e-01 7.145125865936279297e-01 -2.417897731065750122e-01 -8.447375297546386719e-01 -4.593004286289215088e-01 -1.136345863342285156e-01
-5.931237936019897461e-01 -4.686292409896850586e-01 6.307906508445739746e-01 -4.657312631607055664e-01 -5.295329540967941284e-02 -1.491931229829788208e-01 -4.648716151714324951e-01 -9.846720695495605469e-01 -3.353818058967590332e-01 1.196672201156616211e+00
