-4.434580504894256592e-01 -5.851624011993408203e-01 -6.491902470588684082e-02 -2.384321689605712891e-01 6.755086183547973633e-01 5.043779015541076660e-01 5.478753447532653809e-01 8.200227469205856323e-02 -2.750933170318603516e-01 1.593763828277587891e-01
3.643645346164703369e-01 5.790097713470458984e-01 4.971413314342498779e-01 2.425583302974700928e-01 -2.233757227659225464e-01 -5.291824936866760254e-01 -1.296532750129699707e-01 5.344833135604858398e-01 5.913763046264648438e-01 5.575126409530639648e-01
-2.888772785663604736e-01 -1.564911603927612305e-01 -1.775269061326980591e-01 -2.954184412956237793e-01 4.949606955051422119e-01 1.989054977893829346e-01 2.759881317615509033e-01 -6.202395074069499969e-03 -2.169306278228759766e-01 -5.973332002758979797e-02
-3.211408555507659912e-01 -3.604147434234619141e-01 -1.429656445980072021e-01 -5.685368180274963379e-01 7.625050097703933716e-02 3.796531260013580322e-01 3.286378681659698486e-01 -1.317435055971145630e-01 -1.441773623228073120e-01 -2.188503891229629517e-01
6.711148023605346680e-01 4.310089647769927979e-01 -1.546083539724349976e-01 7.986630797386169434e-01 -2.749681174755096436e-01 -1.490212380886077881e-01 -3.931697010993957520e-01 2.216155827045440674e-01 2.172021567821502686e-01 -4.805172979831695557e-02
2.286118417978286743e-01 3.165733218193054199e-01 2.557549774646759033e-01 5.675108432769775391e-01 -1.457048058509826660e-01 -4.529348611831665039e-01 -7.414484024047851562e-01 4.517908394336700439e-01 5.392233133316040039e-01 4.546501338481903076e-01
-3.373667299747467041e-01 -1.664003282785415649e-01 -5.304988622665405273e-01 -4.319566190242767334e-01 7.059884071350097656e-01 6.581891775131225586e-01 6.705948710441589355e-01 -3.652127683162689209e-01 -6.349831223487854004e-01 -4.915202856063842773e-01
-3.796603158116340637e-02 5.660808086395263672e-01 6.269468665122985840e-01 4.940262436866760254e-01 -3.576045632362365723e-01 -3.672310709953308105e-01 -1.855456233024597168e-01 6.770061254501342773e-01 2.765585184097290039e-01 5.954033136367797852e-01
6.634763479232788086e-01 6.163454651832580566e-01 -1.344411969184875488e-01 8.338044881820678711e-01 -5.225155353546142578e-01 -1.605356037616729736e-01 -3.007222712039947510e-01 -1.241326332092285156e-01 2.307901978492736816e-01 -9.389390796422958374e-02
-2.698005735874176025e-01 -3.321888744831085205e-01 -2.940937876701354980e-01 -3.700004518032073975e-01 -4.168789088726043701e-02 5.580762028694152832e-01 1.022261604666709900e-01 -3.719021379947662354e-01 -5.845906734466552734e-01 -7.750960439443588257e-02
