2.082075476646423340e-01 -2.278165072202682495e-01 1.100005149841308594e+00 -8.071730732917785645e-01 4.373599290847778320e-01 1.684468090534210205e-01 7.924016714096069336e-01 -2.059199512004852295e-01 -9.401596188545227051e-01 -2.822048962116241455e-01
-5.617723464965820312e-01 4.199399054050445557e-01 -2.533646766096353531e-03 7.460432648658752441e-01 1.174788117408752441e+00 -1.926965862512588501e-01 -2.908620238304138184e-01 -1.171394467353820801e+00 -1.617997884750366211e+00 -5.847160220146179199e-01
9.879355877637863159e-02 8.293142318725585938e-01 6.016049981117248535e-01 -1.988899707794189453e-02 5.403096079826354980e-01 6.295385360717773438e-01 1.162610501050949097e-01 -7.255566716194152832e-01 -6.846423447132110596e-02 -5.949451029300689697e-02
-3.046342134475708008e-01 -2.205443084239959717e-01 -3.351176977157592773e-01 6.359116435050964355e-01 -2.234960645437240601e-01 -3.636521697044372559e-01 -5.732935667037963867e-01 -1.543326228857040405e-01 -1.547435373067855835e-01 -1.110060606151819229e-02
2.766024768352508545e-01 7.214419245719909668e-01 5.320838186889886856e-03 8.702933788299560547e-02 2.638120651245117188e-01 5.761021971702575684e-01 -4.553691297769546509e-02 2.757266350090503693e-02 5.873764306306838989e-02 3.234334662556648254e-02
-2.364350259304046631e-01 -6.575742959976196289e-01 -4.558760821819305420e-01 6.440691947937011719e-01 -3.694450557231903076e-01 -5.341286659240722656e-01 -4.388790726661682129e-01 1.373015642166137695e-01 -3.403996527194976807e-01 -4.349349066615104675e-02
-4.669318497180938721e-01 -4.151944220066070557e-01 -9.837839007377624512e-02 6.230883672833442688e-02 8.167424052953720093e-02 -5.361557602882385254e-01 -9.305603057146072388e-02 -3.377044498920440674e-01 -3.067468702793121338e-01 -2.847995460033416748e-01
-6.307355761528015137e-01 -2.103245556354522705e-01 -4.476277232170104980e-01 2.580252587795257568e-01 5.358996987342834473e-01 -8.206476271152496338e-02 -2.277111709117889404e-01 -6.573846936225891113e-01 -8.942341804504394531e-01 -8.749614655971527100e-02
-5.477362275123596191e-01 -6.965152025222778320e-01 -5.754958987236022949e-01 4.503700733184814453e-01 -6.323544383049011230e-01 -4.972512125968933105e-01 -2.091735303401947021e-01 1.526371985673904419e-01 -3.589488193392753601e-02 -3.933130949735641479e-02
1.312211155891418457e+00 1.047013401985168457e+00 -1.085189543664455414e-02 -3.764730691909790039e-01 3.152982890605926514e-01 3.043691515922546387e-01 -4.553294479846954346e-01 -4.213308170437812805e-02 1.295495748519897461e+00 3.364396393299102783e-01
