4.426363110542297363e-02 -5.275264382362365723e-01 -5.058112144470214844e-01 -4.693686962127685547e-01 -5.682008340954780579e-03 6.559940520673990250e-03 2.684487104415893555e-01 2.676219940185546875e-01 4.947699904441833496e-01 -6.637433767318725586e-01
-2.495897412300109863e-01 6.111305356025695801e-01 4.033446907997131348e-01 7.388320565223693848e-01 -6.637929081916809082e-01 4.558428227901458740e-01 4.608419835567474365e-01 -3.295311927795410156e-01 -4.117886722087860107e-01 3.136582672595977783e-01
3.161029815673828125e-01 -2.603833675384521484e-01 -3.341215848922729492e-01 -5.526755452156066895e-01 -2.998876385390758514e-03 -5.908442735671997070e-01 3.162852302193641663e-02 1.824232935905456543e-01 4.767033271491527557e-03 -4.152884185314178467e-01
2.441209256649017334e-01 1.009499281644821167e-01 -1.939471662044525146e-01 -2.199649661779403687e-01 1.393298655748367310e-01 -4.571424722671508789e-01 9.870212525129318237e-02 1.921906471252441406e-01 4.153574109077453613e-01 -4.455940723419189453e-01
-4.360449016094207764e-01 4.442775547504425049e-01 1.595047563314437866e-01 3.423005044460296631e-01 -6.649910807609558105e-01 3.938406705856323242e-01 9.245792627334594727e-01 5.728763937950134277e-01 -1.014635920524597168e+00 3.767427802085876465e-01
-4.314740300178527832e-01 5.157092809677124023e-01 6.317163109779357910e-01 4.691607058048248291e-01 -3.611672222614288330e-01 7.504262328147888184e-01 5.941263437271118164e-01 -1.873399615287780762e-01 -4.523812234401702881e-01 5.953117609024047852e-01
2.027314854785799980e-03 -2.203379869461059570e-01 -1.880346387624740601e-01 -1.903605759143829346e-01 2.656099200248718262e-02 -2.656846642494201660e-01 6.731604337692260742e-01 6.790612339973449707e-01 2.061462700366973877e-01 -6.782962083816528320e-01
-5.930112600326538086e-01 6.135457754135131836e-01 3.815698921680450439e-01 8.848076462745666504e-01 -2.918154895305633545e-01 5.153505206108093262e-01 6.057497262954711914e-01 -6.254206299781799316e-01 -5.148595571517944336e-01 2.210482060909271240e-01
-6.593494415283203125e-01 3.478456437587738037e-01 5.087792277336120605e-01 4.970556795597076416e-01 -2.758736014366149902e-01 6.302431821823120117e-01 8.025808930397033691e-01 8.593229055404663086e-01 -7.282047271728515625e-01 5.513001680374145508e-01
6.463537365198135376e-02 -3.438501060009002686e-01 -3.640923202037811279e-01 -2.537487745285034180e-01 3.871529996395111084e-01 -1.811404377222061157e-01 1.913409233093261719e-01 4.975990056991577148e-01 5.498080700635910034e-02 -3.508090078830718994e-01
