4.829811751842498779e-01 1.025184392929077148e+00 7.003769278526306152e-01 -1.784875631332397461e+00 -4.317793846130371094e+00 -1.056844472885131836e+00 -1.398207783699035645e+00 3.045350074768066406e+00 -1.197419524192810059e+00 6.890135407447814941e-01
1.869402080774307251e-01 -9.089536070823669434e-01 2.756039425730705261e-02 1.009741783142089844e+00 9.929293990135192871e-01 2.710075378417968750e-01 6.276044249534606934e-01 -8.767060637474060059e-01 -1.487740036100149155e-02 2.441738247871398926e-01
-5.905452966690063477e-01 6.367433071136474609e-01 -4.220378398895263672e-01 -4.091783985495567322e-02 -2.382045388221740723e-01 8.428451418876647949e-02 -5.867603421211242676e-02 -1.687751337885856628e-02 2.912051975727081299e-01 -5.033892989158630371e-01
7.373777031898498535e-01 -5.990131497383117676e-01 5.817420482635498047e-01 6.479994058609008789e-01 -3.032344579696655273e-01 -6.110250949859619141e-01 5.453566312789916992e-01 -2.560518309473991394e-02 -4.606580436229705811e-01 9.182265400886535645e-01
-4.187568128108978271e-01 4.381220042705535889e-01 -6.017018556594848633e-01 -6.018247008323669434e-01 -1.647831648588180542e-01 5.112452059984207153e-02 -7.840943336486816406e-02 4.637719988822937012e-01 3.798604607582092285e-01 -3.758901357650756836e-01
5.318318605422973633e-01 -4.801755547523498535e-01 5.681625008583068848e-01 5.397022366523742676e-01 9.235655516386032104e-02 -5.573536157608032227e-01 4.413753747940063477e-01 -2.120229005813598633e-01 -6.995542049407958984e-01 2.610308229923248291e-01
6.489217281341552734e-01 -3.789271712303161621e-01 4.197364151477813721e-01 2.295619994401931763e-01 1.295173168182373047e-01 -3.098734319210052490e-01 5.562789440155029297e-01 1.170957833528518677e-01 -6.328241527080535889e-02 8.392633497714996338e-02
1.760192215442657471e-01 -3.193491399288177490e-01 6.720643639564514160e-01 9.985244274139404297e-01 1.005452990531921387e+00 1.391581296920776367e-01 5.862575173377990723e-01 -3.087224364280700684e-01 -1.261776089668273926e-01 3.768119812011718750e-01
8.996162414550781250e-01 -2.749767899513244629e-01 9.949396848678588867e-01 -1.730836629867553711e-01 -1.558107376098632812e+00 -1.391780734062194824e+00 3.960238993167877197e-01 4.972771704196929932e-01 -7.384623289108276367e-01 6.083505749702453613e-01
-4.010996222496032715e-01 1.920032739639282227e+00 1.907789468765258789e+00 -2.617677688598632812e+00 -3.159868717193603516e+00 -1.567349314689636230e+00 -9.849283099174499512e-01 3.393732547760009766e+00 2.614288032054901123e-01 -1.408261060714721680e+00
