-3.698306977748870850e-01 6.690630316734313965e-01 -6.578464508056640625e-01 1.138969287276268005e-01 5.058962702751159668e-01 2.957764863967895508e-01 3.910994529724121094e-01 -3.582960665225982666e-01 -1.434250385500490665e-03 -1.631865352392196655e-01
4.938489794731140137e-01 -2.413708418607711792e-01 4.810445308685302734e-01 -3.948715329170227051e-01 -7.706363499164581299e-02 -5.292127132415771484e-01 -1.835991740226745605e-01 -5.297572612762451172e-01 3.861422836780548096e-02 -3.493927791714668274e-02
-2.894573211669921875e-01 1.369927823543548584e-01 -3.731058239936828613e-01 3.054759800434112549e-01 5.250455737113952637e-01 2.997926473617553711e-01 5.263230204582214355e-01 -2.587884068489074707e-01 4.770320951938629150e-01 2.686894536018371582e-01
4.282271265983581543e-01 -3.225361406803131104e-01 7.257100343704223633e-01 -3.636749386787414551e-01 -5.070548653602600098e-01 -3.722792565822601318e-01 -4.166367352008819580e-01 -4.344931542873382568e-01 -2.051412463188171387e-01 2.189714461565017700e-01
-4.628990292549133301e-01 3.969591856002807617e-01 -4.561148285865783691e-01 1.957641690969467163e-01 4.185696840286254883e-01 3.521538972854614258e-01 2.127672135829925537e-01 4.161593317985534668e-01 2.637761831283569336e-01 -1.211535483598709106e-01
-2.215347886085510254e-01 -1.787317395210266113e-01 7.802190184593200684e-01 1.875988766551017761e-02 7.890035212039947510e-02 -6.681947708129882812e-01 1.394255608320236206e-01 -7.888283729553222656e-01 1.637389063835144043e-01 6.087918207049369812e-02
-2.556209266185760498e-01 2.803178727626800537e-01 -7.260846495628356934e-01 5.375170707702636719e-01 4.493853449821472168e-01 2.786352336406707764e-01 3.679015636444091797e-01 2.524234354496002197e-01 3.423854410648345947e-01 -2.389536499977111816e-01
7.550452947616577148e-01 6.173913553357124329e-02 5.366675928235054016e-02 -4.248594343662261963e-01 -8.837302029132843018e-02 -7.878797650337219238e-01 -6.748126745223999023e-01 3.033989481627941132e-02 -3.280636966228485107e-01 4.778847098350524902e-01
1.213217079639434814e-01 -3.411225080490112305e-01 4.157428443431854248e-01 -2.740080654621124268e-01 -2.661473155021667480e-01 -4.200780391693115234e-01 -2.438761107623577118e-02 -4.894896745681762695e-01 -1.974322944879531860e-01 -2.394518256187438965e-01
-4.972161948680877686e-01 -2.392189949750900269e-02 9.276133179664611816e-01 3.411000594496726990e-03 -4.495397210121154785e-01 -9.319936633110046387e-01 5.114014148712158203e-01 -1.302999854087829590e+00 7.128885984420776367e-01 -3.895581364631652832e-01
