-9.935412555932998657e-02 4.710278511047363281e-01 6.041117310523986816e-01 5.306264162063598633e-01 6.283758878707885742e-01 1.793511211872100830e-01 1.122423708438873291e-01 -2.114462107419967651e-01 3.089039325714111328e-01 1.916113048791885376e-01
3.914374113082885742e-02 -6.758425831794738770e-01 -4.493800103664398193e-01 -2.425537258386611938e-02 -7.844119668006896973e-01 -8.748603463172912598e-01 -2.640265524387359619e-01 6.420393586158752441e-01 -2.899479269981384277e-01 -1.227288916707038879e-01
-1.359157729893922806e-02 3.119727373123168945e-01 3.498187661170959473e-01 9.032274037599563599e-02 5.275666117668151855e-01 1.037105098366737366e-01 1.352832764387130737e-01 -5.343999266624450684e-01 3.966857492923736572e-01 2.523221671581268311e-01
1.617879122495651245e-01 -6.060153245925903320e-01 3.979239240288734436e-02 5.955013036727905273e-01 -6.156508922576904297e-01 -7.460644245147705078e-01 -2.915257215499877930e-01 9.141232967376708984e-01 -4.300771355628967285e-01 -3.310393691062927246e-01
-4.918378889560699463e-01 3.892356157302856445e-01 6.785760521888732910e-01 1.641673147678375244e-01 1.876382529735565186e-01 1.935057789087295532e-01 4.795029759407043457e-02 -5.229458808898925781e-01 1.514527499675750732e-01 5.931137204170227051e-01
-1.317631453275680542e-01 1.000272035598754883e+00 8.652713894844055176e-01 -4.218853116035461426e-01 1.358210325241088867e+00 6.954147815704345703e-01 4.491592943668365479e-01 -1.512045741081237793e+00 1.105195641517639160e+00 -1.438690572977066040e-01
-1.796533167362213135e-01 2.936317622661590576e-01 2.719603776931762695e-01 3.555528819561004639e-01 2.606881260871887207e-01 1.001536920666694641e-01 2.305099070072174072e-01 -4.501205310225486755e-02 3.702391088008880615e-01 5.246535539627075195e-01
-3.938878178596496582e-01 -5.533444881439208984e-01 -1.962074339389801025e-01 2.180892974138259888e-01 -4.019770324230194092e-01 -8.068420886993408203e-01 -1.017755627632141113e+00 1.360351204872131348e+00 -4.466977417469024658e-01 8.513412624597549438e-02
-2.773927152156829834e-01 -8.459046483039855957e-01 -2.391575127840042114e-01 5.568583607673645020e-01 -1.172593235969543457e+00 -9.014712572097778320e-01 -8.297669887542724609e-01 1.586284995079040527e+00 -7.929840087890625000e-01 -3.800846338272094727e-01
-6.092707067728042603e-02 6.547336578369140625e-01 6.012028455734252930e-01 -1.907420009374618530e-01 9.634159207344055176e-01 4.724070727825164795e-01 3.387568295001983643e-01 -6.979071497917175293e-01 1.024608492851257324e+00 -6.305420398712158203e-01
