3.096618652343750000e-01 4.609705507755279541e-01 2.157764732837677002e-01 7.281970381736755371e-01 5.956231355667114258e-01 6.102937459945678711e-01 5.651343464851379395e-01 8.300290703773498535e-01 7.089652419090270996e-01 8.480804413557052612e-02
-2.529569268226623535e-01 -7.517965435981750488e-01 -5.143088698387145996e-01 5.161050558090209961e-01 -4.639546871185302734e-01 -7.406507730484008789e-01 -4.400063157081604004e-01 -4.457840987015515566e-04 1.081474646925926208e-01 -3.128492534160614014e-01
2.074466496706008911e-01 1.696319580078125000e-01 -4.725112915039062500e-01 -7.181555032730102539e-01 3.421269357204437256e-01 -3.111780583858489990e-01 1.528407782316207886e-01 -1.006198301911354065e-01 -4.067450761795043945e-01 -3.229481726884841919e-02
3.604876697063446045e-01 6.633538603782653809e-01 4.929853677749633789e-01 1.682095974683761597e-01 5.344225168228149414e-01 5.614653825759887695e-01 3.839680850505828857e-01 -5.181197449564933777e-02 2.104314714670181274e-01 5.337387919425964355e-01
-1.180613398551940918e+00 2.275407910346984863e-01 5.166109800338745117e-01 -1.035479977726936340e-01 -3.707610666751861572e-01 7.621657848358154297e-01 -6.271370649337768555e-01 -3.974262773990631104e-01 -6.004797816276550293e-01 -7.532281875610351562e-01
-1.710918098688125610e-01 7.381256222724914551e-01 5.503088235855102539e-01 -9.909026324748992920e-02 5.046222209930419922e-01 5.777957439422607422e-01 2.405392825603485107e-01 1.646186560392379761e-01 -4.690466821193695068e-02 -5.041964352130889893e-02
-2.242819219827651978e-01 -6.161695718765258789e-01 -4.706732332706451416e-01 -1.285165101289749146e-01 -3.213167786598205566e-01 -5.549766421318054199e-01 -5.417771935462951660e-01 -9.682569652795791626e-02 -3.639758229255676270e-01 -5.192973017692565918e-01
3.326533734798431396e-02 2.493836134672164917e-01 -1.431892961263656616e-01 -1.105059742927551270e+00 3.110288456082344055e-02 -5.166817307472229004e-01 -1.726478487253189087e-01 -2.467086911201477051e-01 -1.987267583608627319e-01 -1.227439343929290771e-01
2.526969611644744873e-01 2.694567441940307617e-01 4.311038553714752197e-01 4.444645345211029053e-01 4.407561421394348145e-01 8.828078955411911011e-02 1.893752515316009521e-01 3.728834390640258789e-01 2.908657491207122803e-01 8.709678798913955688e-02
-5.953580886125564575e-02 -5.251727104187011719e-01 -1.965751051902770996e-01 -6.981714367866516113e-01 3.608012199401855469e-02 -5.594105124473571777e-01 6.396380066871643066e-02 -2.749308943748474121e-01 -2.787301540374755859e-01 9.434909373521804810e-02
