1.327628374099731445e+00 1.139285683631896973e+00 8.343188762664794922e-01 -8.276844620704650879e-01 4.608584642410278320e-01 -5.811830163002014160e-01 7.540264725685119629e-01 -5.424196124076843262e-01 -1.422139704227447510e-01 -2.577277123928070068e-01
7.311084270477294922e-01 -4.152353286743164062e+00 -3.694421648979187012e-01 1.373877882957458496e+00 -8.487779498100280762e-01 1.018871068954467773e+00 -4.786560237407684326e-01 1.177232980728149414e+00 -1.125550642609596252e-01 1.875760912895202637e+00
1.681509315967559814e-01 -1.626076221466064453e+00 8.624727278947830200e-02 3.832854926586151123e-01 -9.347434043884277344e-01 1.754787206649780273e+00 -4.538600444793701172e-01 6.317113041877746582e-01 -1.303010582923889160e-01 -5.867790579795837402e-01
5.398609638214111328e-01 6.971425414085388184e-01 7.283740043640136719e-01 -3.901411592960357666e-01 1.928389817476272583e-01 -3.768222630023956299e-01 6.389858126640319824e-01 -2.033861577510833740e-01 4.930379688739776611e-01 6.003153324127197266e-01
6.202771067619323730e-01 -1.397791981697082520e+00 -7.062349319458007812e-01 -1.252375841140747070e+00 -3.525641262531280518e-01 -1.095747947692871094e+00 -3.809292614459991455e-01 2.839910089969635010e-01 5.705889463424682617e-01 1.754028558731079102e+00
9.314597398042678833e-02 7.989171147346496582e-01 5.788368582725524902e-01 -4.895637929439544678e-01 1.214141026139259338e-01 -5.088336467742919922e-01 3.790910840034484863e-01 1.640714406967163086e-01 2.110525071620941162e-01 7.145049571990966797e-01
8.005542308092117310e-02 -1.470869779586791992e+00 -4.883004426956176758e-01 4.944510459899902344e-01 -7.577701807022094727e-01 2.259004116058349609e-01 -4.840962290763854980e-01 4.435497224330902100e-01 -1.021050587296485901e-01 3.534196913242340088e-01
3.922707438468933105e-01 -1.973497152328491211e+00 -4.950556457042694092e-01 1.835931688547134399e-01 -1.256726384162902832e+00 1.962276935577392578e+00 -5.673390030860900879e-01 1.021959066390991211e+00 1.312961131334304810e-01 -6.021560430526733398e-01
1.182097911834716797e+00 6.360673904418945312e-01 9.358944892883300781e-01 -8.457921147346496582e-01 7.669875025749206543e-01 -5.074542164802551270e-01 7.392234802246093750e-01 -2.858620882034301758e-01 1.656995266675949097e-01 -6.896729022264480591e-02
-3.824236094951629639e-01 -1.095289707183837891e+00 -3.048654794692993164e-01 2.138973325490951538e-01 -4.840370714664459229e-01 1.279996037483215332e+00 -3.583970367908477783e-01 4.204243719577789307e-01 2.151920348405838013e-01 -1.251663118600845337e-01
