-1.615876555442810059e+00 5.802678465843200684e-01 4.061906933784484863e-01 1.363286852836608887e+00 2.387264966964721680e-01 1.893335878849029541e-01 -3.979966938495635986e-01 -1.421249866485595703e+00 8.181786537170410156e-01 8.041552901268005371e-01
-5.950918793678283691e-01 2.428892068564891815e-02 7.006029132753610611e-03 4.396274685859680176e-01 -3.284877836704254150e-01 4.590741544961929321e-02 5.625009536743164062e-01 3.322926759719848633e-01 -1.287698149681091309e+00 2.721993029117584229e-01
6.442655324935913086e-01 2.105146199464797974e-01 3.064715564250946045e-01 -6.292101740837097168e-01 2.667767927050590515e-02 5.515718460083007812e-01 -1.463524401187896729e-01 -5.657845735549926758e-01 -1.887109279632568359e-01 5.607202649116516113e-01
7.052155733108520508e-01 5.401154160499572754e-01 -5.789576098322868347e-02 -1.119611859321594238e+00 -2.688735127449035645e-01 8.376214504241943359e-01 -1.883046478033065796e-01 -2.448558807373046875e-01 -1.979982703924179077e-01 2.459821403026580811e-01
2.155361324548721313e-01 -2.613838016986846924e-01 5.667398571968078613e-01 -3.602972626686096191e-01 7.990357875823974609e-01 -4.862042367458343506e-01 -3.636109232902526855e-01 3.982543647289276123e-01 -4.769970476627349854e-01 1.721300035715103149e-01
-2.923893630504608154e-01 -1.063752532005310059e+00 -3.141517341136932373e-01 5.350800156593322754e-01 -4.663770794868469238e-01 -6.544162631034851074e-01 6.817534565925598145e-01 5.167981386184692383e-01 2.920890152454376221e-01 -3.714712560176849365e-01
1.605131030082702637e+00 -7.670678496360778809e-01 4.518522322177886963e-01 -1.123446896672248840e-01 -3.891396820545196533e-01 1.039126142859458923e-01 8.620152622461318970e-02 -6.757796406745910645e-01 1.018237709999084473e+00 -3.183047845959663391e-02
8.977456688880920410e-01 -1.883245706558227539e+00 8.284122347831726074e-01 -7.287092208862304688e-01 1.047143697738647461e+00 8.426913619041442871e-01 -1.469174504280090332e+00 1.934862971305847168e+00 -7.402787804603576660e-01 -7.402894496917724609e-01
4.967359304428100586e-01 2.003981024026870728e-01 6.608020663261413574e-01 -4.381942152976989746e-01 -8.347602486610412598e-01 8.874168395996093750e-01 -5.425954237580299377e-02 9.812849014997482300e-02 -4.444049894809722900e-01 2.335477024316787720e-01
-3.483820557594299316e-01 -1.015786901116371155e-01 -2.159111350774765015e-01 7.512500882148742676e-01 -3.536066412925720215e-01 -6.019796133041381836e-01 2.419353872537612915e-01 7.158935070037841797e-03 4.913058280944824219e-01 -5.060410499572753906e-01
