4.653081417083740234e+00 5.566755771636962891e+00 -6.316644668579101562e+00 -4.518703937530517578e+00 -1.496153235435485840e+00
2.331959247589111328e+00 2.638278961181640625e+00 -3.025793552398681641e+00 -1.416177630424499512e+00 2.931759655475616455e-01
-9.615984559059143066e-01 1.016057357192039490e-01 4.900117963552474976e-02 5.210187435150146484e-01 -6.622267961502075195e-01
-2.134555578231811523e+00 1.263777375221252441e+00 -8.226571679115295410e-01 -3.885257244110107422e-01 -1.059585690498352051e+00
6.473366618156433105e-01 1.504766941070556641e+00 -6.715216636657714844e-01 2.626745998859405518e-01 -4.920260310173034668e-01
1.624345630407333374e-01 1.825984865427017212e-01 3.502527177333831787e-01 -3.336476981639862061e-01 9.979744553565979004e-01
1.653866648674011230e+00 2.872070074081420898e+00 -4.055018424987792969e+00 -1.045119881629943848e+00 -1.787179708480834961e+00
3.226453304290771484e+00 6.678537368774414062e+00 -7.804695129394531250e+00 -3.240807771682739258e+00 -2.184145450592041016e+00
-6.229190826416015625e-01 -4.970197677612304688e-01 9.770479798316955566e-01 3.039541095495223999e-02 -7.673974335193634033e-02
1.734621673822402954e-01 7.927159219980239868e-02 1.010558962821960449e+00 -3.388535082340240479e-01 3.763698637485504150e-01
