3.352415859699249268e-01 5.514241456985473633e-01 2.674534022808074951e-01 4.284558594226837158e-01 8.360090106725692749e-02 -2.681466042995452881e-01 2.178956381976604462e-02 3.211758434772491455e-01 -2.147922366857528687e-01 2.386345118284225464e-01 -5.448375642299652100e-02 7.397627085447311401e-02 2.572466135025024414e-01 -4.614641070365905762e-01 -4.492378532886505127e-01 -3.757782578468322754e-01 -2.843128144741058350e-01 1.896146833896636963e-01 -1.389960795640945435e-01 1.300185024738311768e-01
-3.415870964527130127e-01 4.122141599655151367e-01 -5.125496536493301392e-02 -5.635982155799865723e-01 -4.046080410480499268e-01 1.109056547284126282e-01 3.135087713599205017e-02 1.467245519161224365e-01 4.861607849597930908e-01 -1.081104278564453125e-01 1.973040550947189331e-01 -5.482760816812515259e-02 -2.312563508749008179e-01 1.077956482768058777e-01 4.664818942546844482e-01 -5.292509794235229492e-01 -7.788244485855102539e-01 -2.070886045694351196e-01 4.694833755493164062e-01 -3.339899778366088867e-01
1.442345142364501953e+00 2.569193542003631592e-01 4.262763261795043945e-01 3.292748630046844482e-01 8.324086070060729980e-01 -2.543452382087707520e-01 1.376041620969772339e-01 1.176222488284111023e-01 -5.818519368767738342e-02 2.758109271526336670e-01 -2.046561837196350098e-01 6.374776363372802734e-01 -2.070771902799606323e-02 5.174418091773986816e-01 -1.904308944940567017e-01 -7.873673737049102783e-02 -2.114797681570053101e-01 2.079622447490692139e-01 -3.749724030494689941e-01 1.613392829895019531e-01
-9.625470638275146484e-02 -1.047357320785522461e+00 -4.237369000911712646e-01 -2.987660467624664307e-01 -1.979608982801437378e-01 4.021244645118713379e-01 -1.488827317953109741e-01 -3.003799915313720703e-01 3.304649293422698975e-01 5.346481129527091980e-02 -7.159082591533660889e-02 -1.900158673524856567e-01 -3.710574209690093994e-01 3.812296390533447266e-01 3.470994532108306885e-01 -4.496242478489875793e-02 4.337597489356994629e-01 -3.248683810234069824e-01 -2.386615276336669922e-01 1.836229562759399414e-01
-1.786109805107116699e-01 5.012027025222778320e-01 -3.254702091217041016e-01 -1.371847093105316162e-01 7.047051191329956055e-02 -1.630088239908218384e-01 -4.726712703704833984e-01 -4.175701178610324860e-03 4.751834273338317871e-01 4.969672858715057373e-01 -1.305836737155914307e-01 1.986699700355529785e-01 -2.786694094538688660e-03 -8.090035989880561829e-03 6.767007708549499512e-02 -4.908639788627624512e-01 -5.137584209442138672e-01 -2.564739286899566650e-01 2.372293323278427124e-01 -2.077933549880981445e-01
1.241459369659423828e+00 4.501698911190032959e-01 3.383479313924908638e-03 -1.810452193021774292e-01 1.697060167789459229e-01 -1.927518993616104126e-01 5.837470293045043945e-01 6.087267994880676270e-01 9.021895378828048706e-02 -1.011583805084228516e+00 5.685895085334777832e-01 -3.431823477149009705e-02 2.960200607776641846e-01 -3.435550257563591003e-02 3.727524876594543457e-01 5.830800533294677734e-01 -3.413665592670440674e-01 6.435649394989013672e-01 1.497832685708999634e-01 -4.011242687702178955e-01
-2.145585417747497559e-01 4.013187587261199951e-01 -2.119087874889373779e-01 -4.317267835140228271e-01 -3.733619675040245056e-02 -4.243356361985206604e-02 -6.202057003974914551e-01 -8.625371754169464111e-02 4.011504352092742920e-01 2.145461738109588623e-01 3.126738667488098145e-01 2.136651426553726196e-01 1.695147454738616943e-01 1.814838796854019165e-01 2.093655318021774292e-01 -4.505094289779663086e-01 -1.032944321632385254e+00 -1.695030182600021362e-01 8.002469539642333984e-01 -3.790724277496337891e-01
4.680121839046478271e-01 4.346024692058563232e-01 2.948783338069915771e-01 4.313772022724151611e-01 6.434087455272674561e-02 -4.407360255718231201e-01 -2.422983571887016296e-02 2.645972371101379395e-01 -1.140640079975128174e-01 -5.556484684348106384e-02 -1.296158581972122192e-01 1.772877126932144165e-01 3.470345735549926758e-01 -2.102202475070953369e-01 -3.875396251678466797e-01 -1.818345189094543457e-01 -2.954764664173126221e-01 7.350898534059524536e-02 -7.775968313217163086e-02 -3.440438583493232727e-02
3.068524897098541260e-01 5.223008990287780762e-01 1.443538665771484375e-01 5.618785023689270020e-01 2.815935909748077393e-01 -4.084229171276092529e-01 -1.928123831748962402e-02 1.809830591082572937e-02 -2.011251598596572876e-01 -2.353232800960540771e-01 1.798947155475616455e-01 1.311650779098272324e-02 1.618937253952026367e-01 -3.325057327747344971e-01 -3.689204156398773193e-01 -3.624638170003890991e-02 -5.094707012176513672e-01 2.821518480777740479e-01 1.486557275056838989e-01 -6.833423674106597900e-02
4.608963727951049805e-01 6.622094511985778809e-01 4.976226687431335449e-01 5.004754662513732910e-01 5.043494701385498047e-01 -3.192278146743774414e-01 -1.156980916857719421e-01 3.494620323181152344e-01 -3.724815547466278076e-01 6.347981095314025879e-02 1.985192000865936279e-01 3.947641551494598389e-01 6.889551877975463867e-02 -1.958832144737243652e-02 -3.237762153148651123e-01 -6.624674052000045776e-02 -3.582287728786468506e-01 3.180017471313476562e-01 1.506850272417068481e-01 1.056676506996154785e-01
6.362760812044143677e-02 -6.074415445327758789e-01 -4.437011778354644775e-01 -4.150975048542022705e-01 -7.862702757120132446e-02 4.880920648574829102e-01 -2.879761457443237305e-01 -3.089366853237152100e-01 2.626098990440368652e-01 5.245577543973922729e-02 -3.173326700925827026e-02 -2.127019613981246948e-01 -4.127022922039031982e-01 3.827436566352844238e-01 2.502909302711486816e-01 1.307579129934310913e-01 2.749235332012176514e-01 -3.004160225391387939e-01 1.326534152030944824e-01 7.978592813014984131e-02
9.668239951133728027e-01 8.204330801963806152e-01 1.929361969232559204e-01 2.051502615213394165e-01 7.707778811454772949e-01 -2.023575156927108765e-01 -4.374126344919204712e-02 1.957267671823501587e-01 2.257009968161582947e-02 -1.753558665513992310e-01 3.912359476089477539e-01 3.747758567333221436e-01 -1.009278930723667145e-02 -1.647750139236450195e-01 1.910246014595031738e-01 -3.695327341556549072e-01 -8.396990895271301270e-01 2.767162024974822998e-01 4.075260087847709656e-02 1.955998837947845459e-01
2.422139406204223633e+00 9.723932147026062012e-01 1.202836409211158752e-01 5.032138824462890625e-01 1.071153998374938965e+00 1.251960080116987228e-02 1.223563328385353088e-01 -3.963497281074523926e-02 1.623260378837585449e-01 2.014075815677642822e-01 2.837333381175994873e-01 2.477668374776840210e-01 1.401656121015548706e-01 3.564458489418029785e-01 8.961164206266403198e-02 -6.184324622154235840e-01 -7.591412663459777832e-01 -1.580166667699813843e-01 1.610333919525146484e-01 5.651392936706542969e-01
-3.511660397052764893e-01 3.743591904640197754e-01 3.778704702854156494e-01 1.250096708536148071e-01 1.718916445970535278e-01 -3.992922902107238770e-01 -1.737413927912712097e-02 1.639576703310012817e-01 -3.141419291496276855e-01 2.086553722620010376e-01 1.761958897113800049e-01 3.529796004295349121e-02 9.357138723134994507e-02 -2.938663065433502197e-01 -8.826235681772232056e-02 -2.740410566329956055e-01 -2.538642585277557373e-01 3.452605307102203369e-01 6.995128002017736435e-03 -2.665579319000244141e-01
2.874186038970947266e-01 4.195475876331329346e-01 1.669512987136840820e-01 2.491663992404937744e-01 3.459045290946960449e-01 -4.683445394039154053e-01 -1.478556077927350998e-02 1.594788134098052979e-01 2.430728450417518616e-02 -1.126196682453155518e-01 -5.336168035864830017e-02 1.436948478221893311e-01 4.090133607387542725e-01 4.955866187810897827e-02 -3.737381696701049805e-01 -2.166819870471954346e-01 -6.025525927543640137e-01 2.627666592597961426e-01 2.189490348100662231e-01 -1.636059731245040894e-01
3.694605231285095215e-01 6.985311508178710938e-01 4.657189846038818359e-01 3.711988925933837891e-01 4.362190067768096924e-01 -2.593525946140289307e-01 2.070333361625671387e-01 -1.032431516796350479e-02 -1.758300662040710449e-01 -1.768270730972290039e-01 1.551195532083511353e-01 3.907561302185058594e-01 3.719135820865631104e-01 -3.533900976181030273e-01 -2.388842217624187469e-02 -1.601488888263702393e-01 -7.130888104438781738e-01 -3.327098488807678223e-02 -1.635005325078964233e-01 -3.988806530833244324e-02
-1.225479841232299805e-01 4.380051493644714355e-01 -8.935382962226867676e-02 -4.077398180961608887e-01 -5.930225551128387451e-02 -8.901190757751464844e-02 -2.543049305677413940e-02 1.437915861606597900e-01 2.338393330574035645e-01 2.016534656286239624e-01 2.253743410110473633e-01 2.391379624605178833e-01 6.371221691370010376e-02 -1.534807831048965454e-01 4.009997844696044922e-01 -5.429076552391052246e-01 -4.427835047245025635e-01 6.262462586164474487e-02 3.011932671070098877e-01 -2.651054263114929199e-01
3.128823041915893555e-01 2.835254073143005371e-01 7.141793519258499146e-02 3.949268460273742676e-01 1.726055145263671875e-01 -1.287633329629898071e-01 2.373127192258834839e-01 1.737963557243347168e-01 -3.018490672111511230e-01 -4.453871548175811768e-01 1.496665626764297485e-01 7.262124121189117432e-02 4.033208489418029785e-01 6.800331920385360718e-02 1.396796572953462601e-02 4.212129414081573486e-01 -1.624925285577774048e-01 1.633216589689254761e-01 -7.168184220790863037e-02 -2.632077336311340332e-01
-1.352478284388780594e-02 -5.173366069793701172e-01 -3.593301028013229370e-02 -1.277427226305007935e-01 -2.791012525558471680e-01 4.076102077960968018e-01 -2.000815421342849731e-01 -4.402941167354583740e-01 6.685190647840499878e-02 1.594194024801254272e-01 -9.618666023015975952e-02 -5.195573344826698303e-02 -3.340787291526794434e-01 2.028912156820297241e-01 2.823991179466247559e-01 -1.614975333213806152e-01 2.014079689979553223e-01 -2.939205467700958252e-01 3.017258048057556152e-01 -1.489873789250850677e-02
-5.208402872085571289e-01 -4.323375225067138672e-01 1.394888609647750854e-01 -3.043041527271270752e-01 1.340248137712478638e-01 -4.100164473056793213e-01 1.081790566444396973e+00 8.242599964141845703e-01 6.957595050334930420e-02 -1.428055524826049805e+00 1.082391757518053055e-02 -4.961869120597839355e-01 2.905660569667816162e-01 -5.418421700596809387e-02 7.678151875734329224e-02 8.199465274810791016e-01 5.388569086790084839e-02 5.742186903953552246e-01 3.198844790458679199e-01 -7.751723527908325195e-01
