5.297120809555053711e-01 3.994742929935455322e-01 -4.856695532798767090e-01 3.065364360809326172e-01 -3.915793001651763916e-01 -6.497008204460144043e-01 -5.441952943801879883e-01 5.003147125244140625e-01 -4.094629287719726562e-01 -6.150854825973510742e-01 5.357969999313354492e-01 4.959537088871002197e-01 4.386886358261108398e-01 6.239566802978515625e-01 7.070200443267822266e-01 4.272911846637725830e-01 2.941012755036354065e-02 -9.440005421638488770e-01 -9.178359806537628174e-02 4.641354382038116455e-01
-2.163104712963104248e-01 -1.049200296401977539e-01 2.652606964111328125e-01 -8.943545818328857422e-02 -4.585354402661323547e-02 4.763928949832916260e-01 1.310749500989913940e-01 1.634961552917957306e-02 3.271363973617553711e-01 5.716357231140136719e-01 -1.326287537813186646e-01 -2.853423953056335449e-01 -6.052381992340087891e-01 -3.720060586929321289e-01 -5.121515989303588867e-01 -3.981640040874481201e-01 -5.898455977439880371e-01 7.712296247482299805e-01 1.227212324738502502e-02 -2.556088864803314209e-01
2.910926043987274170e-01 3.869602084159851074e-01 5.307619925588369370e-03 3.167836666107177734e-01 -4.540189206600189209e-01 6.358189880847930908e-02 1.381544023752212524e-02 5.375251546502113342e-02 -2.918674349784851074e-01 -3.309306502342224121e-01 7.669898681342601776e-03 4.688825905323028564e-01 -2.600483894348144531e-01 -1.089072227478027344e-01 -2.024816751480102539e+00 -5.456969887018203735e-02 1.788698732852935791e-01 -2.688498049974441528e-02 4.128495752811431885e-01 6.891475319862365723e-01
-2.054373025894165039e-01 -2.284698635339736938e-01 3.236438632011413574e-01 -1.028869394212961197e-02 3.966313898563385010e-01 2.884404063224792480e-01 1.365392841398715973e-02 -2.690078318119049072e-01 3.360586762428283691e-01 1.809611618518829346e-01 -1.345090270042419434e-01 -2.152568697929382324e-01 -1.582413315773010254e-01 -2.237119078636169434e-01 -1.033187285065650940e-01 -1.759287714958190918e-01 -6.835395842790603638e-02 -8.451034873723983765e-02 2.342214733362197876e-01 3.254335522651672363e-01
7.144764810800552368e-02 -2.512624561786651611e-01 1.997463703155517578e-01 1.061619892716407776e-01 -1.923542320728302002e-01 7.676275074481964111e-02 2.443855404853820801e-01 -1.541933268308639526e-01 1.258559972047805786e-01 4.639403820037841797e-01 -1.700445562601089478e-01 -4.156012237071990967e-01 -5.440634489059448242e-01 -4.353668093681335449e-01 -7.313461303710937500e-01 -1.953050345182418823e-01 -6.686757206916809082e-01 6.758939027786254883e-01 6.045928597450256348e-01 1.201937571167945862e-01
2.003589719533920288e-01 -1.512569189071655273e-02 -1.770753711462020874e-01 2.057680487632751465e-01 -3.233322501182556152e-01 -4.158128798007965088e-01 -4.348610341548919678e-01 2.615837752819061279e-01 -2.615155279636383057e-01 -2.998824417591094971e-01 3.023218512535095215e-01 4.760935902595520020e-01 8.732479065656661987e-02 -3.793593123555183411e-02 2.757663838565349579e-02 3.377003967761993408e-01 2.078122943639755249e-01 -2.949754238128662109e+00 2.714047729969024658e-01 1.141409158706665039e+00
-1.724810749292373657e-01 1.856231130659580231e-03 1.338451802730560303e-01 -3.230190873146057129e-01 1.339693814516067505e-01 5.192034244537353516e-01 2.807791829109191895e-01 -7.343665510416030884e-02 4.017611443996429443e-01 3.896415829658508301e-01 1.144012883305549622e-01 -2.335259616374969482e-01 -7.400020956993103027e-01 -7.096378803253173828e-01 -9.062352776527404785e-01 -3.811935484409332275e-01 -5.349135994911193848e-01 9.539926648139953613e-01 6.845116615295410156e-01 -3.225993216037750244e-01
4.065551161766052246e-01 1.532376464456319809e-02 -2.323021143674850464e-01 2.781709730625152588e-01 -3.726490736007690430e-01 -3.735676109790802002e-01 -3.077854514122009277e-01 1.727134436368942261e-01 -2.637475728988647461e-01 -2.404744625091552734e-01 5.738897249102592468e-02 1.097185313701629639e-01 4.322484433650970459e-01 2.825482785701751709e-01 7.478921413421630859e-01 2.822324633598327637e-01 2.197427004575729370e-01 -2.413494884967803955e-01 1.452086865901947021e-01 -1.697859615087509155e-01
1.747391372919082642e-02 1.137463152408599854e-01 -4.204339534044265747e-02 3.322911262512207031e-01 -2.980447411537170410e-01 -2.985219359397888184e-01 -5.835327506065368652e-01 2.390912771224975586e-01 -1.813519001007080078e-01 -6.459392309188842773e-01 -8.029614388942718506e-02 6.493240594863891602e-01 5.692003369331359863e-01 5.453310012817382812e-01 3.202944695949554443e-01 2.960668206214904785e-01 7.909046858549118042e-02 -1.468744039535522461e+00 -5.135718733072280884e-02 2.788461744785308838e-01
3.424327373504638672e-01 1.617271155118942261e-01 -3.267778158187866211e-01 3.258129954338073730e-01 -3.616497814655303955e-01 -3.677798807621002197e-01 -1.747393310070037842e-01 5.508198216557502747e-02 -2.851200103759765625e-01 -5.319632887840270996e-01 1.927374303340911865e-01 2.851551771163940430e-01 2.534885108470916748e-01 6.452512741088867188e-01 2.942585051059722900e-01 2.086559236049652100e-01 4.830449521541595459e-01 -1.327644586563110352e+00 -1.187080815434455872e-01 2.118351310491561890e-01
-1.012551560997962952e-01 -3.428212106227874756e-01 3.910213112831115723e-01 -2.180168181657791138e-01 1.989639550447463989e-01 1.669673621654510498e-02 4.587127864360809326e-01 -3.569365143775939941e-01 3.298005163669586182e-01 4.801430404186248779e-01 -2.265782356262207031e-01 -4.336326420307159424e-01 -1.647286862134933472e-01 -6.615040451288223267e-02 -2.359254807233810425e-01 -4.024493694305419922e-01 -2.768854796886444092e-01 1.355350762605667114e-01 5.265363678336143494e-02 3.143276870250701904e-01
4.878821223974227905e-02 -4.150171205401420593e-02 1.914462260901927948e-02 1.528247594833374023e-01 -1.156886294484138489e-01 -1.157960072159767151e-01 -4.732825160026550293e-01 3.136154636740684509e-02 -4.681634902954101562e-01 -4.871898889541625977e-01 -3.087451756000518799e-01 3.225528895854949951e-01 5.242843627929687500e-01 1.066252231597900391e+00 8.944138288497924805e-01 5.243755504488945007e-02 5.227190852165222168e-01 -2.462205648422241211e+00 -4.130779951810836792e-02 8.250522017478942871e-01
3.882406651973724365e-01 1.433144807815551758e-01 -1.208004578948020935e-01 3.868298828601837158e-01 -3.792729675769805908e-01 -3.059884905815124512e-01 -1.989608108997344971e-01 1.942610740661621094e-01 -3.290654718875885010e-01 -4.765963181853294373e-02 1.429647952318191528e-01 4.930663108825683594e-01 -4.065833687782287598e-01 -3.479057922959327698e-02 -1.608019232749938965e+00 7.614063471555709839e-02 1.942536681890487671e-01 2.321010082960128784e-01 6.774097084999084473e-01 9.371618032455444336e-01
4.541167318820953369e-01 6.831952929496765137e-02 -3.019193410873413086e-01 3.965725004673004150e-01 1.222329437732696533e-01 -6.986587047576904297e-01 -1.077957272529602051e+00 1.270366162061691284e-01 -3.695868849754333496e-01 -1.185391783714294434e+00 2.694865763187408447e-01 9.580239057540893555e-01 2.070066928863525391e+00 2.479572772979736328e+00 2.685537576675415039e+00 5.806792974472045898e-01 1.084129333496093750e+00 -2.286803722381591797e+00 -2.101531982421875000e+00 -2.950989305973052979e-01
2.516951262950897217e-01 1.087024658918380737e-01 -1.195336133241653442e-01 3.341223895549774170e-01 -1.126950234174728394e-01 -2.845689058303833008e-01 -1.424285322427749634e-01 1.560986936092376709e-01 -1.379447430372238159e-01 -4.143721163272857666e-01 2.572983801364898682e-01 2.176533937454223633e-01 6.230843439698219299e-02 5.019801482558250427e-02 6.612622141838073730e-01 2.401021867990493774e-01 4.260209798812866211e-01 -3.038913309574127197e-01 -6.344386935234069824e-02 -9.846660308539867401e-03
3.092773854732513428e-01 2.758179605007171631e-01 -3.417702615261077881e-01 2.003432214260101318e-01 -2.904304563999176025e-01 -1.854739189147949219e-01 -1.590352654457092285e-01 1.905471384525299072e-01 -9.632454812526702881e-02 -4.808323681354522705e-01 8.118575066328048706e-02 4.398829936981201172e-01 6.306570768356323242e-01 4.177277982234954834e-01 7.189139723777770996e-01 2.700952291488647461e-01 4.216491281986236572e-01 -4.010091722011566162e-01 -1.460920870304107666e-01 8.202069252729415894e-02
2.039548307657241821e-01 1.965727508068084717e-01 4.324091225862503052e-02 1.186392679810523987e-01 -2.843299806118011475e-01 1.126646399497985840e-01 1.611721962690353394e-01 9.341776371002197266e-02 1.791916191577911377e-01 1.963097006082534790e-01 3.036249876022338867e-01 -2.139769792556762695e-01 -5.602138042449951172e-01 -4.290687441825866699e-01 -5.649352669715881348e-01 -1.245999708771705627e-01 -4.165943264961242676e-01 6.038010120391845703e-01 5.722108483314514160e-02 -2.104387432336807251e-02
-1.589224487543106079e-01 1.286298930644989014e-01 -3.905622288584709167e-03 1.306061297655105591e-01 4.424797371029853821e-02 -1.087981741875410080e-02 -4.002014100551605225e-01 2.046102136373519897e-01 -5.949877202510833740e-02 -7.812964916229248047e-02 -1.668664626777172089e-02 3.046694695949554443e-01 5.664436817169189453e-01 3.596821427345275879e-01 5.145912170410156250e-01 5.226043239235877991e-02 4.616179168224334717e-01 -1.126972913742065430e+00 -2.842433452606201172e-01 2.312131971120834351e-01
-1.953429281711578369e-01 -3.291243612766265869e-01 8.343902975320816040e-02 -2.470444738864898682e-01 3.932537436485290527e-01 3.284783065319061279e-01 3.304514884948730469e-01 -3.353504538536071777e-01 3.277230858802795410e-01 2.027948796749114990e-01 -8.654499799013137817e-02 -1.984295696020126343e-01 -2.315718382596969604e-01 -1.741748303174972534e-01 1.095753628760576248e-02 -1.353507488965988159e-01 -3.326779007911682129e-01 2.676881551742553711e-01 1.318837553262710571e-01 1.714038699865341187e-01
8.000436425209045410e-01 7.327588200569152832e-01 -6.479582786560058594e-01 5.621748566627502441e-01 -9.941837191581726074e-01 -5.356831550598144531e-01 -3.866311907768249512e-01 6.372013092041015625e-01 -7.792329788208007812e-01 -5.083674192428588867e-01 8.979262709617614746e-01 2.834990918636322021e-01 -1.517092347145080566e+00 -1.636231303215026855e+00 -2.901600122451782227e+00 9.797645211219787598e-01 -6.185470223426818848e-01 -1.876653552055358887e+00 1.768365859985351562e+00 3.485651493072509766e+00
