-1.794076859951019287e-01 -3.017227649688720703e-01 8.065525442361831665e-02 1.875012069940567017e-01 -3.726519346237182617e-01 7.221242785453796387e-02 -3.261553645133972168e-01 -1.166194528341293335e-01 -1.664374470710754395e-01 -1.014706566929817200e-01 2.797938585281372070e-01 -1.364235281944274902e-01 1.225133240222930908e-01 2.557187974452972412e-01 1.482000648975372314e-01 -1.783477067947387695e-01 -1.474692225456237793e-01 1.564577966928482056e-01 -1.067999079823493958e-01 -1.113080009818077087e-01
2.674651741981506348e-01 4.596009105443954468e-02 -4.522693455219268799e-01 -3.469072878360748291e-01 1.734762825071811676e-02 -2.172304391860961914e-01 6.844821572303771973e-02 4.060461744666099548e-02 1.732024997472763062e-01 -5.264716148376464844e-01 8.391496539115905762e-02 -1.662660241127014160e-01 1.430402398109436035e-01 4.963251948356628418e-01 -4.714434593915939331e-02 -1.429936438798904419e-01 -6.020551081746816635e-03 3.097432553768157959e-01 2.888444662094116211e-01 9.969013929367065430e-02
3.392118811607360840e-01 3.511667251586914062e-02 -2.374835312366485596e-01 -3.128497600555419922e-01 3.845668435096740723e-01 -7.474807649850845337e-02 -2.831992320716381073e-02 -2.662027021870017052e-03 3.113842010498046875e-01 -2.519771158695220947e-01 -7.248761504888534546e-02 -4.383938312530517578e-01 3.515309989452362061e-01 4.536908268928527832e-01 -1.702529042959213257e-01 -9.269483387470245361e-02 -2.965393364429473877e-01 4.913832843303680420e-01 3.362252712249755859e-01 3.381061255931854248e-01
3.521192669868469238e-01 2.609921991825103760e-01 -5.446615815162658691e-01 -3.444965481758117676e-01 3.085574209690093994e-01 -5.045392513275146484e-01 6.406458020210266113e-01 -4.328598380088806152e-01 1.367300748825073242e-01 4.717890620231628418e-01 -6.092155575752258301e-01 -1.846519261598587036e-01 1.393538564443588257e-01 -2.627910673618316650e-01 -3.377328813076019287e-01 2.472955435514450073e-01 5.438934564590454102e-01 3.956291079521179199e-02 -1.967642158269882202e-01 -2.792523205280303955e-01
3.883678913116455078e-01 5.019557476043701172e-01 -5.493639707565307617e-01 -4.676870703697204590e-01 9.847707301378250122e-02 -3.608267307281494141e-01 7.862024009227752686e-02 -4.891434311866760254e-02 4.314851164817810059e-01 -5.315401777625083923e-02 -4.003303647041320801e-01 -1.891459077596664429e-01 2.165247648954391479e-01 3.172669559717178345e-02 -2.111174464225769043e-01 5.484382435679435730e-02 1.470020264387130737e-01 -9.377171844244003296e-02 -3.525995090603828430e-02 1.312119700014591217e-02
1.086940541863441467e-01 3.546887636184692383e-01 -2.509651482105255127e-01 -2.542700469493865967e-01 6.309086829423904419e-02 -3.283306360244750977e-01 2.180452495813369751e-01 9.405741095542907715e-02 2.700662016868591309e-01 3.100072778761386871e-02 -2.097717523574829102e-01 -4.516994357109069824e-01 3.087164461612701416e-01 1.236833631992340088e-01 -1.342905312776565552e-01 -6.956527382135391235e-02 9.601844102144241333e-02 2.925799489021301270e-01 2.150548845529556274e-01 2.385075576603412628e-02
4.127726852893829346e-01 2.143000364303588867e-01 -1.729169785976409912e-01 -3.563883602619171143e-01 8.688779175281524658e-02 -2.412431538105010986e-01 3.354617655277252197e-01 -4.125384092330932617e-01 1.605359762907028198e-01 -2.464701831340789795e-01 -4.400973916053771973e-01 -3.259964585304260254e-01 1.385499835014343262e-01 4.385820627212524414e-01 -7.760979235172271729e-02 -2.858795821666717529e-01 -1.929980516433715820e-01 4.110946059226989746e-01 1.733519881963729858e-01 3.583584129810333252e-01
1.704263687133789062e-01 3.677280545234680176e-01 -3.702511489391326904e-01 -2.650178968906402588e-02 -1.023750603199005127e-01 -1.392573714256286621e-01 -9.080916643142700195e-02 -5.491455551236867905e-03 5.349478498101234436e-02 -7.682253122329711914e-01 1.248781755566596985e-02 -2.819843888282775879e-01 1.074113249778747559e-01 7.261151671409606934e-01 8.028704673051834106e-03 -8.053970336914062500e-01 -6.833691596984863281e-01 8.171066641807556152e-01 3.596538603305816650e-01 5.977327227592468262e-01
-3.573404252529144287e-01 -3.893461823463439941e-01 3.860818147659301758e-01 2.532240748405456543e-02 -2.133347690105438232e-01 1.810905784368515015e-01 -3.205162286758422852e-01 1.074819192290306091e-01 -8.640202879905700684e-02 1.804724894464015961e-02 3.594418466091156006e-01 -1.046855896711349487e-01 -1.962910145521163940e-01 -1.020161360502243042e-01 1.815449148416519165e-01 -6.879924982786178589e-02 -2.841929718852043152e-02 1.087147928774356842e-02 -1.803395301103591919e-01 -6.410158425569534302e-02
1.605503857135772705e-01 4.433524608612060547e-01 -1.778115630149841309e-01 -2.756929695606231689e-01 3.695060610771179199e-01 -3.542081415653228760e-01 2.112182229757308960e-01 3.311460837721824646e-02 2.790720760822296143e-01 -4.006011039018630981e-02 -3.119522631168365479e-01 -1.350054740905761719e-01 2.596731781959533691e-01 2.118368595838546753e-01 -2.830382287502288818e-01 -3.851296007633209229e-01 -1.166337728500366211e-01 2.928776144981384277e-01 9.939910471439361572e-02 1.850878000259399414e-01
-4.010270535945892334e-01 -1.778248548507690430e-01 -6.650365144014358521e-02 1.533108204603195190e-01 -3.584711849689483643e-01 2.520666122436523438e-01 -2.759160399436950684e-01 9.864606708288192749e-02 -1.262153238058090210e-01 -5.514166504144668579e-02 2.363205999135971069e-01 -6.967549026012420654e-02 -3.303494453430175781e-01 8.166615664958953857e-02 1.240506917238235474e-01 7.781212031841278076e-02 1.958223283290863037e-01 -5.756160616874694824e-02 -2.416608035564422607e-01 -3.685660660266876221e-02
2.729416191577911377e-01 3.958953022956848145e-01 1.035760715603828430e-02 -7.826103270053863525e-02 3.601823151111602783e-01 -1.422051489353179932e-01 1.803845316171646118e-01 -3.206218406558036804e-02 3.204098343849182129e-01 1.795800775289535522e-02 -1.328372210264205933e-01 -3.247466683387756348e-01 3.315094709396362305e-01 4.736765474081039429e-02 3.814042732119560242e-02 -8.890726603567600250e-03 -1.802826225757598877e-01 1.719351112842559814e-01 2.353917211294174194e-01 1.156228259205818176e-01
2.594618797302246094e-01 3.650597929954528809e-01 -3.962058424949645996e-01 -3.263249695301055908e-01 3.025856614112854004e-01 -4.123358428478240967e-01 2.783193886280059814e-01 -7.792524993419647217e-02 3.635235428810119629e-01 1.281094849109649658e-01 -4.572108685970306396e-01 -1.235363334417343140e-01 3.234212100505828857e-01 4.027000963687896729e-01 -3.168521523475646973e-01 2.212670631706714630e-02 -8.925903588533401489e-03 2.313588857650756836e-01 -1.685126274824142456e-01 1.429297924041748047e-01
4.638092219829559326e-02 6.449002027511596680e-02 -4.376660287380218506e-02 -3.866113424301147461e-01 2.304554283618927002e-01 -4.364510178565979004e-01 -3.207562118768692017e-02 -3.143852949142456055e-01 3.266549408435821533e-01 -7.186387479305267334e-02 -3.100720942020416260e-01 -1.521208137273788452e-01 3.935213983058929443e-01 4.675058126449584961e-01 -3.443033993244171143e-01 -4.232490956783294678e-01 -2.363382130861282349e-01 1.932225227355957031e-01 -7.434585690498352051e-02 8.852544426918029785e-02
-2.004696726799011230e-01 -5.734179913997650146e-02 1.852144002914428711e-01 1.592108458280563354e-01 -9.071291238069534302e-02 2.469226717948913574e-01 -2.881431877613067627e-01 1.770405173301696777e-01 -6.844891607761383057e-02 2.542253732681274414e-01 2.331825196743011475e-01 3.265793323516845703e-01 -2.850837111473083496e-01 -2.844240367412567139e-01 1.527752131223678589e-01 -4.772517457604408264e-02 1.347705125808715820e-01 -4.580453410744667053e-02 2.502242289483547211e-02 6.846152245998382568e-02
-1.095500290393829346e-01 1.134159136563539505e-02 3.826704919338226318e-01 3.970305323600769043e-01 -4.709791839122772217e-01 -1.341343764215707779e-02 -4.443276226520538330e-01 3.179250657558441162e-01 -1.984481662511825562e-01 2.629642188549041748e-01 2.312593907117843628e-01 7.602501511573791504e-01 -2.824260294437408447e-01 -2.829623222351074219e-01 2.958219349384307861e-01 2.810619026422500610e-02 -4.028746187686920166e-01 -1.249939203262329102e-01 1.570201069116592407e-01 1.029926463961601257e-01
-3.248454332351684570e-01 1.931423321366310120e-02 1.925278306007385254e-01 1.492146253585815430e-01 -1.204464882612228394e-01 2.592073976993560791e-01 -9.370060265064239502e-02 2.808830328285694122e-02 -2.822193205356597900e-01 1.486718207597732544e-01 2.164463996887207031e-01 2.448523193597793579e-01 4.473240301012992859e-02 8.078666776418685913e-02 7.025855779647827148e-02 5.413389205932617188e-02 2.403315752744674683e-01 -7.755951583385467529e-02 -2.666696906089782715e-01 -2.360831499099731445e-01
-2.537743449211120605e-01 9.889398515224456787e-02 5.640669465065002441e-01 3.638468980789184570e-01 -4.837826490402221680e-01 -2.524862997233867645e-02 -4.509507417678833008e-01 1.032435297966003418e-01 -2.657021284103393555e-01 1.408658474683761597e-01 -2.641251981258392334e-01 5.079241394996643066e-01 -2.747258841991424561e-01 -5.928420927375555038e-03 1.626522690057754517e-01 -2.463033199310302734e-01 -3.270503282546997070e-01 7.769340276718139648e-02 -1.025039702653884888e-01 -1.029869168996810913e-01
2.746910750865936279e-01 2.329195886850357056e-01 3.189252912998199463e-01 2.302929461002349854e-01 3.691434562206268311e-01 -5.976457595825195312e-01 5.177807807922363281e-01 -1.638725697994232178e-01 -2.729946076869964600e-01 6.901508569717407227e-01 -5.964878201484680176e-01 2.772362530231475830e-01 -1.147623807191848755e-01 -7.836846113204956055e-01 3.528327494859695435e-02 6.385821700096130371e-01 3.095161020755767822e-01 -6.460261344909667969e-01 -1.423192769289016724e-01 -2.410943061113357544e-01
-3.572650849819183350e-01 -2.856514453887939453e-01 7.005294412374496460e-02 6.861960887908935547e-02 -1.698365062475204468e-01 4.457440376281738281e-01 -2.808871865272521973e-01 2.355365604162216187e-01 -2.324603050947189331e-01 -9.970764815807342529e-02 3.525055944919586182e-01 1.432140320539474487e-01 -9.989251196384429932e-02 -1.396310627460479736e-01 1.827147901058197021e-01 5.470849201083183289e-02 2.378727048635482788e-01 -2.214323282241821289e-01 -9.182609617710113525e-02 -2.645340263843536377e-01
