1.935150325298309326e-01 -1.094479411840438843e-01 1.261617392301559448e-01 -1.032374203205108643e-01 4.331363365054130554e-02 -2.035779505968093872e-01 -2.443030709400773048e-03 -3.403672948479652405e-02 -6.347855329513549805e-01 1.708330363035202026e-01 1.478930860757827759e-01 6.034758687019348145e-02 -7.574268430471420288e-02 9.838119894266128540e-02 2.777450978755950928e-01 -2.892653346061706543e-01 2.046086192131042480e-01 9.259890764951705933e-02 3.502480685710906982e-01 -2.800208926200866699e-01
-1.007628068327903748e-01 1.525996476411819458e-01 6.943349540233612061e-02 1.257063597440719604e-01 -1.630182862281799316e-01 8.722222596406936646e-02 2.912380099296569824e-01 -2.256844043731689453e-01 1.911884993314743042e-01 -3.715906739234924316e-01 1.582724973559379578e-02 -1.485989838838577271e-01 8.121033757925033569e-02 4.657697379589080811e-01 -5.048196315765380859e-01 1.682120263576507568e-01 -4.343509674072265625e-02 -4.131030142307281494e-01 -1.993491053581237793e-01 -9.059344977140426636e-02
1.522930413484573364e-01 2.952239811420440674e-01 -5.526798311620950699e-03 3.856239914894104004e-01 -1.234354227781295776e-01 -2.042511701583862305e-01 9.860710054636001587e-02 -2.035499960184097290e-01 1.435065269470214844e-02 -3.908818066120147705e-01 3.041335046291351318e-01 -3.299808204174041748e-01 -9.447498619556427002e-02 5.086098313331604004e-01 -5.635206103324890137e-01 3.588370084762573242e-01 -5.866818502545356750e-02 -3.165629506111145020e-01 5.593011155724525452e-02 -3.445447981357574463e-02
3.516731038689613342e-02 1.130847409367561340e-01 3.800803720951080322e-01 1.943361386656761169e-02 -2.164373248815536499e-01 -2.743121385574340820e-01 2.044711112976074219e-01 -2.719208300113677979e-01 -5.485400930047035217e-02 -6.218783855438232422e-01 2.722492516040802002e-01 -2.352143675088882446e-01 -6.313149817287921906e-03 -4.239773750305175781e-02 -1.251889765262603760e-01 7.584363967180252075e-02 -4.834072589874267578e-01 -6.055696606636047363e-01 -6.762624979019165039e-01 9.700015187263488770e-01
2.989847660064697266e-01 2.539927363395690918e-01 8.049792051315307617e-02 2.351999878883361816e-01 -3.709943592548370361e-01 -2.633547782897949219e-02 4.409925341606140137e-01 -2.613520920276641846e-01 -2.861783206462860107e-01 -4.518236815929412842e-01 2.516725361347198486e-01 -1.277442574501037598e-01 9.261947870254516602e-02 3.736598491668701172e-01 -5.291678905487060547e-01 4.632658064365386963e-01 -4.957857131958007812e-01 -5.474458336830139160e-01 -3.987573981285095215e-01 6.096784472465515137e-01
1.065085828304290771e-01 1.488920450210571289e-01 1.646411120891571045e-01 2.799082100391387939e-01 -4.434283450245857239e-02 -2.721067070960998535e-01 2.913744151592254639e-01 -4.070441424846649170e-02 1.177259758114814758e-01 -3.084696233272552490e-01 3.199005499482154846e-02 -2.321964502334594727e-01 7.315542548894882202e-02 4.478627443313598633e-01 -1.676869392395019531e-01 9.703521430492401123e-02 -4.828317835927009583e-02 -4.764546155929565430e-01 -1.275059282779693604e-01 3.196841776371002197e-01
4.238598346710205078e-01 2.505515217781066895e-01 2.691686749458312988e-01 2.470351941883563995e-02 -1.027830168604850769e-01 -2.862312197685241699e-01 3.811685740947723389e-01 -3.636165559291839600e-01 -1.117567345499992371e-01 -3.594989776611328125e-01 3.032189607620239258e-01 -7.512994855642318726e-02 8.164360374212265015e-02 2.853506207466125488e-01 -5.318309664726257324e-01 5.184782743453979492e-01 -2.802293896675109863e-01 -4.294490218162536621e-01 -3.748414516448974609e-01 -4.376496002078056335e-02
1.758055984973907471e-01 5.334637165069580078e-01 5.573146343231201172e-01 3.336386382579803467e-01 -3.277748227119445801e-01 -5.124437212944030762e-01 5.483945012092590332e-01 -2.945798933506011963e-01 -9.123650789260864258e-01 -4.820585250854492188e-01 7.025845050811767578e-01 -2.010987251996994019e-01 -1.252791732549667358e-01 5.573130249977111816e-01 -5.142669081687927246e-01 5.946496129035949707e-01 -7.365802675485610962e-02 -1.918083578348159790e-01 1.195265352725982666e-02 -6.251030564308166504e-01
-1.456882506608963013e-01 5.561319366097450256e-02 -1.213333904743194580e-01 7.481161504983901978e-02 1.842162162065505981e-01 -4.446388781070709229e-02 -5.813563242554664612e-02 1.276304721832275391e-01 -2.611420154571533203e-01 3.619404435157775879e-01 -2.816033065319061279e-01 1.297897398471832275e-01 2.185267210006713867e-02 -3.208859264850616455e-01 5.529219508171081543e-01 -2.890770733356475830e-01 2.274968177080154419e-01 1.547932177782058716e-01 3.403558731079101562e-01 -1.718151569366455078e-01
2.462002038955688477e-01 2.456264011561870575e-02 2.936029732227325439e-01 2.120886147022247314e-01 -2.802206277847290039e-01 -1.826520860195159912e-01 9.774284064769744873e-02 -3.251184523105621338e-01 -7.962555438280105591e-02 -1.717059463262557983e-01 4.481731653213500977e-01 -4.076962172985076904e-01 9.601096808910369873e-02 3.421072959899902344e-01 -3.684663772583007812e-01 4.906390309333801270e-01 -2.089017778635025024e-01 -2.832332253456115723e-01 -1.595601886510848999e-01 1.205595061182975769e-01
6.321304291486740112e-02 -8.299495279788970947e-02 -1.094198003411293030e-01 -3.372055664658546448e-02 -7.034893147647380829e-03 -6.485708057880401611e-02 -3.170424699783325195e-01 2.034175097942352295e-01 -1.114548593759536743e-01 2.140271067619323730e-01 2.286492474377155304e-02 -8.365012705326080322e-02 -1.195841878652572632e-01 -2.689027488231658936e-01 2.856903374195098877e-01 -2.637563049793243408e-01 1.280009001493453979e-01 5.652054771780967712e-02 3.709922730922698975e-01 -2.322727292776107788e-01
2.427148520946502686e-01 3.309137523174285889e-01 1.957575529813766479e-01 2.257684320211410522e-01 -2.656266391277313232e-01 -2.679924070835113525e-01 2.969775497913360596e-01 2.699285931885242462e-02 -2.471462450921535492e-02 -2.507130205631256104e-01 2.895856201648712158e-01 -7.689271122217178345e-02 2.299097180366516113e-01 7.644523680210113525e-02 -3.643477559089660645e-01 3.946180045604705811e-01 -1.503777652978897095e-01 -2.835740149021148682e-01 -1.352875083684921265e-01 2.290956676006317139e-01
3.402464389801025391e-01 1.202538013458251953e-01 3.692875802516937256e-01 1.651965677738189697e-01 -2.877831459045410156e-01 -3.604083508253097534e-02 3.701221048831939697e-01 -4.389359354972839355e-01 -2.429421991109848022e-01 -4.135902523994445801e-01 2.619189620018005371e-01 -2.395856678485870361e-01 2.575314044952392578e-01 2.685151398181915283e-01 -3.681601881980895996e-01 3.101707100868225098e-01 -4.132524728775024414e-01 -5.179844498634338379e-01 -3.970265984535217285e-01 2.549251019954681396e-01
4.840083792805671692e-02 8.023106306791305542e-02 2.241729348897933960e-01 3.759929835796356201e-01 -2.447659224271774292e-01 -3.690570294857025146e-01 2.021721899509429932e-01 -4.055154025554656982e-01 -3.801239728927612305e-01 -1.822548657655715942e-01 3.993856906890869141e-01 -2.780890166759490967e-01 2.880760934203863144e-03 4.865849912166595459e-01 -3.542576432228088379e-01 1.338530480861663818e-01 -4.913803189992904663e-02 -5.012158751487731934e-01 -3.133469521999359131e-01 -9.682076424360275269e-02
1.711266487836837769e-01 -4.028994124382734299e-03 -1.322602480649948120e-01 1.765132322907447815e-02 2.165983021259307861e-01 -1.229977011680603027e-01 -1.283298134803771973e-01 1.940798908472061157e-01 -2.045910656452178955e-01 3.766126334667205811e-01 -1.604795902967453003e-01 -1.192688345909118652e-01 -7.043571025133132935e-02 -1.643716245889663696e-01 4.298084080219268799e-01 -4.046800434589385986e-01 -1.616270542144775391e-01 4.775617122650146484e-01 9.812259674072265625e-02 3.236785233020782471e-01
2.795838415622711182e-01 -6.666919589042663574e-02 1.706877946853637695e-01 -4.302171245217323303e-02 -7.430580444633960724e-03 1.199033856391906738e-01 6.025993078947067261e-02 -5.872362526133656502e-04 -6.855832934379577637e-01 3.713654577732086182e-01 3.281151950359344482e-01 -2.450240552425384521e-01 2.380535900592803955e-01 -5.049980282783508301e-01 6.913788318634033203e-01 -2.957192361354827881e-01 1.459416095167398453e-02 6.572738885879516602e-01 3.237334489822387695e-01 2.885605394840240479e-01
-2.990082800388336182e-01 -5.530183389782905579e-02 4.257784038782119751e-02 -1.441907435655593872e-01 7.086346298456192017e-02 1.629519760608673096e-01 1.105686575174331665e-01 -6.525771319866180420e-02 -2.333602011203765869e-01 2.772549986839294434e-01 -3.226846456527709961e-01 1.382263470441102982e-02 2.478254027664661407e-02 -1.591715663671493530e-01 4.423844218254089355e-01 -1.510256826877593994e-01 1.381427794694900513e-01 1.881260871887207031e-01 -6.054969131946563721e-02 -9.937738627195358276e-02
1.783453673124313354e-01 3.986099064350128174e-01 2.774150371551513672e-01 3.958178758621215820e-01 -3.662049770355224609e-01 -3.398626148700714111e-01 1.960161179304122925e-01 3.608006611466407776e-02 -7.348662614822387695e-01 3.299629390239715576e-01 3.400529026985168457e-01 -3.347346186637878418e-01 4.127056598663330078e-01 -2.411125302314758301e-01 7.873892188072204590e-01 -4.773346483707427979e-01 -1.349382698535919189e-01 6.686830520629882812e-01 3.263410925865173340e-01 3.820127546787261963e-01
9.463676810264587402e-02 4.341963529586791992e-01 3.756897449493408203e-01 4.756423532962799072e-01 -1.602410674095153809e-01 -3.799535632133483887e-01 1.887387931346893311e-01 -4.752682447433471680e-01 -4.674763083457946777e-01 -6.528751254081726074e-01 9.304902702569961548e-02 -4.742264151573181152e-01 4.338132143020629883e-01 -8.459100723266601562e-01 3.077304363250732422e-01 -1.247732266783714294e-01 -1.065467953681945801e+00 2.393874153494834900e-02 -6.949067711830139160e-01 1.242160439491271973e+00
-1.569314301013946533e-01 -1.606809645891189575e-01 -3.258788287639617920e-01 -7.546082884073257446e-02 3.449775874614715576e-01 2.397439181804656982e-01 -1.040945053100585938e-01 1.493550539016723633e-01 2.717764377593994141e-01 1.091369614005088806e-01 -1.424155980348587036e-01 3.558032512664794922e-01 -1.395189464092254639e-01 -2.235040664672851562e-01 1.938347071409225464e-01 -1.430178880691528320e-01 3.189312666654586792e-02 1.128068268299102783e-01 1.904547214508056641e-01 -2.007395401597023010e-02
