2.810454368591308594e-01 -4.283987879753112793e-01 -1.760675609111785889e-01 1.184345036745071411e-02 -3.871366381645202637e-01 -4.908580482006072998e-01 7.724957913160324097e-02 2.115367203950881958e-01 2.779071629047393799e-01 7.085741311311721802e-02 -3.625671267509460449e-01 4.370137155055999756e-01 8.406759053468704224e-02 3.728985553607344627e-03 3.166161179542541504e-01 1.160815656185150146e-01 2.740679085254669189e-01 -4.620591551065444946e-02 -5.469319224357604980e-02 -1.240658983588218689e-01
-3.299210071563720703e-01 1.176651120185852051e-01 1.434568036347627640e-02 9.193550795316696167e-04 3.110829591751098633e-01 -7.723359465599060059e-01 -3.753570914268493652e-01 -4.223237931728363037e-01 -1.407931465655565262e-02 -1.275142878293991089e-01 -2.292122989892959595e-01 1.895134598016738892e-01 4.611888229846954346e-01 -4.877334237098693848e-01 -1.432147026062011719e-01 1.584820747375488281e-01 5.125530362129211426e-01 8.099079877138137817e-02 5.262637138366699219e-01 2.267352864146232605e-02
-3.232255578041076660e-01 3.612367808818817139e-02 3.644029498100280762e-01 -3.768942952156066895e-01 2.896976768970489502e-01 7.383769154548645020e-01 -2.571533918380737305e-01 -9.050218760967254639e-02 -3.063535988330841064e-01 1.259035151451826096e-02 3.817386031150817871e-01 -5.054045915603637695e-01 1.270365566015243530e-01 -7.708247005939483643e-02 -9.852868504822254181e-03 -2.650905251502990723e-01 -2.091453373432159424e-01 -1.157131865620613098e-01 8.872260153293609619e-02 -2.683784961700439453e-01
-3.685861825942993164e-01 1.709601879119873047e-01 4.064971804618835449e-01 1.239863559603691101e-01 2.165801525115966797e-01 -4.454176723957061768e-01 -4.541559517383575439e-01 -3.329201340675354004e-01 -2.864908277988433838e-01 -1.691120266914367676e-01 -2.884808555245399475e-02 8.349293470382690430e-02 6.452171802520751953e-01 -2.670937776565551758e-01 -2.373480200767517090e-01 -2.922695577144622803e-01 7.303037643432617188e-01 6.473422050476074219e-01 2.428928464651107788e-01 1.373914927244186401e-01
-3.865697681903839111e-01 2.251345217227935791e-01 2.213249951601028442e-01 -4.192315042018890381e-02 3.203236460685729980e-01 4.007476195693016052e-02 -3.992801606655120850e-01 -3.058526813983917236e-01 -3.104183971881866455e-01 -1.514794230461120605e-01 1.492762863636016846e-01 -3.637458384037017822e-01 2.579764425754547119e-01 -4.335653781890869141e-01 -1.083079427480697632e-01 -5.877568200230598450e-02 1.277795284986495972e-01 1.106306686997413635e-01 -9.059299528598785400e-02 2.064018743112683296e-03
-1.358710825443267822e-01 4.173347055912017822e-01 3.936367630958557129e-01 -2.160701006650924683e-01 1.839289218187332153e-01 3.955919742584228516e-01 -1.269282400608062744e-01 -5.084885358810424805e-01 -4.701215028762817383e-01 -7.448148727416992188e-02 3.625021576881408691e-01 -3.544015586376190186e-01 3.515087962150573730e-01 -1.245769235538318753e-04 7.888120599091053009e-03 -2.586292028427124023e-01 1.057384312152862549e-01 4.830664396286010742e-02 -1.000483259558677673e-01 -2.745127379894256592e-01
-9.358151257038116455e-02 -2.366550713777542114e-01 -8.977189660072326660e-02 -1.020401418209075928e-01 -1.817354708909988403e-01 6.151793003082275391e-01 1.341847628355026245e-01 3.499809801578521729e-01 4.466761350631713867e-01 1.640752255916595459e-01 3.137201070785522461e-01 -8.714660070836544037e-03 -4.669269025325775146e-01 3.327495157718658447e-01 5.302267074584960938e-01 -6.246227398514747620e-02 -3.042313158512115479e-01 -5.069146752357482910e-01 -6.597869843244552612e-02 5.209807772189378738e-03
2.816687226295471191e-01 -3.827394545078277588e-01 -4.735870659351348877e-02 3.614156544208526611e-01 -4.922038689255714417e-02 -7.034975290298461914e-01 2.628441751003265381e-01 2.272367924451828003e-01 3.045647442340850830e-01 -1.806573010981082916e-02 -3.329664468765258789e-01 3.601422309875488281e-01 -1.394853591918945312e-01 9.229563176631927490e-02 2.197262346744537354e-01 9.259624034166336060e-02 1.357061713933944702e-01 2.254986949265003204e-02 1.072017922997474670e-01 -9.413522668182849884e-03
1.891317367553710938e-01 7.699545822106301785e-04 -3.929369747638702393e-01 3.668656051158905029e-01 -2.644364237785339355e-01 -7.861175537109375000e-01 1.641068458557128906e-01 1.346205025911331177e-01 -1.837966032326221466e-02 2.392843514680862427e-01 -1.588289737701416016e-01 7.872613668441772461e-01 2.042221575975418091e-01 -4.936704039573669434e-02 -1.634311079978942871e-01 3.500243723392486572e-01 1.660001128911972046e-01 1.459783315658569336e-02 3.384418413043022156e-02 2.325712442398071289e-01
7.918463647365570068e-02 -1.639695912599563599e-01 -4.425834417343139648e-01 2.177438437938690186e-01 -1.824986934661865234e-01 -5.897212028503417969e-01 2.849788963794708252e-01 2.119190394878387451e-01 8.356056362390518188e-02 2.959449291229248047e-01 -2.893911302089691162e-01 6.104723215103149414e-01 -2.761068344116210938e-01 2.889273464679718018e-01 6.445443723350763321e-03 -8.145264349877834320e-03 2.295350879430770874e-01 -3.278177678585052490e-01 -1.268072575330734253e-01 -3.525317460298538208e-02
2.598801851272583008e-01 -3.570007979869842529e-01 -6.011276319622993469e-02 3.417235612869262695e-01 -2.827256685122847557e-03 -6.953460574150085449e-01 5.433759093284606934e-02 9.831096976995468140e-02 -4.739985615015029907e-02 2.384636849164962769e-01 -2.205817848443984985e-01 4.037743806838989258e-01 3.633457049727439880e-02 1.378392279148101807e-01 2.328335940837860107e-01 3.263519108295440674e-01 2.108554244041442871e-01 5.686384439468383789e-02 -1.390490084886550903e-01 2.159472852945327759e-01
-5.050484836101531982e-02 4.209649860858917236e-01 2.409449517726898193e-01 -5.905658006668090820e-01 1.383613348007202148e-01 5.024365186691284180e-01 -2.433740198612213135e-01 -3.086948394775390625e-01 -4.224632978439331055e-01 -1.016749665141105652e-01 1.205000653862953186e-01 -2.909520268440246582e-01 1.858205497264862061e-01 2.507182583212852478e-02 9.830424189567565918e-02 -3.757541999220848083e-02 1.893403939902782440e-02 2.430104613304138184e-01 -1.227360442280769348e-01 1.170399039983749390e-01
-2.628896236419677734e-01 4.587975889444351196e-02 1.728976964950561523e-01 6.473435461521148682e-02 -2.030886337161064148e-02 -6.633787751197814941e-01 -3.533136248588562012e-01 -9.739009290933609009e-02 -2.966209053993225098e-01 -2.878886759281158447e-01 -1.525526959449052811e-02 2.530018985271453857e-01 3.282962739467620850e-01 -2.465239167213439941e-01 5.574262142181396484e-02 1.020800396800041199e-01 5.150619149208068848e-01 1.003324612975120544e-01 6.041384115815162659e-02 2.040769904851913452e-01
-2.244205474853515625e-01 3.112760484218597412e-01 3.740128576755523682e-01 4.347505047917366028e-03 5.060177668929100037e-02 -4.383459091186523438e-01 -1.346516609191894531e-01 -3.613371551036834717e-01 -4.034395813941955566e-01 -3.934794068336486816e-01 3.923334006685763597e-04 -1.290097385644912720e-01 1.938653141260147095e-01 -5.069569349288940430e-01 -1.064643859863281250e-01 -2.362034022808074951e-01 6.504064798355102539e-01 9.173741191625595093e-02 2.428324073553085327e-01 2.075955718755722046e-01
1.254520267248153687e-01 -2.726492881774902344e-01 -1.374484598636627197e-01 4.667468369007110596e-01 -2.808177471160888672e-01 -7.379823327064514160e-01 -2.211963012814521790e-02 -2.496444247663021088e-02 6.106932833790779114e-02 2.765576541423797607e-01 -1.641716510057449341e-01 4.429331421852111816e-01 1.164229661226272583e-01 -1.463317871093750000e-01 8.520910888910293579e-02 3.990796506404876709e-01 2.751719057559967041e-01 -1.795762926340103149e-01 -1.282152384519577026e-01 -9.614501893520355225e-02
-1.039106026291847229e-01 4.518221318721771240e-01 4.577281475067138672e-01 -5.010616779327392578e-01 4.323044046759605408e-02 3.861660957336425781e-01 -2.531372904777526855e-01 -2.509755790233612061e-01 -3.762599229812622070e-01 -2.853678762912750244e-01 2.856966853141784668e-01 -3.499467372894287109e-01 8.472273498773574829e-02 -4.140299558639526367e-02 -1.583852320909500122e-01 -4.533729329705238342e-02 1.940657943487167358e-01 6.555677950382232666e-02 -6.424403190612792969e-02 5.681646522134542465e-03
3.105907738208770752e-01 -1.223610639572143555e-01 -8.990906178951263428e-02 3.458663225173950195e-01 -3.209770023822784424e-01 -3.331594467163085938e-01 4.555048048496246338e-02 1.072343811392784119e-01 2.077525556087493896e-01 -4.809336364269256592e-02 -1.259332746267318726e-01 4.004219174385070801e-02 -3.257538080215454102e-01 9.198429994285106659e-03 7.639325410127639771e-02 5.643778666853904724e-02 -2.158478498458862305e-01 -1.492107957601547241e-01 -1.630066037178039551e-01 -1.251998394727706909e-01
2.402823120355606079e-01 -2.807790935039520264e-01 -3.770617768168449402e-02 -1.307073980569839478e-01 -4.237897396087646484e-01 -1.301660686731338501e-01 3.237189352512359619e-01 2.050452083349227905e-01 3.605498373508453369e-01 3.766988217830657959e-01 -2.286106646060943604e-01 5.760917663574218750e-01 -3.695956468582153320e-01 2.955147922039031982e-01 4.486477077007293701e-01 2.471338957548141479e-01 4.142502248287200928e-01 -1.309644877910614014e-01 8.460160344839096069e-02 3.242338895797729492e-01
-3.917666971683502197e-01 3.471783697605133057e-01 4.541616737842559814e-01 -3.087310194969177246e-01 1.910389512777328491e-01 1.170297637581825256e-01 -3.641925156116485596e-01 -3.772789239883422852e-01 -2.426107823848724365e-01 -3.729628026485443115e-01 1.393571943044662476e-01 -1.788145601749420166e-01 3.421219289302825928e-01 -3.917478919029235840e-01 -2.345780432224273682e-01 -3.323243558406829834e-01 1.372634619474411011e-01 1.004123091697692871e-01 -5.502845719456672668e-02 1.411687582731246948e-01
2.698732316493988037e-01 -3.710132837295532227e-01 -8.532689511775970459e-02 4.246993958950042725e-01 -4.323486387729644775e-01 -7.322397232055664062e-01 3.424169719219207764e-01 4.123605415225028992e-02 2.473241388797760010e-01 -2.222933806478977203e-02 -2.146510183811187744e-01 4.211028218269348145e-01 5.944935604929924011e-02 2.672040462493896484e-01 8.606921881437301636e-02 1.971620768308639526e-01 1.916429102420806885e-01 -7.518915925174951553e-03 1.439163535833358765e-01 1.015307232737541199e-01
