1.414235085248947144e-01 7.885312288999557495e-02 -3.177584707736968994e-01 -3.180679306387901306e-02 6.636095046997070312e-02 -6.495844572782516479e-02 1.397020667791366577e-01 1.491979807615280151e-01 2.339476794004440308e-01 -4.249085113406181335e-02 -3.948295861482620239e-02 -4.723106622695922852e-01 -4.342784285545349121e-01 -3.936713933944702148e-01 1.029958605766296387e+00 3.434653878211975098e-01 -4.411179423332214355e-01 -5.098729729652404785e-01 -2.095651179552078247e-01 -2.911661863327026367e-01
-1.256605982780456543e-01 1.350496709346771240e-01 9.027195721864700317e-02 -3.555422425270080566e-01 1.318449061363935471e-02 3.297709226608276367e-01 1.606812477111816406e-01 -3.497392311692237854e-02 3.395106196403503418e-01 3.194794058799743652e-02 3.096105754375457764e-01 5.368728041648864746e-01 7.625130414962768555e-01 4.362227916717529297e-01 -7.151149511337280273e-01 -3.475960195064544678e-01 3.788575232028961182e-01 5.940784215927124023e-01 7.306197881698608398e-01 3.322010487318038940e-02
3.844278156757354736e-01 3.153001964092254639e-01 -3.820930421352386475e-01 -1.911925524473190308e-01 -2.959562242031097412e-01 5.332329273223876953e-01 4.594789445400238037e-01 3.576573431491851807e-01 3.864410817623138428e-01 -4.601015150547027588e-01 1.285712122917175293e-01 3.243088424205780029e-01 2.247096225619316101e-02 1.198037564754486084e-01 -2.246785461902618408e-01 -1.695324778556823730e-01 1.272405833005905151e-01 1.004990786314010620e-01 -4.146443605422973633e-01 5.978735685348510742e-01
1.438656896352767944e-01 -1.821313425898551941e-02 -1.249778270721435547e-02 -5.982390791177749634e-02 -3.661910891532897949e-01 -5.785657465457916260e-02 1.057541370391845703e-01 2.765656709671020508e-01 -3.090946562588214874e-02 -1.633046418428421021e-01 2.594354748725891113e-01 6.306675076484680176e-01 7.535214424133300781e-01 2.481646835803985596e-01 -5.488740205764770508e-01 -4.980766773223876953e-01 4.984701871871948242e-01 3.925479948520660400e-01 4.230450093746185303e-01 2.264965325593948364e-01
-3.676003962755203247e-02 1.760652512311935425e-01 -2.090010792016983032e-01 -6.100970879197120667e-02 -6.829381734132766724e-02 3.242914080619812012e-01 2.099117040634155273e-01 2.298045717179775238e-02 2.076397389173507690e-01 4.107099398970603943e-02 3.404950499534606934e-01 5.537617206573486328e-02 1.781649142503738403e-01 2.185423523187637329e-01 -4.782696664333343506e-01 -4.813561141490936279e-01 2.778105437755584717e-01 4.857355654239654541e-01 -2.527197822928428650e-03 1.990631818771362305e-01
3.274873793125152588e-01 3.727186620235443115e-01 -1.945739090442657471e-01 -1.664137989282608032e-01 -3.392157554626464844e-01 4.008125364780426025e-01 -3.260932862758636475e-02 3.840690851211547852e-01 2.964785695075988770e-01 -3.224540352821350098e-01 3.387110829353332520e-01 1.451288014650344849e-01 4.152964055538177490e-01 4.457984566688537598e-01 -4.411133527755737305e-01 -5.064034461975097656e-01 1.667915582656860352e-01 2.063092589378356934e-01 -2.082705050706863403e-01 5.035851597785949707e-01
5.493741109967231750e-02 2.095969021320343018e-01 -3.622557818889617920e-01 -1.648903042078018188e-01 -4.431762695312500000e-01 4.823005497455596924e-01 7.859251648187637329e-02 2.634353935718536377e-01 2.557100653648376465e-01 -6.774772405624389648e-01 3.824121654033660889e-01 -1.269574314355850220e-01 -3.573003113269805908e-01 -1.970271915197372437e-01 3.748516440391540527e-01 1.532680094242095947e-01 -4.148952364921569824e-01 -4.553869962692260742e-01 -9.096997976303100586e-01 2.510533034801483154e-01
-2.447194010019302368e-01 -1.714638024568557739e-01 1.053877174854278564e-01 1.266117691993713379e-01 1.961618214845657349e-01 3.379446640610694885e-02 -8.779541403055191040e-02 4.444767907261848450e-02 -1.121719107031822205e-01 1.899084597826004028e-01 -1.285366564989089966e-01 -5.411127805709838867e-01 -3.425964415073394775e-01 -6.637005805969238281e-01 4.457583725452423096e-01 5.415934920310974121e-01 -2.488148063421249390e-01 -4.560976028442382812e-01 -2.192710191011428833e-01 -2.122095525264739990e-01
5.441486462950706482e-02 -1.755689382553100586e-01 -2.192381471395492554e-01 -6.101214885711669922e-02 -1.748088002204895020e-02 -1.853871718049049377e-02 3.452761098742485046e-02 -2.061831355094909668e-01 -4.524220526218414307e-02 -1.439215540885925293e-01 -2.534393966197967529e-01 -2.600883841514587402e-01 -5.718427300453186035e-01 -4.158720672130584717e-01 8.886550068855285645e-01 7.163470983505249023e-01 -8.376891165971755981e-02 -6.369200348854064941e-01 2.376199699938297272e-03 -5.740444064140319824e-01
-1.532920300960540771e-01 1.679389923810958862e-01 1.034235805273056030e-01 -9.196966141462326050e-02 1.541721820831298828e-01 4.720947518944740295e-02 -1.919399946928024292e-01 -7.915997505187988281e-02 -4.184118472039699554e-03 -3.233631849288940430e-01 -3.231131434440612793e-01 -4.986636340618133545e-01 -6.904380917549133301e-01 -4.287945330142974854e-01 7.602382898330688477e-01 4.135241508483886719e-01 -3.387669324874877930e-01 -5.492624640464782715e-01 -2.734847068786621094e-01 -1.553854048252105713e-01
-2.210028618574142456e-01 -1.669263243675231934e-01 2.211691290140151978e-01 1.522991508245468140e-01 -4.105758294463157654e-02 -2.350872159004211426e-01 -2.871582508087158203e-01 -2.071503996849060059e-01 -9.801227599382400513e-02 1.985589563846588135e-01 -4.608504772186279297e-01 -5.248562693595886230e-01 -4.791612029075622559e-01 -6.769361495971679688e-01 5.461449027061462402e-01 6.882317066192626953e-01 -5.538851618766784668e-01 -5.623823404312133789e-01 -1.345642209053039551e-01 -1.729602962732315063e-01
2.773147523403167725e-01 4.203490912914276123e-01 -8.992366492748260498e-02 1.461953110992908478e-02 -2.698590159416198730e-01 4.142164587974548340e-01 2.299375087022781372e-01 2.607193291187286377e-01 4.411904513835906982e-02 -4.101520180702209473e-01 1.511973142623901367e-01 1.368344426155090332e-01 1.814763695001602173e-01 1.318909525871276855e-01 -1.043703705072402954e-01 -1.881949156522750854e-01 1.603886038064956665e-01 3.845522403717041016e-01 -2.036173790693283081e-01 4.112591445446014404e-01
3.179371654987335205e-01 9.615715593099594116e-02 -2.815603017807006836e-01 -1.531644612550735474e-01 -9.198238700628280640e-02 -6.371386349201202393e-02 1.840882450342178345e-01 4.190942272543907166e-03 1.520150452852249146e-01 -1.030820384621620178e-01 2.531391978263854980e-01 4.937082231044769287e-01 5.864264965057373047e-01 6.071114540100097656e-01 -4.719645977020263672e-01 -2.490524649620056152e-01 3.488433063030242920e-01 7.969805002212524414e-01 8.118973374366760254e-01 1.617879718542098999e-01
3.365811705589294434e-01 2.157934606075286865e-01 -1.015279144048690796e-01 9.378186613321304321e-02 -1.309035867452621460e-01 -6.544031668454408646e-03 2.235609889030456543e-01 2.365862429141998291e-01 -1.511835679411888123e-02 3.501585498452186584e-02 4.621731638908386230e-01 4.032429158687591553e-01 6.232205033302307129e-01 2.213575839996337891e-01 -3.249086439609527588e-01 -1.537319719791412354e-01 1.842313259840011597e-01 6.332927346229553223e-01 3.135691285133361816e-01 1.652479916810989380e-01
-2.728160321712493896e-01 -8.228296041488647461e-02 3.764355927705764771e-02 1.983809173107147217e-01 2.807646095752716064e-01 7.938389480113983154e-02 -1.825677454471588135e-01 5.861082114279270172e-03 -1.261277794837951660e-01 -7.111440598964691162e-02 -4.403265714645385742e-01 -6.889423131942749023e-01 -6.424697637557983398e-01 -8.096752762794494629e-01 9.932965040206909180e-01 7.135837078094482422e-01 -3.638519048690795898e-01 -5.056600570678710938e-01 -1.001496762037277222e-01 -4.344611763954162598e-01
2.655958831310272217e-01 2.500477433204650879e-01 -3.804192245006561279e-01 -1.702659130096435547e-01 -2.434592247009277344e-01 4.674068689346313477e-01 1.135472655296325684e-01 5.257280468940734863e-01 1.317318677902221680e-01 -5.070061087608337402e-01 2.800289094448089600e-01 3.131708204746246338e-01 8.215007930994033813e-02 1.190721988677978516e-01 2.204533666372299194e-02 -3.210612535476684570e-01 2.491686046123504639e-01 1.043342575430870056e-01 -1.122917328029870987e-02 5.132352113723754883e-01
-1.856641173362731934e-01 9.625878930091857910e-02 -1.706702709197998047e-01 -3.589854389429092407e-02 1.581008918583393097e-02 -2.788285911083221436e-01 -2.313722670078277588e-01 5.566171836107969284e-03 3.219792246818542480e-02 1.791089624166488647e-01 -2.602253556251525879e-01 4.435860365629196167e-02 -2.632023692131042480e-01 -2.540471255779266357e-01 8.945407718420028687e-02 -3.917104378342628479e-02 -4.687717854976654053e-01 -3.593795597553253174e-01 -4.063060879707336426e-01 -1.840413361787796021e-01
9.530601650476455688e-02 3.610952794551849365e-01 -4.035162925720214844e-01 -3.224833905696868896e-01 -1.712660640478134155e-01 2.285250723361968994e-01 -1.336456686258316040e-01 2.449191808700561523e-01 3.196010291576385498e-01 -5.465950965881347656e-01 -1.074697598814964294e-01 -2.401825338602066040e-01 -5.660025477409362793e-01 -5.125332474708557129e-01 7.783365845680236816e-01 5.246381163597106934e-01 -2.957103550434112549e-01 -3.191176354885101318e-01 -1.954897195100784302e-01 -2.284065037965774536e-01
2.331914305686950684e-01 2.438375204801559448e-01 -2.130542397499084473e-01 -2.845790386199951172e-01 -2.704134583473205566e-01 5.236132815480232239e-02 -1.914296858012676239e-02 9.133640676736831665e-02 3.825062215328216553e-01 -2.984602451324462891e-01 1.900706887245178223e-01 4.475521147251129150e-01 4.270862042903900146e-01 3.211107254028320312e-01 -7.919174432754516602e-02 -2.064926177263259888e-01 3.081664741039276123e-01 4.588456153869628906e-01 3.438614308834075928e-01 4.078091382980346680e-01
1.527986824512481689e-01 -8.044616878032684326e-02 -6.547720730304718018e-02 2.051694244146347046e-01 2.811109721660614014e-01 -1.997577995061874390e-01 -1.310126185417175293e-01 2.076198607683181763e-01 -2.483072727918624878e-01 6.551015377044677734e-02 -3.483028411865234375e-01 -2.547805011272430420e-01 -5.798111557960510254e-01 -6.637470126152038574e-01 7.936002612113952637e-01 5.574543476104736328e-01 -4.626421928405761719e-01 -5.409657359123229980e-01 -1.759279817342758179e-01 -3.342458307743072510e-01
