-2.127555012702941895e-01 9.055131673812866211e-02 1.531708240509033203e-01 2.275795638561248779e-01 3.443387150764465332e-01 -1.616726666688919067e-01 -2.693814933300018311e-01 2.981824614107608795e-02 1.596938073635101318e-01 4.040576815605163574e-01 -9.848497062921524048e-02 -3.072447478771209717e-01 -3.999290615320205688e-02 -5.381410717964172363e-01 -1.102582886815071106e-01 -7.262863963842391968e-02 -1.622500866651535034e-01 1.040688380599021912e-01 1.890257000923156738e-01 2.647596895694732666e-01
1.901613175868988037e-01 -1.972286701202392578e-01 -1.374105364084243774e-01 -1.576208025217056274e-01 -5.787953734397888184e-02 2.335828989744186401e-01 -3.584314882755279541e-02 -6.204548850655555725e-02 8.394517749547958374e-02 -2.156795263290405273e-01 -2.842943966388702393e-01 3.363084495067596436e-01 -7.590290624648332596e-03 -1.569309681653976440e-01 1.364091783761978149e-01 -2.433379590511322021e-01 -1.334586646407842636e-02 -4.287376701831817627e-01 6.675089243799448013e-03 4.029899835586547852e-01
2.222017347812652588e-01 6.575398892164230347e-02 -2.885753512382507324e-01 -5.177757889032363892e-02 -2.801590859889984131e-01 1.180183589458465576e-01 1.305875089019536972e-02 -1.244526058435440063e-01 -2.503383457660675049e-01 3.516694903373718262e-02 -3.041393458843231201e-01 2.869334816932678223e-01 -1.553975418210029602e-02 -3.068868517875671387e-01 1.315003782510757446e-01 -1.060835644602775574e-01 3.614228367805480957e-01 -2.987539172172546387e-01 2.207536846399307251e-01 5.232325196266174316e-02
-4.598644748330116272e-02 2.566117942333221436e-01 4.099414646625518799e-01 3.049100041389465332e-01 2.639010846614837646e-01 1.366650592535734177e-02 -2.922826707363128662e-01 2.709245383739471436e-01 1.959865391254425049e-01 1.233398765325546265e-01 5.353891104459762573e-02 -3.528444468975067139e-01 -2.172494381666183472e-01 -5.888188257813453674e-02 3.191701695322990417e-02 2.787427008152008057e-01 1.854917965829372406e-02 9.838213026523590088e-02 6.286668777465820312e-02 1.267758607864379883e-01
4.274995923042297363e-01 2.423471808433532715e-01 -9.323834627866744995e-02 1.305250227451324463e-01 1.403763890266418457e-01 3.263521790504455566e-01 -9.119509905576705933e-02 -3.210225701332092285e-01 -1.473622024059295654e-01 1.368273645639419556e-01 -4.985557794570922852e-01 -4.982057213783264160e-02 5.359587073326110840e-01 -1.403131186962127686e-01 7.684990018606185913e-02 -3.732352554798126221e-01 -1.665375232696533203e-01 -6.769033074378967285e-01 5.444710850715637207e-01 7.611330747604370117e-01
3.811892569065093994e-01 -3.443204164505004883e-01 -2.765607833862304688e-01 -3.754057884216308594e-01 -2.559491395950317383e-01 1.477603167295455933e-01 3.626312315464019775e-01 -3.260910212993621826e-01 -3.189223110675811768e-01 -1.991839855909347534e-01 -3.238286972045898438e-01 3.772212564945220947e-01 2.291783243417739868e-01 -3.068265877664089203e-02 -6.594198942184448242e-02 -1.322177797555923462e-01 3.117156028747558594e-01 -2.049583792686462402e-01 3.455591574311256409e-02 -2.254935204982757568e-01
-2.809909284114837646e-01 2.583708763122558594e-01 1.599103212356567383e-02 9.047506377100944519e-03 2.830373644828796387e-01 -1.570301130414009094e-02 -1.966272145509719849e-01 3.316099941730499268e-01 4.040945321321487427e-02 1.260891854763031006e-01 3.950589895248413086e-02 -2.808421850204467773e-01 -1.670427620410919189e-01 -1.417042762041091919e-01 -1.524660736322402954e-01 -1.039868686348199844e-02 -2.301290184259414673e-01 1.056724861264228821e-01 -2.615051530301570892e-02 -2.861420623958110809e-02
4.707892239093780518e-02 -1.437636762857437134e-01 1.721357367932796478e-02 -7.447150349617004395e-02 -1.772145628929138184e-01 5.852339789271354675e-02 5.756984651088714600e-02 -3.378938734531402588e-01 -1.311379224061965942e-01 1.083907112479209900e-01 -2.469621300697326660e-01 1.640141606330871582e-01 1.880716234445571899e-01 -4.194903671741485596e-01 3.126455843448638916e-01 -2.090515643358230591e-01 2.037696540355682373e-01 -5.506448745727539062e-01 3.780264258384704590e-01 3.830308914184570312e-01
-3.641313314437866211e-01 2.154946513473987579e-02 1.988246738910675049e-01 2.272590398788452148e-01 5.143901705741882324e-02 -4.156428202986717224e-02 8.631079643964767456e-02 3.047384917736053467e-01 1.121517866849899292e-01 4.070572257041931152e-01 2.192675322294235229e-01 -2.417965531349182129e-01 -1.999508962035179138e-02 -5.929642319679260254e-01 1.765485554933547974e-01 3.437888026237487793e-01 -2.133612334728240967e-02 -6.577935069799423218e-02 7.818994671106338501e-02 1.901427060365676880e-01
2.209111303091049194e-01 -2.017412185668945312e-01 -1.082944348454475403e-01 -1.693708002567291260e-01 -3.186866641044616699e-01 -3.040886111557483673e-02 1.585184931755065918e-01 -2.117204666137695312e-01 -2.720702886581420898e-01 -5.476092547178268433e-02 -6.877982616424560547e-02 2.205950170755386353e-01 7.667081803083419800e-02 -1.104013547301292419e-01 3.402302563190460205e-01 -1.213135346770286560e-01 2.201063334941864014e-01 -1.788276880979537964e-01 1.845833510160446167e-01 -1.578368395566940308e-01
6.147219240665435791e-02 3.701612055301666260e-01 -1.425271034240722656e+00 -2.533588409423828125e-01 -1.128599286079406738e+00 -4.205642342567443848e-01 1.123643279075622559e+00 -9.172628074884414673e-02 7.264257967472076416e-02 -4.279741942882537842e-01 6.717084906995296478e-03 4.179419875144958496e-01 5.125707983970642090e-01 6.812672019004821777e-01 -6.399064660072326660e-01 2.586572170257568359e-01 -1.258710384368896484e+00 8.793130517005920410e-01 -3.066557347774505615e-01 -4.825509190559387207e-01
3.472979664802551270e-01 -7.543619722127914429e-02 -4.093242883682250977e-01 -2.848190367221832275e-01 -3.559478819370269775e-01 1.491605341434478760e-01 3.253375589847564697e-01 -3.062839210033416748e-01 -1.074480488896369934e-01 -1.944237500429153442e-01 -5.840292200446128845e-02 3.738315105438232422e-01 3.037292361259460449e-01 9.397815912961959839e-02 3.045053482055664062e-01 -7.141040265560150146e-02 1.003169938921928406e-01 5.980917438864707947e-02 -2.701191008090972900e-01 -3.300313949584960938e-01
-3.520093858242034912e-01 8.146583288908004761e-02 1.211711913347244263e-01 2.656616568565368652e-01 1.725329668261110783e-03 -1.647439599037170410e-01 -2.340619638562202454e-02 4.284246265888214111e-02 1.492184549570083618e-01 -6.735042482614517212e-02 6.354027986526489258e-02 -2.878882689401507378e-03 -3.051922619342803955e-01 8.963622897863388062e-02 8.193510584533214569e-03 1.907952278852462769e-01 -1.858959645032882690e-01 3.033294379711151123e-01 9.211355447769165039e-02 7.476837933063507080e-02
-9.024390019476413727e-03 -3.549143970012664795e-01 -8.845986425876617432e-02 -2.821034193038940430e-01 -3.127393722534179688e-01 -9.291004389524459839e-02 2.662967443466186523e-01 -2.666313648223876953e-01 -2.086239755153656006e-01 -2.470431178808212280e-01 -2.149356901645660400e-01 2.486827671527862549e-01 2.659988105297088623e-01 -9.151005744934082031e-02 3.489981293678283691e-01 -2.128240466117858887e-01 4.255424737930297852e-01 -1.462428271770477295e-01 -3.006926178932189941e-01 -8.457547426223754883e-02
-1.132126972079277039e-01 -5.091016888618469238e-01 4.992564916610717773e-01 -7.295946776866912842e-02 2.291111350059509277e-01 2.260839194059371948e-01 -8.649357557296752930e-01 1.048635616898536682e-01 1.724528670310974121e-01 3.030563294887542725e-01 -5.895978212356567383e-01 -1.430676281452178955e-01 2.751439809799194336e-01 1.180331945419311523e+00 -5.730180144309997559e-01 -6.990408897399902344e-02 2.421248108148574829e-01 -1.735233813524246216e-01 5.422807931900024414e-01 7.742159366607666016e-01
-5.331055819988250732e-02 -3.442637324333190918e-01 -2.162081450223922729e-01 -2.452239841222763062e-01 -8.003032952547073364e-02 2.111725509166717529e-01 1.780178397893905640e-01 -2.836901247501373291e-01 -3.875902891159057617e-01 -4.149488210678100586e-01 -6.956883240491151810e-03 3.720311522483825684e-01 2.178146839141845703e-01 -5.232274532318115234e-02 2.822716832160949707e-01 -9.324061870574951172e-02 4.329115897417068481e-02 -9.729391336441040039e-02 -1.604628115892410278e-01 -1.930857598781585693e-01
-3.642190694808959961e-01 -5.967218056321144104e-02 4.132400751113891602e-01 1.921804249286651611e-01 2.713164687156677246e-01 9.725637733936309814e-03 -6.969700753688812256e-02 9.400134533643722534e-02 3.997331485152244568e-02 1.152418181300163269e-01 4.203765094280242920e-01 -1.482125222682952881e-01 -1.082788109779357910e-01 3.511286377906799316e-01 -2.339847683906555176e-01 4.493569731712341309e-01 -2.500590980052947998e-01 4.095834791660308838e-01 -2.967549860477447510e-01 -1.604872643947601318e-01
9.426753222942352295e-02 4.284325521439313889e-03 -1.553932670503854752e-02 -1.370551735162734985e-01 -7.165535539388656616e-02 1.053207740187644958e-01 2.843298614025115967e-01 -2.559637129306793213e-01 1.160640567541122437e-01 1.354995965957641602e-01 -6.358504295349121094e-02 -7.335700839757919312e-02 -1.821543276309967041e-01 2.965505234897136688e-02 -3.176861107349395752e-01 -4.210240021347999573e-02 -4.034740924835205078e-01 -1.820311998017132282e-03 2.781760990619659424e-01 3.457784354686737061e-01
-2.100434452295303345e-01 2.808951027691364288e-02 4.310102760791778564e-01 3.110525012016296387e-01 1.533377021551132202e-01 -2.839329242706298828e-01 -5.294960737228393555e-01 1.616801619529724121e-01 3.953133821487426758e-01 -9.128163009881973267e-02 -4.180007874965667725e-01 -7.924612145870923996e-04 1.489295065402984619e-01 1.375418424606323242e+00 -5.095479488372802734e-01 2.388341277837753296e-01 -4.209796488285064697e-01 1.443604975938796997e-01 4.784041941165924072e-01 3.169204592704772949e-01
1.639725118875503540e-01 -3.289274275302886963e-01 -2.114594914019107819e-02 -1.413267198950052261e-02 -3.547458648681640625e-01 -1.478774994611740112e-01 -2.258245367556810379e-04 -2.920773923397064209e-01 5.633009970188140869e-02 -2.195421606302261353e-01 1.102592498064041138e-01 3.487648367881774902e-01 2.624659538269042969e-01 2.506224811077117920e-02 1.486606895923614502e-01 -2.823174893856048584e-01 1.159817501902580261e-01 -9.083074331283569336e-02 -4.330579936504364014e-02 9.282001107931137085e-02
