-1.408965289592742920e-01 2.135218381881713867e-01 -2.528256177902221680e-01 -1.063379365950822830e-02 -2.537812292575836182e-01 -3.754328191280364990e-01 -5.983609706163406372e-02 -3.254592418670654297e-01 -1.165231466293334961e-01 7.094144225120544434e-01 1.279268860816955566e-01 -3.329707384109497070e-01 2.490260601043701172e-01 -2.979606986045837402e-01 3.182902932167053223e-01 9.581740200519561768e-02 -6.174542382359504700e-02 -1.177767962217330933e-01 1.209247261285781860e-01 -8.987650275230407715e-02
7.237279415130615234e-02 2.733507938683032990e-02 3.388826847076416016e-01 3.223246429115533829e-03 1.814495325088500977e-01 1.187491714954376221e-01 -1.714518815279006958e-01 1.841774582862854004e-01 2.988375723361968994e-01 -7.062802910804748535e-01 -1.593702435493469238e-01 1.872989684343338013e-01 -4.741960018873214722e-02 2.912910580635070801e-01 -2.423551678657531738e-01 -4.675514698028564453e-01 -2.159767746925354004e-01 5.148403048515319824e-01 -3.176179528236389160e-01 1.686017774045467377e-02
-1.414398849010467529e-02 8.022437989711761475e-02 2.470954656600952148e-01 -1.460348218679428101e-01 2.624997794628143311e-01 6.526588648557662964e-02 1.317336782813072205e-02 1.819783002138137817e-01 7.382176071405410767e-02 -4.584667682647705078e-01 -2.670149505138397217e-01 3.238455653190612793e-01 -9.598879143595695496e-03 4.455039501190185547e-01 -3.701461851596832275e-01 -1.836293786764144897e-01 -4.655438959598541260e-01 2.700042128562927246e-01 -2.686557471752166748e-01 2.031207978725433350e-01
-1.218481883406639099e-01 3.834802284836769104e-02 -2.041049152612686157e-01 3.535278141498565674e-01 -2.370992749929428101e-01 -2.206607162952423096e-01 -3.389446064829826355e-02 -3.172196745872497559e-01 -2.751621901988983154e-01 7.343646883964538574e-01 2.507371306419372559e-01 2.622126601636409760e-02 1.929899007081985474e-01 -4.117123484611511230e-01 4.437071084976196289e-01 5.222610756754875183e-02 1.378814317286014557e-02 -2.085662782192230225e-01 7.314454019069671631e-02 -5.329731106758117676e-02
2.695772945880889893e-01 -4.376908838748931885e-01 3.306108713150024414e-01 -4.630252122879028320e-01 3.772450387477874756e-01 4.053054153919219971e-01 -2.977889776229858398e-01 1.395428180694580078e-01 4.197790920734405518e-01 -2.366058379411697388e-01 -3.056352734565734863e-01 4.382443428039550781e-01 -6.581476330757141113e-02 1.477690100669860840e+00 -3.871316313743591309e-01 -7.961869984865188599e-02 2.340949028730392456e-01 1.171892166137695312e+00 -4.578899145126342773e-01 -9.989055395126342773e-01
1.123333871364593506e-01 -2.334820926189422607e-01 2.641315460205078125e-01 -1.847742646932601929e-01 2.591732740402221680e-01 1.216910779476165771e-01 -3.057563900947570801e-01 1.737720817327499390e-01 3.045092225074768066e-01 -5.661203265190124512e-01 -8.829326927661895752e-02 1.386949270963668823e-01 -3.459061980247497559e-01 -3.325822353363037109e-01 -2.851546108722686768e-01 -4.483188092708587646e-01 2.978926002979278564e-01 2.487402409315109253e-02 -2.630392611026763916e-01 4.665139317512512207e-01
7.373812049627304077e-02 2.688023746013641357e-01 -3.227080106735229492e-01 1.814670711755752563e-01 -3.643831610679626465e-02 -2.781021296977996826e-01 -1.111636683344841003e-01 1.245959550142288208e-01 -5.848360806703567505e-02 4.457298815250396729e-01 3.765301778912544250e-02 -3.271402120590209961e-01 2.126331180334091187e-01 -3.127394020557403564e-01 4.839937388896942139e-02 1.953640729188919067e-01 2.666762769222259521e-01 -3.746596276760101318e-01 5.831202864646911621e-02 -1.144199818372726440e-01
3.931925073266029358e-02 -1.009824499487876892e-01 3.275077044963836670e-02 -2.219183295965194702e-01 2.552013099193572998e-02 1.090952306985855103e-01 -1.635348498821258545e-01 -1.727357357740402222e-01 1.113351806998252869e-01 -1.435342907905578613e+00 6.840968877077102661e-02 1.853760778903961182e-01 -1.503017544746398926e-01 5.514386892318725586e-01 -2.515779137611389160e-01 -4.707299768924713135e-01 -6.940453052520751953e-01 5.006039738655090332e-01 -4.058157205581665039e-01 2.031463533639907837e-01
-1.535122282803058624e-03 5.038721114397048950e-02 -2.725161612033843994e-01 2.123683225363492966e-03 -3.967457115650177002e-01 -3.940556645393371582e-01 1.012485176324844360e-01 -3.260151147842407227e-01 -1.820604801177978516e-01 4.426637291908264160e-01 2.185053750872612000e-02 -2.418960481882095337e-01 2.448749095201492310e-01 -6.302679181098937988e-01 6.599019467830657959e-02 -4.173402190208435059e-01 -2.031746208667755127e-01 -5.440910458564758301e-01 3.541016578674316406e-01 -2.564171552658081055e-01
2.667265534400939941e-01 4.405064880847930908e-02 8.612253516912460327e-02 -2.804563045501708984e-01 2.961223423480987549e-01 2.161855101585388184e-01 9.411525726318359375e-02 2.489573955535888672e-01 2.818936705589294434e-01 -6.069499850273132324e-01 3.872903808951377869e-02 1.522806137800216675e-01 -2.497130036354064941e-01 2.890452444553375244e-01 -2.949519157409667969e-01 -3.925712406635284424e-01 -4.453090131282806396e-01 -6.000009179115295410e-02 -1.480230242013931274e-01 2.702785134315490723e-01
-2.042253911495208740e-01 1.719236075878143311e-01 -3.316749334335327148e-01 3.276561498641967773e-01 -3.048374056816101074e-01 -1.191211566329002380e-01 4.594979584217071533e-01 -4.462312459945678711e-01 7.117499411106109619e-02 -2.569318294525146484e+00 6.013695001602172852e-01 2.852465510368347168e-01 5.071723461151123047e-01 -9.252344965934753418e-01 -1.391450047492980957e+00 -2.445663690567016602e+00 -3.159091234207153320e+00 -2.371003627777099609e+00 -3.150023221969604492e-01 2.408125400543212891e+00
2.144548445940017700e-01 -2.704613506793975830e-01 3.090683519840240479e-01 -2.443027794361114502e-01 3.290549516677856445e-01 2.448762208223342896e-01 -1.625788211822509766e-01 -3.089089412242174149e-03 1.678201705217361450e-01 -4.249296486377716064e-01 -3.844654262065887451e-01 2.225415557622909546e-01 -3.624666631221771240e-01 8.575340360403060913e-02 -2.706404030323028564e-01 -2.794518172740936279e-01 -7.647720724344253540e-02 -3.443947806954383850e-02 -2.497409731149673462e-01 3.066112101078033447e-01
9.772506356239318848e-02 8.053625375032424927e-02 2.828060090541839600e-02 1.657391935586929321e-01 5.408397316932678223e-02 1.619248539209365845e-01 -2.643009722232818604e-01 1.661332882940769196e-02 2.659626491367816925e-02 9.612854123115539551e-01 -1.084962263703346252e-01 2.746622078120708466e-02 -9.282010048627853394e-02 -4.589639306068420410e-01 2.839131951332092285e-01 3.916742503643035889e-01 1.593773066997528076e-01 -1.246382221579551697e-01 2.966699898242950439e-01 6.783184409141540527e-02
3.798781335353851318e-01 -2.304695695638656616e-01 -6.215877458453178406e-02 -2.839816212654113770e-01 6.586346030235290527e-02 8.868964388966560364e-03 -9.874851256608963013e-02 2.884275019168853760e-01 1.515261083841323853e-01 -5.372928977012634277e-01 -4.319535568356513977e-02 9.758827835321426392e-02 -1.486321389675140381e-01 1.738039255142211914e-01 -4.157975018024444580e-01 -5.710140466690063477e-01 -3.483452796936035156e-01 1.079420838505029678e-02 -1.258173864334821701e-02 4.268215000629425049e-01
-2.131887674331665039e-01 4.665746819227933884e-03 -3.059391379356384277e-01 -2.840623445808887482e-02 -3.139093145728111267e-02 -2.987252473831176758e-01 2.840465903282165527e-01 -9.246028028428554535e-03 -1.540098190307617188e-01 -1.601263761520385742e+00 1.438374519348144531e-01 -3.563883006572723389e-01 2.416419237852096558e-01 -3.598500490188598633e+00 -1.218544244766235352e-01 -9.288890957832336426e-01 -2.973631858825683594e+00 -2.129211425781250000e+00 5.358679890632629395e-01 2.101233720779418945e+00
2.630741596221923828e-01 -9.692312777042388916e-02 1.676521003246307373e-01 -4.052782058715820312e-02 1.981249004602432251e-01 3.618561923503875732e-01 -1.872817426919937134e-01 3.669414520263671875e-01 3.280911445617675781e-01 -4.806266725063323975e-01 -3.292317688465118408e-01 2.628543078899383545e-01 -2.898838371038436890e-02 -4.150394722819328308e-02 -3.004042506217956543e-01 -1.808489263057708740e-01 -2.745130658149719238e-01 2.174258679151535034e-01 -1.836154758930206299e-01 3.988820612430572510e-01
1.465107798576354980e-01 7.523335516452789307e-02 3.456375852692872286e-04 1.819803863763809204e-01 9.785999357700347900e-02 1.128430217504501343e-01 -1.710616052150726318e-01 8.363211154937744141e-02 -4.495504871010780334e-02 7.880242466926574707e-01 9.481299668550491333e-02 -2.201245278120040894e-01 -8.219274133443832397e-02 -2.492214739322662354e-01 1.495934724807739258e-01 3.849741220474243164e-01 5.919287204742431641e-01 -4.287469685077667236e-01 3.388946056365966797e-01 2.285261750221252441e-01
4.747372865676879883e-01 -5.581239461898803711e-01 9.392425417900085449e-02 -4.797290563583374023e-01 1.105703562498092651e-01 2.594981789588928223e-01 -6.060873866081237793e-01 5.382323265075683594e-01 -2.079633921384811401e-01 1.028578281402587891e+00 -5.376420021057128906e-01 1.235662177205085754e-01 -3.277979195117950439e-01 -3.026739060878753662e-01 1.496285349130630493e-01 8.044898509979248047e-02 1.550655841827392578e+00 -3.774239495396614075e-02 1.030048504471778870e-01 8.834028616547584534e-03
-1.277300119400024414e-01 -1.020289212465286255e-01 -2.307744771242141724e-01 1.568688303232192993e-01 6.579567492008209229e-02 -3.559624850749969482e-01 8.090063184499740601e-02 -5.434926226735115051e-02 -1.115618124604225159e-01 -7.954803109169006348e-01 1.398077011108398438e-01 -3.585726618766784668e-01 2.688904106616973877e-01 -2.153277873992919922e+00 1.693331301212310791e-01 7.948545813560485840e-01 6.384866237640380859e-01 -1.187325716018676758e+00 2.254712581634521484e-01 9.428491592407226562e-01
2.365971803665161133e-01 -1.744005829095840454e-01 3.054690957069396973e-01 -2.831487655639648438e-01 1.862613260746002197e-01 2.203940451145172119e-01 -9.956212341785430908e-02 -1.696464722044765949e-03 7.801654189825057983e-02 -1.836090236902236938e-01 -2.111792564392089844e-01 2.405639588832855225e-01 -3.120293021202087402e-01 2.197654396295547485e-01 -1.349173486232757568e-01 -1.158593595027923584e-01 -1.772811859846115112e-01 6.601037830114364624e-02 -2.066727578639984131e-01 1.550373584032058716e-01
