-6.883030533790588379e-01 3.322009742259979248e-01 4.986499249935150146e-01 -3.540334701538085938e-01 4.713090658187866211e-01 3.082350492477416992e-01 1.332770586013793945e-01 5.645205974578857422e-01 8.874429762363433838e-02 1.450669765472412109e-01
6.310069561004638672e-01 -2.192823588848114014e-01 -5.921781659126281738e-01 1.379894912242889404e-01 -7.072953134775161743e-02 -2.744900994002819061e-02 1.735188066959381104e-01 -5.410055518150329590e-01 7.053750753402709961e-02 1.156718805432319641e-01
9.588345885276794434e-01 -1.388942301273345947e-01 -9.789305925369262695e-01 7.452163100242614746e-01 -4.172274172306060791e-01 -5.433322787284851074e-01 -3.971743285655975342e-01 -5.391618013381958008e-01 1.028893813490867615e-01 -1.981003731489181519e-01
-4.206565916538238525e-01 5.412772893905639648e-01 8.721879124641418457e-02 4.566425681114196777e-01 5.413084030151367188e-01 1.821307837963104248e-01 5.913192629814147949e-01 4.400212168693542480e-01 1.585558354854583740e-01 -6.038251891732215881e-02
3.544051945209503174e-02 6.279446482658386230e-01 5.035041570663452148e-01 6.960662603378295898e-01 2.170283049345016479e-01 5.490596890449523926e-01 -1.239204764366149902e+00 4.658373892307281494e-01 -8.862289041280746460e-02 -1.273467987775802612e-01
3.558025360107421875e-01 -3.434652388095855713e-01 -5.647678971290588379e-01 -7.376813888549804688e-02 -2.240565568208694458e-01 -5.112710595130920410e-01 -2.658307850360870361e-01 -8.059850893914699554e-03 -1.423895657062530518e-01 7.218749076128005981e-02
-3.813478946685791016e-01 1.463479101657867432e-01 5.158156752586364746e-01 1.299450919032096863e-02 1.510151922702789307e-01 1.722611337900161743e-01 3.740323707461357117e-02 2.517011202871799469e-02 -2.528495192527770996e-01 5.688880756497383118e-02
-7.353290319442749023e-01 6.169576048851013184e-01 3.017218708992004395e-01 -2.494809031486511230e-01 4.473795890808105469e-01 3.528568446636199951e-01 4.423614218831062317e-02 2.386783212423324585e-01 3.255480527877807617e-01 7.820005528628826141e-03
-1.888414621353149414e-01 6.125991344451904297e-01 -6.672965735197067261e-02 9.021401405334472656e-01 3.370685577392578125e-01 5.700979232788085938e-01 -5.498233437538146973e-01 6.612763404846191406e-01 8.554697781801223755e-02 1.902391761541366577e-01
2.216832339763641357e-01 -7.358566671609878540e-02 -6.146877408027648926e-01 1.492951251566410065e-02 -6.500768661499023438e-01 -4.208891093730926514e-01 5.032141879200935364e-02 -5.061630010604858398e-01 -1.583946943283081055e-01 -2.716508805751800537e-01
