7.339420914649963379e-01 7.471426725387573242e-01 -8.155279755592346191e-01 -5.673483014106750488e-01 4.665808081626892090e-01 6.741163730621337891e-01 4.434575140476226807e-01 7.604610919952392578e-01 3.583163619041442871e-01 1.583324670791625977e-01
-7.041875720024108887e-01 -4.108195602893829346e-01 1.554669141769409180e-01 6.670985817909240723e-01 -8.031376004219055176e-01 4.054037332534790039e-01 -2.640661299228668213e-01 -3.533325791358947754e-01 4.433311522006988525e-02 -2.698650658130645752e-01
-5.064249634742736816e-01 -1.414510160684585571e-01 3.041198849678039551e-01 7.657822370529174805e-01 -4.843305349349975586e-01 2.503352403640747070e+00 -5.769411325454711914e-01 -4.584871530532836914e-01 -1.688780784606933594e-01 -3.190616071224212646e-01
1.625155359506607056e-01 -3.042072989046573639e-02 -5.152466297149658203e-01 -4.192335009574890137e-01 7.350338101387023926e-01 -2.887665987014770508e+00 2.251976728439331055e-01 6.501386165618896484e-01 9.339734911918640137e-01 1.378604531288146973e+00
6.617981791496276855e-01 2.208676189184188843e-01 -7.596373558044433594e-01 -9.919056296348571777e-01 1.120507240295410156e+00 -1.929527640342712402e+00 4.607249796390533447e-01 5.211461782455444336e-01 -2.441275715827941895e-01 -8.988544344902038574e-01
9.870652109384536743e-02 -2.105871140956878662e-01 -3.629065351560711861e-03 5.570393204689025879e-01 -4.413731992244720459e-01 1.002059221267700195e+00 -4.084839224815368652e-01 -7.016703486442565918e-01 -2.541744410991668701e-01 2.939924895763397217e-01
6.747396588325500488e-01 2.068072110414505005e-01 -3.287730813026428223e-01 -1.042419448494911194e-01 4.715633988380432129e-01 4.791822135448455811e-01 5.525300502777099609e-01 5.634165406227111816e-01 2.185107469558715820e-01 1.620519608259201050e-01
4.363440871238708496e-01 6.649515628814697266e-01 -3.832981586456298828e-01 -6.439182758331298828e-01 5.680056810379028320e-01 1.951426118612289429e-01 9.947890788316726685e-02 6.807451844215393066e-01 2.133583128452301025e-01 1.819360554218292236e-01
3.969223201274871826e-01 -2.444851994514465332e-01 -5.399725437164306641e-01 -4.091573953628540039e-01 6.549155712127685547e-01 -1.605815887451171875e+00 7.492251396179199219e-01 6.952237486839294434e-01 2.301914840936660767e-01 4.770732223987579346e-01
-2.197621315717697144e-01 1.807555854320526123e-01 2.970628440380096436e-01 5.568792223930358887e-01 -7.847191691398620605e-01 1.352467656135559082e+00 -6.742804050445556641e-01 -1.786285787820816040e-01 -3.449375033378601074e-01 1.977434903383255005e-01
