-3.787415921688079834e-01 -4.659064412117004395e-01 -6.097146868705749512e-01 3.585954010486602783e-02 9.443212300539016724e-02 -3.850430548191070557e-01 3.422891199588775635e-01 -1.886464506387710571e-01 5.006413161754608154e-02 3.304166197776794434e-01
-6.047141272574663162e-03 -1.178769469261169434e-01 2.011806964874267578e-01 2.212234586477279663e-01 3.412852883338928223e-01 -3.325963020324707031e-01 -8.967535942792892456e-02 -2.691817283630371094e-01 -4.090382754802703857e-01 -2.964461445808410645e-01
4.902911782264709473e-01 3.706940710544586182e-01 3.243384659290313721e-01 -6.753060221672058105e-01 -2.842136323451995850e-01 3.842872381210327148e-01 -4.197113811969757080e-01 5.005310773849487305e-01 2.182895988225936890e-01 2.665585875511169434e-01
-5.514575242996215820e-01 -1.323697119951248169e-01 -4.668526649475097656e-01 5.331840515136718750e-01 1.025648042559623718e-01 -1.991532146930694580e-01 6.161281466484069824e-01 -3.731044828891754150e-01 1.039648279547691345e-01 -2.492295205593109131e-01
-6.557559221982955933e-02 -5.387387871742248535e-01 -4.724746942520141602e-01 2.313204854726791382e-01 4.055980145931243896e-01 -1.814135462045669556e-01 2.498963922262191772e-01 -5.109885334968566895e-01 -3.149639666080474854e-01 -1.638705581426620483e-01
2.546752393245697021e-01 5.178790688514709473e-01 9.203340411186218262e-01 -1.158820241689682007e-01 -3.773672282695770264e-01 2.152395844459533691e-01 -5.743693709373474121e-01 6.179190240800380707e-03 -8.529592305421829224e-03 2.228820174932479858e-01
3.683682680130004883e-01 2.409223467111587524e-01 3.993388116359710693e-01 -5.666337609291076660e-01 -6.069787740707397461e-01 2.389612346887588501e-01 -5.903076529502868652e-01 1.922596096992492676e-01 2.744923830032348633e-01 3.623346090316772461e-01
-4.792041480541229248e-01 -3.473986685276031494e-01 -7.793107628822326660e-01 1.691517047584056854e-02 2.159731388092041016e-01 1.660214662551879883e-01 5.595191121101379395e-01 -4.423069357872009277e-01 8.460071682929992676e-02 7.421085238456726074e-01
-1.336375772953033447e-01 -3.473465740680694580e-01 -4.830178618431091309e-01 -1.199181199073791504e+00 -6.537965536117553711e-01 1.220664829015731812e-01 3.921095430850982666e-01 1.370324343442916870e-01 3.489714860916137695e-02 9.864744544029235840e-01
-1.931997984647750854e-01 -4.692358970642089844e-01 -9.078841209411621094e-01 2.437341362237930298e-01 3.703632056713104248e-01 -4.280951339751482010e-03 6.674555540084838867e-01 -2.868574261665344238e-01 -2.068041861057281494e-01 -1.639908701181411743e-01
