-9.839524626731872559e-01 -7.415868043899536133e-01 8.883597254753112793e-01 5.265705585479736328e-01 5.524504184722900391e-01 -9.897334575653076172e-01 -3.963795304298400879e-01 1.449120283126831055e+00 2.396837621927261353e-01 -2.029991149902343750e-01
-1.729084849357604980e-01 -1.592604219913482666e-01 8.446514606475830078e-02 -3.444202542304992676e-01 6.019397825002670288e-02 1.031810566782951355e-01 -2.693467736244201660e-01 4.091005027294158936e-02 -8.238029479980468750e-01 2.891297042369842529e-01
8.653662204742431641e-01 -2.588494718074798584e-01 -1.467162132263183594e+00 -6.954606771469116211e-01 -3.784552812576293945e-01 4.664136767387390137e-01 5.950766205787658691e-01 -9.649190902709960938e-01 -2.500817775726318359e-01 4.372366666793823242e-01
-3.816577196121215820e-01 2.464886754751205444e-02 3.352065086364746094e-01 8.416436612606048584e-02 3.765379786491394043e-01 -8.952524065971374512e-01 -6.896868348121643066e-01 6.828250288963317871e-01 -1.468825489282608032e-01 1.160300150513648987e-01
-4.926807284355163574e-01 7.106794714927673340e-01 -2.994908578693866730e-02 1.152304038405418396e-01 3.301672637462615967e-01 -6.182634234428405762e-01 -1.061926260590553284e-01 -2.003754824399948120e-01 1.185270398855209351e-01 -4.844919741153717041e-01
4.861285984516143799e-01 -1.082689166069030762e+00 -4.426963627338409424e-01 -5.867944359779357910e-01 -7.336215972900390625e-01 5.999847054481506348e-01 1.645822227001190186e-01 -8.138542622327804565e-02 -5.494117140769958496e-01 3.390469551086425781e-01
2.901999354362487793e-01 -5.282037854194641113e-01 -7.640602588653564453e-01 -1.827202290296554565e-01 -5.024816989898681641e-01 4.547204375267028809e-01 6.893786787986755371e-01 -6.956641674041748047e-01 -1.471272110939025879e-01 4.245394766330718994e-01
-1.076250195503234863e+00 -9.649720191955566406e-01 1.338866353034973145e+00 1.131477475166320801e+00 1.202107742428779602e-01 -1.218193411827087402e+00 -3.295661183074116707e-03 1.457367181777954102e+00 5.729824900627136230e-01 -5.467874184250831604e-02
9.084637165069580078e-01 1.678163290023803711e+00 -1.162395119667053223e+00 -7.326252460479736328e-01 -4.786181151866912842e-01 1.659698963165283203e+00 5.514239072799682617e-01 -1.175622463226318359e+00 2.165522873401641846e-01 9.409991651773452759e-02
-9.906651377677917480e-01 -9.698432683944702148e-01 7.498294115066528320e-01 5.962426662445068359e-01 4.935922920703887939e-01 -1.396518588066101074e+00 -6.124857664108276367e-01 9.294784069061279297e-01 4.409909844398498535e-01 -7.131506204605102539e-01
