3.440938591957092285e-01 4.044366776943206787e-01 7.945007681846618652e-01 2.975177466869354248e-01 -4.701164364814758301e-01 -5.479254126548767090e-01 1.823195964097976685e-01 -3.255711495876312256e-02 1.506382375955581665e-01 7.747320830821990967e-02
4.248483777046203613e-01 8.084957487881183624e-03 3.634969294071197510e-01 9.761232882738113403e-02 -6.377496123313903809e-01 -2.360294573009014130e-02 2.473232150077819824e-01 -3.491618633270263672e-01 -3.857232630252838135e-01 -1.422375440597534180e-01
-1.147296309471130371e+00 7.978902459144592285e-01 -6.195074915885925293e-01 9.607667326927185059e-01 -6.387498974800109863e-02 3.490108549594879150e-01 8.048075437545776367e-01 -7.722902297973632812e-01 9.982914328575134277e-01 -7.482328414916992188e-01
-3.527682423591613770e-01 -4.875636398792266846e-01 -3.526094257831573486e-01 -4.378326833248138428e-01 5.410757660865783691e-01 -1.467767208814620972e-01 -2.226691097021102905e-01 5.183597207069396973e-01 -2.525002360343933105e-01 4.325945973396301270e-01
-6.216704249382019043e-01 -3.829910755157470703e-01 -3.263479769229888916e-01 -3.505236804485321045e-01 1.086195781826972961e-01 -1.933839023113250732e-01 -3.169991374015808105e-01 1.362484395503997803e-01 -1.302883028984069824e-01 7.881229370832443237e-02
7.285572290420532227e-01 2.899422496557235718e-02 3.988378942012786865e-01 1.518826186656951904e-01 -1.127461567521095276e-01 4.749959111213684082e-01 8.602576330304145813e-03 -4.206860363483428955e-01 8.800390362739562988e-02 1.190958172082901001e-01
-1.702650040388107300e-01 -3.786084651947021484e-01 -4.670029580593109131e-01 -6.704410910606384277e-01 3.339426815509796143e-01 1.338574141263961792e-01 -3.340783715248107910e-01 4.001748859882354736e-01 -4.658168256282806396e-01 1.147289201617240906e-01
5.804229378700256348e-01 2.922298312187194824e-01 4.113179743289947510e-01 4.978451430797576904e-01 -6.065788865089416504e-01 3.285999298095703125e-01 2.158116549253463745e-01 -9.315185248851776123e-02 5.229637026786804199e-03 -9.569841623306274414e-02
1.943094655871391296e-02 -5.394895672798156738e-01 -5.148717164993286133e-01 -6.825292110443115234e-02 7.631973028182983398e-01 1.746336370706558228e-01 -3.417383730411529541e-01 4.458991289138793945e-01 -2.998975217342376709e-01 -1.200128719210624695e-01
1.376714706420898438e-01 -1.513743400573730469e-01 1.580721884965896606e-01 3.305198252201080322e-01 3.955238461494445801e-01 5.653600096702575684e-01 -1.538819670677185059e-01 -3.746357187628746033e-02 2.246817201375961304e-01 -2.743346095085144043e-01
