1.924022674560546875e+00 1.740872859954833984e+00 -2.278216928243637085e-02 -3.782814145088195801e-01 -3.069857656955718994e-01 -1.528924942016601562e+00 -5.794168114662170410e-01 -5.652227997779846191e-01 -3.137046396732330322e-01 3.040570020675659180e-01
1.147753119468688965e+00 1.032583475112915039e+00 -2.577517926692962646e-01 -4.617659375071525574e-02 -5.586736202239990234e-01 -1.156538486480712891e+00 -2.660635709762573242e-01 -5.978317856788635254e-01 -3.863307833671569824e-01 -9.048576653003692627e-02
-4.141528904438018799e-01 -2.984156906604766846e-01 -4.681777954101562500e-01 -5.707645416259765625e-01 1.865344494581222534e-01 -1.284899353981018066e+00 -9.120263457298278809e-01 -6.497638821601867676e-01 1.081533133983612061e-01 1.560381770133972168e+00
-3.340832293033599854e-01 -3.452304303646087646e-01 6.804930567741394043e-01 -3.674687743186950684e-01 5.318194031715393066e-01 4.062818884849548340e-01 6.127241253852844238e-01 6.608527898788452148e-01 6.477231383323669434e-01 3.335705697536468506e-01
-7.411759346723556519e-02 3.712027668952941895e-01 5.200524330139160156e-01 -6.954305171966552734e-01 3.739168345928192139e-01 1.070196703076362610e-01 6.070118546485900879e-01 1.861131489276885986e-01 2.303374856710433960e-01 2.552741765975952148e-01
7.917619347572326660e-01 4.579430818557739258e-01 -3.731063604354858398e-01 5.536109805107116699e-01 -1.025388598442077637e+00 -1.106684923171997070e+00 -8.591504096984863281e-01 -3.448706567287445068e-01 -9.457332082092761993e-03 -3.987327516078948975e-01
-8.320597410202026367e-01 -2.916532456874847412e-01 2.477232664823532104e-01 -2.424822002649307251e-01 5.918648838996887207e-01 8.366328477859497070e-01 7.584100365638732910e-01 1.794247031211853027e-01 3.494053184986114502e-01 2.597281038761138916e-01
8.674620389938354492e-01 5.562490224838256836e-01 -8.744860291481018066e-01 7.206598520278930664e-01 -6.485037803649902344e-01 -1.138158321380615234e+00 -7.473142147064208984e-01 -4.334982633590698242e-01 6.259121000766754150e-02 -2.067608535289764404e-01
-1.524195313453674316e+00 -2.090496301651000977e+00 5.380377173423767090e-01 -3.951926529407501221e-01 8.448493480682373047e-01 9.676911830902099609e-01 6.969465017318725586e-01 3.332465291023254395e-01 2.373668849468231201e-01 6.976713538169860840e-01
2.056488990783691406e+00 3.094825983047485352e+00 -1.776947677135467529e-01 -1.577264219522476196e-01 -5.381634235382080078e-01 -1.434595465660095215e+00 -9.833354949951171875e-01 -6.963133215904235840e-01 1.287913471460342407e-01 -1.572720527648925781e+00
