1.118090748786926270e+00 -4.590960443019866943e-01 -5.290368199348449707e-02 6.881505250930786133e-02 -2.415363639593124390e-01 -4.122323170304298401e-02 -1.355334967374801636e-01 -3.204811513423919678e-01 -4.620467424392700195e-01 -1.822093576192855835e-01
-1.046391963958740234e+00 -8.873257637023925781e-01 1.134655028581619263e-01 2.254886031150817871e-01 4.480013251304626465e-01 -1.162554398179054260e-01 -4.286917299032211304e-02 -3.300003111362457275e-01 -4.294905066490173340e-02 -2.441772520542144775e-01
-3.352275192737579346e-01 -5.636578202247619629e-01 -1.425143927335739136e-01 4.965939223766326904e-01 6.470967084169387817e-02 -4.014646708965301514e-01 4.079172611236572266e-01 -3.228008449077606201e-01 -8.380597829818725586e-02 1.298196464776992798e-01
-1.003353714942932129e+00 1.373045146465301514e-01 5.185421705245971680e-01 -4.846398830413818359e-01 2.533870339393615723e-01 2.388556003570556641e-01 -4.221411943435668945e-01 1.546003222465515137e-01 6.814341992139816284e-02 4.671220183372497559e-01
-6.563448309898376465e-01 -7.007429599761962891e-01 8.211361616849899292e-02 5.525179505348205566e-01 1.912453621625900269e-01 -1.134802699089050293e-01 2.961086630821228027e-01 -1.013183072209358215e-01 -1.808777824044227600e-02 -1.333240419626235962e-01
-7.269670814275741577e-02 3.800289928913116455e-01 6.537395715713500977e-01 -6.174905300140380859e-01 4.768627583980560303e-01 2.326128482818603516e-01 -4.930690824985504150e-01 4.861897826194763184e-01 4.578329920768737793e-01 5.263179168105125427e-02
4.939897358417510986e-02 2.057475298643112183e-01 5.353234410285949707e-01 -5.344499349594116211e-01 1.595308631658554077e-01 1.935053914785385132e-01 -2.533801794052124023e-01 2.838659584522247314e-01 1.689500659704208374e-01 4.050419628620147705e-01
-6.699747443199157715e-01 -3.667916357517242432e-01 -3.436182439327239990e-01 2.814454734325408936e-01 -2.463306337594985962e-01 -2.746003568172454834e-01 1.660294532775878906e-01 -4.792734608054161072e-02 1.075645685195922852e-01 -2.979513108730316162e-01
-1.025857806205749512e+00 1.249895215034484863e+00 -1.269409537315368652e+00 4.702902734279632568e-01 -6.517637968063354492e-01 -3.390081524848937988e-01 5.484026074409484863e-01 -2.781778946518898010e-02 -1.503260433673858643e-01 2.511952817440032959e-01
4.783260524272918701e-01 3.262942433357238770e-01 5.482400655746459961e-01 -3.370598256587982178e-01 5.278416275978088379e-01 2.977757751941680908e-01 -2.501345574855804443e-01 7.491153478622436523e-01 4.980988800525665283e-01 4.034695029258728027e-02
