8.781176805496215820e-01 -5.652697384357452393e-02 4.248268902301788330e-01 -6.258433461189270020e-01 1.821298003196716309e-01 -1.844012588262557983e-01 -6.799449324607849121e-01 8.073000311851501465e-01 4.575556516647338867e-01 8.176609277725219727e-01
2.419035196304321289e+00 -2.238727092742919922e+00 -1.783785104751586914e+00 3.778723180294036865e-01 -1.345412135124206543e+00 -2.438114136457443237e-01 -2.417868375778198242e+00 2.493150711059570312e+00 -1.915172860026359558e-02 4.763934016227722168e-01
4.287177622318267822e-01 -3.953171372413635254e-01 -7.739880084991455078e-01 2.258677333593368530e-01 -5.574369430541992188e-01 -6.930498480796813965e-01 -6.712300181388854980e-01 3.411109149456024170e-01 -4.195856153964996338e-01 -2.338327616453170776e-01
-1.069845318794250488e+00 7.299889922142028809e-01 8.789462447166442871e-01 -6.836205124855041504e-01 9.327151179313659668e-01 4.456737935543060303e-01 8.092213869094848633e-01 -8.313806653022766113e-01 2.294854968786239624e-01 4.949653521180152893e-04
1.250785112380981445e+00 -1.038910269737243652e+00 -1.005248785018920898e+00 3.615562021732330322e-01 -9.801100492477416992e-01 -4.313061535358428955e-01 -8.721251487731933594e-01 1.240099191665649414e+00 -3.540939986705780029e-01 -3.323395252227783203e-01
-6.137135028839111328e-01 5.048883557319641113e-01 2.966040074825286865e-01 -3.331139385700225830e-01 7.540893554687500000e-01 6.452528238296508789e-01 2.247481197118759155e-01 -2.315352857112884521e-01 3.611439168453216553e-01 7.316868752241134644e-02
-6.723494529724121094e-01 7.033432126045227051e-01 1.678749769926071167e-01 -1.421679854393005371e-01 5.109558701515197754e-01 4.588855803012847900e-01 4.087196588516235352e-01 -4.654252827167510986e-01 3.144736588001251221e-01 1.361899226903915405e-01
1.052125543355941772e-01 -2.346235513687133789e-01 -6.420994997024536133e-01 2.604224681854248047e-01 -5.483200550079345703e-01 -3.723103106021881104e-01 -5.919081568717956543e-01 -2.396708577871322632e-01 -2.525067329406738281e-01 -3.520407676696777344e-01
8.158515691757202148e-01 -1.595048189163208008e+00 -1.507380723953247070e+00 8.183079957962036133e-01 -1.439901113510131836e+00 -3.752324730157852173e-02 -2.005364894866943359e+00 1.207453966140747070e+00 5.123563408851623535e-01 1.697466731071472168e+00
-4.099737852811813354e-03 2.841915786266326904e-01 5.005654096603393555e-01 -7.282365560531616211e-01 8.153895735740661621e-01 5.687071084976196289e-01 4.375557601451873779e-01 -1.884447038173675537e-01 5.107795000076293945e-01 5.241251587867736816e-01
