3.521046936511993408e-01 -4.531641677021980286e-02 1.435462832450866699e-01 1.463664621114730835e-01 -4.098768904805183411e-02 2.958261370658874512e-01 -2.543046474456787109e-01 -1.022461056709289551e-01 1.177758872509002686e-01 -7.275990210473537445e-04 3.830694779753684998e-02 3.125508725643157959e-01 1.500370502471923828e-01 -1.314287781715393066e-01 -1.369078159332275391e-01 3.397905081510543823e-02 -1.633957624435424805e-01 4.659239575266838074e-02 7.402509450912475586e-02 -2.202482819557189941e-01
1.588207781314849854e-01 -3.875778019428253174e-01 3.496915996074676514e-01 -3.400971591472625732e-01 3.137545287609100342e-02 9.185608476400375366e-03 -2.779867500066757202e-02 -1.175834387540817261e-01 -3.188357353210449219e-01 2.637819349765777588e-01 -3.434564471244812012e-01 3.540831804275512695e-01 9.703130275011062622e-02 -2.027977257966995239e-01 -2.443170398473739624e-01 -4.200152754783630371e-01 -2.384672760963439941e-01 1.533548384904861450e-01 3.835415840148925781e-01 -2.675350941717624664e-02
4.757790863513946533e-01 -2.342565953731536865e-01 2.388217449188232422e-01 -2.128919363021850586e-01 1.465544700622558594e-01 3.717146217823028564e-01 -2.575998902320861816e-01 1.218928471207618713e-01 -3.806235790252685547e-01 8.867728710174560547e-02 -3.814602196216583252e-01 2.097751796245574951e-01 1.014561504125595093e-01 -1.116834804415702820e-01 3.431028127670288086e-01 -1.223038360476493835e-01 -1.754673123359680176e-01 1.997466236352920532e-01 -2.952080368995666504e-01 8.138746023178100586e-02
4.749750718474388123e-02 3.971311822533607483e-02 3.207760676741600037e-02 -4.194157123565673828e-01 2.963581979274749756e-01 3.708642348647117615e-02 -3.770216703414916992e-01 -5.320713520050048828e-01 -2.406281977891921997e-01 2.055807411670684814e-02 2.278876304626464844e-02 2.729515731334686279e-01 1.222901046276092529e-01 -4.394363164901733398e-01 -1.247013807296752930e-01 -6.594634801149368286e-02 -2.141968607902526855e-01 1.209060475230216980e-01 8.131204247474670410e-01 -6.408581137657165527e-01
3.451238572597503662e-01 -9.132495522499084473e-02 1.994928419589996338e-01 -2.936006784439086914e-01 2.278698682785034180e-01 4.631156567484140396e-03 1.273571606725454330e-02 -3.353187441825866699e-01 4.656853899359703064e-02 1.373690664768218994e-01 -2.883783280849456787e-01 1.364465504884719849e-01 3.389996886253356934e-01 -2.075461745262145996e-01 1.493104547262191772e-01 -7.808548957109451294e-02 -2.264038473367691040e-01 1.872372776269912720e-01 3.114418685436248779e-01 -1.040147766470909119e-01
3.579346537590026855e-01 -3.614416420459747314e-01 -5.807578191161155701e-02 -2.580806314945220947e-01 1.410785615444183350e-01 1.042682677507400513e-01 -2.057468742132186890e-01 -1.330744177103042603e-01 -2.255788445472717285e-01 1.711375415325164795e-01 -3.602437376976013184e-01 4.218696057796478271e-01 1.818358600139617920e-01 -1.920708715915679932e-01 1.801072657108306885e-01 -3.077178597450256348e-01 -1.155055686831474304e-01 1.779897809028625488e-01 -1.474723219871520996e-01 2.492947429418563843e-01
-3.683980181813240051e-02 -3.752686083316802979e-01 3.259982764720916748e-01 -2.395196259021759033e-01 3.461906313896179199e-01 3.061497211456298828e-01 7.203195989131927490e-02 -2.645552158355712891e-01 -3.424714207649230957e-01 3.289850950241088867e-01 -2.751369774341583252e-01 1.916152983903884888e-01 4.771956801414489746e-02 -1.692794263362884521e-01 3.683077692985534668e-01 -1.667194366455078125e-01 -5.025028809905052185e-02 2.404671758413314819e-01 -2.175372540950775146e-01 1.256693005561828613e-01
2.413098216056823730e-01 -1.153315156698226929e-01 4.120796620845794678e-01 -2.232474833726882935e-01 2.149310410022735596e-01 1.637521237134933472e-01 -9.074136614799499512e-02 -1.938185542821884155e-01 -2.875525057315826416e-01 1.721257865428924561e-01 -2.504397630691528320e-01 1.894217580556869507e-01 6.340982764959335327e-02 -2.459130734205245972e-01 -1.270226091146469116e-01 -3.854177594184875488e-01 -1.230504587292671204e-01 -3.952272981405258179e-02 1.832037121057510376e-01 1.064489930868148804e-01
8.764105290174484253e-02 2.846698164939880371e-01 -2.966898381710052490e-01 5.645069479942321777e-01 -3.427868187427520752e-01 -3.604114055633544922e-02 3.499163687229156494e-01 1.829077303409576416e-02 -4.556457325816154480e-02 -3.265804946422576904e-01 1.049898862838745117e-01 1.059531420469284058e-01 -2.488542795181274414e-01 2.570729553699493408e-01 -4.567268788814544678e-01 2.340813912451267242e-02 -1.656963974237442017e-01 -3.085121884942054749e-02 2.600998282432556152e-01 -2.989914417266845703e-01
5.932203494012355804e-03 1.247543469071388245e-01 -1.681690365076065063e-01 5.004733204841613770e-01 -2.723064422607421875e-01 4.245191812515258789e-02 1.470790356397628784e-01 -2.384475991129875183e-02 1.649803817272186279e-01 -1.681106835603713989e-01 2.925638854503631592e-01 -6.327920407056808472e-02 -3.831401169300079346e-01 4.828080534934997559e-03 -3.009352385997772217e-01 3.110656142234802246e-01 2.130194753408432007e-01 -9.665729105472564697e-02 7.043286692351102829e-03 -2.743043303489685059e-01
-6.636883318424224854e-02 -3.439776599407196045e-01 -1.233093515038490295e-01 -5.515910312533378601e-02 3.684702515602111816e-02 -4.984496906399726868e-02 -5.946499481797218323e-02 -3.169310688972473145e-01 1.953819952905178070e-02 1.166350990533828735e-01 9.211007505655288696e-02 -1.520361658185720444e-02 2.528530955314636230e-01 -1.968755573034286499e-02 3.344501182436943054e-02 -2.823414504528045654e-01 -9.515923261642456055e-02 1.035078391432762146e-01 -1.453166007995605469e-01 -1.362716108560562134e-01
-3.405425846576690674e-01 1.231436580419540405e-01 -4.199285805225372314e-01 5.775846913456916809e-02 -1.402109116315841675e-01 -2.027000933885574341e-01 2.043232321739196777e-01 2.258666306734085083e-01 5.288539081811904907e-02 -3.363585472106933594e-01 8.882185816764831543e-02 -2.717141993343830109e-02 7.717639952898025513e-02 3.052359819412231445e-01 -1.971076726913452148e-01 1.844071298837661743e-01 1.374348104000091553e-01 -9.403516352176666260e-02 4.295530915260314941e-01 -6.096611171960830688e-02
-1.435677707195281982e-01 3.784663379192352295e-01 -1.786372363567352295e-01 3.393844664096832275e-01 -6.552323698997497559e-03 -1.875645220279693604e-01 2.701726853847503662e-01 2.115896642208099365e-01 3.012298345565795898e-01 -2.796936035156250000e-01 -2.824509143829345703e-02 -3.642570674419403076e-01 -2.988260686397552490e-01 3.350533246994018555e-01 -3.664521276950836182e-01 1.813722848892211914e-01 -6.337367743253707886e-02 -1.329085826873779297e-01 5.390454530715942383e-01 -2.312796860933303833e-01
2.989903986454010010e-01 1.098666265606880188e-01 -3.263721987605094910e-02 4.007183611392974854e-01 -3.043272495269775391e-01 -4.911600649356842041e-01 1.217067614197731018e-01 -6.517326831817626953e-01 -5.909943953156471252e-03 -3.395439088344573975e-01 3.389530777931213379e-01 1.821959018707275391e-01 -3.075527250766754150e-01 -2.742800712585449219e-01 -6.645994782447814941e-01 -4.033285677433013916e-01 -6.497719287872314453e-01 3.828253448009490967e-01 5.751302242279052734e-01 -3.740873634815216064e-01
-3.865211829543113708e-02 1.419596374034881592e-01 -1.791618466377258301e-01 6.086791157722473145e-01 -5.203955769538879395e-01 -7.703728973865509033e-02 3.661452829837799072e-01 5.095962900668382645e-03 3.260902762413024902e-01 -8.343479782342910767e-02 7.649655640125274658e-02 -2.405239045619964600e-01 -4.580411314964294434e-01 4.991347342729568481e-02 -7.721834182739257812e-01 1.489422172307968140e-01 -8.928713947534561157e-02 -4.643914401531219482e-01 5.501438975334167480e-01 -1.474154740571975708e-01
2.093586474657058716e-01 -4.031740725040435791e-01 5.621428042650222778e-02 -1.879978179931640625e-01 4.005624353885650635e-01 2.030023634433746338e-01 5.145444348454475403e-02 -8.307899534702301025e-02 -2.490677088499069214e-01 2.732158303260803223e-01 -1.056879982352256775e-01 1.093393340706825256e-01 1.557682156562805176e-01 -3.100422024726867676e-01 2.198904752731323242e-01 -3.440635502338409424e-01 -9.329492598772048950e-02 -1.069057509303092957e-01 -3.833013353869318962e-03 -8.775083720684051514e-02
-3.921175003051757812e-01 -9.007773399353027344e-01 -1.236644029617309570e+00 2.980386912822723389e-01 5.721372961997985840e-01 2.823332846164703369e-01 3.005391061305999756e-01 6.061818599700927734e-01 1.329154223203659058e-01 -5.746868252754211426e-01 9.701878428459167480e-01 3.516489565372467041e-01 3.100021481513977051e-01 -1.011503785848617554e-01 -7.949703335762023926e-01 -2.878211140632629395e-01 4.884792864322662354e-01 -1.539899110794067383e-01 5.652834773063659668e-01 -3.449749946594238281e-01
-9.089256078004837036e-02 2.497594356536865234e-01 -2.534816265106201172e-01 3.050327599048614502e-01 -2.992627918720245361e-01 -1.337849050760269165e-01 8.177524060010910034e-02 1.278687119483947754e-01 3.033305406570434570e-01 6.127967964857816696e-03 2.982156872749328613e-01 -1.967132389545440674e-01 -3.137553334236145020e-01 1.103443279862403870e-01 -6.530057787895202637e-01 1.979708075523376465e-01 1.664056926965713501e-01 -1.899585127830505371e-01 6.668592095375061035e-01 -7.251147180795669556e-02
1.371907889842987061e-01 5.132691189646720886e-02 3.965178132057189941e-01 9.205190539360046387e-01 -4.670582711696624756e-01 -2.457927614450454712e-01 4.866674542427062988e-01 -3.776875734329223633e-01 -8.103398978710174561e-02 -1.921981871128082275e-01 -3.170897662639617920e-01 4.628948867321014404e-01 1.067695207893848419e-02 3.697435259819030762e-01 -1.082856893539428711e+00 -3.558898270130157471e-01 -1.283718924969434738e-02 3.217183649539947510e-01 2.645980715751647949e-01 -7.447551935911178589e-02
-4.499469399452209473e-01 4.863481502979993820e-03 -2.670232057571411133e-01 4.668879806995391846e-01 -1.158727183938026428e-01 -1.885164678096771240e-01 4.048547446727752686e-01 2.059753537178039551e-01 8.292733877897262573e-02 -3.831453621387481689e-01 1.490468978881835938e-01 -1.727272719144821167e-01 -3.009745851159095764e-02 1.558255404233932495e-01 -5.809106826782226562e-01 -1.011588126420974731e-01 7.926997542381286621e-02 3.070803582668304443e-01 5.053592324256896973e-01 -3.457594811916351318e-01
