-9.273995459079742432e-02 -2.317067794501781464e-02 -1.314522027969360352e-01 -1.103077083826065063e-02 1.332831829786300659e-01 5.875346716493368149e-03 1.767678409814834595e-01 1.292710006237030029e-01 -1.588614583015441895e-01 -7.830107957124710083e-02 -2.594487927854061127e-02 2.437158226966857910e-01 -3.290946781635284424e-02 3.635710775852203369e-01 3.020012937486171722e-02 -3.246801197528839111e-01 3.390099704265594482e-01 -2.528955042362213135e-01 6.802048534154891968e-02 1.039045974612236023e-01
3.416006565093994141e-01 6.343890726566314697e-02 3.809970915317535400e-01 -1.969587057828903198e-01 -1.136985644698143005e-01 3.003265261650085449e-01 4.638049378991127014e-02 -7.140412926673889160e-02 2.021988388150930405e-03 2.268958538770675659e-01 4.603242874145507812e-02 -4.127206653356552124e-02 -3.207869529724121094e-01 4.037737548351287842e-01 -4.505667686462402344e-01 -2.684883177280426025e-01 4.739573001861572266e-01 -1.342690177261829376e-02 -3.655000776052474976e-02 1.610510647296905518e-01
2.030468434095382690e-01 4.217047095298767090e-01 7.050222903490066528e-02 -4.348597526550292969e-01 -3.892357945442199707e-01 4.057863354682922363e-01 -1.775277256965637207e-01 1.462851911783218384e-01 6.117910146713256836e-03 1.398326158523559570e-01 4.600389003753662109e-01 -9.714213013648986816e-02 1.119796838611364365e-02 2.740440070629119873e-01 -1.659119278192520142e-01 3.059499710798263550e-02 1.152159795165061951e-01 -3.488581180572509766e-01 -3.459699451923370361e-01 2.754481434822082520e-01
9.918484836816787720e-02 -1.332006752490997314e-01 -2.604929544031620026e-02 1.842327266931533813e-01 2.575912140309810638e-02 -9.379467926919460297e-03 -2.784080803394317627e-01 4.742758721113204956e-02 -2.064748406410217285e-01 -7.735623419284820557e-02 -1.882772594690322876e-01 1.195953249931335449e+00 -7.334871292114257812e-01 7.136119604110717773e-01 -3.933382928371429443e-01 -7.640359997749328613e-01 6.395057439804077148e-01 -7.534666657447814941e-01 5.186637639999389648e-01 -2.006001174449920654e-01
2.493945509195327759e-02 1.898254603147506714e-01 1.563368588685989380e-01 -6.242488697171211243e-02 -3.025855720043182373e-01 -3.656167909502983093e-02 -1.466749012470245361e-01 1.998174376785755157e-02 -1.612772047519683838e-02 2.375042531639337540e-03 2.026506811380386353e-01 2.340517938137054443e-01 -3.971949219703674316e-01 2.055110186338424683e-01 -5.216006562113761902e-02 -2.347290813922882080e-01 3.340121209621429443e-01 -2.465509176254272461e-01 4.551480412483215332e-01 1.893933266401290894e-01
4.006308019161224365e-01 2.769498825073242188e-01 2.855509221553802490e-01 -2.373361289501190186e-01 -3.931821584701538086e-01 2.777940630912780762e-01 -7.677438110113143921e-02 3.167325165122747421e-03 3.843453228473663330e-01 -9.161377325654029846e-03 8.257511258125305176e-02 6.223084405064582825e-02 -1.649242341518402100e-01 1.655230373144149780e-01 -4.305773377418518066e-01 -3.653142601251602173e-02 5.884096771478652954e-02 -3.681052103638648987e-02 -1.669819355010986328e-01 3.722722828388214111e-01
4.378185272216796875e-01 3.286902904510498047e-01 9.640827775001525879e-02 -3.323172032833099365e-01 -2.969979681074619293e-02 2.680542469024658203e-01 -1.250794678926467896e-01 -1.328606344759464264e-02 2.817421853542327881e-01 4.551331996917724609e-01 1.950269490480422974e-01 -2.644917927682399750e-02 -2.760741412639617920e-01 6.655794382095336914e-02 -3.313044011592864990e-01 1.827665120363235474e-01 2.433938384056091309e-01 -1.399393081665039062e-01 -3.563100844621658325e-02 1.483287513256072998e-01
3.331081271171569824e-01 1.652617156505584717e-01 3.693974316120147705e-01 -2.254592254757881165e-02 -2.794879488646984100e-02 1.309861987829208374e-01 -7.374336570501327515e-02 5.318410694599151611e-02 8.957810699939727783e-02 2.414018958806991577e-01 3.887073993682861328e-01 -7.054107636213302612e-02 -2.718852162361145020e-01 3.805760443210601807e-01 -6.262604892253875732e-02 -2.638748586177825928e-01 2.981970906257629395e-01 -1.722193360328674316e-01 -6.014459580183029175e-02 2.742058038711547852e-01
-2.056140601634979248e-01 -1.753321886062622070e-01 -1.552089154720306396e-01 2.216942012310028076e-01 3.905035555362701416e-02 5.847299098968505859e-02 3.109005652368068695e-02 1.090085580945014954e-01 8.576064370572566986e-03 2.526357024908065796e-02 4.955845884978771210e-03 -6.883361339569091797e-01 6.367654800415039062e-01 -4.706003069877624512e-01 5.270777344703674316e-01 2.032481282949447632e-01 -3.779412508010864258e-01 5.956292748451232910e-01 -1.359405964612960815e-01 1.248192042112350464e-01
-7.446213066577911377e-02 -1.738658547401428223e-01 -2.167080715298652649e-02 6.397712975740432739e-03 4.655093327164649963e-02 3.555731475353240967e-02 2.267575412988662720e-01 -1.135660558938980103e-01 -1.191353276371955872e-01 -2.094494104385375977e-01 -1.516717523336410522e-01 -1.016532897949218750e+00 6.924468278884887695e-01 -7.662571668624877930e-01 4.380755722522735596e-01 4.208360314369201660e-01 -3.621215522289276123e-01 4.161166548728942871e-01 6.423010826110839844e-01 -2.215640991926193237e-01
2.743874862790107727e-02 2.434315383434295654e-01 1.192537471652030945e-01 4.296322539448738098e-02 -2.194956541061401367e-01 -3.582373633980751038e-02 -2.255902141332626343e-01 -8.473353087902069092e-02 2.752084732055664062e-01 1.442230790853500366e-01 1.711654365062713623e-01 2.595945298671722412e-01 -1.706060022115707397e-01 3.384843170642852783e-01 1.206623017787933350e-02 -7.746392488479614258e-02 9.229981899261474609e-02 4.694035451393574476e-04 -1.889134496450424194e-01 -3.727930784225463867e-02
-1.089094802737236023e-01 -6.802970170974731445e-02 9.703517705202102661e-02 -1.404215246438980103e-01 -5.682704597711563110e-02 -1.673154085874557495e-01 2.439709901809692383e-01 -2.862037718296051025e-01 1.219363808631896973e-01 -9.239884465932846069e-02 -2.204372286796569824e-01 -6.079701334238052368e-02 -4.434251040220260620e-02 -1.294023692607879639e-01 3.439378440380096436e-01 3.668999373912811279e-01 -3.296373784542083740e-01 3.344164192676544189e-01 -1.756837069988250732e-01 -1.251036971807479858e-01
-3.083469271659851074e-01 -1.633071005344390869e-01 -1.677098274230957031e-01 3.323871791362762451e-01 2.443712800741195679e-01 -3.670063316822052002e-01 2.607680857181549072e-01 6.054523587226867676e-02 2.056381199508905411e-03 -1.360463798046112061e-01 -3.058258891105651855e-01 -5.051906704902648926e-01 2.377325482666492462e-02 -4.232370257377624512e-01 4.900514781475067139e-01 3.908397853374481201e-01 -2.591313123703002930e-01 1.656417697668075562e-01 5.304506979882717133e-03 -1.063767448067665100e-01
-3.740555644035339355e-01 -4.298791885375976562e-01 -3.632081151008605957e-01 4.963116943836212158e-01 4.225979745388031006e-01 -2.119784206151962280e-01 3.459018170833587646e-01 -1.446835994720458984e-01 -3.346998691558837891e-01 -4.671384990215301514e-01 -5.664418339729309082e-01 1.521645426750183105e+00 -2.781585216522216797e+00 9.126002192497253418e-01 -5.578159689903259277e-01 -2.260579586029052734e+00 6.735301017761230469e-01 -2.332378387451171875e+00 2.160840108990669250e-02 4.674521684646606445e-01
-2.619567215442657471e-01 -1.200857833027839661e-01 -6.947531551122665405e-02 -8.932491391897201538e-02 -9.441973268985748291e-02 1.028768066316843033e-02 4.902039468288421631e-02 -1.400243341922760010e-01 -5.198564380407333374e-02 -2.292876690626144409e-01 -1.182513609528541565e-01 -9.787569046020507812e-01 8.187518715858459473e-01 -5.618724226951599121e-01 6.046046614646911621e-01 3.767178058624267578e-01 -5.580973029136657715e-01 1.827910989522933960e-01 2.296886593103408813e-01 -3.031319379806518555e-01
3.315878510475158691e-01 3.176198303699493408e-01 3.562113642692565918e-01 -1.151145901530981064e-02 -2.348428815603256226e-01 2.125072032213211060e-01 -3.110128045082092285e-01 2.038232535123825073e-01 2.340228557586669922e-01 4.270729124546051025e-01 1.083854436874389648e-01 2.018906027078628540e-01 1.629247562959790230e-03 5.745629221200942993e-02 -2.301953434944152832e-01 -9.533407539129257202e-02 4.216443896293640137e-01 1.049185544252395630e-01 -2.043371833860874176e-02 2.825050055980682373e-01
6.657788157463073730e-02 1.461101919412612915e-01 -8.026266098022460938e-02 1.134733557701110840e-01 1.570622324943542480e-01 1.456512231379747391e-02 1.638584583997726440e-01 1.618606597185134888e-01 -9.956647455692291260e-02 -1.908536255359649658e-01 -2.029217928647994995e-01 -2.628683090209960938e+00 -7.263365983963012695e-01 -1.400973081588745117e+00 6.315164566040039062e-01 4.960866570472717285e-01 -9.156152009963989258e-01 3.379345178604125977e+00 -3.060768842697143555e+00 7.870756387710571289e-01
-8.547963807359337807e-04 -6.956051569432020187e-03 -2.585817873477935791e-01 -8.580401539802551270e-02 2.341310977935791016e-01 -2.468425035476684570e-02 3.153871595859527588e-01 -7.432919740676879883e-02 6.049175560474395752e-02 -2.854980826377868652e-01 4.718267172574996948e-02 -2.793930470943450928e-01 3.507392406463623047e-01 -5.481277108192443848e-01 1.741872280836105347e-01 3.169474899768829346e-01 -2.629382312297821045e-01 2.517623901367187500e-01 1.189067140221595764e-01 -2.365499734878540039e-01
-1.788369566202163696e-01 -2.422568351030349731e-01 -1.245424821972846985e-01 1.206433549523353577e-01 2.439001351594924927e-01 -2.506885826587677002e-01 2.886157929897308350e-01 1.203823387622833252e-01 -2.478024065494537354e-01 -2.046712785959243774e-01 -6.728541254997253418e-01 1.551856040954589844e+00 -6.087472438812255859e+00 1.595173120498657227e+00 -1.284193634986877441e+00 -2.927904844284057617e+00 8.581950515508651733e-02 -8.552197813987731934e-01 -1.614515423774719238e+00 2.130603075027465820e+00
-6.917566061019897461e-02 -2.169371992349624634e-01 -6.104251742362976074e-02 -8.297855406999588013e-02 -1.404724568128585815e-01 1.513742506504058838e-01 1.312311291694641113e-01 -2.216736376285552979e-01 -2.577263712882995605e-01 -1.061331927776336670e-01 -1.806446313858032227e-01 -4.355152845382690430e-01 3.966777920722961426e-01 -4.613428115844726562e-01 4.125346541404724121e-01 2.718275487422943115e-01 -1.769991070032119751e-01 7.688914537429809570e-01 -3.295828402042388916e-01 -1.847712099552154541e-01
