3.317330032587051392e-03 6.987325549125671387e-01 5.359491705894470215e-01 3.607942163944244385e-01 4.193913042545318604e-01 3.425417542457580566e-01 4.255123138427734375e-01 -7.205845713615417480e-01 4.733790829777717590e-02 -5.030927658081054688e-01
-9.443922340869903564e-02 4.547256231307983398e-01 2.320345342159271240e-01 6.413043141365051270e-01 5.479894876480102539e-01 2.270916849374771118e-01 1.612975895404815674e-01 -4.247827827930450439e-01 -1.974386125802993774e-01 -2.105144262313842773e-01
-4.893523156642913818e-01 1.464339733123779297e+00 1.261741518974304199e-01 5.994831323623657227e-01 2.705665528774261475e-01 -7.880579829216003418e-01 -3.876574337482452393e-01 -5.696241259574890137e-01 -7.327808737754821777e-01 -9.924931079149246216e-02
-6.795215010643005371e-01 -3.386986255645751953e-01 -2.255039960145950317e-01 -4.999298751354217529e-01 -4.620080590248107910e-01 -9.002494812011718750e-01 6.141676902770996094e-01 -3.488721847534179688e-01 4.601581990718841553e-01 -3.270086646080017090e-02
6.045761704444885254e-01 6.005154177546501160e-02 -6.244996786117553711e-01 -4.203200340270996094e-01 -3.673624992370605469e-01 -3.278256058692932129e-01 -4.751493930816650391e-01 2.073810547590255737e-01 -6.009371280670166016e-01 1.779891997575759888e-01
3.812814652919769287e-01 -2.145644426345825195e-01 -2.074193358421325684e-01 -3.253653347492218018e-01 -6.079251170158386230e-01 -2.977459728717803955e-01 -3.170133531093597412e-01 1.157650724053382874e-01 -1.691302955150604248e-01 4.972754120826721191e-01
3.103720843791961670e-01 -5.896191000938415527e-01 -5.441387891769409180e-01 -1.354686468839645386e-01 -4.417576491832733154e-01 3.568325564265251160e-02 -1.542877554893493652e-01 4.663825333118438721e-01 -4.287149906158447266e-01 9.911552071571350098e-02
5.459805727005004883e-01 -8.024517297744750977e-01 -5.468618273735046387e-01 -2.895717620849609375e-01 -6.018478870391845703e-01 -2.015405101701617241e-03 -1.108125746250152588e-01 3.209811747074127197e-01 -1.014323532581329346e-01 3.024173080921173096e-01
-1.332172155380249023e-01 9.107798337936401367e-02 3.427627384662628174e-01 4.825018942356109619e-01 4.528351128101348877e-01 5.029371380805969238e-01 4.870177805423736572e-01 -1.088181883096694946e-01 9.525781869888305664e-02 -4.577449858188629150e-01
1.439258009195327759e-01 1.216786205768585205e-01 6.123754978179931641e-01 2.320526540279388428e-01 9.480870515108108521e-02 4.054296910762786865e-01 1.664588600397109985e-01 -4.277397990226745605e-01 1.723425686359405518e-01 -4.110640287399291992e-01
