-9.482814669609069824e-01 -3.536333888769149780e-02 -3.966098129749298096e-01 6.629928946495056152e-02 9.325664043426513672e-01 -6.600545644760131836e-01 9.430639743804931641e-01 -6.000481247901916504e-01 2.813880741596221924e-01 -8.864901661872863770e-01
-1.096043229103088379e+00 5.990793183445930481e-02 -9.522560238838195801e-01 4.705600142478942871e-01 1.046116828918457031e+00 -3.935180902481079102e-01 4.004955887794494629e-01 -6.270297765731811523e-01 2.027595341205596924e-01 -6.175963282585144043e-01
-1.998271107673645020e+00 1.045476198196411133e+00 -1.378528118133544922e+00 8.461808562278747559e-01 3.457228660583496094e+00 2.933675348758697510e-01 -1.965686529874801636e-01 1.531677544116973877e-01 -2.657892704010009766e-01 -1.501319646835327148e+00
-8.753496408462524414e-01 -3.469017148017883301e-01 1.882524490356445312e-01 2.349618077278137207e-01 1.596398949623107910e+00 1.051355123519897461e+00 -7.731912136077880859e-01 1.833699822425842285e+00 -1.032035350799560547e+00 -1.600118041038513184e+00
7.752526998519897461e-01 -3.361382484436035156e-01 9.195026159286499023e-01 -4.287818968296051025e-01 -9.365334510803222656e-01 3.581217527389526367e-01 -4.938449561595916748e-01 -2.065313905477523804e-01 -3.074207007884979248e-01 7.009517550468444824e-01
3.421434760093688965e-01 -3.256504237651824951e-01 7.335574030876159668e-01 -5.376139879226684570e-01 -1.142590269446372986e-01 3.337773382663726807e-01 -6.444789171218872070e-01 4.640809893608093262e-01 -2.017694711685180664e-01 2.779601812362670898e-01
4.641241431236267090e-01 -3.075062334537506104e-01 5.140714049339294434e-01 -6.776331067085266113e-01 -3.745607435703277588e-01 5.875092148780822754e-01 -1.496140360832214355e-01 6.764907240867614746e-01 -6.975998282432556152e-01 5.930871367454528809e-01
5.335913300514221191e-01 -7.692003250122070312e-01 5.529826283454895020e-01 -6.225129961967468262e-01 -2.167734354734420776e-01 7.488165497779846191e-01 -1.039553508162498474e-01 5.638360977172851562e-01 -5.705150365829467773e-01 5.025718808174133301e-01
-1.375253498554229736e-01 -3.524494171142578125e-02 -2.437745183706283569e-01 -7.598732411861419678e-02 1.019482687115669250e-01 -2.799135744571685791e-01 9.375553131103515625e-01 -3.341723382472991943e-01 3.817496597766876221e-01 -3.804889023303985596e-01
-7.332162857055664062e-01 2.456599771976470947e-01 -5.726062059402465820e-01 -1.163588091731071472e-01 2.087360620498657227e-01 -9.186550378799438477e-01 1.101084709167480469e+00 -5.618793368339538574e-01 9.115090966224670410e-01 -3.164798021316528320e-01
