2.720779776573181152e-01 -3.770314753055572510e-01 -1.006291955709457397e-01 8.813229389488697052e-03 2.225406318902969360e-01 9.373368322849273682e-02 -2.728326320648193359e-01 3.778232038021087646e-01 -3.796726465225219727e-01 -1.118124052882194519e-01 3.104938268661499023e-01 -3.619464039802551270e-01 3.559406399726867676e-01 4.836127161979675293e-02 -2.794512510299682617e-01 2.617577612400054932e-01 2.562778592109680176e-01 -2.651659846305847168e-01 6.316296756267547607e-02 6.801638752222061157e-03
-1.705746501684188843e-01 4.120489954948425293e-01 2.744124829769134521e-01 -1.620654761791229248e-01 -4.005633592605590820e-01 -1.806432567536830902e-02 1.150227524340152740e-02 -3.614576458930969238e-01 4.155566990375518799e-01 1.280085742473602295e-01 -8.160083740949630737e-02 2.112434655427932739e-01 -4.180744588375091553e-01 -2.546204924583435059e-01 3.406179547309875488e-01 -1.437202244997024536e-01 -1.437374204397201538e-01 -1.421252042055130005e-01 -2.886022813618183136e-02 -1.704008132219314575e-01
7.221190333366394043e-01 -1.293049603700637817e-01 6.893196702003479004e-02 -1.763221621513366699e-01 -1.391878426074981689e-01 -8.173232078552246094e-01 3.074236586689949036e-02 -1.005074456334114075e-01 1.187567561864852905e-01 -1.428323090076446533e-01 -2.523091994225978851e-02 4.993751943111419678e-01 -1.537863761186599731e-01 -5.139103531837463379e-01 4.835876226425170898e-01 -9.100440144538879395e-02 -6.086555719375610352e-01 6.310436725616455078e-01 3.797857835888862610e-02 -1.227122768759727478e-01
2.788887321949005127e-01 -3.353934288024902344e-01 -3.714477717876434326e-01 2.078585475683212280e-01 2.343836054205894470e-02 9.324424713850021362e-02 -3.035397529602050781e-01 3.418871462345123291e-01 -2.766562104225158691e-01 -3.850951492786407471e-01 1.978978365659713745e-01 -7.770851254463195801e-02 3.944611549377441406e-01 -3.620270872488617897e-03 -2.016357183456420898e-01 5.036391019821166992e-01 -1.413796395063400269e-01 1.676640510559082031e-01 -4.224855825304985046e-02 -6.514883786439895630e-02
4.899151921272277832e-01 -4.871795475482940674e-01 -2.090029716491699219e-01 4.271061420440673828e-01 4.113741517066955566e-01 9.688386321067810059e-02 -4.855698645114898682e-01 3.523563593626022339e-02 -8.645664900541305542e-02 -3.486883938312530518e-01 3.912302851676940918e-01 4.699264466762542725e-02 -4.672968760132789612e-02 9.803242236375808716e-02 -1.643095463514328003e-01 2.401498556137084961e-01 7.953128963708877563e-02 -2.289062887430191040e-01 4.574495553970336914e-02 1.761408746242523193e-01
-1.959910541772842407e-01 2.850316762924194336e-01 4.099172055721282959e-01 -2.234107553958892822e-01 -3.334065973758697510e-01 -2.485747635364532471e-01 1.575070470571517944e-01 -3.214796483516693115e-01 1.118291914463043213e-01 1.049925312399864197e-01 -2.159706950187683105e-01 3.175102770328521729e-01 -2.308994531631469727e-01 -2.384478151798248291e-01 -4.652807489037513733e-02 -3.540498316287994385e-01 -1.559214293956756592e-01 1.731422990560531616e-01 3.383172154426574707e-01 -2.155797034502029419e-01
-8.918171375989913940e-02 1.104051917791366577e-01 2.647804915904998779e-01 -1.218017265200614929e-01 -8.069687336683273315e-02 1.649421826004981995e-02 3.845088779926300049e-01 -3.643579781055450439e-01 7.363493740558624268e-02 5.210386514663696289e-01 -3.217144012451171875e-01 -1.063819006085395813e-01 -1.515936106443405151e-01 -2.854809165000915527e-01 5.091184005141258240e-02 -3.100903034210205078e-01 -1.563626825809478760e-01 1.236811652779579163e-01 -9.362393617630004883e-02 -8.240644633769989014e-02
-2.603571712970733643e-01 1.622116416692733765e-01 4.191948473453521729e-01 -2.603604793548583984e-01 -4.759522527456283569e-02 -2.015463411808013916e-01 1.796395778656005859e-01 -3.590728044509887695e-01 4.964864850044250488e-01 7.158643007278442383e-01 -3.046523034572601318e-01 -9.746089577674865723e-02 -8.270059823989868164e-01 5.579785630106925964e-02 -7.257816195487976074e-02 -5.147232413291931152e-01 2.743490934371948242e-01 -4.509510695934295654e-01 -3.460079431533813477e-01 3.351770639419555664e-01
5.479811429977416992e-01 -5.395554378628730774e-02 -4.156060218811035156e-01 4.280702769756317139e-01 3.211372196674346924e-01 1.786388903856277466e-01 -5.022483468055725098e-01 2.203467786312103271e-01 -4.465143084526062012e-01 -4.993242025375366211e-01 4.106635153293609619e-01 -3.384379446506500244e-01 3.035814464092254639e-01 1.478902399539947510e-01 -2.765585184097290039e-01 3.319022655487060547e-01 -5.352544598281383514e-03 -2.495233565568923950e-01 3.152459114789962769e-02 -1.547656022012233734e-02
3.198368251323699951e-01 -3.688831031322479248e-01 -2.567933797836303711e-01 2.638089954853057861e-01 1.019563153386116028e-01 6.681449711322784424e-02 -2.513477504253387451e-01 3.682368099689483643e-01 -4.252634644508361816e-01 -2.333760410547256470e-01 3.956276774406433105e-01 -2.934466898441314697e-01 3.698890507221221924e-01 4.410986304283142090e-01 -1.323394626379013062e-01 2.973558306694030762e-01 2.326542586088180542e-01 1.605612635612487793e-01 -1.792965689674019814e-03 -1.041499301791191101e-01
3.620282411575317383e-01 -4.856971204280853271e-01 -3.933457732200622559e-01 7.437361031770706177e-02 4.550507664680480957e-01 4.079309999942779541e-01 -4.978909790515899658e-01 4.042243361473083496e-01 -2.014474123716354370e-01 -4.874154925346374512e-01 2.496289908885955811e-01 -1.463872492313385010e-01 3.810937404632568359e-01 3.969333171844482422e-01 -7.926872000098228455e-03 1.019458472728729248e-01 2.249541580677032471e-01 -1.474799513816833496e-01 -2.955608069896697998e-01 -1.433265209197998047e-02
-6.837065219879150391e-01 2.606537938117980957e-01 -2.335549592971801758e-01 3.098032437264919281e-02 1.146814003586769104e-01 3.092284798622131348e-01 -9.302633255720138550e-02 2.888142764568328857e-01 -2.797292470932006836e-01 -9.411770850419998169e-03 -2.267677336931228638e-02 -5.243098139762878418e-01 1.380451470613479614e-01 6.071073412895202637e-01 -2.920572459697723389e-01 -1.298951804637908936e-01 5.839305520057678223e-01 -7.891677618026733398e-01 -2.485504448413848877e-01 4.100624322891235352e-01
1.999515593051910400e-01 3.597770929336547852e-01 -2.513152919709682465e-02 -4.290081560611724854e-01 1.721584424376487732e-02 -3.893077671527862549e-01 1.061757504940032959e-01 -1.337826997041702271e-01 4.206427037715911865e-01 2.480479329824447632e-01 -4.257584735751152039e-02 2.656858265399932861e-01 -4.566703736782073975e-01 -3.049860298633575439e-01 3.289617598056793213e-01 -3.082772791385650635e-01 -1.293889284133911133e-01 -4.041132330894470215e-01 -2.414936423301696777e-01 7.623827550560235977e-03
1.406111419200897217e-01 -1.699575483798980713e-01 -2.404062151908874512e-01 3.503195196390151978e-02 4.702600091695785522e-02 4.993315041065216064e-02 -3.841017186641693115e-02 1.726147532463073730e-01 -7.214841246604919434e-02 -2.537830546498298645e-02 1.773330122232437134e-01 -2.128001600503921509e-01 2.635252848267555237e-02 1.689263852313160896e-03 -2.447049170732498169e-01 2.644108831882476807e-01 3.171266913414001465e-01 -2.471036612987518311e-01 9.373977035284042358e-02 7.577226310968399048e-02
3.608771860599517822e-01 -1.114498898386955261e-01 -1.032877415418624878e-01 2.999776899814605713e-01 1.990471929311752319e-01 1.258767992258071899e-01 -4.541655778884887695e-01 1.809395104646682739e-01 -4.226288199424743652e-01 -5.717688798904418945e-02 3.368907868862152100e-01 -3.329907655715942383e-01 1.966682374477386475e-01 1.651564836502075195e-01 4.180231317877769470e-02 3.776400685310363770e-01 1.968885809183120728e-01 -7.819250971078872681e-02 -3.148650825023651123e-01 -2.527714371681213379e-01
-9.001992940902709961e-01 3.779518902301788330e-01 1.073968112468719482e-01 -1.022395119071006775e-01 -2.799236774444580078e-01 2.804622352123260498e-01 4.091449081897735596e-01 1.165197044610977173e-01 4.526819586753845215e-01 3.356636166572570801e-01 9.655874967575073242e-02 -1.662157326936721802e-01 6.619527935981750488e-02 1.337460726499557495e-01 -2.577262520790100098e-01 -4.491489529609680176e-01 2.100764811038970947e-01 -3.643827140331268311e-01 -1.566920615732669830e-02 1.244991719722747803e-01
-2.693516314029693604e-01 4.318778514862060547e-01 1.525772809982299805e-01 -3.631615340709686279e-01 -3.583928644657135010e-01 -2.198330909013748169e-01 3.361200690269470215e-01 -3.915405366569757462e-03 1.471939831972122192e-01 2.948870062828063965e-01 -3.102965056896209717e-01 1.581971198320388794e-01 -1.717962175607681274e-01 -1.944201141595840454e-01 -9.120886027812957764e-02 -3.680287003517150879e-01 -4.404883086681365967e-02 -2.575759887695312500e-01 6.441564112901687622e-02 9.201410412788391113e-02
-1.356793940067291260e-01 3.137839734554290771e-01 2.758294939994812012e-01 -3.184669017791748047e-01 -3.326805233955383301e-01 -2.339849919080734253e-01 3.212283551692962646e-01 -2.895880043506622314e-01 2.850360274314880371e-01 1.098295748233795166e-01 -1.313059180974960327e-01 4.675636067986488342e-02 -2.692096233367919922e-01 -1.086827814579010010e-01 -1.553588081151247025e-03 -1.266482770442962646e-01 1.081783324480056763e-01 7.163356244564056396e-02 -8.346080780029296875e-02 -1.510850638151168823e-01
8.096174001693725586e-01 -4.786257147789001465e-01 -4.442776143550872803e-01 4.301913976669311523e-01 3.995552659034729004e-01 2.199551835656166077e-02 -2.183502018451690674e-01 2.957738339900970459e-01 -1.568853855133056641e-01 -4.107251763343811035e-01 3.233158886432647705e-01 -5.354110896587371826e-02 2.049977928400039673e-01 -2.313365042209625244e-01 -7.755480706691741943e-02 3.202094435691833496e-01 -2.087287604808807373e-01 7.929737865924835205e-02 -4.585108160972595215e-02 3.033055365085601807e-02
-6.570686101913452148e-01 -8.948332071304321289e-02 -3.319052513688802719e-03 -1.750791221857070923e-01 7.357990741729736328e-02 5.315209627151489258e-01 1.050323396921157837e-01 7.849176973104476929e-02 3.296645358204841614e-02 1.179771125316619873e-01 3.648135662078857422e-01 -3.130908906459808350e-01 1.117709055542945862e-01 5.654510259628295898e-01 -6.556605100631713867e-01 9.815693646669387817e-02 3.144540786743164062e-01 -7.986925244331359863e-01 -6.442827582359313965e-01 5.522114634513854980e-01
