1.565981209278106689e-01 3.988494575023651123e-01 3.545499145984649658e-01 -3.743797168135643005e-02 2.851214408874511719e-01 -9.729094058275222778e-02 -3.355171084403991699e-01 8.947636932134628296e-02 1.502976268529891968e-01 2.667194306850433350e-01 -1.107169687747955322e-01 4.437946975231170654e-01 1.228574663400650024e-01 -6.657403707504272461e-02 -2.981099486351013184e-01 -6.323258578777313232e-02 -4.051809012889862061e-01 4.950751364231109619e-01 1.930623799562454224e-01 1.563986837863922119e-01
1.042642667889595032e-01 8.063892275094985962e-02 4.889299720525741577e-02 1.870108395814895630e-01 -1.872270405292510986e-01 1.429481804370880127e-01 1.574683338403701782e-01 -2.150609344244003296e-01 -6.293147802352905273e-02 -4.351095482707023621e-02 3.737993538379669189e-02 -2.750380635261535645e-01 -3.326812982559204102e-01 1.135257482528686523e-01 1.778732836246490479e-01 -1.359987445175647736e-02 3.321197032928466797e-01 -5.041191577911376953e-01 -1.324141919612884521e-01 -1.104783453047275543e-02
5.040643811225891113e-01 4.593883454799652100e-02 2.694950699806213379e-01 -3.286384642124176025e-01 -6.405212730169296265e-02 1.889756694436073303e-02 -2.971173226833343506e-01 -1.825973950326442719e-02 2.219166159629821777e-01 3.569467067718505859e-01 4.183221235871315002e-02 3.040083050727844238e-01 -2.998429238796234131e-01 -2.157942950725555420e-01 -1.969060003757476807e-01 -1.097409799695014954e-02 1.578086614608764648e-01 -4.130326509475708008e-01 -6.719642132520675659e-02 6.907074451446533203e-01
-4.792733490467071533e-02 -6.791014224290847778e-02 -2.359185181558132172e-02 -9.049117943504825234e-05 1.163309141993522644e-01 -2.172646075487136841e-01 7.072088867425918579e-02 1.304359883069992065e-01 3.479792773723602295e-01 -4.337367415428161621e-02 -1.958032399415969849e-01 2.141899764537811279e-01 4.018765091896057129e-01 -4.705025628209114075e-02 -2.599267065525054932e-01 -2.000361680984497070e-01 -6.672030687332153320e-01 1.134536862373352051e-01 2.217104136943817139e-01 3.834634423255920410e-01
2.697393298149108887e-01 3.121323883533477783e-01 3.036251664161682129e-01 -1.685030013322830200e-01 2.721221745014190674e-01 -1.026826128363609314e-01 -4.020368456840515137e-01 2.856170758605003357e-02 3.420315086841583252e-01 1.226655617356300354e-01 -1.163807809352874756e-01 2.744270265102386475e-01 3.669911623001098633e-01 -3.792799413204193115e-01 -3.684429824352264404e-01 2.399058826267719269e-02 -8.635707944631576538e-02 2.376204878091812134e-01 1.188991218805313110e-01 2.137925922870635986e-01
9.467820078134536743e-02 6.342317163944244385e-02 -1.839318424463272095e-01 2.135268896818161011e-01 -1.618004590272903442e-01 1.057579293847084045e-01 8.646550774574279785e-02 -1.422794163227081299e-01 -9.048657119274139404e-02 -3.496845066547393799e-01 -7.482773065567016602e-02 -1.685413569211959839e-01 -2.386836558580398560e-01 2.306013256311416626e-01 4.248526394367218018e-01 9.216940402984619141e-02 1.507235169410705566e-01 -1.720022708177566528e-01 -3.130314052104949951e-01 5.571500957012176514e-02
1.384278833866119385e-01 8.393195271492004395e-02 -1.232395619153976440e-01 -3.297127410769462585e-02 1.516589522361755371e-01 -1.484335809946060181e-01 -2.150105834007263184e-01 -1.766533851623535156e-01 1.625218093395233154e-01 -1.112323701381683350e-01 -2.232300341129302979e-01 -2.107956409454345703e-01 -2.981852889060974121e-01 7.304182648658752441e-02 2.261799424886703491e-01 -3.205525875091552734e-02 5.724697113037109375e-01 -2.625502347946166992e-01 -2.410909682512283325e-01 -2.084527462720870972e-01
5.051006674766540527e-01 4.574167132377624512e-01 3.165994286537170410e-01 -3.044675290584564209e-01 4.955052584409713745e-02 -3.300829529762268066e-01 -1.845730692148208618e-01 3.344767987728118896e-01 1.253349781036376953e-01 -1.670594513416290283e-01 -4.671024084091186523e-01 -3.602630794048309326e-01 -9.866384863853454590e-01 -4.779211282730102539e-01 8.193113803863525391e-01 6.690458059310913086e-01 1.166301369667053223e+00 -5.066021084785461426e-01 -4.173794388771057129e-01 -1.812442541122436523e-01
3.279094099998474121e-01 3.898716568946838379e-01 2.584328949451446533e-01 -3.599483668804168701e-01 2.339722365140914917e-01 -3.314457535743713379e-01 -1.994592845439910889e-01 1.056606769561767578e-01 2.544598281383514404e-01 2.704516649246215820e-01 -3.244953155517578125e-01 3.788335621356964111e-01 3.432464599609375000e-01 -2.899784147739410400e-01 -5.679649114608764648e-01 1.235966533422470093e-01 -3.628951311111450195e-01 4.453809261322021484e-01 2.338952571153640747e-01 4.073717594146728516e-01
-2.144731208682060242e-02 6.591796129941940308e-02 3.103669285774230957e-01 -2.223113626241683960e-01 2.562973797321319580e-01 -1.955047100782394409e-01 -2.209643125534057617e-01 -1.541152130812406540e-02 1.740118712186813354e-01 3.199769854545593262e-01 -1.038811206817626953e-01 1.644982397556304932e-01 3.806029260158538818e-01 1.078333407640457153e-01 -3.552623689174652100e-01 -2.085587382316589355e-01 -3.899064958095550537e-01 4.205434918403625488e-01 1.589065492153167725e-01 4.180610477924346924e-01
3.532457649707794189e-01 4.210207164287567139e-01 7.492467015981674194e-02 -2.099874168634414673e-01 2.968941926956176758e-01 -2.944310307502746582e-01 -3.629521131515502930e-01 6.063498929142951965e-02 3.145901858806610107e-01 8.252564817667007446e-02 -3.702304363250732422e-01 2.600044608116149902e-01 1.210446581244468689e-01 -1.249547377228736877e-01 -4.803639352321624756e-01 2.459883689880371094e-01 -4.901224374771118164e-01 4.529953300952911377e-01 4.391399025917053223e-01 3.105598688125610352e-01
3.221864104270935059e-01 3.529600799083709717e-01 3.519546687602996826e-01 -4.148716926574707031e-01 2.461946308612823486e-01 -3.536914885044097900e-01 -2.064151763916015625e-01 9.517366439104080200e-02 1.061863079667091370e-01 3.968921005725860596e-01 -3.417776226997375488e-01 6.647312045097351074e-01 7.504641413688659668e-01 -1.776939332485198975e-01 -3.250145912170410156e-01 -2.832989990711212158e-01 -4.492622315883636475e-01 6.423947811126708984e-01 5.741220116615295410e-01 -3.287762701511383057e-01
7.110137343406677246e-01 2.899246215820312500e-01 4.097401201725006104e-01 -1.750743091106414795e-01 3.039714992046356201e-01 -3.580363988876342773e-01 -2.555586099624633789e-01 2.826507985591888428e-01 5.320387482643127441e-01 2.270456552505493164e-01 -2.477063834667205811e-01 -2.067217230796813965e-01 -6.413281559944152832e-01 -5.262081027030944824e-01 5.854034423828125000e-01 3.783434629440307617e-01 8.170324563980102539e-01 -4.229188561439514160e-01 -4.530202150344848633e-01 6.900442391633987427e-02
-7.922046631574630737e-02 1.566273421049118042e-01 1.987538933753967285e-01 -2.882897970266640186e-04 1.111564934253692627e-01 -7.182671874761581421e-02 9.710048139095306396e-02 8.880815654993057251e-02 1.119685843586921692e-01 2.162637561559677124e-01 -2.606563828885555267e-02 4.622535035014152527e-02 2.262819707393646240e-01 -2.270023226737976074e-01 -3.171004652976989746e-01 -1.375510096549987793e-01 -5.212818980216979980e-01 2.128620445728302002e-01 3.848868012428283691e-01 -4.018433392047882080e-02
2.400653995573520660e-02 -2.153081074357032776e-02 2.846718430519104004e-01 -9.541793167591094971e-02 7.454417645931243896e-02 -7.772373408079147339e-02 -4.199404418468475342e-01 4.010832905769348145e-01 -2.241595834493637085e-02 2.882284522056579590e-01 -1.676956117153167725e-01 8.776633441448211670e-02 2.688734829425811768e-01 -2.410569041967391968e-01 -4.163661301136016846e-01 1.426182985305786133e-01 -5.574314594268798828e-01 7.746931165456771851e-02 2.081964462995529175e-01 1.039417013525962830e-01
3.675399422645568848e-01 -1.823002099990844727e-01 1.809299550950527191e-02 -2.590841054916381836e-01 1.867448240518569946e-01 -1.803644597530364990e-01 -2.748011350631713867e-01 1.168287768959999084e-01 -6.298204511404037476e-02 2.671563625335693359e-01 2.349379658699035645e-01 8.407461643218994141e-01 1.182169198989868164e+00 3.688229024410247803e-01 -8.088391423225402832e-01 -5.325961709022521973e-01 -9.948130846023559570e-01 6.940271258354187012e-01 9.576351642608642578e-01 -3.667633533477783203e-01
1.649875193834304810e-01 -2.467131242156028748e-02 -5.648517608642578125e-02 -3.501040488481521606e-02 -5.007860809564590454e-02 1.021416932344436646e-01 1.690726727247238159e-01 7.294014841318130493e-02 -1.774895787239074707e-01 -3.152084350585937500e-01 -1.796146184206008911e-01 -3.151054382324218750e-01 -3.654930293560028076e-01 -2.732833325862884521e-01 2.541238367557525635e-01 -8.296753466129302979e-02 4.153743088245391846e-01 -1.849442720413208008e-01 -1.986152380704879761e-01 -2.780851423740386963e-01
6.378961354494094849e-02 -2.511391043663024902e-01 -4.916194081306457520e-02 -9.199584275484085083e-02 -1.423576325178146362e-01 -1.847473531961441040e-01 1.873571053147315979e-02 -1.491753607988357544e-01 -5.434541404247283936e-02 7.266290485858917236e-02 6.770317256450653076e-02 -3.290979862213134766e-01 -2.934052050113677979e-01 -1.871815621852874756e-01 3.639247715473175049e-01 1.995300054550170898e-01 5.666320919990539551e-01 -4.074473977088928223e-01 -4.081642627716064453e-01 -1.047547012567520142e-01
2.982575595378875732e-01 9.162434935569763184e-02 1.528430730104446411e-01 -1.596557945013046265e-01 1.571878343820571899e-01 -4.220038950443267822e-01 -3.377345502376556396e-01 1.759810298681259155e-01 1.111282706260681152e-01 2.525212466716766357e-01 -1.969657093286514282e-01 1.491739507764577866e-02 4.371961355209350586e-01 -3.691486120223999023e-01 -1.370599716901779175e-01 2.868763804435729980e-01 -4.904675185680389404e-01 6.454568356275558472e-02 1.455508917570114136e-01 5.573386549949645996e-01
7.444627583026885986e-02 2.996147274971008301e-01 3.583460152149200439e-01 -1.598021835088729858e-01 3.092789947986602783e-01 -1.455201059579849243e-01 -2.575982809066772461e-01 -2.298067323863506317e-03 2.670789659023284912e-01 2.804602384567260742e-01 9.667912870645523071e-02 8.141902685165405273e-01 7.377050518989562988e-01 -5.348033457994461060e-02 -5.679709911346435547e-01 -3.884561061859130859e-01 -7.906662225723266602e-01 6.305304765701293945e-01 4.294023513793945312e-01 -4.429461061954498291e-01
