-3.829765617847442627e-01 -5.675756335258483887e-01 4.078393280506134033e-01 -5.757767334580421448e-02 -3.723064661026000977e-01 6.972721815109252930e-01 -3.334554731845855713e-01 5.723796784877777100e-02 6.911866366863250732e-02 3.696286976337432861e-01
1.004456520080566406e+00 -4.335378706455230713e-01 1.721391528844833374e-01 6.540684103965759277e-01 -2.912108898162841797e-01 -2.234171032905578613e-01 -2.777898907661437988e-01 -2.801572382450103760e-01 -1.300997138023376465e-01 -4.690409600734710693e-01
-3.791501820087432861e-01 3.809854686260223389e-01 -3.580875992774963379e-01 -5.238817930221557617e-01 6.039437055587768555e-01 -4.244641065597534180e-01 -1.323074847459793091e-02 1.644044667482376099e-01 4.162312150001525879e-01 5.185261964797973633e-01
-1.557343602180480957e-01 4.211496710777282715e-01 -6.694230437278747559e-01 -6.580529808998107910e-01 1.397565007209777832e-02 3.646900951862335205e-01 1.110322996973991394e-01 1.695282161235809326e-01 2.658734619617462158e-01 -2.150412052869796753e-01
1.591519117355346680e-01 7.916598916053771973e-01 -5.145508646965026855e-01 -4.449892640113830566e-01 3.645973503589630127e-01 -4.857225418090820312e-01 6.905816197395324707e-01 1.074598059058189392e-01 2.035938762128353119e-02 -1.753348410129547119e-01
-2.459186315536499023e-01 -4.937910437583923340e-01 3.240737318992614746e-01 4.567521810531616211e-02 -4.879824519157409668e-01 1.583779752254486084e-01 -5.049079656600952148e-01 2.530766278505325317e-02 1.691915392875671387e-01 1.960152685642242432e-01
-5.865322351455688477e-01 3.926858901977539062e-01 -3.068284392356872559e-01 -8.008767962455749512e-01 -5.635248422622680664e-01 1.113582849502563477e+00 -5.083954930305480957e-01 5.997616052627563477e-01 5.660083293914794922e-01 7.284932583570480347e-02
-2.615847587585449219e-01 -5.075993537902832031e-01 2.839493453502655029e-01 3.368264734745025635e-01 -6.132653355598449707e-01 5.648690462112426758e-01 -2.893193662166595459e-01 -1.659735739231109619e-01 -3.765271604061126709e-02 9.837409108877182007e-02
1.090059399604797363e+00 -2.514521479606628418e-01 4.422256723046302795e-02 7.646013498306274414e-01 -1.425996124744415283e-01 3.562620580196380615e-01 -4.028763771057128906e-01 -8.366440981626510620e-02 -4.137415438890457153e-03 -2.003603726625442505e-01
-3.939981460571289062e-01 3.143250942230224609e-01 -3.259862065315246582e-01 -8.463399857282638550e-02 6.674752384424209595e-02 -1.819977760314941406e-01 6.644713878631591797e-01 3.563248217105865479e-01 -1.630465090274810791e-01 1.643912307918071747e-02
