-2.787178754806518555e+00 -1.006623148918151855e+00 -2.210879802703857422e+00 -6.243996024131774902e-01 -2.053343057632446289e+00 1.988155961036682129e+00 -1.228662490844726562e+00 -1.864872872829437256e-01 8.606873452663421631e-03 3.117789030075073242e-01
-8.964881896972656250e-01 -1.174479126930236816e-01 -1.002151966094970703e+00 -2.558363676071166992e-01 -6.886085867881774902e-01 1.307814002037048340e+00 -8.543132990598678589e-02 -3.561766743659973145e-01 -5.799668431282043457e-01 6.598930358886718750e-01
2.304350733757019043e-01 -6.886351704597473145e-01 7.490127682685852051e-01 -4.087128341197967529e-01 7.504220604896545410e-01 -7.503523677587509155e-02 6.018638610839843750e-01 6.741304397583007812e-01 4.139233827590942383e-01 4.093652367591857910e-01
6.051648855209350586e-01 1.562664983794093132e-03 5.839345455169677734e-01 -4.656067788600921631e-01 5.289718508720397949e-01 -3.649296164512634277e-01 5.105741024017333984e-01 4.186801910400390625e-01 5.812584161758422852e-01 -2.970251487568020821e-03
1.936389505863189697e-01 -8.652987480163574219e-01 4.905498921871185303e-01 -7.282028794288635254e-01 7.386649847030639648e-01 -4.660573005676269531e-01 2.376144230365753174e-01 2.307877987623214722e-01 4.198374748229980469e-01 5.728304982185363770e-01
-8.065950274467468262e-01 3.163682818412780762e-01 -2.605835497379302979e-01 4.781127870082855225e-01 -2.718862295150756836e-01 1.919239312410354614e-01 -5.188831090927124023e-01 -3.747833371162414551e-01 -1.969640254974365234e-01 -4.674131870269775391e-01
1.291629910469055176e+00 7.105254381895065308e-02 1.411314845085144043e+00 -1.447942107915878296e-01 8.958557844161987305e-01 -1.247476816177368164e+00 7.767955660820007324e-01 7.906899452209472656e-01 -2.216855622828006744e-02 -7.032586634159088135e-02
-7.902692556381225586e-01 2.424830496311187744e-01 -7.181311249732971191e-01 2.499435469508171082e-02 -6.386196017265319824e-01 9.239501953125000000e-01 -1.046520829200744629e+00 -1.235975995659828186e-01 -2.548458427190780640e-02 -3.606807887554168701e-01
-8.384581804275512695e-01 -6.295875310897827148e-01 -6.763296723365783691e-01 -3.518612086772918701e-01 -8.329438567161560059e-01 1.327864646911621094e+00 -2.698370516300201416e-01 -3.212367594242095947e-01 -1.125446319580078125e+00 3.479903638362884521e-01
2.956641316413879395e-01 -3.931850492954254150e-01 1.930271275341510773e-02 1.821413449943065643e-02 4.478010237216949463e-01 -1.046026349067687988e+00 4.543437361717224121e-01 4.095040261745452881e-01 8.953599631786346436e-02 9.840916991233825684e-01
