-3.451612591743469238e-01 2.545925676822662354e-01 6.044510006904602051e-01 5.125013589859008789e-01 -3.659307360649108887e-01 2.023403495550155640e-01 5.899969339370727539e-01 -1.011721849441528320e+00 1.384028494358062744e-01 3.670359849929809570e-01
-3.734700083732604980e-01 3.623872399330139160e-01 -1.336644291877746582e-01 2.122469544410705566e-01 -1.801212430000305176e-01 7.455984950065612793e-01 -7.582053542137145996e-01 3.577906191349029541e-01 -2.726283371448516846e-01 -2.350120693445205688e-01
-2.835633233189582825e-03 -5.370157361030578613e-01 -6.003677845001220703e-02 2.484066039323806763e-01 6.673779487609863281e-01 -4.166483283042907715e-01 4.142313003540039062e-01 1.911245435476303101e-01 1.111400425434112549e-01 -6.222981810569763184e-01
5.499673485755920410e-01 1.059278100728988647e-01 9.147046133875846863e-03 6.640058127231895924e-04 3.556553125381469727e-01 6.180066615343093872e-03 -3.549655079841613770e-01 9.319134987890720367e-04 1.621054261922836304e-01 -1.483300775289535522e-01
-6.988289952278137207e-01 3.367307782173156738e-01 6.212162971496582031e-01 -2.434897273778915405e-01 -1.632457673549652100e-01 -5.871056914329528809e-01 2.967370450496673584e-01 -3.692389652132987976e-02 -2.047894336283206940e-02 3.898817002773284912e-01
-6.154875755310058594e-01 6.026327013969421387e-01 5.735231041908264160e-01 -4.140764772891998291e-01 -3.229131400585174561e-01 -6.696847081184387207e-01 1.332816183567047119e-01 1.503836959600448608e-01 3.580434620380401611e-02 3.916780054569244385e-01
7.440598607063293457e-01 -4.563038945198059082e-01 -5.882186293601989746e-01 8.790162801742553711e-01 3.135383129119873047e-01 1.319184541702270508e+00 1.593234539031982422e-01 -4.748865664005279541e-01 1.634132564067840576e-01 -4.785514771938323975e-01
-2.967159748077392578e-01 8.927695453166961670e-02 -1.600867658853530884e-01 -4.100992977619171143e-01 -1.118469089269638062e-01 -1.053412437438964844e+00 -8.274841308593750000e-02 1.360596716403961182e-01 2.390856146812438965e-01 -1.450033634901046753e-01
5.666826963424682617e-01 -6.676488518714904785e-01 1.162160411477088928e-01 4.250349998474121094e-01 6.267111897468566895e-01 -6.172429323196411133e-01 -7.062299549579620361e-02 3.535041213035583496e-01 -2.929422259330749512e-01 -1.050239130854606628e-01
-3.418541550636291504e-01 5.843040347099304199e-01 7.571678161621093750e-01 -4.292713999748229980e-01 -6.030481457710266113e-01 -8.240639418363571167e-02 4.151254594326019287e-01 -1.135345101356506348e-01 3.696003556251525879e-01 4.056947231292724609e-01
