6.101898550987243652e-01 -3.954409062862396240e-01 -6.344338655471801758e-01 -5.353570580482482910e-01 6.073256731033325195e-01 2.854955792427062988e-01 8.016913533210754395e-01 1.817661821842193604e-01 -1.165775775909423828e+00 -3.983521461486816406e-01
-7.961652874946594238e-01 9.547464847564697266e-01 1.249905824661254883e+00 4.414641380310058594e+00 -2.000283747911453247e-01 -1.084348797798156738e+00 -2.577603578567504883e+00 -2.899211943149566650e-01 8.251382708549499512e-01 -9.013088345527648926e-01
-3.256803154945373535e-01 4.979415833950042725e-01 1.181860938668251038e-01 1.960653424263000488e+00 -8.619771003723144531e-01 -9.850213676691055298e-02 -8.780452013015747070e-01 -1.701245158910751343e-01 1.552861571311950684e+00 1.526675820350646973e-01
-6.315268278121948242e-01 1.580177843570709229e-01 3.419272303581237793e-01 -2.070532441139221191e-01 -2.012806683778762817e-01 -2.175250649452209473e-02 -3.272798359394073486e-01 -1.512166578322649002e-02 -1.989174447953701019e-02 -7.342113554477691650e-02
7.640314102172851562e-01 -4.913669228553771973e-01 -6.546398997306823730e-01 1.361727714538574219e-01 8.608253598213195801e-01 4.537811875343322754e-01 2.719700038433074951e-01 4.865501224994659424e-01 3.340401351451873779e-01 4.034981131553649902e-01
7.816768884658813477e-01 -7.549827098846435547e-01 -5.072344541549682617e-01 -7.466250658035278320e-01 4.271956384181976318e-01 7.732936739921569824e-01 3.282848894596099854e-01 5.469163060188293457e-01 2.603416144847869873e-01 5.928905606269836426e-01
-8.698095679283142090e-01 1.072177767753601074e+00 1.484044313430786133e+00 2.368094682693481445e+00 -7.602871060371398926e-01 -4.956459403038024902e-01 -1.629432082176208496e+00 -5.011901855468750000e-01 1.685166478157043457e+00 7.394578307867050171e-02
1.676236512139439583e-03 -1.120719984173774719e-01 -2.362468093633651733e-01 -7.295737862586975098e-01 -1.389296203851699829e-01 1.338915340602397919e-02 1.301076114177703857e-01 3.199636936187744141e-01 5.452769398689270020e-01 3.870234489440917969e-01
-4.661069810390472412e-01 -8.316525816917419434e-02 -3.726286813616752625e-03 6.775196790695190430e-01 -2.460424900054931641e-01 -4.593952596187591553e-01 -7.202398031949996948e-02 -2.975646220147609711e-02 9.140460491180419922e-01 1.916096210479736328e-01
1.755052506923675537e-01 -6.476243138313293457e-01 -9.135403484106063843e-02 -4.563002586364746094e-01 7.394544482231140137e-01 2.838473618030548096e-01 4.236057698726654053e-01 1.399259567260742188e-01 -1.555888913571834564e-02 1.023635044693946838e-01
