8.676456660032272339e-02 4.262298345565795898e-01 2.530919015407562256e-01 6.139031648635864258e-01 -6.711946129798889160e-01 3.573486804962158203e-01 2.915876209735870361e-01 2.517738044261932373e-01 -6.057641282677650452e-02 -2.381345033645629883e-01
8.193562626838684082e-01 -8.473703265190124512e-01 -3.982554674148559570e-01 -1.503068953752517700e-01 -3.957897424697875977e-02 -4.215066432952880859e-01 -2.516483366489410400e-01 1.097233518958091736e-01 -8.507813215255737305e-01 1.362772583961486816e-01
1.518260091543197632e-01 6.432956457138061523e-02 6.659237146377563477e-01 3.082344532012939453e-01 -7.255738973617553711e-01 -4.770067334175109863e-02 -2.598168253898620605e-01 2.143105417490005493e-01 2.123624384403228760e-01 1.188578307628631592e-01
-7.001423239707946777e-01 3.275743424892425537e-01 1.954343020915985107e-01 -4.098063707351684570e-02 -1.086203679442405701e-01 3.475059270858764648e-01 2.535373270511627197e-01 4.068973660469055176e-01 -4.392900690436363220e-02 7.380801439285278320e-02
7.789328098297119141e-01 -6.134997010231018066e-01 -1.365804970264434814e-01 -3.266421556472778320e-01 3.378092646598815918e-01 -1.482588499784469604e-01 -1.284524202346801758e-01 -4.694800972938537598e-01 -4.921585917472839355e-01 9.408234059810638428e-02
3.032321333885192871e-01 -6.697905063629150391e-01 6.662704944610595703e-01 6.923251748085021973e-01 -1.398516297340393066e+00 1.011068746447563171e-01 -3.857038915157318115e-02 4.521332308650016785e-02 1.111189797520637512e-01 1.234125196933746338e-01
5.601800680160522461e-01 -1.613939106464385986e-01 -5.784708857536315918e-01 -3.812398016452789307e-01 7.873183488845825195e-01 -5.453565716743469238e-01 -9.917417168617248535e-02 -8.525206148624420166e-02 -3.754885122179985046e-02 -7.916054874658584595e-02
5.135802030563354492e-01 -1.517588496208190918e-01 -6.011802330613136292e-02 5.528531670570373535e-01 -7.529570162296295166e-02 -4.890576004981994629e-01 -8.252965211868286133e-01 -7.223839163780212402e-01 1.188611507415771484e+00 -4.153283238410949707e-01
-8.769416809082031250e-02 4.217137396335601807e-01 3.360530138015747070e-01 9.860816597938537598e-02 -5.048115253448486328e-01 2.191833406686782837e-01 -1.122153699398040771e-01 4.683052003383636475e-01 -2.129642516374588013e-01 2.449342608451843262e-01
4.057229757308959961e-01 -4.395254254341125488e-01 -7.006158828735351562e-01 -4.464582204818725586e-01 6.246526837348937988e-01 -3.692659139633178711e-01 -4.384769797325134277e-01 -4.265151172876358032e-02 1.828967928886413574e-01 -1.495108902454376221e-01
