-5.799901485443115234e-01 -1.979783922433853149e-01 9.362456947565078735e-02 1.812045097351074219e+00 -2.663340866565704346e-01 -1.435199975967407227e-01 -3.484375178813934326e-01 -9.100328087806701660e-01 -4.381114542484283447e-01 5.307751707732677460e-03
4.350491464138031006e-01 5.308793187141418457e-01 -3.477933704853057861e-01 -2.680727243423461914e+00 2.475790381431579590e-01 4.967595636844635010e-01 3.167533278465270996e-01 8.016279935836791992e-01 4.439631700515747070e-01 9.405691623687744141e-01
-9.723337888717651367e-01 -3.477565348148345947e-01 -7.134162783622741699e-01 2.728536605834960938e+00 -2.680077552795410156e-01 -6.476296186447143555e-01 -7.053006887435913086e-01 -1.165109872817993164e+00 -2.156075537204742432e-01 -3.182051479816436768e-01
-6.042295694351196289e-02 2.318513691425323486e-01 -1.309791207313537598e-01 1.056316733360290527e+00 3.043342530727386475e-01 -1.072664707899093628e-01 -7.059673666954040527e-01 -2.458902299404144287e-01 -1.947991997003555298e-01 2.460651695728302002e-01
6.626702547073364258e-01 3.462750613689422607e-01 -5.583029985427856445e-01 -1.178389072418212891e+00 1.458779722452163696e-01 2.513321936130523682e-01 1.958304345607757568e-01 3.161220848560333252e-01 4.980454146862030029e-01 4.010703861713409424e-01
9.135165810585021973e-01 -4.632283449172973633e-01 2.776437699794769287e-01 -1.904677152633666992e+00 -5.220651626586914062e-02 2.339435517787933350e-01 -2.616780400276184082e-01 4.639338552951812744e-01 1.005834043025970459e-01 5.550279617309570312e-01
2.004506886005401611e-01 6.811839938163757324e-01 -4.557814002037048340e-01 2.851643562316894531e-01 8.807685375213623047e-01 5.851317644119262695e-01 4.468494057655334473e-01 8.366783857345581055e-01 2.867165207862854004e-01 1.389655619859695435e-01
1.718312501907348633e+00 -4.596574977040290833e-02 -6.518206000328063965e-02 -2.027068853378295898e+00 5.073081254959106445e-01 4.537099897861480713e-01 9.193195700645446777e-01 9.277298450469970703e-01 3.131549358367919922e-01 -6.162715554237365723e-01
-3.160274028778076172e-01 2.162162363529205322e-01 -2.427985072135925293e-01 2.278746604919433594e+00 -6.214124560356140137e-01 -2.192543745040893555e-01 -6.320145130157470703e-01 -7.208297252655029297e-01 -5.566775202751159668e-01 -9.914991259574890137e-02
8.230685442686080933e-02 3.363351225852966309e-01 -3.192095756530761719e-01 4.100491106510162354e-01 7.621002793312072754e-01 2.670738101005554199e-01 3.750435113906860352e-01 7.017731070518493652e-01 6.136619448661804199e-01 1.849749535322189331e-01
