-3.896466642618179321e-02 -4.214493930339813232e-01 -3.569924235343933105e-01 -2.224557548761367798e-01 1.099750846624374390e-01 -6.643625348806381226e-02 6.873281300067901611e-02 -2.614525258541107178e-01 -1.427056789398193359e-01 7.034213840961456299e-02 3.799549639225006104e-01 -2.212809771299362183e-01 -8.573142439126968384e-02 -3.331395983695983887e-01 2.525327503681182861e-01 1.356066614389419556e-01 2.237483263015747070e-01 1.446522772312164307e-01 1.609073728322982788e-01 -7.210323214530944824e-02
-5.654946565628051758e-01 -3.825744381174445152e-03 -4.799282550811767578e-02 -1.433748006820678711e-02 -7.549700140953063965e-02 5.165413767099380493e-02 -6.877601146697998047e-02 -1.001843214035034180e-01 -3.406044542789459229e-01 4.344975054264068604e-01 -3.222876191139221191e-01 -2.913944423198699951e-01 2.878997921943664551e-01 2.904010713100433350e-01 -3.642213046550750732e-01 -7.163326740264892578e-01 -5.874144434928894043e-01 5.783985257148742676e-01 2.631864845752716064e-01 -4.295416474342346191e-01
-5.018720403313636780e-02 -8.938828110694885254e-02 -4.104882776737213135e-01 9.516244381666183472e-02 3.803040087223052979e-01 -2.292094565927982330e-02 2.357761375606060028e-02 1.598671078681945801e-01 2.112980484962463379e-01 -2.542293965816497803e-01 1.052142027765512466e-02 -6.181864812970161438e-02 6.311187893152236938e-02 5.016566067934036255e-02 2.681880593299865723e-01 3.343358933925628662e-01 4.016242455691099167e-03 -2.037133648991584778e-02 -3.018864057958126068e-02 -6.073301285505294800e-02
-1.262131519615650177e-02 -4.992958009243011475e-01 4.084633588790893555e-01 -1.988487243652343750e-01 3.707384318113327026e-02 2.621436417102813721e-01 -2.077674418687820435e-01 1.337034851312637329e-01 2.692647278308868408e-01 -1.925211250782012939e-01 -3.007602095603942871e-01 2.262898385524749756e-01 1.155765429139137268e-01 -9.159459918737411499e-02 5.809179693460464478e-02 -2.386836260557174683e-01 -1.103471070528030396e-01 4.543455839157104492e-01 8.833258599042892456e-02 -1.916828304529190063e-01
-4.561346024274826050e-02 2.338436692953109741e-01 5.722964406013488770e-01 -3.565368950366973877e-01 -7.600244283676147461e-01 2.994191944599151611e-01 -6.985381245613098145e-02 -3.555240333080291748e-01 -1.106685250997543335e-01 -1.265140771865844727e-01 -5.213487148284912109e-01 3.586602210998535156e-01 1.352465003728866577e-01 3.299385905265808105e-01 -9.464391320943832397e-02 5.405759215354919434e-01 -2.918554097414016724e-02 -2.497122883796691895e-01 -7.126203272491693497e-04 1.382434070110321045e-01
-2.437899857759475708e-01 1.484738588333129883e-01 2.571037411689758301e-01 -2.288322150707244873e-01 -3.748432099819183350e-01 1.215467378497123718e-01 -1.920807510614395142e-01 -1.927911043167114258e-01 4.906067252159118652e-02 3.503873050212860107e-01 -1.898615509271621704e-01 -1.920612603425979614e-01 -1.811185292899608612e-02 1.269620750099420547e-02 3.793086111545562744e-02 -5.129244327545166016e-01 -1.635008007287979126e-01 -6.508105248212814331e-02 1.175511404871940613e-01 -8.435026742517948151e-03
-2.103037573397159576e-02 -3.440886139869689941e-01 1.549924761056900024e-01 -2.059615254402160645e-01 -1.913275420665740967e-01 7.661566138267517090e-02 2.120517343282699585e-01 -3.489039838314056396e-01 -1.379045695066452026e-01 -4.076626002788543701e-01 6.129460036754608154e-02 -9.371684491634368896e-02 3.227010071277618408e-01 -1.991191357374191284e-01 -1.027511358261108398e-01 2.102975994348526001e-01 -1.749562919139862061e-01 3.419427871704101562e-01 1.480232477188110352e-01 2.500919066369533539e-02
3.030094802379608154e-01 -3.703934252262115479e-01 6.694489717483520508e-02 -2.788950204849243164e-01 1.465270221233367920e-01 -4.209826886653900146e-01 9.374766051769256592e-02 -1.965399235486984253e-01 -1.827005445957183838e-01 4.040497243404388428e-01 1.163050606846809387e-01 -2.723683416843414307e-01 1.460406333208084106e-01 -7.697536610066890717e-03 1.962825357913970947e-01 4.650533571839332581e-02 5.184607580304145813e-02 -4.024206101894378662e-01 -8.127072453498840332e-02 4.023922383785247803e-01
1.325940433889627457e-02 -1.037157297134399414e+00 4.482161104679107666e-01 1.279911100864410400e-01 2.720522582530975342e-01 1.208381801843643188e-01 -2.548417150974273682e-01 9.989525377750396729e-02 2.527851760387420654e-01 -4.668075963854789734e-02 1.021163612604141235e-01 -1.642578393220901489e-01 -1.938596963882446289e-01 -3.642318397760391235e-02 1.768185347318649292e-01 9.688219428062438965e-02 3.217369616031646729e-01 9.801828116178512573e-02 1.638734787702560425e-01 -8.789711445569992065e-02
2.498101070523262024e-02 -2.347791045904159546e-01 -3.945961594581604004e-02 -1.980985701084136963e-02 2.017962634563446045e-01 4.351926594972610474e-02 -2.843303605914115906e-02 1.417600363492965698e-01 1.946437954902648926e-01 1.320438534021377563e-01 -1.639885008335113525e-01 1.457367390394210815e-01 -1.018132343888282776e-01 -9.711138904094696045e-02 1.893940120935440063e-01 2.396960556507110596e-01 1.629440672695636749e-02 9.204109758138656616e-02 -6.026641000062227249e-03 2.626641690731048584e-01
2.090748399496078491e-01 -4.895993173122406006e-01 4.520463347434997559e-01 -1.985577791929244995e-01 -3.238949775695800781e-01 -8.843461424112319946e-02 4.906952753663063049e-02 -2.630865275859832764e-01 -4.131362959742546082e-02 7.890054583549499512e-01 1.257845312356948853e-01 -1.813707947731018066e-01 5.600223690271377563e-02 -2.668783366680145264e-01 1.318185031414031982e-01 -2.895455658435821533e-01 -1.642657443881034851e-02 -4.908731877803802490e-01 -4.970223829150199890e-02 -1.355369016528129578e-02
-2.182053923606872559e-01 -3.672891557216644287e-01 5.238273739814758301e-02 -3.654484450817108154e-02 -8.421844244003295898e-02 -2.581472694873809814e-01 4.210851341485977173e-02 7.544501125812530518e-02 -2.608230412006378174e-01 1.032572388648986816e-01 4.001464545726776123e-01 7.488602399826049805e-02 2.831370234489440918e-01 -2.699341475963592529e-01 -1.210569217801094055e-01 2.738209962844848633e-01 1.293096840381622314e-01 1.592588126659393311e-01 4.398547578603029251e-03 -5.993945524096488953e-03
-1.428932845592498779e-01 2.825107872486114502e-01 -7.745835185050964355e-02 1.189796030521392822e-01 -2.062196098268032074e-02 -9.986895136535167694e-03 -6.729625165462493896e-02 1.938622891902923584e-01 7.155720889568328857e-02 -5.200912803411483765e-02 -5.103030055761337280e-02 1.424962580204010010e-01 -2.817362546920776367e-01 2.828313410282135010e-01 1.740178763866424561e-01 2.313277572393417358e-01 -1.674109511077404022e-02 1.093484237790107727e-01 7.390315830707550049e-02 -1.516706347465515137e-01
-8.446934074163436890e-02 2.666416168212890625e-01 -2.597334682941436768e-01 6.903978437185287476e-02 -9.327965229749679565e-02 2.397580444812774658e-01 -2.920107543468475342e-01 1.917413920164108276e-01 -9.946414828300476074e-02 1.615779697895050049e-01 -2.389245927333831787e-01 3.074245154857635498e-01 -2.500391006469726562e-01 -7.390409708023071289e-02 1.045756861567497253e-01 -1.453646123409271240e-01 1.714127510786056519e-02 -1.651155203580856323e-01 -2.766890525817871094e-01 -1.119031086564064026e-01
-8.445845544338226318e-02 5.644644051790237427e-02 -2.437830716371536255e-01 2.682115435600280762e-01 1.834918931126594543e-02 -4.340233281254768372e-03 8.461569994688034058e-02 1.684667542576789856e-02 2.723572254180908203e-01 -6.299860775470733643e-02 -2.422897368669509888e-01 1.978079825639724731e-01 -1.294693797826766968e-01 -2.300718985497951508e-02 5.716491490602493286e-02 2.763611264526844025e-02 2.346992045640945435e-01 -1.133640408515930176e-01 1.419705301523208618e-01 -1.759885102510452271e-01
-1.366761177778244019e-01 -4.175377190113067627e-01 1.664782464504241943e-01 1.168229430913925171e-01 1.435597240924835205e-01 8.438251912593841553e-03 1.149371042847633362e-01 -8.975137770175933838e-02 2.888566553592681885e-01 -1.237792521715164185e-01 -1.387865394353866577e-01 2.337239533662796021e-01 -2.683129608631134033e-01 9.038595110177993774e-02 7.718522846698760986e-02 1.797118186950683594e-01 1.777805835008621216e-01 1.643172502517700195e-01 -5.178476870059967041e-02 1.009302362799644470e-01
5.395070910453796387e-01 5.397060513496398926e-01 1.276248395442962646e-01 2.515635192394256592e-01 -3.812920749187469482e-01 -1.293779164552688599e-01 -2.916529476642608643e-01 5.983151867985725403e-02 1.864194273948669434e-01 7.609301805496215820e-01 -5.093867778778076172e-01 6.089844927191734314e-02 -2.021472454071044922e-01 5.276566147804260254e-01 4.015509039163589478e-02 -1.435065921396017075e-02 8.198625594377517700e-02 -8.435941338539123535e-01 -4.240919053554534912e-01 2.869178354740142822e-01
-1.293922066688537598e-01 2.464155405759811401e-01 -9.463005699217319489e-03 1.243963018059730530e-01 -2.178067415952682495e-01 -3.824345022439956665e-02 2.680783867835998535e-01 -1.198656037449836731e-01 -1.195600405335426331e-01 -2.753322124481201172e-01 1.924817413091659546e-01 -1.319473981857299805e-01 2.853384017944335938e-01 -1.837908327579498291e-01 -2.992548942565917969e-01 1.401626914739608765e-01 -3.352914452552795410e-01 1.668106615543365479e-01 -9.406907111406326294e-02 1.022706478834152222e-01
-2.673859000205993652e-01 1.448495090007781982e-01 -3.939850926399230957e-01 -1.405132263898849487e-01 -2.701504528522491455e-01 -3.564298152923583984e-02 -5.750095844268798828e-02 -6.722732633352279663e-02 -6.542925536632537842e-02 -1.112566739320755005e-01 3.835233151912689209e-01 1.368558686226606369e-02 1.963483542203903198e-01 -2.960722446441650391e-01 -2.031836658716201782e-02 2.221840918064117432e-01 -2.554620504379272461e-01 -1.131149455904960632e-01 1.875199079513549805e-01 -2.077620029449462891e-01
2.551767230033874512e-01 -5.359002202749252319e-02 2.093459814786911011e-01 2.284456975758075714e-02 2.684502303600311279e-01 -9.258270263671875000e-02 -3.001106083393096924e-01 2.645205855369567871e-01 3.237427175045013428e-01 3.593665659427642822e-01 -2.465268522500991821e-01 8.125549554824829102e-02 -1.108518987894058228e-01 2.328327149152755737e-01 1.580742448568344116e-01 -5.752663686871528625e-02 -4.364730045199394226e-02 5.227952823042869568e-02 1.288981642574071884e-02 -9.351833164691925049e-02
