6.762589514255523682e-02 -5.015882253646850586e-01 -1.826227456331253052e-02 -1.541598200798034668e+00 2.967156767845153809e-01 -1.995085030794143677e-01 7.197672128677368164e-01 -5.966038107872009277e-01 -1.759966015815734863e-01 3.307434320449829102e-01 -6.818771958351135254e-01 7.887415885925292969e-01 5.524266045540571213e-03 -8.777054399251937866e-02 1.516757458448410034e-01 2.838829457759857178e-01 1.359986364841461182e-01 -8.735051006078720093e-02 5.893375277519226074e-01 3.000169992446899414e-01
-1.917199343442916870e-01 -3.176492750644683838e-01 -5.814173817634582520e-01 8.628371357917785645e-01 6.131061911582946777e-01 -5.361711382865905762e-01 -8.200286626815795898e-01 5.564102530479431152e-01 -8.194750547409057617e-01 -3.390020430088043213e-01 -8.472589254379272461e-01 -3.817222118377685547e-01 -6.629743576049804688e-01 5.063078999519348145e-01 7.431917637586593628e-02 4.031797945499420166e-01 -5.738238692283630371e-01 -2.202711701393127441e-01 -3.146517574787139893e-01 3.565205261111259460e-02
-1.159749832004308701e-02 6.492657661437988281e-01 3.415874838829040527e-01 1.450224518775939941e+00 -4.459180831909179688e-01 1.939275264739990234e-01 5.053541660308837891e-01 4.772529006004333496e-01 1.384215354919433594e-01 -3.773761987686157227e-01 -5.865175724029541016e-01 -4.428648054599761963e-01 -1.092840313911437988e+00 9.269541501998901367e-02 -2.471249550580978394e-02 -2.869489192962646484e-01 -1.363966614007949829e-01 3.876398205757141113e-01 -5.159412026405334473e-01 -3.166106939315795898e-01
1.675384640693664551e-01 1.570224612951278687e-01 -4.834008961915969849e-02 2.483411133289337158e-01 1.843272447586059570e-01 3.822933733463287354e-01 -4.637340605258941650e-01 2.761085927486419678e-01 6.102723535150289536e-03 -3.447676450014114380e-02 4.298074543476104736e-02 -6.081870198249816895e-01 2.146748602390289307e-01 1.260734647512435913e-01 1.268181949853897095e-01 6.426810026168823242e-01 -4.289779067039489746e-01 4.418453574180603027e-01 -1.723954081535339355e-01 5.802451819181442261e-02
2.510268688201904297e-01 8.502946496009826660e-01 1.551820933818817139e-01 -3.321202993392944336e-01 3.300569057464599609e-01 1.338041663169860840e+00 -6.963946819305419922e-01 -3.761042058467864990e-01 1.882299542427062988e+00 6.129863262176513672e-01 1.147603511810302734e+00 -1.721935272216796875e-01 1.173606276512145996e+00 2.468527853488922119e-01 7.087817788124084473e-01 4.750991761684417725e-01 -3.613727986812591553e-01 3.647915422916412354e-01 3.393043577671051025e-01 1.725214272737503052e-01
6.215539574623107910e-02 1.999332159757614136e-01 -2.497960031032562256e-01 1.530578136444091797e-01 3.844875693321228027e-01 4.062510281801223755e-02 -6.620898842811584473e-01 2.730361223220825195e-01 -3.769360184669494629e-01 -1.100227311253547668e-01 -3.612041175365447998e-01 2.198257148265838623e-01 -2.003871500492095947e-01 -7.447465509176254272e-02 -1.354567110538482666e-01 2.044035196304321289e-01 -2.542794942855834961e-01 -3.982500135898590088e-01 -2.047526538372039795e-01 2.423362582921981812e-01
4.530336558818817139e-01 -2.460862696170806885e-02 -2.443370819091796875e-01 1.154071912169456482e-01 2.470989227294921875e-01 8.193834125995635986e-02 9.149700403213500977e-02 -3.706758916378021240e-01 -2.881865501403808594e-01 3.014226853847503662e-01 1.848844438791275024e-01 6.816843152046203613e-02 -3.728041052818298340e-01 3.624648153781890869e-01 7.493717223405838013e-02 4.050887227058410645e-01 1.010020375251770020e-01 1.978502422571182251e-01 -5.693168565630912781e-02 7.459754496812820435e-02
-6.106531247496604919e-03 -2.127415537834167480e-01 -7.313379645347595215e-02 -7.439498901367187500e-01 4.177586436271667480e-01 -3.768433034420013428e-01 -1.575265526771545410e-01 -3.186172246932983398e-01 -1.484239548444747925e-01 1.264615058898925781e-01 -1.289953708648681641e+00 6.443440914154052734e-01 2.338093370199203491e-01 -4.448762238025665283e-01 -9.531084895133972168e-01 -3.054119944572448730e-01 -4.231469333171844482e-02 -5.748962983489036560e-02 1.788352876901626587e-01 1.765046617947518826e-03
4.054085612297058105e-01 7.350448053330183029e-03 -1.491855680942535400e-01 1.307890057563781738e+00 -1.015266589820384979e-02 3.551507294178009033e-01 -8.708750456571578979e-02 3.137541115283966064e-01 1.153028160333633423e-01 -1.062214821577072144e-01 1.424846529960632324e+00 -1.168701648712158203e+00 9.024142622947692871e-01 2.655634284019470215e-01 -1.143003821372985840e+00 7.602992653846740723e-01 -6.805310845375061035e-01 1.211861014366149902e+00 1.283241901546716690e-02 5.096023902297019958e-02
-3.324560821056365967e-01 5.247057080268859863e-01 2.381320148706436157e-01 4.055547714233398438e-01 -4.708028137683868408e-01 2.893653512001037598e-01 1.915694028139114380e-01 4.150671362876892090e-01 1.379681229591369629e-01 -1.381875295192003250e-02 2.101494520902633667e-01 -4.390365481376647949e-01 3.369765877723693848e-01 -9.937888383865356445e-02 -1.682816259562969208e-02 -1.970195770263671875e-01 1.691406369209289551e-01 4.683129489421844482e-02 -8.878082782030105591e-02 -2.207408398389816284e-01
1.072448119521141052e-02 3.188398480415344238e-02 -2.276659756898880005e-02 -6.681923866271972656e-01 3.501771390438079834e-01 -5.799937844276428223e-01 -3.719823658466339111e-01 3.825252503156661987e-02 -2.437311559915542603e-01 2.944884896278381348e-01 -1.228156924247741699e+00 4.480190277099609375e-01 -2.017381601035594940e-02 -3.108022809028625488e-01 -6.857492923736572266e-01 9.530793875455856323e-02 1.370031386613845825e-01 -1.698540747165679932e-01 2.830542027950286865e-01 2.685518562793731689e-01
3.102772235870361328e-01 -5.044438838958740234e-01 -3.649481236934661865e-01 -1.049484372138977051e+00 2.995504140853881836e-01 -2.675180733203887939e-01 4.191540181636810303e-01 -4.610648155212402344e-01 1.363340485841035843e-02 4.001795053482055664e-01 -3.864683508872985840e-01 5.825951099395751953e-01 2.105320692062377930e-01 5.093622952699661255e-02 1.016061455011367798e-01 3.217091858386993408e-01 1.097659692168235779e-01 -1.474883407354354858e-01 4.881615042686462402e-01 3.010950684547424316e-01
-1.288492381572723389e-01 -2.938085496425628662e-01 1.899324655532836914e-01 -1.629525572061538696e-01 -2.449876517057418823e-01 -9.617161005735397339e-02 3.384256660938262939e-01 2.613334953784942627e-01 7.388290017843246460e-02 2.233068048954010010e-01 1.035074815154075623e-01 1.816381067037582397e-01 -4.007636606693267822e-01 1.566220670938491821e-01 3.331814706325531006e-01 -6.821087598800659180e-01 -1.625091284513473511e-01 -1.715217977762222290e-01 -1.066479086875915527e-01 -2.504742145538330078e-01
-3.410992622375488281e-01 1.412479579448699951e-01 2.518099248409271240e-01 5.311997979879379272e-02 3.535976260900497437e-02 2.672769725322723389e-01 -9.699533134698867798e-02 1.190583109855651855e-01 2.337395846843719482e-01 -1.940322667360305786e-01 1.824305951595306396e-01 9.295141696929931641e-02 1.390327699482440948e-02 1.979458779096603394e-01 2.095044106245040894e-01 -4.347620010375976562e-01 3.640134632587432861e-02 -6.665632873773574829e-02 9.384505450725555420e-02 -6.504883617162704468e-02
2.044234611093997955e-02 5.904505774378776550e-02 2.026079893112182617e-01 1.293952018022537231e-01 -2.854718267917633057e-01 1.668442040681838989e-01 4.823617264628410339e-02 3.543636202812194824e-01 -1.303138136863708496e-01 -1.789129376411437988e-01 -2.660329639911651611e-01 1.258423645049333572e-02 7.782912999391555786e-02 1.391618996858596802e-01 -1.340106129646301270e-01 -2.664142251014709473e-01 1.810294836759567261e-01 -1.193566843867301941e-01 -1.385956704616546631e-01 -2.152074426412582397e-01
1.721865236759185791e-01 3.236843347549438477e-01 1.402633935213088989e-01 1.732252538204193115e-01 1.006886363029479980e-01 2.483486197888851166e-02 3.016492426395416260e-01 1.777737289667129517e-01 2.639738619327545166e-01 4.387991875410079956e-02 1.263535469770431519e-01 -4.376963973045349121e-01 2.384785264730453491e-01 8.241875097155570984e-03 -4.651746153831481934e-01 3.819748163223266602e-01 -5.154313519597053528e-02 3.011853992938995361e-01 1.462296247482299805e-01 -2.655986845493316650e-01
5.323223769664764404e-03 -2.787078917026519775e-01 -1.075326204299926758e-01 -1.427610963582992554e-01 4.072503149509429932e-01 -4.573468267917633057e-01 -8.662459850311279297e-01 3.438892662525177002e-01 3.211905062198638916e-02 -1.711307466030120850e-01 -9.890166521072387695e-01 6.965960264205932617e-01 -1.442267447710037231e-01 -3.303912878036499023e-01 -1.026672720909118652e+00 -6.825413107872009277e-01 2.095343023538589478e-01 -5.834305658936500549e-03 1.750607229769229889e-02 1.353697478771209717e-01
2.153764218091964722e-01 -4.553672075271606445e-01 -3.325662389397621155e-02 -4.491206705570220947e-01 2.469652146100997925e-01 -1.904646307229995728e-01 -1.090136095881462097e-01 2.228701487183570862e-02 1.137441769242286682e-01 2.906746864318847656e-01 3.028689026832580566e-01 2.653822302818298340e-01 -4.616023004055023193e-01 4.697363674640655518e-01 7.034005522727966309e-01 1.557270158082246780e-02 -2.194466441869735718e-01 -3.013200759887695312e-01 2.688395082950592041e-01 1.962634027004241943e-01
2.466744631528854370e-01 -3.886820673942565918e-01 -2.766540348529815674e-01 -2.992233932018280029e-01 -6.558879464864730835e-02 -2.256012707948684692e-01 4.370762109756469727e-01 -2.502039372920989990e-01 4.656371474266052246e-02 1.911903470754623413e-01 2.233847789466381073e-02 2.246524244546890259e-01 -1.765033155679702759e-01 3.535396754741668701e-01 4.738288521766662598e-01 -1.426423341035842896e-01 -9.941878914833068848e-02 -3.350329697132110596e-01 2.126857042312622070e-01 2.725875079631805420e-01
-2.308556884527206421e-01 -2.770958468317985535e-02 2.100576758384704590e-01 -1.171973645687103271e-01 5.589181184768676758e-02 2.195195294916629791e-02 1.555693000555038452e-01 -8.623222261667251587e-02 2.553017139434814453e-01 -2.510961294174194336e-01 -2.634466886520385742e-01 3.561820089817047119e-02 4.556191265583038330e-01 -3.245829045772552490e-01 -1.408019959926605225e-01 3.727738931775093079e-02 7.911831885576248169e-02 -2.245552837848663330e-01 -2.308168560266494751e-01 -2.427900284528732300e-01
