3.451323509216308594e-01 -5.142431855201721191e-01 -5.222431421279907227e-01 -2.787720561027526855e-01 4.342243373394012451e-01 5.355989933013916016e-01 -1.507819890975952148e-01 -2.286968231201171875e-01 1.399249881505966187e-01 -6.254555191844701767e-03
-7.232588529586791992e-01 -1.237513795495033264e-01 2.380229681730270386e-01 -2.203602492809295654e-01 -1.143437862396240234e+00 1.378970891237258911e-01 -2.816127836704254150e-01 2.802903354167938232e-01 -6.933314800262451172e-01 3.832454085350036621e-01
4.009376466274261475e-01 -2.531714364886283875e-02 -7.994909286499023438e-01 -8.728912472724914551e-02 1.031173825263977051e+00 5.028744339942932129e-01 -4.041331410408020020e-01 1.026904582977294922e+00 -2.411197312176227570e-02 -7.999227046966552734e-01
-7.903047651052474976e-02 1.296392455697059631e-02 -4.372228980064392090e-01 -2.844981253147125244e-01 -3.283037245273590088e-01 2.791831791400909424e-01 -6.414084434509277344e-01 3.000391460955142975e-02 1.710841991007328033e-02 -2.241407483816146851e-01
2.368686795234680176e-01 -5.611853003501892090e-01 -1.399840712547302246e-01 -4.589849114418029785e-01 -1.747184246778488159e-01 6.277739405632019043e-01 -6.634216904640197754e-01 1.093802526593208313e-01 4.234336912631988525e-01 1.429375633597373962e-02
-1.331551373004913330e-01 4.302602112293243408e-01 1.733810454607009888e-01 1.686615943908691406e-01 5.764686465263366699e-01 -3.362319469451904297e-01 5.992732644081115723e-01 -2.389280945062637329e-01 3.994485139846801758e-01 -1.239716187119483948e-01
3.882233500480651855e-01 -6.691448390483856201e-02 -5.695995092391967773e-01 -3.061426579952239990e-01 1.163439229130744934e-01 5.864356756210327148e-01 -4.038420617580413818e-01 5.938045307993888855e-02 -4.209886118769645691e-02 -4.782232940196990967e-01
3.434678912162780762e-01 -4.255473613739013672e-01 -3.525824844837188721e-01 -4.511457681655883789e-01 -1.116749569773674011e-01 2.032058686017990112e-01 -4.814635217189788818e-01 -2.510829567909240723e-01 4.274018406867980957e-01 -2.201958894729614258e-01
5.860976576805114746e-01 -6.898032426834106445e-01 -7.374808192253112793e-02 -6.639840006828308105e-01 -1.432937085628509521e-01 6.810605525970458984e-01 -3.875068724155426025e-01 -7.465752959251403809e-01 2.392676025629043579e-01 3.315947949886322021e-01
6.835122704505920410e-01 8.453097194433212280e-02 -7.225080728530883789e-01 -4.356854856014251709e-01 5.605930089950561523e-01 3.710536658763885498e-01 -2.747780382633209229e-01 1.160345897078514099e-01 2.740944623947143555e-01 -2.130413800477981567e-01
