5.433781147003173828e-01 3.863595724105834961e-01 -4.697822332382202148e-01 -5.248162746429443359e-01 -3.292030394077301025e-01 -2.508627176284790039e-01 6.756326556205749512e-01 -3.215235471725463867e-01 -6.682027876377105713e-02 3.288692533969879150e-01
3.325730562210083008e-02 2.217409312725067139e-01 1.573046565055847168e+00 4.190651774406433105e-01 1.490219712257385254e+00 1.639757037162780762e+00 -1.383042812347412109e+00 1.723754405975341797e-01 1.723275631666183472e-01 1.318254113197326660e+00
2.827291786670684814e-01 9.218117594718933105e-01 -3.710232079029083252e-01 -6.470985412597656250e-01 -3.275094330310821533e-01 -7.798281311988830566e-01 9.419713616371154785e-01 -2.182645648717880249e-01 -1.228532120585441589e-01 -7.331508994102478027e-01
8.313406258821487427e-02 1.097679585218429565e-01 -2.697222828865051270e-01 1.632087081670761108e-01 9.130051732063293457e-02 -2.011142522096633911e-01 3.011340498924255371e-01 -3.852534592151641846e-01 2.561053037643432617e-01 3.750862181186676025e-01
1.197106316685676575e-01 2.789210081100463867e-01 -3.659018874168395996e-01 -5.862153172492980957e-01 -2.015673220157623291e-01 -2.367500960826873779e-01 2.333963811397552490e-01 -5.200136899948120117e-01 -4.305741190910339355e-02 5.203825235366821289e-01
-8.960968255996704102e-01 7.152146100997924805e-02 1.487503170967102051e+00 8.467641472816467285e-01 4.306564807891845703e+00 2.076411247253417969e+00 -1.346950173377990723e+00 -2.137183696031570435e-01 1.052800059318542480e+00 -7.045831084251403809e-01
4.703428447246551514e-01 3.880486488342285156e-01 -5.877123475074768066e-01 -6.570366770029067993e-02 1.149941235780715942e-01 -5.779170989990234375e-01 7.710505127906799316e-01 -1.047438606619834900e-01 -1.413014382123947144e-01 2.305485755205154419e-01
3.872520923614501953e-01 1.221907958388328552e-01 -5.386644601821899414e-01 -4.587888717651367188e-01 -8.556419014930725098e-01 -7.071675658226013184e-01 5.569906830787658691e-01 -3.013902604579925537e-01 -4.948125779628753662e-01 6.075133085250854492e-01
4.138823449611663818e-01 6.348432302474975586e-01 -9.253199696540832520e-01 -2.429925054311752319e-01 -2.400165081024169922e+00 -9.293743371963500977e-01 2.152388095855712891e-01 -2.154120206832885742e-01 -5.708003044128417969e-01 1.273256063461303711e+00
4.720834791660308838e-01 6.150900721549987793e-01 -5.022131204605102539e-01 -3.465065658092498779e-01 1.591359823942184448e-01 -7.546042650938034058e-02 7.657341957092285156e-01 3.353893756866455078e-02 -3.691298663616180420e-01 -6.411916017532348633e-02
