1.080408319830894470e-01 -4.312569499015808105e-01 5.259408354759216309e-01 -1.754043847322463989e-01 -1.595598310232162476e-01 -6.793617270886898041e-03 1.687894016504287720e-01 -3.329309821128845215e-02 -8.703196048736572266e-02 1.355540156364440918e-01
-6.129225492477416992e-01 -2.488921284675598145e-01 5.206695795059204102e-01 3.932537734508514404e-01 -3.676164150238037109e-01 -4.492298141121864319e-02 3.229442834854125977e-01 -5.982224643230438232e-02 2.986972033977508545e-01 -4.140053391456604004e-01
3.721139132976531982e-01 1.774037182331085205e-01 9.132511913776397705e-02 7.865254282951354980e-01 1.357627034187316895e+00 -5.936678647994995117e-01 3.271359801292419434e-01 -1.859332025051116943e-01 7.774875760078430176e-01 -1.888481378555297852e-01
1.502989679574966431e-01 3.782652616500854492e-01 -6.981818675994873047e-01 -1.273430138826370239e-01 -6.315444409847259521e-02 6.660169363021850586e-01 -1.954778879880905151e-01 1.434621959924697876e-01 -4.167633056640625000e-01 1.330871880054473877e-01
1.090805009007453918e-01 -2.089515328407287598e-01 4.303226172924041748e-01 1.614880859851837158e-01 3.862313032150268555e-01 -3.020400404930114746e-01 4.873922765254974365e-01 -4.815515875816345215e-01 1.930392347276210785e-03 -2.925928533077239990e-01
1.943515241146087646e-01 6.246367692947387695e-01 -4.616273045539855957e-01 -6.010082364082336426e-01 -6.155404448509216309e-01 5.797013640403747559e-01 -3.258681297302246094e-01 3.515971899032592773e-01 5.119740217924118042e-02 6.765031814575195312e-02
8.674675226211547852e-02 -4.134301841259002686e-01 5.232880115509033203e-01 -2.001317143440246582e-01 -2.603272795677185059e-01 -4.219105839729309082e-01 4.552699327468872070e-01 1.838779300451278687e-01 -2.269435226917266846e-01 4.748050868511199951e-02
1.255366653203964233e-01 6.318914294242858887e-01 -2.769737243652343750e-01 -4.202533364295959473e-01 -8.703451156616210938e-01 2.158394455909729004e-01 -4.509884119033813477e-01 2.567518055438995361e-01 -2.473957389593124390e-01 4.962840378284454346e-01
9.282916039228439331e-02 1.700142472982406616e-01 -8.809762001037597656e-01 3.399361371994018555e-01 1.143791198730468750e+00 4.313485920429229736e-01 -4.297095239162445068e-01 -3.057766556739807129e-01 3.652753829956054688e-01 -2.971619069576263428e-01
-6.397458165884017944e-02 3.918830156326293945e-01 -1.518974900245666504e-01 -2.584867775440216064e-01 -8.744370937347412109e-01 4.646827876567840576e-01 -2.805538475513458252e-01 5.001469254493713379e-01 2.945598065853118896e-01 1.340705901384353638e-01
