9.172857552766799927e-02 3.161481916904449463e-01 3.183096349239349365e-01 2.521271407604217529e-01 -9.428902715444564819e-02 3.029797673225402832e-01 -1.797007024288177490e-01 4.594717621803283691e-01 -4.411433935165405273e-01 -5.414444580674171448e-02
5.129536986351013184e-01 3.004487454891204834e-01 8.389953523874282837e-02 -4.519847035408020020e-02 -4.210705161094665527e-01 -1.953845620155334473e-01 2.122956067323684692e-01 6.329470872879028320e-01 -3.371204435825347900e-01 -1.054605618119239807e-01
-5.026793479919433594e-01 -5.124406814575195312e-01 -7.602689266204833984e-01 3.289639949798583984e-01 -6.597533822059631348e-01 -8.257658779621124268e-02 1.083525300025939941e+00 1.607300713658332825e-02 -1.143408268690109253e-01 1.341925382614135742e+00
-6.112730503082275391e-01 -4.922279119491577148e-01 -2.164204269647598267e-01 -3.169465065002441406e-01 8.032337427139282227e-01 -8.672500252723693848e-01 -4.854167103767395020e-01 -4.680400788784027100e-01 3.008815646171569824e-01 4.018330574035644531e-01
-1.222172975540161133e-01 -1.589537709951400757e-01 2.327231168746948242e-01 2.277365326881408691e-01 -3.508471548557281494e-01 5.008753761649131775e-02 6.598157286643981934e-01 -7.263623178005218506e-02 -4.662136137485504150e-01 3.765203058719635010e-01
-5.328313708305358887e-01 -5.219968557357788086e-01 -5.564284920692443848e-01 -1.710074692964553833e-01 9.274581074714660645e-01 -1.950974613428115845e-01 -4.101713597774505615e-01 -6.106632351875305176e-01 2.441570311784744263e-01 8.827590942382812500e-02
1.810321062803268433e-01 1.479924768209457397e-01 -5.990799516439437866e-03 3.051435053348541260e-01 -3.442791700363159180e-01 2.518613338470458984e-01 2.958925664424896240e-01 6.667323708534240723e-01 -1.539335548877716064e-01 -4.860369488596916199e-02
-6.621383428573608398e-01 -3.737690448760986328e-01 -7.208981513977050781e-01 1.261170357465744019e-01 6.848949193954467773e-01 -4.232402443885803223e-01 -4.791984260082244873e-01 -6.259300112724304199e-01 3.421778380870819092e-01 -1.888727247714996338e-01
-4.384169876575469971e-01 1.091463193297386169e-01 -3.905684649944305420e-01 -4.533243477344512939e-01 6.980246305465698242e-02 -1.356008410453796387e+00 -3.548707664012908936e-01 -4.404323697090148926e-01 6.475585699081420898e-01 1.095279097557067871e+00
-4.906403422355651855e-01 -1.022133827209472656e-01 -2.027351558208465576e-01 -1.254689991474151611e-01 1.055900692939758301e+00 -4.627032279968261719e-01 -6.902698874473571777e-01 -6.701140999794006348e-01 7.844128012657165527e-01 -2.880270183086395264e-01
