-9.428491466678678989e-04 3.833141028881072998e-01 -4.069283902645111084e-01 -8.382708579301834106e-02 2.496629357337951660e-01 2.946874499320983887e-01 4.065271317958831787e-01 -4.176766276359558105e-01 -1.913525760173797607e-01 -3.650527298450469971e-01 -2.718611359596252441e-01 1.450939029455184937e-01 3.145163655281066895e-01 -8.728126436471939087e-02 3.338619768619537354e-01 4.158940017223358154e-01 -1.190396100282669067e-01 -3.278707265853881836e-01 -3.554439172148704529e-02 -6.453467532992362976e-03
2.912713587284088135e-01 -2.974525094032287598e-01 1.179394647479057312e-01 2.279963493347167969e-01 -1.871370524168014526e-01 -1.558149158954620361e-01 1.801069825887680054e-01 4.629612863063812256e-01 2.965058386325836182e-02 -1.695540696382522583e-01 1.150606036186218262e+00 -4.887544214725494385e-01 1.269983202219009399e-01 2.066450119018554688e-01 -6.519464850425720215e-01 -2.671197950839996338e-01 6.943593174219131470e-02 4.429468214511871338e-01 -1.562107801437377930e-01 -1.834072470664978027e-01
1.975861340761184692e-01 3.459426462650299072e-01 -1.497106701135635376e-01 -2.735477983951568604e-01 1.932340264320373535e-01 4.549930691719055176e-01 1.681564897298812866e-01 -3.297286927700042725e-01 -2.873838543891906738e-01 -1.653271764516830444e-01 -3.055779635906219482e-01 -4.028614610433578491e-02 9.430778771638870239e-02 -2.867108285427093506e-01 3.785625100135803223e-01 2.286552190780639648e-01 2.155180834233760834e-02 9.453357011079788208e-02 3.233919441699981689e-01 2.158542275428771973e-01
4.050970971584320068e-01 2.876142859458923340e-01 -2.818036079406738281e-01 -3.846196532249450684e-01 4.675199463963508606e-02 2.656239867210388184e-01 2.996607422828674316e-01 -3.341850638389587402e-01 -2.622334361076354980e-01 -4.000354409217834473e-01 6.316234357655048370e-04 -2.845137752592563629e-02 3.489038646221160889e-01 -1.222802326083183289e-01 1.201507896184921265e-01 3.904531300067901611e-01 -1.519498825073242188e-01 -3.212205767631530762e-01 -1.987607590854167938e-02 -8.125920780003070831e-03
3.050846420228481293e-02 -7.093768566846847534e-02 -1.553845033049583435e-02 6.881799548864364624e-02 -4.002154469490051270e-01 -1.375695765018463135e-01 -2.206465303897857666e-01 3.792938888072967529e-01 -1.803801953792572021e-02 2.853748202323913574e-01 2.640095055103302002e-01 -1.360493153333663940e-01 -1.470905691385269165e-01 1.176589727401733398e-01 1.928727179765701294e-01 -1.291680932044982910e-01 2.477400302886962891e-01 2.155902534723281860e-01 -4.366460442543029785e-02 -1.864055097103118896e-01
1.908623240888118744e-02 -4.402487874031066895e-01 2.638179063796997070e-01 2.185448408126831055e-01 -3.296607136726379395e-01 -1.548692882061004639e-01 -2.656807899475097656e-01 1.763973087072372437e-01 1.617045551538467407e-01 2.546130120754241943e-01 3.200807571411132812e-01 8.068148791790008545e-02 -4.130428135395050049e-01 2.459775209426879883e-01 -1.188513264060020447e-01 1.475936919450759888e-02 1.662966161966323853e-01 -1.644659973680973053e-02 -5.913160741329193115e-02 -2.865642905235290527e-01
3.936207890510559082e-01 2.307797074317932129e-01 -3.058961331844329834e-01 -1.690352261066436768e-01 2.000044733285903931e-01 1.026121824979782104e-01 3.701887130737304688e-01 -4.603934660553932190e-02 -2.571342587471008301e-01 -1.469513177871704102e-01 -1.058843284845352173e-01 1.639725863933563232e-01 4.000024795532226562e-01 -4.509555101394653320e-01 5.593565106391906738e-01 3.872765600681304932e-01 -2.921665310859680176e-01 -3.673109114170074463e-01 -3.187354654073715210e-02 2.925036251544952393e-01
3.255967497825622559e-01 1.636153608560562134e-01 -3.107746839523315430e-01 -2.611445784568786621e-01 4.576103389263153076e-01 4.468034505844116211e-01 6.153344511985778809e-01 -6.114927306771278381e-02 -3.733721375465393066e-01 -4.424489438533782959e-01 -1.788245141506195068e-01 -2.015986144542694092e-01 2.560222744941711426e-01 -2.249546498060226440e-01 -2.590200006961822510e-01 -4.191212728619575500e-02 -1.164480000734329224e-01 -1.119052842259407043e-01 2.473486214876174927e-01 5.842750892043113708e-03
-7.507821172475814819e-02 5.026880502700805664e-01 -3.319972008466720581e-02 -3.499659001827239990e-01 8.847044780850410461e-03 4.179691150784492493e-02 5.817509293556213379e-01 -3.881058096885681152e-01 -1.254810392856597900e-01 -5.222768336534500122e-02 -5.249181985855102539e-01 -5.204576253890991211e-02 3.740425705909729004e-01 -4.918576776981353760e-02 -2.424274757504463196e-02 1.993742287158966064e-01 -5.298861302435398102e-03 -1.697057783603668213e-01 -6.416660733520984650e-03 -4.487641155719757080e-02
-2.831977307796478271e-01 -2.726365923881530762e-01 -8.375963196158409119e-03 1.878503113985061646e-01 -3.394137918949127197e-01 -3.857667148113250732e-01 -2.274529039859771729e-01 4.041323363780975342e-01 -1.977712847292423248e-02 2.946092486381530762e-01 -1.525795608758926392e-01 9.509520232677459717e-02 -4.635462909936904907e-02 1.573158353567123413e-01 -2.138277888298034668e-01 -2.859810292720794678e-01 2.256007939577102661e-01 1.283714324235916138e-01 -2.842694818973541260e-01 3.417494893074035645e-02
4.064837470650672913e-02 -6.369501352310180664e-01 3.300450742244720459e-01 4.981853067874908447e-01 -2.976596951484680176e-01 -5.033965036273002625e-02 -8.017352819442749023e-01 2.642905116081237793e-01 1.562140583992004395e-01 -7.088338583707809448e-02 2.136058360338211060e-01 2.863108515739440918e-01 -4.326511919498443604e-01 -5.499418973922729492e-01 7.801187038421630859e-01 -7.364349812269210815e-02 -2.653292417526245117e-01 -1.739454865455627441e-01 -1.565041095018386841e-01 9.980166703462600708e-02
-2.985612675547599792e-02 -4.890482127666473389e-01 1.520632505416870117e-01 3.558284342288970947e-01 -1.248401105403900146e-01 3.517594560980796814e-02 5.729344859719276428e-02 2.390567958354949951e-01 2.701890170574188232e-01 -9.146890044212341309e-02 6.323465704917907715e-01 -4.111685752868652344e-01 -3.227492421865463257e-02 2.296876162290573120e-01 -4.207173287868499756e-01 -3.011604547500610352e-01 1.427102386951446533e-01 3.905684947967529297e-01 -1.027441546320915222e-01 -3.095650672912597656e-01
3.284696862101554871e-02 -4.864772781729698181e-02 1.740140095353126526e-02 2.146867662668228149e-01 -2.915992438793182373e-01 6.798729300498962402e-03 -4.324605464935302734e-01 3.705230951309204102e-01 2.521935701370239258e-01 1.897993832826614380e-01 9.746816754341125488e-02 -7.830268144607543945e-02 -2.618471980094909668e-01 1.317875180393457413e-02 1.237941160798072815e-01 -2.544765770435333252e-01 7.058545202016830444e-02 5.211242660880088806e-02 -2.496732398867607117e-03 4.016854986548423767e-02
2.367184730246663094e-03 4.008245188742876053e-03 2.800818346440792084e-02 4.006450176239013672e-01 3.757371306419372559e-01 -1.500123888254165649e-01 8.814070224761962891e-01 8.901464194059371948e-02 -1.384907215833663940e-01 -2.953667044639587402e-01 6.740203499794006348e-01 -8.720195293426513672e-01 6.298542618751525879e-01 5.367291569709777832e-01 -1.038848400115966797e+00 -1.181937828660011292e-01 2.443968951702117920e-01 2.555253803730010986e-01 3.415217250585556030e-02 -5.264108777046203613e-01
-2.659288980066776276e-02 1.095932945609092712e-01 -1.251960694789886475e-01 -2.145058959722518921e-01 2.502829432487487793e-01 5.050034075975418091e-02 2.353198528289794922e-01 -1.957113295793533325e-01 -3.591632544994354248e-01 -3.523133397102355957e-01 -4.437502473592758179e-02 3.532091379165649414e-01 2.552850730717182159e-02 -3.735245764255523682e-02 3.020001649856567383e-01 3.929715752601623535e-01 -1.481710672378540039e-01 -2.495168447494506836e-01 1.839472204446792603e-01 3.949275612831115723e-02
4.351215064525604248e-01 1.167539209127426147e-01 -1.825613975524902344e-01 8.202465251088142395e-04 2.649493813514709473e-01 5.012053251266479492e-01 9.595419466495513916e-02 -2.406245321035385132e-01 -2.949313521385192871e-01 -1.860268563032150269e-01 -2.605986595153808594e-01 1.059076488018035889e-01 1.399801969528198242e-01 -3.235012118238955736e-04 4.286750257015228271e-01 3.773184418678283691e-01 -5.304338410496711731e-02 -1.255857497453689575e-01 1.892779916524887085e-01 3.539516329765319824e-01
3.760463297367095947e-01 5.245295912027359009e-02 -1.992015838623046875e-01 -3.129467368125915527e-01 4.407914727926254272e-02 2.134642601013183594e-01 6.845773011445999146e-02 -2.286895960569381714e-01 -1.404852867126464844e-01 -3.702484071254730225e-01 7.430022954940795898e-02 2.824000082910060883e-02 1.438033282756805420e-01 -3.937860131263732910e-01 4.265020787715911865e-01 2.570128738880157471e-01 -1.028750017285346985e-01 -7.846540957689285278e-02 -4.276966676115989685e-02 1.954459100961685181e-01
2.002822309732437134e-01 9.186573326587677002e-02 -3.245669901371002197e-01 -4.357046484947204590e-01 1.702033877372741699e-01 4.420794248580932617e-01 3.721310794353485107e-01 -5.185589790344238281e-01 -3.987308144569396973e-01 -2.732963562011718750e-01 -2.827483713626861572e-01 3.876050710678100586e-01 3.870724141597747803e-01 -7.461484521627426147e-02 3.441955745220184326e-01 2.226142883300781250e-01 -1.481472998857498169e-01 -2.429500967264175415e-01 3.181885480880737305e-01 2.795630395412445068e-01
-1.291642487049102783e-01 -2.188641428947448730e-01 -5.051356181502342224e-02 1.256726682186126709e-01 -3.459824621677398682e-01 -2.611892521381378174e-01 -3.572593629360198975e-01 1.215986534953117371e-01 -7.808636128902435303e-02 2.363734245300292969e-01 -1.012564729899168015e-02 -1.741827875375747681e-01 -4.202909767627716064e-01 -1.402839422225952148e-01 -1.043275147676467896e-01 -1.295715123414993286e-01 2.702296525239944458e-02 -7.693128287792205811e-02 -1.070073544979095459e-01 -2.477697730064392090e-01
1.133256182074546814e-01 1.741724610328674316e-01 -2.878842949867248535e-01 -4.156876802444458008e-01 8.389671146869659424e-02 2.456966340541839600e-01 2.740604579448699951e-01 -1.909266710281372070e-01 -1.358446478843688965e-01 -3.520777225494384766e-01 -2.095231860876083374e-01 3.749597966670989990e-01 5.000113844871520996e-01 3.190965950489044189e-02 4.871281608939170837e-02 3.053082525730133057e-01 -1.414675116539001465e-01 -2.205309718847274780e-01 5.454732850193977356e-02 3.659437596797943115e-01
