2.218936681747436523e-01 8.271556347608566284e-02 3.271360695362091064e-01 6.642074882984161377e-02 2.841838002204895020e-01 1.265151351690292358e-01 -2.400108575820922852e-01 4.081241786479949951e-01 -3.553480207920074463e-01 -3.869157135486602783e-01 -3.318434059619903564e-01 2.803440093994140625e-01 -2.865446805953979492e-01 4.876771271228790283e-01 -4.230265021324157715e-01 -1.918712109327316284e-01 2.039240896701812744e-01 -5.344782471656799316e-01 -5.567362904548645020e-01 1.814096570014953613e-01
4.761314988136291504e-01 3.653632998466491699e-01 4.062266051769256592e-01 3.726505935192108154e-01 3.986290991306304932e-01 5.238844156265258789e-01 -2.340622991323471069e-01 1.005342453718185425e-01 -2.368351370096206665e-01 -9.359540790319442749e-02 -2.480906844139099121e-01 1.894656270742416382e-01 -1.740189194679260254e-01 -8.105786982923746109e-04 2.344038039445877075e-01 4.475615322589874268e-01 -6.107987761497497559e-01 4.497452080249786377e-01 1.684740781784057617e-01 5.161496996879577637e-01
3.510242104530334473e-01 4.203449785709381104e-01 4.012384116649627686e-01 3.779259026050567627e-01 7.165423780679702759e-02 3.624325394630432129e-01 -1.986382603645324707e-01 2.298381626605987549e-01 -1.572327762842178345e-01 -3.952825069427490234e-01 -1.840433925390243530e-01 1.112733185291290283e-01 -4.152784049510955811e-01 8.607646822929382324e-02 -1.815310418605804443e-01 -5.110330581665039062e-01 4.099878072738647461e-01 -1.326972842216491699e-01 -5.046668052673339844e-01 1.566445380449295044e-01
3.471284806728363037e-01 3.357330858707427979e-01 3.235678002238273621e-02 2.509408891201019287e-01 2.119531333446502686e-01 4.566014707088470459e-01 -4.328227639198303223e-01 2.298581749200820923e-01 -2.422160506248474121e-01 -1.319580972194671631e-01 -2.789907455444335938e-01 1.811860650777816772e-01 -2.112830132246017456e-01 1.228992491960525513e-01 -3.895415365695953369e-01 -1.585274487733840942e-01 4.534402191638946533e-01 -4.479514658451080322e-01 -1.160766333341598511e-01 2.319249510765075684e-01
-4.641038924455642700e-02 -3.589894250035285950e-02 -1.220721602439880371e-01 -1.032694876194000244e-01 4.637148976325988770e-02 -2.045083343982696533e-01 1.495216488838195801e-01 -1.528093069791793823e-01 -3.865963220596313477e-02 -1.670027971267700195e-01 1.289398074150085449e-01 1.597080826759338379e-01 2.163827568292617798e-01 9.532764554023742676e-02 3.186010420322418213e-01 3.564187288284301758e-01 -1.253922432661056519e-01 3.381657898426055908e-01 4.813045263290405273e-01 -2.313742041587829590e-01
7.278455304913222790e-04 -1.815221011638641357e-01 -8.676680922508239746e-02 5.699553340673446655e-02 -2.955009043216705322e-01 -2.411096692085266113e-01 -1.101927235722541809e-01 -1.775554753839969635e-02 5.664001032710075378e-02 1.371695995330810547e-01 -8.980081975460052490e-02 8.760390430688858032e-02 1.956974118947982788e-01 -1.859530955553054810e-01 1.151384264230728149e-01 2.764312624931335449e-01 -2.087770253419876099e-01 1.699727326631546021e-01 5.177010297775268555e-01 -1.908667758107185364e-02
3.373877704143524170e-01 3.350538313388824463e-01 3.425482660531997681e-02 1.045499518513679504e-01 4.322781562805175781e-01 1.615439504384994507e-01 -2.196625769138336182e-01 2.336822599172592163e-01 -3.706430494785308838e-01 -3.955121636390686035e-01 -3.079002797603607178e-01 3.984791040420532227e-02 -1.072314903140068054e-01 3.973402082920074463e-01 -3.840495944023132324e-01 -1.457324475049972534e-01 4.917580187320709229e-01 -4.340255260467529297e-01 -3.173384070396423340e-01 4.977240413427352905e-02
4.095183312892913818e-02 2.803199887275695801e-01 3.092951476573944092e-01 2.710112035274505615e-01 1.095562800765037537e-01 4.725712239742279053e-01 -1.162194013595581055e-01 4.375773966312408447e-01 -1.391568779945373535e-01 -2.928886115550994873e-01 -1.655398011207580566e-01 3.562531471252441406e-01 -4.637590348720550537e-01 3.347563445568084717e-01 -3.713591396808624268e-01 -2.441300600767135620e-01 1.911983788013458252e-01 -6.053966283798217773e-02 -1.832729727029800415e-01 4.831007122993469238e-01
2.075798511505126953e-01 4.041339457035064697e-02 -8.910109102725982666e-02 1.482798308134078979e-01 -1.462497711181640625e-01 1.249163504689931870e-02 -2.441130727529525757e-01 -1.131166219711303711e-01 -1.907574757933616638e-02 1.424641907215118408e-01 1.590031534433364868e-01 9.625140577554702759e-03 -9.113980829715728760e-02 8.055914938449859619e-02 -1.259967833757400513e-01 -4.765523970127105713e-01 4.982437938451766968e-02 -3.666521906852722168e-01 -5.931827425956726074e-01 2.900081872940063477e-01
1.076424028724431992e-02 1.780562335625290871e-03 -3.317554295063018799e-01 -1.403299719095230103e-01 -3.616583645343780518e-01 -1.499296575784683228e-01 3.312082588672637939e-01 7.769574970006942749e-02 1.608606129884719849e-01 2.644904553890228271e-01 -7.190392911434173584e-02 -2.395293116569519043e-01 2.659621238708496094e-01 -3.561899065971374512e-01 1.697279363870620728e-01 3.316631019115447998e-01 -3.459016084671020508e-01 3.127104341983795166e-01 6.436035782098770142e-02 -2.100014090538024902e-01
6.125791668891906738e-01 5.700905323028564453e-01 2.797453999519348145e-01 2.894388735294342041e-01 4.147516489028930664e-01 3.588697314262390137e-01 -2.558958232402801514e-01 4.066003262996673584e-01 -5.809456110000610352e-01 -4.568388164043426514e-01 -4.796345233917236328e-01 6.288651823997497559e-01 -2.312602847814559937e-01 3.133127093315124512e-01 5.892255306243896484e-01 4.819072186946868896e-01 -1.178771182894706726e-01 7.009043544530868530e-02 1.295548439025878906e+00 -1.719406247138977051e-01
1.655829399824142456e-01 2.079364955425262451e-01 -8.787308633327484131e-02 2.899099588394165039e-01 2.817438840866088867e-01 -9.223049134016036987e-02 5.072627961635589600e-02 7.866842299699783325e-02 -3.000119328498840332e-01 -1.979795545339584351e-01 -5.414817854762077332e-02 1.439394503831863403e-01 -1.359674185514450073e-01 1.032337024807929993e-01 2.427257746458053589e-01 4.916805624961853027e-01 -5.328770875930786133e-01 5.659572482109069824e-01 1.566822230815887451e-01 4.555125832557678223e-01
9.428606368601322174e-03 7.644854485988616943e-02 5.290646478533744812e-02 -1.202692314982414246e-01 -3.284450992941856384e-02 1.854448765516281128e-01 -1.901793479919433594e-01 8.774818480014801025e-02 -1.894693821668624878e-01 1.474605798721313477e-01 8.487968146800994873e-02 -4.432253073900938034e-03 1.654500700533390045e-02 -2.125599086284637451e-01 4.811122715473175049e-01 2.905522882938385010e-01 -2.030292898416519165e-01 4.107136726379394531e-01 5.866996645927429199e-01 -2.451470643281936646e-01
3.564456999301910400e-01 4.442062079906463623e-01 2.575384974479675293e-01 2.441223263740539551e-01 1.124981045722961426e-01 3.875929415225982666e-01 -3.778177499771118164e-01 1.067929267883300781e-01 -2.782687246799468994e-01 -3.520354926586151123e-01 -2.475029975175857544e-01 5.199121832847595215e-01 -1.713708937168121338e-01 1.234512701630592346e-01 1.563486158847808838e-01 3.120635151863098145e-01 -7.602658867835998535e-01 4.008298516273498535e-01 -8.585577011108398438e-01 1.214979529380798340e+00
1.837806105613708496e-01 1.544782966375350952e-01 3.619713485240936279e-01 3.936925828456878662e-01 5.545561388134956360e-02 2.495053596794605255e-02 -1.270622164011001587e-01 2.947742938995361328e-01 -1.796583831310272217e-01 -2.490031421184539795e-01 -2.792405784130096436e-01 2.107695788145065308e-01 -4.171074628829956055e-01 4.770292937755584717e-01 -2.189259231090545654e-01 -4.583167135715484619e-01 4.554417431354522705e-01 -3.774209320545196533e-01 -1.855304241180419922e-01 7.475274801254272461e-02
3.536344468593597412e-01 2.177395299077033997e-02 3.077022135257720947e-01 4.351855218410491943e-01 1.709028482437133789e-01 3.438924625515937805e-02 -4.301276504993438721e-01 1.665558218955993652e-01 -3.794385120272636414e-02 -4.444757476449012756e-02 -1.340331286191940308e-01 3.584469556808471680e-01 -1.329702287912368774e-01 1.340286135673522949e-01 -1.521219015121459961e-01 -1.256583780050277710e-01 1.450375765562057495e-01 -4.430877566337585449e-01 -5.982546508312225342e-02 -8.483881130814552307e-03
2.363376468420028687e-01 2.228142172098159790e-01 1.916040629148483276e-01 2.207125127315521240e-01 2.988857626914978027e-01 2.097958177328109741e-01 -2.547226846218109131e-01 3.963241279125213623e-01 -4.242887496948242188e-01 -4.033977687358856201e-01 -4.582105278968811035e-01 3.629741966724395752e-01 -4.077547788619995117e-01 4.984132349491119385e-01 -2.862721681594848633e-01 -1.755133718252182007e-01 3.765085935592651367e-01 -4.463482797145843506e-01 1.404555421322584152e-02 1.163427233695983887e-01
2.475436031818389893e-01 3.192552030086517334e-01 1.638207584619522095e-01 2.837731540203094482e-01 2.381308376789093018e-01 1.620255708694458008e-01 -3.836621642112731934e-01 2.159322500228881836e-01 -3.742731511592864990e-01 -4.582707583904266357e-01 -3.530857264995574951e-01 2.991110682487487793e-01 -4.318925142288208008e-01 3.192190527915954590e-01 -1.933649480342864990e-01 -4.848945736885070801e-01 5.537111163139343262e-01 -2.707929015159606934e-01 -5.372654199600219727e-01 1.966981887817382812e-01
-1.423445492982864380e-01 -2.611332237720489502e-01 -1.931413859128952026e-01 5.790987983345985413e-02 -1.220097243785858154e-01 9.647471457719802856e-02 1.317053940147161484e-02 -2.651469707489013672e-01 1.309726238250732422e-01 -6.286554038524627686e-02 1.475166380405426025e-01 -5.082131922245025635e-02 4.157935455441474915e-02 -1.555386781692504883e-01 2.792623043060302734e-01 1.662595570087432861e-01 -1.627846509218215942e-01 1.649776846170425415e-01 5.032910108566284180e-01 -2.481304407119750977e-01
4.016923010349273682e-01 1.763410568237304688e-01 2.076308280229568481e-01 2.617858350276947021e-01 3.003700375556945801e-01 3.689201474189758301e-01 -2.423471361398696899e-01 4.133096933364868164e-01 -2.606730163097381592e-01 -3.650150895118713379e-01 -2.725199460983276367e-01 3.455793559551239014e-01 -1.329939365386962891e-01 3.779433071613311768e-01 -3.436976671218872070e-01 -2.414321750402450562e-01 3.705682754516601562e-01 -2.254062741994857788e-01 -5.377872586250305176e-01 1.599545776844024658e-01
