-6.072500348091125488e-01 -1.680641472339630127e-01 5.194188356399536133e-01 6.105077862739562988e-01 -1.765140891075134277e-01 3.144942820072174072e-01 8.124943077564239502e-02 -1.077930629253387451e-01 -6.879647076129913330e-02 3.333644568920135498e-01
7.013901472091674805e-01 -2.310368418693542480e-01 -1.004115641117095947e-01 -3.852387070655822754e-01 1.117609813809394836e-01 -6.794499754905700684e-01 1.266660690307617188e-01 -1.914714127779006958e-01 1.985258758068084717e-01 -7.507228851318359375e-02
-3.665075302124023438e-01 -3.332235217094421387e-01 5.422803759574890137e-01 2.369014471769332886e-01 -4.175668954849243164e-01 6.771960258483886719e-01 -1.842180788516998291e-01 -1.484806090593338013e-01 -2.512389719486236572e-01 3.160028159618377686e-01
8.488720655441284180e-01 -1.536136269569396973e-01 -3.145690560340881348e-01 -4.057630896568298340e-01 3.030375242233276367e-01 -4.263958036899566650e-01 -1.595472097396850586e-01 1.103026717901229858e-01 8.275266736745834351e-03 -4.907775521278381348e-01
-3.871947228908538818e-01 9.993984550237655640e-02 6.608823537826538086e-01 1.169405356049537659e-01 -5.330448746681213379e-01 6.471452713012695312e-01 -8.193961344659328461e-03 -1.471168845891952515e-01 -9.266403317451477051e-02 2.987393438816070557e-01
-1.170722484588623047e+00 2.170074731111526489e-01 9.105151891708374023e-02 3.091284632682800293e-01 7.198157310485839844e-01 8.126249909400939941e-01 5.604876279830932617e-01 -1.392543613910675049e-01 1.473208069801330566e-01 -7.358010411262512207e-01
5.719331502914428711e-01 -2.369473874568939209e-01 -1.078913807868957520e-01 -1.105137094855308533e-01 3.406041264533996582e-01 -2.051274180412292480e-01 4.380166232585906982e-01 6.058729812502861023e-02 5.515101179480552673e-02 -3.796210289001464844e-01
2.726919054985046387e-01 -1.607554435729980469e+00 -7.367338538169860840e-01 -5.283793210983276367e-01 1.041208148002624512e+00 -1.897538304328918457e-01 4.869868233799934387e-02 -4.173343777656555176e-01 2.830254137516021729e-01 9.281291365623474121e-01
-4.844751358032226562e-01 -3.833236396312713623e-01 4.770807325839996338e-01 6.378297805786132812e-01 -4.396320879459381104e-01 2.558119595050811768e-01 -8.439542353153228760e-02 -1.255256384611129761e-01 -4.435695111751556396e-01 5.513855218887329102e-01
7.718832045793533325e-02 -6.422071903944015503e-02 -8.836897462606430054e-02 -1.798187494277954102e-01 4.792256653308868408e-01 -5.043682456016540527e-01 1.308380663394927979e-01 -3.440467119216918945e-01 -1.823986880481243134e-02 -2.504527866840362549e-01
