6.317407488822937012e-01 -4.073117971420288086e-01 -3.416012823581695557e-01 5.324532389640808105e-01 -3.446729779243469238e-01 -4.881861805915832520e-02 5.088734030723571777e-01 -1.905737817287445068e-01 -2.852242588996887207e-01 6.330446600914001465e-01
-7.554832100868225098e-01 1.448398232460021973e-01 4.272844493389129639e-01 -5.097924470901489258e-01 1.245166435837745667e-01 3.543738275766372681e-02 -6.129443645477294922e-01 5.461611747741699219e-01 -1.295560151338577271e-01 -6.479262113571166992e-01
5.669139623641967773e-01 -6.021106615662574768e-02 -6.027491092681884766e-01 6.330177187919616699e-01 -1.935927122831344604e-01 -1.324270814657211304e-01 3.979460597038269043e-01 -5.686736106872558594e-01 -1.569898575544357300e-01 4.008817076683044434e-01
-4.727578163146972656e-01 -1.283717304468154907e-01 4.138447344303131104e-01 -5.208371281623840332e-01 -3.486412763595581055e-01 3.647508621215820312e-01 -1.413267999887466431e-01 6.917558908462524414e-01 8.793963789939880371e-01 -6.309556961059570312e-01
7.272109985351562500e-01 -4.764981865882873535e-01 -3.175601661205291748e-01 1.843841224908828735e-01 -6.949661672115325928e-02 2.152224257588386536e-02 5.932654738426208496e-01 -3.067384064197540283e-01 -3.746444880962371826e-01 2.882215082645416260e-01
-2.772231996059417725e-01 -1.826572269201278687e-01 1.142052039504051208e-01 -1.485344916582107544e-01 -7.230918407440185547e-01 1.595973372459411621e+00 7.162526845932006836e-01 -2.674924023449420929e-02 -1.539839863777160645e+00 2.463142722845077515e-01
-1.712350547313690186e-01 -1.250636875629425049e-01 2.195354849100112915e-01 -3.061619997024536133e-01 -3.256880939006805420e-01 -1.433775573968887329e-01 -3.559140861034393311e-01 8.257200717926025391e-01 8.313506841659545898e-01 6.027847155928611755e-02
-2.213075876235961914e+00 -3.888970017433166504e-01 1.294525027275085449e+00 -1.546982645988464355e+00 -9.481894969940185547e-01 1.713446617126464844e+00 2.344128116965293884e-02 2.858598470687866211e+00 -9.883512258529663086e-01 -7.120196223258972168e-01
3.753041326999664307e-01 -4.547837674617767334e-01 -6.874291300773620605e-01 4.612101316452026367e-01 1.242825016379356384e-01 -2.830967605113983154e-01 1.712273955345153809e-01 -7.390200495719909668e-01 -7.693327069282531738e-01 3.038475215435028076e-01
5.286895036697387695e-01 3.182881474494934082e-01 2.946291863918304443e-01 3.868895769119262695e-01 3.013252913951873779e-01 -5.342264175415039062e-01 -1.426620334386825562e-01 -1.061055213212966919e-01 2.401382625102996826e-01 -4.429051280021667480e-01
