-2.991715669631958008e-01 -2.657530903816223145e-01 -3.858996331691741943e-01 -2.396243363618850708e-01 -4.135374724864959717e-02 1.076929867267608643e-01 -6.700396537780761719e-02 2.569747567176818848e-01 1.918416917324066162e-01 -1.628213971853256226e-01 3.935360908508300781e-01 -6.361030787229537964e-02 3.373146951198577881e-01 -4.388390854001045227e-02 3.917145729064941406e-01 3.975534141063690186e-01 6.873461604118347168e-01 8.477708697319030762e-02 1.579397618770599365e-01 -8.863617479801177979e-02
-1.892272084951400757e-01 -1.097687706351280212e-01 -1.705943793058395386e-01 -3.659255802631378174e-01 -2.332628071308135986e-01 2.607863545417785645e-01 -3.927716314792633057e-01 4.183602035045623779e-01 1.837572306394577026e-01 -1.926441341638565063e-01 3.940284550189971924e-01 -3.389886915683746338e-01 2.763880491256713867e-01 -2.379885464906692505e-01 3.186005949974060059e-01 2.831843495368957520e-01 2.162732034921646118e-01 -6.000253837555646896e-03 -5.934399738907814026e-02 8.900008350610733032e-02
2.579376399517059326e-01 3.430645763874053955e-01 1.109130233526229858e-01 1.903413608670234680e-02 3.060816824436187744e-01 -1.324985921382904053e-01 -8.829933404922485352e-02 -3.199091255664825439e-01 1.740541867911815643e-02 -2.478307299315929413e-02 -3.804420307278633118e-02 5.794526264071464539e-02 1.628661304712295532e-01 2.294162511825561523e-01 -9.758470207452774048e-02 -1.145446300506591797e-01 1.946299970149993896e-01 2.053012102842330933e-01 8.088379353284835815e-02 2.765901386737823486e-02
-3.612973093986511230e-01 -3.684040158987045288e-02 5.372785404324531555e-02 -1.538071185350418091e-01 -2.964677810668945312e-01 1.785292625427246094e-01 -2.799028530716896057e-03 -2.018407545983791351e-02 2.404458224773406982e-01 7.856995612382888794e-02 1.240182891488075256e-01 -2.876306772232055664e-01 3.287524580955505371e-01 -3.927235603332519531e-01 3.224439620971679688e-01 1.643105037510395050e-02 3.589515984058380127e-01 1.747107058763504028e-01 -2.580015547573566437e-02 -2.463974505662918091e-01
3.264863491058349609e-01 9.762802720069885254e-02 -6.503585726022720337e-02 -4.808609373867511749e-03 1.947959065437316895e-01 -2.356976270675659180e-01 3.530277311801910400e-01 -9.778453409671783447e-02 -1.682600006461143494e-02 1.835773140192031860e-01 -2.908388078212738037e-01 2.234667241573333740e-01 -5.688024759292602539e-01 3.271150290966033936e-01 -3.473513722419738770e-01 -2.651197612285614014e-01 -5.331990718841552734e-01 4.826368689537048340e-01 3.073164820671081543e-02 -5.185486674308776855e-01
-2.693387866020202637e-01 -3.805119097232818604e-01 -2.118874192237854004e-01 -2.413732856512069702e-01 -1.947378069162368774e-01 8.256900906562805176e-01 3.674530684947967529e-01 7.599740028381347656e-01 -2.144642770290374756e-01 -7.956490516662597656e-01 -5.888782069087028503e-02 2.913745641708374023e-01 -8.361035585403442383e-02 9.312389045953750610e-02 2.231670171022415161e-01 -1.300001423805952072e-02 -3.163995444774627686e-01 -1.691670119762420654e-01 -2.466720938682556152e-01 3.655607104301452637e-01
-4.963612928986549377e-02 4.767032340168952942e-02 2.423286437988281250e-01 4.466741159558296204e-02 2.802926599979400635e-01 -1.306753009557723999e-01 1.897004097700119019e-01 -3.693464398384094238e-01 -2.254028320312500000e-01 3.555280566215515137e-01 -2.845534086227416992e-01 -9.176377952098846436e-02 9.477769583463668823e-02 -3.632831946015357971e-02 -6.522421538829803467e-02 -3.079330325126647949e-01 4.820309579372406006e-02 -2.183180861175060272e-02 -3.091310560703277588e-01 -8.776364848017692566e-03
3.120151162147521973e-01 8.909967541694641113e-02 2.779328823089599609e-01 6.936446577310562134e-02 -1.994504779577255249e-02 -1.624073088169097900e-01 1.921487599611282349e-02 5.216191336512565613e-02 -2.337091714143753052e-01 3.369782865047454834e-01 -3.264806270599365234e-01 2.865922152996063232e-01 -2.690337002277374268e-01 3.010860681533813477e-01 -1.705561429262161255e-01 -3.975675702095031738e-01 6.133759021759033203e-02 4.124637320637702942e-02 -9.665996581315994263e-02 -4.931793212890625000e-01
1.157559081912040710e-01 1.888864636421203613e-01 3.339444100856781006e-01 3.691626489162445068e-01 3.131022676825523376e-03 -1.708525419235229492e-01 3.095743358135223389e-01 -1.155027970671653748e-01 -4.334854707121849060e-02 2.376734651625156403e-02 -2.601880133152008057e-01 3.626334071159362793e-01 -4.237260520458221436e-01 1.220135912299156189e-01 1.556581165641546249e-02 -3.963632881641387939e-01 -1.107930541038513184e-01 -5.084419250488281250e-02 -1.733133792877197266e-01 -1.772032678127288818e-01
1.745413616299629211e-02 -3.727007210254669189e-01 -1.230690926313400269e-01 1.341467536985874176e-02 -2.614151239395141602e-01 3.602123260498046875e-01 2.415540255606174469e-02 4.381943047046661377e-01 2.841535955667495728e-02 -3.473739027976989746e-01 -3.460505604743957520e-02 -2.641268074512481689e-02 -9.153801202774047852e-02 -2.655522525310516357e-01 2.583554983139038086e-01 2.742204070091247559e-01 -1.586501151323318481e-01 9.910002350807189941e-02 -1.619626432657241821e-01 5.231269821524620056e-02
-6.871500518172979355e-03 -1.812243610620498657e-01 -2.258162200450897217e-01 -1.793430447578430176e-01 -1.344902366399765015e-01 -1.388289779424667358e-02 -9.199208766222000122e-02 3.977306485176086426e-01 1.698177456855773926e-01 -1.131806969642639160e-01 1.749803274869918823e-01 -1.394571363925933838e-01 -9.472405910491943359e-02 -1.419441960752010345e-02 2.988443374633789062e-01 -4.176440089941024780e-02 -1.139734014868736267e-01 -2.195198237895965576e-01 2.230769991874694824e-01 1.162173599004745483e-01
5.227873101830482483e-02 -2.038944214582443237e-01 -1.436212807893753052e-01 -4.049955308437347412e-01 -1.130396723747253418e-01 2.942043356597423553e-02 -2.078552097082138062e-01 3.479777872562408447e-01 1.204339414834976196e-01 1.342586874961853027e-01 2.339873015880584717e-01 -2.878270447254180908e-01 1.175137162208557129e-01 -2.026569247245788574e-01 4.389114379882812500e-01 2.034957148134708405e-02 3.677875399589538574e-01 2.261037826538085938e-01 2.977641522884368896e-01 -4.956575632095336914e-01
6.005444750189781189e-02 -1.536501944065093994e-01 2.783409059047698975e-01 4.342541694641113281e-01 9.416420012712478638e-02 -2.087619155645370483e-01 1.665501147508621216e-01 -2.672950029373168945e-01 -1.314706206321716309e-01 2.346844226121902466e-01 4.096728935837745667e-02 -8.213412947952747345e-03 -1.162816137075424194e-01 7.082100957632064819e-02 -2.476609349250793457e-01 -8.963274210691452026e-02 -6.181052923202514648e-01 -2.920262701809406281e-02 -4.815856739878654480e-02 4.329048991203308105e-01
-4.644503816962242126e-02 1.509014368057250977e-01 2.636618614196777344e-01 3.450983762741088867e-01 9.493011236190795898e-02 -7.761366665363311768e-02 3.776086866855621338e-01 -3.312888443470001221e-01 -1.049222722649574280e-01 3.803985416889190674e-01 -1.525267064571380615e-01 7.331406325101852417e-02 -2.981019020080566406e-01 -2.532190270721912384e-02 -7.339043915271759033e-02 -3.612309992313385010e-01 -1.274304687976837158e-01 3.227263689041137695e-01 -1.553225070238113403e-01 -4.312576949596405029e-01
-3.469929695129394531e-01 5.154725536704063416e-02 -2.489634789526462555e-02 -4.233880937099456787e-01 -5.518507212400436401e-02 6.460424512624740601e-02 -3.419832289218902588e-01 3.462089002132415771e-01 4.930596947669982910e-01 2.091657519340515137e-01 2.903937995433807373e-01 -3.498282730579376221e-01 4.316616654396057129e-01 -3.782823979854583740e-01 1.853517740964889526e-01 1.012709513306617737e-01 9.134690761566162109e-01 2.946725785732269287e-01 2.240649908781051636e-01 -6.815329790115356445e-01
1.461714133620262146e-02 -3.246840238571166992e-01 -3.579827249050140381e-01 -3.101032599806785583e-02 1.634671166539192200e-02 3.596809506416320801e-01 1.274126023054122925e-01 4.442851245403289795e-01 2.940442562103271484e-01 -4.616290926933288574e-01 -8.736513555049896240e-02 -2.536425590515136719e-01 -6.090665236115455627e-03 1.928192749619483948e-02 -1.540036028018221259e-04 2.790533602237701416e-01 -2.880689501762390137e-01 -1.808477193117141724e-01 2.235675929114222527e-03 1.247808411717414856e-01
-2.100892364978790283e-01 1.096682995557785034e-01 -3.438895344734191895e-01 -2.399784773588180542e-01 -2.797741293907165527e-01 -2.433635853230953217e-02 -1.683966368436813354e-01 -3.575414791703224182e-02 3.696190416812896729e-01 -8.458500355482101440e-02 2.489978522062301636e-01 -1.678845733404159546e-01 1.490723639726638794e-01 -4.687388837337493896e-01 2.301184684038162231e-01 1.823147535324096680e-01 7.488284111022949219e-01 1.111340969800949097e-01 6.261267513036727905e-02 -4.935494959354400635e-01
3.563328981399536133e-01 1.704756766557693481e-01 2.838243544101715088e-01 1.583632826805114746e-01 1.456692963838577271e-01 -1.762474775314331055e-01 6.221584677696228027e-01 -1.229165419936180115e-01 -3.028910160064697266e-01 4.665179550647735596e-01 -2.382171005010604858e-01 7.037274539470672607e-02 -6.815897226333618164e-01 1.342243850231170654e-01 -2.378745228052139282e-01 -3.766787052154541016e-01 -2.000285238027572632e-01 3.626204729080200195e-01 2.726779580116271973e-01 -7.259997725486755371e-01
-1.158010400831699371e-02 -1.519807577133178711e-01 -2.096460610628128052e-01 -2.922428846359252930e-01 -1.117575541138648987e-01 2.996287643909454346e-01 5.085417255759239197e-02 2.319465130567550659e-01 -9.583274275064468384e-02 -1.107283635064959526e-03 -1.115790568292140961e-02 -2.577873170375823975e-01 -1.339932233095169067e-01 -3.079469799995422363e-01 4.142862558364868164e-01 -9.032427519559860229e-02 8.940804749727249146e-02 -2.238585948944091797e-01 2.546787858009338379e-01 3.108338415622711182e-01
2.901442945003509521e-01 -9.637409448623657227e-02 2.637489438056945801e-01 2.999597191810607910e-01 5.495163053274154663e-02 -2.329694628715515137e-01 3.847367363050580025e-03 -2.960187494754791260e-01 -8.499856293201446533e-02 -2.022667415440082550e-02 -1.033576279878616333e-01 1.632218807935714722e-01 -2.539712488651275635e-01 1.483319252729415894e-01 -3.002870976924896240e-01 -3.433098495006561279e-01 -2.058927714824676514e-01 1.072568744421005249e-01 -1.153138726949691772e-01 -7.589162886142730713e-02
