7.381927967071533203e-02 2.401436865329742432e-01 2.715188264846801758e-01 -1.107209771871566772e-01 -1.090163458138704300e-02 1.198164559900760651e-02 -2.838758230209350586e-01 1.373440623283386230e-01 -2.023586034774780273e-01 1.467861533164978027e-01 1.032519564032554626e-01 1.687470972537994385e-01 2.018092721700668335e-01 1.796478182077407837e-01 -3.618371486663818359e-01 3.662147223949432373e-01 -4.316807687282562256e-01 3.593383133411407471e-01 2.809618711471557617e-01 -1.020767074078321457e-02
9.627190418541431427e-03 3.397840559482574463e-01 2.916176617145538330e-01 -3.526387214660644531e-01 2.449805438518524170e-01 1.057196110486984253e-01 -1.639200747013092041e-01 2.586503028869628906e-01 -1.612922251224517822e-01 3.743073046207427979e-01 2.822381258010864258e-01 1.365860253572463989e-01 4.259023368358612061e-01 2.766348719596862793e-01 -5.352236628532409668e-01 2.700794339179992676e-01 -3.473806679248809814e-01 2.486784607172012329e-01 2.907877266407012939e-01 2.283215820789337158e-01
-1.621161820366978645e-03 -7.460346817970275879e-02 1.300355643033981323e-01 2.242421805858612061e-01 -8.584279567003250122e-02 5.471862107515335083e-02 6.279388070106506348e-02 -1.280524283647537231e-01 1.529608666896820068e-01 -1.967456191778182983e-01 -1.388493776321411133e-01 -2.714104056358337402e-01 -2.002519220113754272e-01 -2.403121888637542725e-01 1.344277113676071167e-01 -3.286098241806030273e-01 2.973579168319702148e-01 -1.628706604242324829e-01 -2.525884509086608887e-01 -2.348998039960861206e-01
-2.733909189701080322e-01 9.060282260179519653e-02 3.182643651962280273e-01 -1.404558271169662476e-01 -1.930725015699863434e-02 2.058095484972000122e-01 -1.958953142166137695e-01 2.210898250341415405e-01 -3.135425448417663574e-01 1.078240871429443359e-01 2.946875989437103271e-01 1.765438169240951538e-01 4.282847940921783447e-01 2.569652199745178223e-01 -4.773441851139068604e-01 1.413236111402511597e-01 -4.035205245018005371e-01 1.451427489519119263e-01 2.856101989746093750e-01 -1.393618136644363403e-01
1.230752319097518921e-01 -1.105051189661026001e-01 5.018329620361328125e-02 -2.836678028106689453e-01 -1.716672182083129883e-01 1.498746424913406372e-01 -2.815560810267925262e-02 2.628872171044349670e-02 -1.217049658298492432e-01 -1.494582146406173706e-01 2.761109471321105957e-01 2.067950516939163208e-01 -4.652579128742218018e-01 -1.140450537204742432e-01 3.538547754287719727e-01 5.489617958664894104e-02 5.326083302497863770e-01 -4.247129559516906738e-01 -2.160619646310806274e-01 2.561994791030883789e-01
-8.146365731954574585e-02 6.995299458503723145e-02 3.699669837951660156e-01 -3.639397323131561279e-01 1.873210519552230835e-01 4.518463611602783203e-01 3.859848901629447937e-02 1.730727553367614746e-01 -2.328462153673171997e-01 -1.632098294794559479e-02 3.814611136913299561e-01 8.387134224176406860e-02 3.241651505231857300e-02 7.795101404190063477e-01 7.845911383628845215e-02 8.773421645164489746e-01 -5.146372318267822266e-01 1.580073237419128418e-01 2.160004228353500366e-01 1.208751201629638672e+00
3.017696738243103027e-01 7.847673445940017700e-02 -8.733275532722473145e-02 2.234641164541244507e-01 2.493864856660366058e-02 -1.456156969070434570e-01 4.079772531986236572e-02 1.842371933162212372e-02 2.297671735286712646e-01 7.934801280498504639e-02 6.857199221849441528e-02 -3.061527609825134277e-01 1.101602241396903992e-01 3.271897509694099426e-02 1.938069015741348267e-01 -1.145286783576011658e-01 -6.039771251380443573e-03 -1.338843852281570435e-01 -1.866135150194168091e-01 -7.469238340854644775e-02
4.788852483034133911e-02 -3.531439602375030518e-02 1.692815124988555908e-01 1.379634737968444824e-01 -1.062442660331726074e-01 1.651891320943832397e-02 -1.836206614971160889e-01 -2.979785390198230743e-02 -1.943547427654266357e-01 8.948453515768051147e-02 2.583683431148529053e-01 2.669374272227287292e-02 -2.929926514625549316e-01 2.883723676204681396e-01 3.978840112686157227e-01 -8.158034086227416992e-02 4.946637749671936035e-01 -4.122455716133117676e-01 -3.446913659572601318e-01 1.368644982576370239e-01
-1.674095094203948975e-01 -2.374060899019241333e-01 -2.373927980661392212e-01 2.288190871477127075e-01 1.029311344027519226e-01 -1.156243160367012024e-01 2.564554512500762939e-01 -1.960554271936416626e-01 -1.854642480611801147e-01 -1.182974278926849365e-01 -3.071567974984645844e-02 2.217921428382396698e-02 -4.500636458396911621e-01 7.532782852649688721e-02 4.833006262779235840e-01 6.750795990228652954e-02 4.330800771713256836e-01 -6.294437497854232788e-02 -2.610322237014770508e-01 1.745293885469436646e-01
-3.381021618843078613e-01 3.023368120193481445e-01 9.649799764156341553e-02 7.213260233402252197e-02 -1.095726992934942245e-02 3.818693161010742188e-01 -1.830299943685531616e-01 -6.024263054132461548e-02 -3.654530644416809082e-01 1.424600034952163696e-01 2.618196010589599609e-01 -5.389213189482688904e-02 3.853317499160766602e-01 3.920772671699523926e-01 -1.370342671871185303e-01 6.154718250036239624e-02 -2.765868604183197021e-01 2.714058160781860352e-01 1.586812175810337067e-02 4.373890459537506104e-01
-1.820151060819625854e-01 1.742180287837982178e-01 2.247947901487350464e-01 -2.914996743202209473e-01 -7.687838375568389893e-02 1.112419813871383667e-01 -2.272612880915403366e-03 3.137899637222290039e-01 -3.458252847194671631e-01 3.490804880857467651e-02 5.424874275922775269e-02 1.494351476430892944e-01 6.180589646100997925e-02 -4.681239649653434753e-02 -1.469349414110183716e-01 2.447704970836639404e-01 -3.132814466953277588e-01 5.640446022152900696e-02 2.844417393207550049e-01 1.194700002670288086e-01
-1.766604185104370117e-01 3.298725932836532593e-02 7.806820422410964966e-02 -3.132393360137939453e-01 1.805303096771240234e-01 1.138923540711402893e-01 -4.134531319141387939e-01 8.701080828905105591e-02 -2.252791076898574829e-01 4.191780388355255127e-01 2.452266663312911987e-01 2.579354643821716309e-01 5.315051078796386719e-01 3.504053652286529541e-01 -2.773522734642028809e-01 -7.738550007343292236e-02 -2.331176958978176117e-02 1.574898213148117065e-01 9.520454704761505127e-02 -2.091443538665771484e-01
-1.025614738464355469e-01 -3.559747338294982910e-02 -2.874950766563415527e-01 1.047881171107292175e-01 1.427609324455261230e-01 -1.036199629306793213e-01 -1.097264587879180908e-01 -1.541908532381057739e-01 3.933184444904327393e-01 -7.678418606519699097e-02 -1.082492545247077942e-01 1.378633379936218262e-01 -2.445631325244903564e-01 -2.838028669357299805e-01 2.755701839923858643e-01 2.640450000762939453e-01 -1.834331639111042023e-02 -1.303952336311340332e-01 -1.520346105098724365e-01 3.469240069389343262e-01
2.650801464915275574e-02 1.283503919839859009e-01 -5.265967175364494324e-02 -1.967032998800277710e-01 -1.327866017818450928e-01 1.389342546463012695e-01 1.062389090657234192e-01 1.128089502453804016e-01 -8.997432142496109009e-02 8.040326088666915894e-02 -1.221580132842063904e-01 -3.267551306635141373e-03 -3.796813189983367920e-01 1.735578849911689758e-02 3.047724664211273193e-01 3.755683824419975281e-02 2.171117961406707764e-01 -4.102743864059448242e-01 -3.327109217643737793e-01 -8.701362460851669312e-02
-1.792827695608139038e-01 1.410418301820755005e-01 1.838077008724212646e-01 -1.502074301242828369e-01 -1.136251166462898254e-02 3.912551105022430420e-01 -1.067096441984176636e-01 2.719849050045013428e-01 -1.536324620246887207e-01 2.517082691192626953e-01 2.504117786884307861e-01 2.110842168331146240e-01 6.722338795661926270e-01 3.906008303165435791e-01 -5.938669443130493164e-01 3.129053711891174316e-01 -3.554071485996246338e-01 2.985829114913940430e-01 1.770040690898895264e-01 -3.786891102790832520e-01
-1.339970529079437256e-01 6.836564838886260986e-02 3.019515872001647949e-01 -1.534307748079299927e-01 2.714551091194152832e-01 3.116567134857177734e-01 -2.619598805904388428e-01 1.378771513700485229e-01 -2.216723263263702393e-01 2.905375361442565918e-01 2.567641139030456543e-01 -4.127532988786697388e-02 6.950169056653976440e-02 1.172061488032341003e-01 2.163680270314216614e-02 2.520608901977539062e-01 -3.672445714473724365e-01 3.105343878269195557e-01 8.240015804767608643e-02 4.398936629295349121e-01
-1.587744653224945068e-01 3.154496848583221436e-01 4.056060910224914551e-01 -1.040186733007431030e-01 1.531063299626111984e-02 6.296948343515396118e-02 -3.886393904685974121e-01 2.801524102687835693e-01 -2.773937284946441650e-01 3.732389509677886963e-01 1.351711712777614594e-02 3.017766773700714111e-01 5.135507583618164062e-01 4.039888456463813782e-02 -5.483371019363403320e-01 2.673105299472808838e-01 -4.388753771781921387e-01 4.719052016735076904e-01 1.387785226106643677e-01 -2.238963991403579712e-01
-2.475406229496002197e-01 -1.119917407631874084e-01 -5.172965303063392639e-02 -3.082712180912494659e-02 6.181360408663749695e-02 8.838529884815216064e-02 1.221175193786621094e-01 5.319020524621009827e-02 -3.538984358310699463e-01 -8.548305928707122803e-02 2.037524618208408356e-02 3.005137145519256592e-01 -1.765488088130950928e-01 3.549329936504364014e-02 7.013221383094787598e-01 -1.404511779546737671e-01 5.517780184745788574e-01 -3.052214086055755615e-01 -1.429680883884429932e-01 9.814335033297538757e-03
-1.947254836559295654e-01 3.226169347763061523e-01 2.514350414276123047e-01 -2.274520546197891235e-01 1.455544382333755493e-01 8.308342844247817993e-02 -1.433718502521514893e-01 1.006144955754280090e-01 -1.070373803377151489e-01 1.182526815682649612e-02 2.187146246433258057e-02 -2.855424582958221436e-02 3.509666025638580322e-01 3.788600862026214600e-01 -1.358564943075180054e-01 1.929257065057754517e-01 -4.114870131015777588e-01 2.578631937503814697e-01 4.090709239244461060e-02 1.301258802413940430e-01
2.589593455195426941e-02 2.844056673347949982e-02 2.562315016984939575e-02 1.895044296979904175e-01 -1.727509200572967529e-01 -2.381341345608234406e-02 3.414056450128555298e-02 -1.996595263481140137e-01 8.919125050306320190e-02 -7.728979736566543579e-02 2.946600504219532013e-02 -1.715494543313980103e-01 -9.992062300443649292e-02 -1.469413936138153076e-02 5.183263421058654785e-01 -7.978022098541259766e-03 1.255115568637847900e-01 -2.994679808616638184e-01 -3.325834870338439941e-01 5.555462464690208435e-02
