-3.605725467205047607e-01 -1.149888411164283752e-01 4.174636602401733398e-01 5.078089237213134766e-01 1.892809718847274780e-01 -4.442065060138702393e-01 -6.109045743942260742e-01 1.140096932649612427e-01 -1.058531645685434341e-02 3.229380846023559570e-01
-4.672784507274627686e-01 -3.916028887033462524e-03 6.508519053459167480e-01 2.633042335510253906e-01 -3.935020864009857178e-01 -3.389279842376708984e-01 -4.573636353015899658e-01 7.611377239227294922e-01 4.554126411676406860e-03 1.121041551232337952e-01
1.699240654706954956e-01 8.792560696601867676e-01 -4.058993458747863770e-01 -1.888639628887176514e-01 8.013029098510742188e-01 2.694422192871570587e-02 1.183053329586982727e-01 -5.085242986679077148e-01 2.970459461212158203e-01 5.890958383679389954e-02
-2.963498532772064209e-01 2.941416762769222260e-02 7.380757927894592285e-01 5.842141509056091309e-01 -1.906064510345458984e+00 -9.755408763885498047e-02 -1.567599922418594360e-01 8.616979718208312988e-01 1.815788447856903076e-02 -4.325364828109741211e-01
-2.758852243423461914e-01 8.608585596084594727e-01 -6.154255270957946777e-01 -6.550062298774719238e-01 -1.813768506050109863e+00 5.795125365257263184e-01 4.646284580230712891e-01 3.020474910736083984e-01 2.277166098356246948e-01 -3.373939990997314453e-01
-3.288153409957885742e-01 -6.660022139549255371e-01 6.360083222389221191e-01 4.046953320503234863e-01 3.676221668720245361e-01 -4.430195987224578857e-01 -2.165411114692687988e-01 2.996904850006103516e-01 1.108230575919151306e-01 1.696489155292510986e-01
2.421316206455230713e-01 1.145615935325622559e+00 -2.235451042652130127e-01 5.346085429191589355e-01 5.274534225463867188e-01 -7.622046023607254028e-02 3.059485368430614471e-02 3.063180297613143921e-02 -1.337140649557113647e-01 -4.535244032740592957e-02
5.190867781639099121e-01 1.953042149543762207e-01 -1.284677088260650635e-01 -2.744401395320892334e-01 -5.434148386120796204e-02 2.855993509292602539e-01 3.973365947604179382e-02 -4.148180782794952393e-01 8.979061245918273926e-02 -1.105027869343757629e-01
-6.088072061538696289e-01 -7.478005290031433105e-01 6.108290553092956543e-01 -2.594553120434284210e-02 4.013390541076660156e-01 1.387898530811071396e-02 -5.587837100028991699e-01 5.725529789924621582e-01 -4.127784371376037598e-01 1.960563659667968750e-02
-2.648937702178955078e-01 -8.270436525344848633e-01 7.281326055526733398e-01 3.831410706043243408e-01 2.671493589878082275e-01 -4.073524475097656250e-01 -1.978873610496520996e-01 2.548623643815517426e-02 -3.217296004295349121e-01 -1.728506088256835938e-01
