-7.483143806457519531e-01 8.711972236633300781e-01 -9.607350826263427734e-02 -8.008313179016113281e-01 8.058992624282836914e-01 -2.979201376438140869e-01 3.556573390960693359e-01 -5.217612907290458679e-02 4.532166719436645508e-01 5.939468741416931152e-01
-4.592666625976562500e-01 4.293113648891448975e-01 -3.110651373863220215e-01 -3.413054645061492920e-01 8.666393756866455078e-01 -9.186848998069763184e-02 6.645017266273498535e-01 -3.695463389158248901e-02 3.904854953289031982e-01 -1.956578195095062256e-01
8.679638504981994629e-01 -1.700327038764953613e+00 -7.648385316133499146e-02 2.188828229904174805e+00 -1.420554041862487793e+00 8.679836988449096680e-01 -2.334896177053451538e-01 -2.201941423118114471e-02 -5.317740440368652344e-01 -2.548825144767761230e-01
-4.773099124431610107e-01 1.158012390136718750e+00 -7.802105545997619629e-01 -7.838100790977478027e-01 1.048448562622070312e+00 -3.690380454063415527e-01 2.038569003343582153e-01 -9.923043847084045410e-02 4.085516929626464844e-01 -6.990208625793457031e-01
-1.092427670955657959e-01 -2.310647487640380859e+00 -1.726509034633636475e-01 3.976833522319793701e-01 -2.337332487106323242e+00 3.466189801692962646e-01 -6.097280383110046387e-01 2.405002117156982422e-01 -2.604834437370300293e-01 1.413670182228088379e+00
-2.138346433639526367e-01 2.475359886884689331e-01 -5.710865259170532227e-01 -6.925848722457885742e-01 5.640373826026916504e-01 -3.214709162712097168e-01 3.966642320156097412e-01 2.320599555969238281e-02 2.569123208522796631e-01 2.722471952438354492e-01
-1.588536262512207031e+00 2.499353408813476562e+00 2.764849960803985596e-01 -4.019265174865722656e+00 2.603646993637084961e+00 -1.763743877410888672e+00 3.305559605360031128e-02 -2.195241153240203857e-01 6.946340203285217285e-02 2.918081879615783691e-01
9.598643332719802856e-02 -1.695165932178497314e-01 3.010383248329162598e-01 4.152794182300567627e-01 -5.364782810211181641e-01 1.369294524192810059e-01 -1.966570168733596802e-01 -8.168496191501617432e-02 -3.849089145660400391e-01 -1.314938068389892578e-01
-2.982253730297088623e-01 5.621272325515747070e-01 -7.829950451850891113e-01 -4.796580374240875244e-01 6.182541251182556152e-01 -3.047687709331512451e-01 3.824350237846374512e-01 -5.805251598358154297e-01 4.031765162944793701e-01 4.244548380374908447e-01
-4.603939652442932129e-01 1.985485553741455078e-01 -5.852198600769042969e-01 -2.483647316694259644e-01 1.992390155792236328e-01 4.203142225742340088e-02 5.411843657493591309e-01 -1.737350821495056152e-01 3.724642693996429443e-01 5.177009701728820801e-01
