-8.947751522064208984e-01 -3.734554946422576904e-01 -4.378280341625213623e-01 6.346728205680847168e-01 -1.869914233684539795e-01 -1.096176147460937500e+00 1.963091492652893066e-01 6.859685778617858887e-01 -1.275905966758728027e-01 4.895129799842834473e-01
-3.611253201961517334e-01 -1.127381771802902222e-01 4.679842293262481689e-01 2.094308435916900635e-01 3.697447180747985840e-01 -2.388206273317337036e-01 3.868419229984283447e-01 7.403862476348876953e-02 -2.277460694313049316e-01 1.902444511651992798e-01
4.093249142169952393e-01 4.455404579639434814e-01 -5.685407519340515137e-01 -3.837504088878631592e-01 -2.601290643215179443e-01 5.924909710884094238e-01 -7.451739907264709473e-02 -7.670020461082458496e-01 2.192500978708267212e-01 -6.367101669311523438e-01
-3.698926568031311035e-01 -2.650808691978454590e-01 4.066303670406341553e-01 4.842915236949920654e-01 5.084360241889953613e-01 -4.216611385345458984e-01 2.066964656114578247e-01 2.011467330157756805e-02 -6.430226564407348633e-02 5.504251271486282349e-02
5.445168614387512207e-01 3.212833404541015625e-01 2.261874973773956299e-01 -5.827855467796325684e-01 4.506604969501495361e-01 6.025605201721191406e-01 -3.542955815792083740e-01 -1.242245674133300781e+00 7.332112789154052734e-01 -2.988839745521545410e-01
-4.834806621074676514e-01 -9.988664835691452026e-02 1.102256298065185547e+00 5.366562604904174805e-01 2.519838809967041016e-01 4.329937398433685303e-01 3.495963513851165771e-01 -6.560373902320861816e-01 -1.540890187025070190e-01 -2.734170258045196533e-01
-3.140055807307362556e-03 -3.540921807289123535e-01 6.189094185829162598e-01 4.142688512802124023e-01 3.608529269695281982e-01 6.853089481592178345e-02 2.640273235738277435e-02 -3.376990258693695068e-01 -2.764615714550018311e-01 2.738276720046997070e-01
-7.197420001029968262e-01 -4.881314933300018311e-01 6.140746474266052246e-01 2.313650697469711304e-01 6.733548045158386230e-01 -4.995541870594024658e-01 3.254366815090179443e-01 -5.684733986854553223e-01 2.966979444026947021e-01 -1.493120938539505005e-01
2.434801310300827026e-01 2.555264234542846680e-01 -6.003419160842895508e-01 -7.031192779541015625e-01 -2.867814898490905762e-01 6.407513022422790527e-01 -3.888101279735565186e-01 4.403750002384185791e-01 -9.308305382728576660e-02 2.116190269589424133e-02
3.885723650455474854e-01 1.749219596385955811e-01 -6.864982247352600098e-01 -4.141124188899993896e-01 -3.075122833251953125e-01 3.160673081874847412e-01 -4.245752990245819092e-01 4.929277673363685608e-02 3.143036663532257080e-01 1.096426472067832947e-01
