-7.287264466285705566e-01 5.189948678016662598e-01 1.015866547822952271e-01 7.734027504920959473e-01 1.177679657936096191e+00 2.297470420598983765e-01 -5.630499720573425293e-01 -2.781094908714294434e-01 1.139933109283447266e+00 2.569092512130737305e-01
-6.066761612892150879e-01 7.876787781715393066e-01 -5.586187243461608887e-01 4.448756873607635498e-01 5.917116999626159668e-01 2.308838814496994019e-01 -7.415341734886169434e-01 -3.718955516815185547e-01 2.123478651046752930e-01 3.885068595409393311e-01
3.374358117580413818e-01 -2.656929194927215576e-01 6.246874332427978516e-01 -1.816215217113494873e-01 7.075241953134536743e-02 -4.798925817012786865e-01 2.335097193717956543e-01 4.137813746929168701e-01 7.081279158592224121e-02 4.763371869921684265e-02
-5.862179398536682129e-01 6.101351976394653320e-01 -7.756739854812622070e-02 4.974423944950103760e-01 8.139220476150512695e-01 2.443607151508331299e-02 -5.703027844429016113e-01 -4.689058065414428711e-01 2.640531957149505615e-01 4.206368923187255859e-01
7.867795228958129883e-01 -6.740142107009887695e-01 4.007605910301208496e-01 -8.163791894912719727e-01 -1.015453815460205078e+00 -4.930312037467956543e-01 5.980241894721984863e-01 5.515519976615905762e-01 -6.844152808189392090e-01 -5.330399274826049805e-01
-9.665346741676330566e-01 1.144486904144287109e+00 -6.658987607806921005e-03 1.084251403808593750e+00 2.310014009475708008e+00 9.776343703269958496e-01 -1.390765547752380371e+00 -2.847046554088592529e-01 6.258032470941543579e-02 9.338338375091552734e-01
-6.453461050987243652e-01 9.827058911323547363e-01 -3.574191927909851074e-01 8.454446792602539062e-01 1.903932571411132812e+00 6.789011955261230469e-01 -1.099791049957275391e+00 -3.304827511310577393e-01 -4.133499860763549805e-01 5.986867547035217285e-01
-1.429202795028686523e+00 1.125299215316772461e+00 -4.760161340236663818e-01 5.011185407638549805e-01 1.256352901458740234e+00 -1.342647224664688110e-01 -1.147164463996887207e+00 -7.679285407066345215e-01 1.442427873611450195e+00 1.185066103935241699e+00
5.121690034866333008e-01 -1.943004727363586426e-01 6.958532333374023438e-01 -4.177559912204742432e-01 -5.060753971338272095e-02 -6.656776666641235352e-01 5.112812519073486328e-01 4.242649972438812256e-01 6.085016131401062012e-01 -5.616440773010253906e-01
7.155410647392272949e-01 -4.690931439399719238e-01 6.420603990554809570e-01 -2.243035286664962769e-01 -6.341688036918640137e-01 -6.120494604110717773e-01 2.385461479425430298e-01 5.981148481369018555e-01 5.445696115493774414e-01 -5.451980829238891602e-01
