2.226096689701080322e-01 -2.942011356353759766e-01 1.255284100770950317e-01 -1.008109927177429199e+00 7.147409319877624512e-01 -7.236780524253845215e-01 7.335729897022247314e-02 -2.096513807773590088e-01 3.909818455576896667e-02 -1.760077103972434998e-02
-2.043442726135253906e-01 -2.808862328529357910e-01 -1.876025646924972534e-02 -6.378787159919738770e-01 4.880230128765106201e-01 -6.059991121292114258e-01 -1.250433176755905151e-01 -1.945009827613830566e-01 -2.125413864850997925e-01 -1.937951147556304932e-01
1.530440896749496460e-01 1.753046549856662750e-02 -6.860778331756591797e-01 1.158783435821533203e+00 -3.025610446929931641e-01 3.350667059421539307e-01 3.583071753382682800e-02 5.150846242904663086e-01 9.484524279832839966e-02 -2.091044038534164429e-01
6.751511096954345703e-01 3.052790164947509766e-01 -7.235769182443618774e-02 1.636807769536972046e-01 -1.196397617459297180e-01 -2.141038030385971069e-01 9.167682528495788574e-01 -5.951696038246154785e-01 -2.162952274084091187e-01 5.064342021942138672e-01
-4.836562573909759521e-01 -1.279505155980587006e-02 5.505238175392150879e-01 -8.507326245307922363e-01 1.299762725830078125e-01 -3.746284246444702148e-01 -1.105961278080940247e-01 7.161790877580642700e-02 2.337762266397476196e-01 -1.003967374563217163e-01
-1.775423586368560791e-01 -4.577803015708923340e-01 4.758296012878417969e-01 -1.136285543441772461e+00 3.964586853981018066e-01 -5.216749310493469238e-01 -4.844959676265716553e-01 2.644748985767364502e-02 1.634569466114044189e-01 -3.981381952762603760e-01
5.316702723503112793e-01 -1.275713443756103516e-01 -3.909598588943481445e-01 -1.205219887197017670e-02 -2.020666450262069702e-01 -4.901134371757507324e-01 5.544981956481933594e-01 -8.782581686973571777e-01 -4.666816592216491699e-01 8.011711388826370239e-02
3.634945154190063477e-01 2.802663147449493408e-01 -4.784455299377441406e-01 2.980379760265350342e-01 -6.340846419334411621e-01 3.114353716373443604e-01 4.336845278739929199e-01 -4.496085643768310547e-01 -3.280993998050689697e-01 2.149818837642669678e-01
-1.049315571784973145e+00 -4.040612280368804932e-01 5.850704908370971680e-01 -7.211470603942871094e-02 -1.310127824544906616e-01 3.049079179763793945e-01 -6.145883798599243164e-01 -3.317288160324096680e-01 2.163481861352920532e-01 2.435335069894790649e-01
-4.681927859783172607e-01 -1.461617350578308105e-01 5.956075787544250488e-01 -5.719665884971618652e-01 4.165838062763214111e-01 -3.676539361476898193e-01 -3.546789288520812988e-01 1.991249620914459229e-01 -1.672034263610839844e-01 -1.813721805810928345e-01
