4.026389420032501221e-01 1.321908235549926758e-01 -5.923394560813903809e-01 4.481486678123474121e-01 -9.178664535284042358e-02 -2.885951101779937744e-01 1.571633338928222656e+00 6.036519408226013184e-01 -4.811775386333465576e-01 -7.960715144872665405e-02
3.507355153560638428e-01 1.437964141368865967e-01 -6.242211461067199707e-01 1.775005310773849487e-01 -3.601680994033813477e-01 -5.255468487739562988e-01 6.934456825256347656e-01 1.531538069248199463e-01 -1.502928137779235840e-01 -2.410926222801208496e-01
-4.693206548690795898e-01 -7.855862379074096680e-01 5.206142663955688477e-01 -5.861386656761169434e-01 6.934291720390319824e-01 8.722709417343139648e-01 -1.308443188667297363e+00 -5.197161436080932617e-01 3.982426524162292480e-01 1.078792810440063477e+00
8.182617835700511932e-03 -3.888982534408569336e-01 8.166092634201049805e-01 -2.225020825862884521e-01 5.098224282264709473e-01 4.774701595306396484e-01 -4.885939955711364746e-01 -4.905111491680145264e-01 6.976602673530578613e-01 -5.713441371917724609e-01
4.871678650379180908e-01 5.180303752422332764e-02 -3.194852173328399658e-01 7.087093591690063477e-02 -4.204763472080230713e-01 -2.288591116666793823e-01 6.462037563323974609e-01 1.015689522027969360e-01 -5.026077628135681152e-01 1.522321552038192749e-01
4.977397322654724121e-01 3.926449418067932129e-01 -1.993463486433029175e-01 2.714844346046447754e-01 -6.932236999273300171e-02 -5.412023067474365234e-01 8.403698801994323730e-01 6.761592030525207520e-01 -4.959361255168914795e-01 -3.498055040836334229e-02
-5.213618278503417969e-01 -2.826058864593505859e-01 8.236834406852722168e-01 -6.658062338829040527e-01 8.488749265670776367e-01 6.051383018493652344e-01 -7.599885463714599609e-01 -5.938001275062561035e-01 6.100686788558959961e-01 -5.146278142929077148e-01
-5.771713852882385254e-01 -6.365215182304382324e-01 7.078498005867004395e-01 -6.554216742515563965e-01 6.446104049682617188e-01 6.045976877212524414e-01 -4.631012082099914551e-01 -3.716538846492767334e-01 6.562697887420654297e-01 6.621213164180517197e-03
1.943219006061553955e-01 -1.007719039916992188e-01 -5.883888006210327148e-01 2.246839553117752075e-02 -7.045385837554931641e-01 -1.004349231719970703e+00 8.433780074119567871e-01 6.041827797889709473e-01 -9.283473491668701172e-01 2.109982252120971680e+00
5.133812427520751953e-01 2.269658446311950684e-01 -6.066302061080932617e-01 -1.698748208582401276e-02 5.542881414294242859e-02 -4.789580032229423523e-02 5.319394469261169434e-01 6.546992659568786621e-01 -4.323726594448089600e-01 8.991015143692493439e-03
