2.109498679637908936e-01 -1.991678774356842041e-01 -4.235296547412872314e-01 -2.500658482313156128e-02 -6.922313570976257324e-02 -6.901155114173889160e-01 4.717206954956054688e-01 -1.411709338426589966e-01 4.843814969062805176e-01 -9.583500772714614868e-02 1.485780477523803711e-01 5.902386829257011414e-02 -1.301537007093429565e-01 -7.893251627683639526e-02 2.108254134654998779e-01 2.994402050971984863e-01 1.006893217563629150e-01 -1.782972924411296844e-02 1.473287940025329590e-01 -3.061994016170501709e-01
-2.758626341819763184e-01 1.966641992330551147e-01 -4.035573080182075500e-02 -2.753871083259582520e-01 1.333916336297988892e-01 3.776614964008331299e-01 -2.697756290435791016e-01 3.586143255233764648e-01 -1.578975468873977661e-01 1.501035541296005249e-01 -3.252099454402923584e-01 2.320134639739990234e-01 3.481076061725616455e-01 3.285067677497863770e-01 -3.031690120697021484e-01 1.001393049955368042e-01 -1.119306609034538269e-01 1.288178563117980957e-01 -1.463321596384048462e-01 4.039093554019927979e-01
-2.568181753158569336e-01 -1.888047344982624054e-02 5.004289746284484863e-02 1.506660282611846924e-01 1.730704307556152344e-01 6.769383698701858521e-02 -1.272777095437049866e-02 2.828066051006317139e-01 2.705285511910915375e-02 1.339094042778015137e-01 5.024503171443939209e-02 1.156429871916770935e-01 2.421966344118118286e-01 2.844065427780151367e-01 -3.163213431835174561e-01 -1.543801873922348022e-01 -5.305803567171096802e-02 -2.008703909814357758e-02 -1.216922253370285034e-01 -8.512873202562332153e-02
-2.713577747344970703e-01 4.988252371549606323e-02 2.379317283630371094e-01 4.388567507266998291e-01 2.430472075939178467e-01 2.510779350996017456e-02 -1.482251137495040894e-01 2.826080918312072754e-01 2.636075252667069435e-03 1.877461969852447510e-01 -2.259395718574523926e-01 -1.137442663311958313e-01 1.386092901229858398e-01 3.365998715162277222e-02 1.578446626663208008e-01 -2.285730391740798950e-01 -1.544944643974304199e-01 3.982867002487182617e-01 -5.706208571791648865e-02 -1.214835643768310547e-01
-1.658829152584075928e-01 -4.128111526370048523e-03 9.032760560512542725e-02 -5.236896872520446777e-01 4.400760829448699951e-01 7.604143023490905762e-01 -2.107499688863754272e-01 1.829163283109664917e-01 -2.046778798103332520e-01 1.166547909379005432e-01 1.661052927374839783e-02 1.262605749070644379e-02 1.712421327829360962e-01 3.484619259834289551e-01 -5.551373958587646484e-01 1.204697862267494202e-01 1.291118748486042023e-02 -1.796044111251831055e-01 -7.297346740961074829e-02 6.666234135627746582e-01
-3.114286661148071289e-01 8.040016517043113708e-03 2.285571843385696411e-01 -3.092029392719268799e-01 7.188396155834197998e-02 2.944477498531341553e-01 -3.933289051055908203e-01 2.438887655735015869e-01 -3.195289671421051025e-01 1.274683475494384766e-01 -2.349909543991088867e-01 -1.152504533529281616e-01 2.894958853721618652e-01 1.716791093349456787e-01 -2.630217373371124268e-01 4.033451527357101440e-02 1.150951609015464783e-01 2.440227419137954712e-01 3.152450174093246460e-02 1.604268103837966919e-01
1.973357319831848145e+00 8.748162388801574707e-01 7.168039679527282715e-01 -2.903073430061340332e-01 -1.015199661254882812e+00 5.398821830749511719e-01 -9.891557693481445312e-02 -6.493971496820449829e-02 1.006312489509582520e+00 1.190157055854797363e+00 -5.746483206748962402e-01 -4.187805652618408203e-01 8.995860815048217773e-03 -3.526721000671386719e-01 1.155997753143310547e+00 2.847139537334442139e-01 -1.202492136508226395e-02 -1.282876729965209961e+00 5.933687686920166016e-01 -8.784093856811523438e-01
3.534124195575714111e-01 -6.388483196496963501e-02 -5.545143485069274902e-01 -1.749889254570007324e-01 -1.905613839626312256e-01 -5.362184643745422363e-01 8.101610094308853149e-02 -5.409312620759010315e-02 5.317051410675048828e-01 -2.764818668365478516e-01 4.035047292709350586e-01 -3.191990554332733154e-01 -3.445355296134948730e-01 -1.919644176959991455e-01 3.835372924804687500e-01 6.896903365850448608e-02 -8.753051608800888062e-02 -2.887988984584808350e-01 1.420309096574783325e-01 -5.063422396779060364e-02
-5.890552997589111328e-01 -9.285021424293518066e-01 -1.166014194488525391e+00 -2.427016496658325195e-01 -2.017317265272140503e-01 -7.327944040298461914e-01 1.445628404617309570e-01 1.103539347648620605e+00 6.246286034584045410e-01 2.717499434947967529e-01 -4.755911231040954590e-01 -7.215989232063293457e-01 -2.665065824985504150e-01 2.491311430931091309e-01 1.084137916564941406e+00 -5.492727160453796387e-01 -2.827279865741729736e-01 8.229430913925170898e-01 -3.411333262920379639e-01 2.735824882984161377e-02
2.713373303413391113e-01 -2.170713394880294800e-01 -1.741806864738464355e-01 7.789409160614013672e-01 -3.461016714572906494e-01 -6.214751601219177246e-01 1.137167438864707947e-01 2.244617044925689697e-01 2.701580524444580078e-01 1.409683823585510254e-01 -1.805911064147949219e-01 -1.548240631818771362e-01 1.530486494302749634e-01 -4.510668218135833740e-01 7.657643556594848633e-01 -4.287585616111755371e-01 -4.675615131855010986e-01 6.625832915306091309e-01 -3.297288119792938232e-01 -6.871614456176757812e-01
8.068743348121643066e-01 3.069518804550170898e-01 5.096732974052429199e-01 -4.784597456455230713e-01 -2.061944454908370972e-01 4.329027533531188965e-01 4.377470538020133972e-02 -3.728697001934051514e-01 2.495568096637725830e-01 2.806856036186218262e-01 1.222836319357156754e-02 -2.317687869071960449e-02 1.484719067811965942e-01 -4.846673086285591125e-02 2.527252733707427979e-01 3.632219731807708740e-01 8.588051795959472656e-02 -5.146047472953796387e-01 -2.042615264654159546e-01 -3.710317611694335938e-01
-1.414205431938171387e-01 9.495631791651248932e-03 8.788914233446121216e-02 7.093138247728347778e-02 -3.744921088218688965e-02 2.580555081367492676e-01 -3.538904488086700439e-01 2.681777179241180420e-01 -2.470309287309646606e-01 -4.163778945803642273e-02 -1.632517576217651367e-01 4.100066423416137695e-02 1.101008653640747070e-01 1.769203245639801025e-01 4.005663096904754639e-02 -3.692154884338378906e-01 9.901078790426254272e-02 1.770438700914382935e-01 -3.213889598846435547e-01 -1.801557093858718872e-01
-3.130275607109069824e-01 2.438301742076873779e-01 3.073459267616271973e-01 5.425196290016174316e-01 6.079130992293357849e-02 4.599253833293914795e-02 -7.840023189783096313e-02 2.884525358676910400e-01 -1.420676261186599731e-01 -1.876465603709220886e-02 -2.578971683979034424e-01 6.552573293447494507e-02 -2.073610015213489532e-02 2.886996865272521973e-01 -2.357551753520965576e-01 -2.353138476610183716e-01 -2.293137907981872559e-01 9.358185529708862305e-02 -1.718171387910842896e-01 -1.683162450790405273e-01
-2.731521129608154297e-01 2.390967905521392822e-01 2.587925791740417480e-01 1.856430470943450928e-01 5.686906725168228149e-02 -3.963210433721542358e-02 6.722518056631088257e-02 2.349089980125427246e-01 -1.951077021658420563e-02 -6.640893220901489258e-02 -1.056024059653282166e-01 8.767354488372802734e-02 4.784988984465599060e-02 2.500049173831939697e-01 -2.543900907039642334e-01 -1.375373899936676025e-01 -2.579002678394317627e-01 1.153441593050956726e-01 -1.082147508859634399e-01 -4.185407161712646484e-01
-1.530969589948654175e-01 4.202613830566406250e-01 5.813606828451156616e-02 -2.826471999287605286e-02 2.953553497791290283e-01 1.443321555852890015e-01 2.696187235414981842e-02 1.684777885675430298e-01 -1.351594924926757812e-01 3.468874394893646240e-01 -3.553006350994110107e-01 5.396068561822175980e-03 8.868318051099777222e-02 1.580429635941982269e-02 2.649080706760287285e-03 -1.881821006536483765e-01 -1.439439207315444946e-01 6.366232037544250488e-02 -1.648088246583938599e-01 5.507800728082656860e-02
4.027333110570907593e-02 -1.281434744596481323e-01 -5.709167718887329102e-01 3.887557685375213623e-01 -9.830143302679061890e-02 -3.113774955272674561e-01 4.953301548957824707e-01 -2.793398499488830566e-01 2.562790513038635254e-01 -3.621498048305511475e-01 5.652711391448974609e-01 -1.462134569883346558e-01 -1.610366255044937134e-01 -5.294286645948886871e-03 3.801868557929992676e-01 -1.399512588977813721e-01 -1.654245704412460327e-01 3.498344123363494873e-01 -1.961281895637512207e-02 -2.236599624156951904e-01
1.151607856154441833e-01 -2.726112306118011475e-01 -4.820646345615386963e-01 3.725533187389373779e-01 -3.568328619003295898e-01 -4.118033945560455322e-01 2.971220612525939941e-01 -1.583651453256607056e-01 4.351834952831268311e-01 2.343693748116493225e-02 3.907743394374847412e-01 -2.363686114549636841e-01 -3.273604512214660645e-01 -1.007498428225517273e-01 3.890700638294219971e-01 2.008372098207473755e-01 4.370078071951866150e-02 -7.647379487752914429e-02 -8.629185147583484650e-03 6.635681539773941040e-02
1.222302988171577454e-01 -4.067722260951995850e-01 -5.380051732063293457e-01 2.723989486694335938e-01 -1.779308170080184937e-01 -4.402336180210113525e-01 3.430196344852447510e-01 1.202429309487342834e-01 2.129305750131607056e-01 -3.081197440624237061e-01 2.972514927387237549e-01 1.101715713739395142e-01 -7.665263116359710693e-02 9.570724517107009888e-02 2.960525155067443848e-01 7.575956732034683228e-02 1.221629232168197632e-01 -1.569023914635181427e-02 2.414839714765548706e-01 -2.278285026550292969e-01
-1.978442817926406860e-01 4.644823372364044189e-01 5.644848942756652832e-01 6.765496730804443359e-01 6.829774379730224609e-02 -2.115680426359176636e-01 -4.746431484818458557e-02 2.358573824167251587e-01 -1.928357332944869995e-01 3.031204938888549805e-01 -5.826426148414611816e-01 1.861444711685180664e-01 2.998179383575916290e-02 2.780575752258300781e-01 1.957909762859344482e-01 -3.273532092571258545e-01 -2.899564504623413086e-01 1.848113983869552612e-01 1.529550552368164062e-01 -5.889914035797119141e-01
-3.985614478588104248e-01 6.204814836382865906e-02 1.077794209122657776e-01 3.980151116847991943e-01 3.073274195194244385e-01 1.237261816859245300e-01 7.852710038423538208e-02 4.911410436034202576e-02 -3.156155645847320557e-01 1.158145517110824585e-01 -2.629103660583496094e-01 3.184748589992523193e-01 2.337169796228408813e-01 2.525450587272644043e-01 8.754423260688781738e-02 -4.452526271343231201e-01 -1.050662249326705933e-01 4.170844852924346924e-01 -2.847774624824523926e-01 -2.746612131595611572e-01
