-7.368940860033035278e-02 -1.108465045690536499e-01 -5.513877421617507935e-02 -6.134157180786132812e-01 -4.756394773721694946e-02 -1.103036776185035706e-01 1.587862819433212280e-01 4.179735183715820312e-01 -5.624136924743652344e-01 1.498101651668548584e-02 -8.923640251159667969e-01 -9.237284064292907715e-01 -5.966131761670112610e-02 2.816561460494995117e-01 6.257840991020202637e-01 -3.114910125732421875e-01 -4.075817763805389404e-01 -4.746572673320770264e-01 2.357340902090072632e-01 2.294831871986389160e-01
7.288742065429687500e-02 4.305467009544372559e-02 3.704581260681152344e-01 -7.638721913099288940e-02 -2.163206487894058228e-01 3.938723206520080566e-01 -2.837160825729370117e-01 -5.023477226495742798e-02 1.108506470918655396e-01 -3.449181020259857178e-01 -4.509342834353446960e-02 4.712879657745361328e-02 2.022260427474975586e-01 -4.002678692340850830e-01 -3.130454123020172119e-01 3.974409699440002441e-01 3.246905207633972168e-01 6.926700589247047901e-04 -1.595455408096313477e-01 2.693858444690704346e-01
2.367523498833179474e-03 2.092766761779785156e-01 2.460709363222122192e-01 1.390298604965209961e-01 -1.183697655797004700e-01 -1.116267368197441101e-01 1.166039258241653442e-01 -2.298904210329055786e-01 2.919999659061431885e-01 -3.360004425048828125e-01 3.784077614545822144e-02 3.132269978523254395e-01 7.354459166526794434e-02 -3.161552846431732178e-01 -3.159892857074737549e-01 5.990554392337799072e-02 1.973109245300292969e-01 2.816177010536193848e-01 -6.762692332267761230e-02 1.572211384773254395e-01
-1.139582246541976929e-01 -7.235085964202880859e-02 1.401566267013549805e-01 3.844671249389648438e-01 -7.181672751903533936e-02 3.507678210735321045e-02 -1.771089285612106323e-01 3.704017028212547302e-02 3.345429003238677979e-01 -3.290608227252960205e-01 2.956713140010833740e-01 2.992443740367889404e-01 -2.627500593662261963e-01 -1.562701612710952759e-01 -1.161472722887992859e-01 9.851042181253433228e-02 5.378671884536743164e-01 2.375728040933609009e-01 -2.491214126348495483e-01 -1.489757448434829712e-01
1.438827961683273315e-01 1.062404271215200424e-02 4.209793806076049805e-01 4.143314436078071594e-02 -3.105501532554626465e-01 4.497234895825386047e-02 -1.423296630382537842e-01 -3.352471888065338135e-01 9.659693390130996704e-02 -9.584254771471023560e-02 1.723614633083343506e-01 -1.690539270639419556e-01 3.154075443744659424e-01 -1.072619855403900146e-01 -5.747460722923278809e-01 3.557026982307434082e-01 -3.371492400765419006e-02 1.488974541425704956e-01 -2.922683060169219971e-01 5.537548065185546875e-01
4.133559465408325195e-01 3.481903672218322754e-01 3.586233556270599365e-01 7.198164705187082291e-03 -2.088226079940795898e-01 1.847431808710098267e-01 -2.989084124565124512e-01 -1.688614338636398315e-01 3.160035312175750732e-01 -1.086109578609466553e-01 6.050263345241546631e-02 8.352438360452651978e-02 2.740972302854061127e-02 -3.728525936603546143e-01 -2.106384634971618652e-01 -4.707143455743789673e-02 1.163122802972793579e-01 2.148747295141220093e-01 -2.057104706764221191e-01 2.132282257080078125e-01
-3.441821932792663574e-01 -2.912660315632820129e-02 -1.774832457304000854e-01 1.136290654540061951e-01 3.233594298362731934e-01 -1.900264471769332886e-01 9.870184212923049927e-02 -7.241702079772949219e-01 4.771203175187110901e-02 -2.154030203819274902e-01 -3.063696861267089844e+00 -7.725903987884521484e-01 -5.781937241554260254e-01 2.683615386486053467e-01 -2.961932420730590820e+00 -2.703978717327117920e-01 -5.406954288482666016e-01 5.495078489184379578e-02 -8.144533038139343262e-01 3.061511516571044922e+00
-4.432431422173976898e-03 -2.233533710241317749e-01 -2.826353535056114197e-02 -5.822749733924865723e-01 4.631879553198814392e-02 -3.539228066802024841e-02 -8.704575151205062866e-02 1.775809973478317261e-01 -3.089033365249633789e-01 3.759879171848297119e-01 -1.309746503829956055e+00 -9.914124011993408203e-01 2.249372899532318115e-01 1.812351197004318237e-01 8.493548035621643066e-01 -5.429407954216003418e-01 -3.459751605987548828e-01 -2.497764974832534790e-01 1.048245355486869812e-01 7.644713670015335083e-02
-9.121803641319274902e-01 -6.440610885620117188e-01 -1.595826148986816406e+00 -1.926491379737854004e+00 7.737251520156860352e-01 -1.020222425460815430e+00 2.508356869220733643e-01 9.690744280815124512e-01 -1.730111837387084961e+00 1.249048590660095215e+00 -3.009014844894409180e+00 -2.997838258743286133e+00 2.696257829666137695e-01 1.487826466560363770e+00 9.352267980575561523e-01 -1.472732663154602051e+00 -1.360408067703247070e+00 9.280563890933990479e-02 -6.090594530105590820e-01 3.453463792800903320e+00
-6.387321949005126953e-01 -1.756604164838790894e-01 -3.576578199863433838e-01 1.083114862442016602e+00 5.527043938636779785e-01 -5.388148427009582520e-01 9.886997938156127930e-01 -2.516741454601287842e-01 8.424271941184997559e-01 3.078370690345764160e-01 1.841051220893859863e+00 1.556013345718383789e+00 -1.205399036407470703e+00 3.840480446815490723e-01 -1.522770524024963379e+00 2.985427975654602051e-01 4.463177323341369629e-01 3.724184632301330566e-01 -1.422600984573364258e+00 -4.254278242588043213e-01
1.933706104755401611e-01 1.519628614187240601e-02 1.214029937982559204e-01 -2.151354253292083740e-01 6.464721262454986572e-02 1.306468099355697632e-01 -3.874962329864501953e-01 6.315170228481292725e-02 -2.634299695491790771e-01 -1.059946268796920776e-01 -6.581770181655883789e-01 -6.241424679756164551e-01 4.463587999343872070e-01 -3.982208669185638428e-02 1.298195242881774902e+00 -2.479838579893112183e-01 -1.470743715763092041e-01 -1.968245506286621094e-01 3.700748085975646973e-01 5.827176570892333984e-01
8.036427199840545654e-02 1.039380729198455811e-01 2.777133584022521973e-01 3.431541621685028076e-01 -1.057060360908508301e-01 2.881523966789245605e-01 -7.614532858133316040e-02 -1.521414965391159058e-01 3.468308746814727783e-01 -1.609197109937667847e-01 4.342807531356811523e-01 3.337911069393157959e-01 9.465344250202178955e-02 -2.321433126926422119e-01 -5.094179511070251465e-01 2.121064662933349609e-01 1.598308831453323364e-01 2.373589724302291870e-01 -2.328129708766937256e-01 1.080633774399757385e-01
1.537025570869445801e-01 -1.242348458617925644e-02 2.791474014520645142e-02 1.149433031678199768e-01 -2.661801278591156006e-01 2.017517983913421631e-01 -8.624771982431411743e-02 -6.920221447944641113e-02 3.085654675960540771e-01 -2.280496805906295776e-01 1.067557483911514282e-01 2.442446500062942505e-01 -1.742204129695892334e-01 -3.443095684051513672e-01 -3.637872636318206787e-01 2.597532272338867188e-01 1.708073765039443970e-01 1.250009983777999878e-01 -4.068627655506134033e-01 -1.593243628740310669e-01
3.235837444663047791e-02 8.360628969967365265e-03 2.049452066421508789e-01 9.501850605010986328e-02 -1.055189594626426697e-01 1.150083020329475403e-01 1.219713613390922546e-01 -1.803144961595535278e-01 2.061991244554519653e-01 8.042170107364654541e-02 4.489516019821166992e-01 3.592374175786972046e-02 -1.598180979490280151e-01 1.235123798251152039e-01 -6.492676734924316406e-01 1.812485456466674805e-01 1.784464865922927856e-01 3.283521831035614014e-01 -8.969084918498992920e-02 -1.695042401552200317e-01
3.610956370830535889e-01 1.897096782922744751e-01 3.199512064456939697e-01 1.733994930982589722e-01 -3.501814305782318115e-01 2.408295497298240662e-02 -2.099976986646652222e-01 -2.665945291519165039e-01 3.370248675346374512e-01 -1.288234889507293701e-01 1.650183945894241333e-01 2.540176548063755035e-02 -9.832606464624404907e-02 -8.974595367908477783e-02 -3.433076739311218262e-01 1.665299236774444580e-01 6.807044893503189087e-02 -2.958612749353051186e-04 -4.984561726450920105e-02 -7.030115276575088501e-02
-2.612180709838867188e-01 -4.328523278236389160e-01 -7.651729583740234375e-01 -2.102151393890380859e+00 1.734374314546585083e-01 -3.811445832252502441e-01 2.950969040393829346e-01 1.254803657531738281e+00 -1.846737980842590332e+00 9.817853569984436035e-01 -1.296792387962341309e+00 -2.149531841278076172e+00 3.073047399520874023e-01 9.406597614288330078e-01 1.636950969696044922e+00 -1.028270006179809570e+00 -6.416323781013488770e-01 -1.580400019884109497e-02 1.504576206207275391e-01 7.319578528404235840e-01
8.459033071994781494e-02 -1.910855025053024292e-01 -1.113282069563865662e-01 -8.718380928039550781e-01 2.542158067226409912e-01 1.369189172983169556e-01 6.201092526316642761e-02 3.989979326725006104e-01 -4.007354974746704102e-01 4.749584794044494629e-01 -1.249897599220275879e+00 -1.277135729789733887e+00 4.633970856666564941e-01 2.117625176906585693e-01 5.457597374916076660e-01 -1.710416227579116821e-01 -4.375644922256469727e-01 -3.463982045650482178e-01 1.108198761940002441e-01 -1.067339479923248291e-01
1.156948693096637726e-02 -1.944682300090789795e-01 -3.921694457530975342e-01 -7.233184576034545898e-01 -8.374197408556938171e-03 -3.408477902412414551e-01 -1.394597291946411133e-01 4.937497079372406006e-01 -4.748579859733581543e-01 2.385062277317047119e-01 -1.082970857620239258e+00 -1.180295109748840332e+00 3.874527513980865479e-01 3.091941475868225098e-01 6.264272928237915039e-01 -4.296329319477081299e-01 -5.492330193519592285e-01 -7.501455023884773254e-03 4.311592876911163330e-02 -1.952816396951675415e-01
1.220766380429267883e-01 4.191274195909500122e-02 2.779674828052520752e-01 6.470561027526855469e-01 -1.001542732119560242e-01 3.704984188079833984e-01 -3.285383880138397217e-01 -3.665101528167724609e-01 5.065694451332092285e-01 -3.514550030231475830e-01 1.124098539352416992e+00 7.776826620101928711e-01 3.206552565097808838e-01 -2.468175441026687622e-01 9.855165481567382812e-01 4.335469901561737061e-01 5.899206995964050293e-01 2.803350389003753662e-01 -7.377764582633972168e-02 -9.014596939086914062e-01
2.992105782032012939e-01 3.292555510997772217e-01 -7.921756803989410400e-02 1.998826414346694946e-01 -5.034887790679931641e-02 2.602113038301467896e-02 -2.327256798744201660e-01 -3.686523437500000000e-02 3.163660317659378052e-02 -2.236332148313522339e-01 3.396076261997222900e-01 4.234839081764221191e-01 -3.234667181968688965e-01 -2.333538830280303955e-01 -3.650661110877990723e-01 4.340299367904663086e-01 3.030381798744201660e-01 3.447639048099517822e-01 -3.060721755027770996e-01 -4.135930910706520081e-02
