1.920738443732261658e-02 -4.395152926445007324e-01 -1.213391050696372986e-01 -1.310072660446166992e+00 -1.204158067703247070e+00 7.711870670318603516e-01 9.148831963539123535e-01 -3.409540355205535889e-01 3.058735430240631104e-01 -7.031620293855667114e-02
2.481232732534408569e-01 1.708626300096511841e-01 5.263586044311523438e-01 3.894057273864746094e-01 3.726892918348312378e-02 -3.779959082603454590e-01 6.592953801155090332e-01 -1.086798161268234253e-01 -1.845906823873519897e-01 1.315046548843383789e-01
-3.768144845962524414e-01 -5.819522142410278320e-01 -1.265249699354171753e-01 5.840884149074554443e-02 -9.973347932100296021e-02 3.004539310932159424e-01 -3.108966946601867676e-01 5.476964116096496582e-01 2.453124076128005981e-01 4.479739069938659668e-02
5.765267014503479004e-01 5.839529633522033691e-01 2.963956892490386963e-01 7.943668961524963379e-01 -8.104771971702575684e-01 -5.741025209426879883e-01 -1.016942858695983887e+00 -9.269093275070190430e-01 -3.696551024913787842e-01 -3.633743524551391602e-02
8.396346867084503174e-02 3.544407486915588379e-01 2.396606206893920898e-01 3.860220015048980713e-01 -2.722497284412384033e-01 -2.781304121017456055e-01 -1.044647812843322754e+00 -5.173092484474182129e-01 -2.975403964519500732e-01 -7.908780127763748169e-02
-3.734897673130035400e-01 -3.819298446178436279e-01 -2.832140326499938965e-01 3.178876340389251709e-01 6.878995299339294434e-01 -2.325049974024295807e-02 -5.995880365371704102e-01 1.159025430679321289e+00 5.325826406478881836e-01 1.432542502880096436e-01
3.568989932537078857e-01 5.807771682739257812e-01 6.701006889343261719e-01 6.416460275650024414e-01 -5.527945701032876968e-03 -4.517724215984344482e-01 -9.310038089752197266e-01 -5.326673761010169983e-02 -5.330325961112976074e-01 1.981424987316131592e-01
5.625941976904869080e-02 3.722331821918487549e-01 6.608280539512634277e-01 2.656396925449371338e-01 1.126065611839294434e+00 2.972038462758064270e-02 1.188598036766052246e+00 5.069182515144348145e-01 -6.924421191215515137e-01 -2.543253004550933838e-01
-5.076840519905090332e-01 -5.061994791030883789e-01 -6.536931544542312622e-02 -1.499237865209579468e-01 2.572418376803398132e-02 7.226930558681488037e-02 -2.299473285675048828e-01 9.052195549011230469e-01 5.314530134201049805e-01 -5.762416869401931763e-02
-3.947847783565521240e-01 -5.076012015342712402e-01 -8.523219823837280273e-02 -1.346621662378311157e-01 -5.492552742362022400e-02 4.307013750076293945e-01 -5.408131480216979980e-01 7.449488043785095215e-01 3.143015205860137939e-01 6.413543969392776489e-02
