-9.430062174797058105e-01 1.548028469085693359e+00 -8.582814931869506836e-01 1.108766078948974609e+00 -7.772436141967773438e-01 -1.540109753608703613e+00 -1.034214496612548828e+00 6.869358420372009277e-01 -4.345850944519042969e-01 -1.813159942626953125e+00
-4.148394763469696045e-01 -1.521602720022201538e-01 -3.308542370796203613e-01 4.484633803367614746e-01 -3.571636676788330078e-01 2.389524132013320923e-01 7.513748109340667725e-02 8.488956689834594727e-01 -3.692232072353363037e-01 2.749022543430328369e-01
2.747404575347900391e-01 6.628161668777465820e-01 1.770641058683395386e-01 7.240496575832366943e-02 2.469010800123214722e-01 -1.439067721366882324e-01 -1.045673489570617676e+00 -7.110341191291809082e-01 3.158966004848480225e-01 -1.117429375648498535e+00
-1.712743937969207764e-01 5.526322722434997559e-01 8.960255421698093414e-03 4.418566823005676270e-01 -6.157306209206581116e-02 -1.344957947731018066e-01 -7.312946319580078125e-01 3.028868697583675385e-02 1.989330798387527466e-01 8.999871015548706055e-01
-1.237718835473060608e-01 -1.739957369863986969e-02 -2.837578058242797852e-01 2.010007947683334351e-01 -3.266724050045013428e-01 -2.687489986419677734e-01 3.594454526901245117e-01 -8.262394927442073822e-03 -2.003619819879531860e-01 5.188659429550170898e-01
-2.638002634048461914e-01 2.899843692779541016e+00 -7.608033716678619385e-03 1.355485677719116211e+00 -1.476064622402191162e-01 -2.062325954437255859e+00 -3.717139720916748047e+00 -1.446592330932617188e+00 6.803908944129943848e-02 -1.480489969253540039e+00
-4.086141586303710938e-01 5.635896325111389160e-01 -6.126409173011779785e-01 2.015125900506973267e-01 -6.165254116058349609e-01 -3.332545161247253418e-01 1.466474384069442749e-01 9.985896944999694824e-01 -2.975845634937286377e-01 8.370451331138610840e-01
-5.915545821189880371e-01 -4.656171426177024841e-02 -2.599040865898132324e-01 2.254201769828796387e-01 -1.508237570524215698e-01 -8.621398210525512695e-01 2.619578838348388672e-01 1.172028899192810059e+00 -5.021806359291076660e-01 -1.608825176954269409e-01
1.872461475431919098e-02 1.202202081680297852e+00 1.540305167436599731e-01 1.336876899003982544e-01 -2.628074958920478821e-02 -4.010708332061767578e-01 -7.052373886108398438e-01 -8.645982146263122559e-01 -1.794126033782958984e-01 -9.504678249359130859e-01
-4.104593396186828613e-02 3.582340776920318604e-01 4.717101156711578369e-01 1.499378383159637451e-01 1.457487791776657104e-01 -3.663884699344635010e-01 -1.340427100658416748e-01 -6.590895056724548340e-01 -2.154653072357177734e-01 -4.378170967102050781e-01
