-6.666719913482666016e-02 4.545336589217185974e-03 3.800884187221527100e-01 -3.074090778827667236e-01 2.478097677230834961e-01 -7.971060276031494141e-02 -3.968526050448417664e-02 4.809798672795295715e-02 1.812798678874969482e-01 -6.485813856124877930e-02 2.952384576201438904e-02 8.991610258817672729e-02 1.278185844421386719e-01 -1.273581534624099731e-01 -3.131512701511383057e-01 1.409509032964706421e-01 -2.154000252485275269e-01 1.675619482994079590e-01 -1.637959033250808716e-01 2.522733435034751892e-02
-3.054749667644500732e-01 -3.146312236785888672e-01 -2.784347906708717346e-02 3.002716898918151855e-01 -2.627559751272201538e-02 -2.906125187873840332e-01 8.206000924110412598e-02 1.082259118556976318e-01 -1.445033401250839233e-01 -3.746867552399635315e-02 -4.000951051712036133e-01 1.796627603471279144e-02 -3.005700111389160156e-01 3.303497135639190674e-01 2.154226899147033691e-01 -5.727664232254028320e-01 3.819205760955810547e-01 1.212245300412178040e-01 -7.453293353319168091e-02 -7.758543640375137329e-02
6.710477471351623535e-01 1.634705364704132080e-01 4.358601570129394531e-01 -8.135549426078796387e-01 3.038955926895141602e-01 3.360918760299682617e-01 1.986610591411590576e-01 -7.723902463912963867e-01 6.527140140533447266e-01 7.524712681770324707e-01 2.156746089458465576e-01 -5.593624114990234375e-01 -1.437022686004638672e+00 9.565402865409851074e-01 7.153301239013671875e-01 -7.258890271186828613e-01 1.560768485069274902e+00 3.641456663608551025e-01 -5.464654564857482910e-01 -5.005060136318206787e-02
2.247964739799499512e-01 6.509127561002969742e-03 2.565936446189880371e-01 -5.139237642288208008e-01 3.835395574569702148e-01 3.473769128322601318e-01 -3.836061954498291016e-01 -8.810479938983917236e-02 3.915457725524902344e-01 2.466033250093460083e-01 1.932666003704071045e-01 3.150923252105712891e-01 1.414090301841497421e-02 -1.822668015956878662e-01 -1.545606702566146851e-01 1.586494296789169312e-01 -1.576348543167114258e-01 4.204253256320953369e-01 -2.558264434337615967e-01 3.011330068111419678e-01
1.298791728913784027e-02 1.604746878147125244e-01 2.493273168802261353e-01 -3.073479235172271729e-01 -9.005342610180377960e-03 -8.422981202602386475e-02 -2.393969148397445679e-01 -6.646552681922912598e-02 3.313373625278472900e-01 3.152112960815429688e-01 3.648689091205596924e-01 -1.528402417898178101e-02 5.953349545598030090e-02 -3.548527359962463379e-01 -3.511524498462677002e-01 4.219072461128234863e-01 7.756350561976432800e-03 -9.627849608659744263e-02 -1.163034606724977493e-02 -3.050812780857086182e-01
-7.475669682025909424e-02 -2.718169987201690674e-01 -2.270522862672805786e-01 5.407299995422363281e-01 -2.303112298250198364e-01 -2.911037206649780273e-01 7.289613783359527588e-02 -1.230124756693840027e-01 -1.512236744165420532e-01 6.965361535549163818e-02 -9.165039658546447754e-02 1.259114220738410950e-02 -1.525557339191436768e-01 2.282572537660598755e-01 1.525090336799621582e-01 -1.814585924148559570e-01 1.968992054462432861e-01 1.329842954874038696e-01 -2.533681392669677734e-01 -1.312159895896911621e-01
-4.174611568450927734e-01 -2.129717543721199036e-02 -3.603071868419647217e-01 9.034884721040725708e-02 -1.282017976045608521e-01 -3.327295482158660889e-01 2.270626276731491089e-01 2.823264598846435547e-01 -6.208731234073638916e-02 -1.224566251039505005e-01 -1.489518135786056519e-01 1.368321776390075684e-01 4.732286185026168823e-02 2.688663601875305176e-01 3.860260844230651855e-01 -1.389572918415069580e-01 4.089505597949028015e-02 -1.688810437917709351e-02 -1.575806438922882080e-01 -2.333397269248962402e-01
4.360035359859466553e-01 -7.409312129020690918e-01 -1.030665636062622070e-01 8.178994655609130859e-01 -1.456235647201538086e+00 -3.261696100234985352e-01 1.590029954910278320e+00 -7.821053862571716309e-01 -1.064603805541992188e+00 1.492297202348709106e-01 8.514215797185897827e-02 4.480592608451843262e-01 -9.264423847198486328e-01 7.541696429252624512e-01 -1.242727398872375488e+00 7.104278206825256348e-01 -2.541102766990661621e-01 -6.352987885475158691e-01 5.367646217346191406e-01 -1.030624061822891235e-01
-1.546695381402969360e-01 -4.219919815659523010e-02 -9.516613930463790894e-02 4.005729556083679199e-01 -3.334879279136657715e-01 -2.843881249427795410e-01 2.825952172279357910e-01 -2.159586250782012939e-01 -2.325403094291687012e-01 1.014298871159553528e-01 -1.155972778797149658e-01 3.365732729434967041e-02 -3.515815734863281250e-01 1.329881399869918823e-01 3.000704050064086914e-01 -1.143983900547027588e-01 3.494467437267303467e-01 8.445095270872116089e-02 -5.589600279927253723e-02 -1.905469745397567749e-01
2.387681454420089722e-01 7.068122923374176025e-02 3.473308384418487549e-01 -1.381617933511734009e-01 -9.663001634180545807e-03 3.209466636180877686e-01 -3.100123405456542969e-01 -1.197394169867038727e-02 2.426599711179733276e-01 -1.221965067088603973e-02 3.756336867809295654e-01 3.215612769126892090e-01 7.339800149202346802e-02 -3.083941042423248291e-01 -2.158357016742229462e-02 -9.757578372955322266e-03 4.454531893134117126e-02 4.642768502235412598e-01 -2.341981530189514160e-01 7.609966397285461426e-02
9.174194931983947754e-02 3.158656954765319824e-01 3.081978857517242432e-01 -2.497303187847137451e-01 2.766323983669281006e-01 2.163440287113189697e-01 -3.378547728061676025e-01 -1.154728047549724579e-02 1.923417448997497559e-01 9.115406125783920288e-02 2.604056000709533691e-01 1.847867369651794434e-01 3.229105472564697266e-01 -3.138894438743591309e-01 -1.528485715389251709e-01 -1.112193316221237183e-01 -4.448150470852851868e-02 1.304965466260910034e-01 -8.973311632871627808e-02 2.235782146453857422e-01
-2.451379038393497467e-02 8.394991606473922729e-02 2.210427671670913696e-01 2.423874288797378540e-02 1.281509846448898315e-01 -3.207506984472274780e-02 -2.143120020627975464e-01 1.609104722738265991e-01 8.592732483521103859e-04 1.467917561531066895e-01 3.367878198623657227e-01 2.016215473413467407e-01 2.372181266546249390e-01 -2.482732683420181274e-01 -1.943871527910232544e-01 7.391516864299774170e-02 7.990144193172454834e-03 -3.224964737892150879e-01 1.120584681630134583e-01 -6.226195022463798523e-02
-3.060533106327056885e-01 -2.546266913414001465e-01 -4.320453107357025146e-01 6.896875798702239990e-02 -2.383805364370346069e-01 -1.152289956808090210e-01 1.291038095951080322e-01 1.079927235841751099e-01 -3.131174445152282715e-01 -1.442349553108215332e-01 -2.129867374897003174e-01 -2.151722908020019531e-01 -1.538070291280746460e-01 2.836978137493133545e-01 1.445389539003372192e-01 -1.530662328004837036e-01 2.666092813014984131e-01 -3.303101658821105957e-02 -2.229335904121398926e-01 8.926799893379211426e-02
2.780307233333587646e-01 -1.344837062060832977e-02 3.618442416191101074e-01 -3.548804223537445068e-01 1.515890657901763916e-01 -9.174229949712753296e-02 -2.034782245755195618e-02 7.063616812229156494e-02 2.859424948692321777e-01 3.262056112289428711e-01 8.776472508907318115e-02 1.078977715224027634e-02 1.720899045467376709e-01 -3.037253022193908691e-01 -2.039685547351837158e-01 1.955245733261108398e-01 -3.423570096492767334e-01 5.053498223423957825e-02 3.149392306804656982e-01 1.234729290008544922e-01
3.743050992488861084e-01 2.477440983057022095e-01 2.821497619152069092e-01 -2.871522009372711182e-01 2.667765617370605469e-01 3.501998186111450195e-01 5.093925073742866516e-02 1.791440695524215698e-01 1.306869089603424072e-01 3.191793859004974365e-01 1.316265016794204712e-01 1.920725256204605103e-01 2.519243061542510986e-01 -8.782567828893661499e-02 -3.214948773384094238e-01 2.133091837167739868e-01 5.257700383663177490e-02 -1.049630418419837952e-01 -2.725131623446941376e-02 7.197637110948562622e-02
-8.062735199928283691e-02 2.755951285362243652e-01 -4.931285604834556580e-02 -2.736670970916748047e-01 3.423406481742858887e-01 1.759766340255737305e-01 -3.118261396884918213e-01 2.650834023952484131e-01 1.364299505949020386e-01 9.785585850477218628e-02 3.855316936969757080e-01 1.787234693765640259e-01 2.724275887012481689e-01 -2.969687879085540771e-01 -1.365409344434738159e-01 4.074544310569763184e-01 -2.339288443326950073e-01 1.229361221194267273e-01 2.703033983707427979e-01 -8.980751782655715942e-02
2.145943343639373779e-01 2.375009953975677490e-01 8.973457664251327515e-02 -1.826322227716445923e-01 -2.004134468734264374e-02 2.001226842403411865e-01 -3.178591132164001465e-01 -1.119116544723510742e-01 3.874544426798820496e-02 3.633660674095153809e-01 -5.145523324608802795e-02 -1.770010292530059814e-01 2.813320457935333252e-01 -9.731840342283248901e-02 -1.310276985168457031e-01 2.384291291236877441e-01 -1.341635137796401978e-01 -5.618999004364013672e-01 3.891898989677429199e-01 -1.338978409767150879e-01
3.283419907093048096e-01 4.483571648597717285e-01 8.952075242996215820e-02 2.836707793176174164e-02 -3.642227351665496826e-01 -1.073531731963157654e-01 1.616829484701156616e-01 -4.707247614860534668e-01 -1.126184687018394470e-01 3.535934090614318848e-01 -2.702704668045043945e-01 -1.776859015226364136e-01 -2.477983087301254272e-01 4.052246809005737305e-01 1.525821387767791748e-01 1.487938016653060913e-01 -2.079841792583465576e-01 -1.018118262290954590e+00 5.703487396240234375e-01 -7.457695156335830688e-02
1.550823748111724854e-01 4.213734269142150879e-01 1.553393751382827759e-01 -3.679653108119964600e-01 -5.045741796493530273e-02 1.649622321128845215e-01 9.114054031670093536e-03 -4.772143438458442688e-02 3.424647152423858643e-01 2.960602343082427979e-01 8.082230389118194580e-02 2.098646759986877441e-01 -9.351434558629989624e-02 -1.477491110563278198e-01 -4.007152020931243896e-01 1.597868502140045166e-01 -9.150740504264831543e-02 -5.818189978599548340e-01 1.981421411037445068e-01 -3.341338634490966797e-01
4.373426735401153564e-01 4.784338474273681641e-01 4.265433251857757568e-01 -2.868615090847015381e-01 -8.606556802988052368e-02 1.821395605802536011e-01 -1.935191452503204346e-01 -2.696312963962554932e-01 -1.081556268036365509e-02 2.272443324327468872e-01 9.452740848064422607e-02 1.950256377458572388e-01 2.245667129755020142e-01 1.039826571941375732e-01 -4.231632947921752930e-01 3.506432846188545227e-02 -2.623394429683685303e-01 -3.291375935077667236e-01 3.554272651672363281e-01 -1.128830611705780029e-01
