3.010719269514083862e-02 1.399092525243759155e-01 3.675328195095062256e-02 6.759828329086303711e-02 2.927094511687755585e-02 7.081936299800872803e-02 -2.170862704515457153e-01 4.705026373267173767e-02 2.159516960382461548e-01 -1.609272360801696777e-01 1.088028997182846069e-01 -1.960308998823165894e-01 -1.940635293722152710e-01 -6.410697698593139648e-01 2.203821577131748199e-02 -4.693798124790191650e-01 -1.776544004678726196e-01 -1.801441907882690430e-01 1.557121891528367996e-02 4.724543690681457520e-01
-5.290976911783218384e-02 -6.407456845045089722e-02 -1.053524464368820190e-01 1.712463647127151489e-01 5.760956183075904846e-02 -4.699586629867553711e-01 1.368092745542526245e-01 -1.247476227581501007e-02 -4.050122573971748352e-02 1.469889841973781586e-02 4.192842841148376465e-01 2.230628579854965210e-01 -2.539766430854797363e-01 1.784781455993652344e+00 -1.291214346885681152e+00 3.156024813652038574e-01 1.681387066841125488e+00 2.846741676330566406e-02 -7.392624616622924805e-01 6.044901162385940552e-02
5.653156042098999023e-01 5.929675698280334473e-01 2.108535468578338623e-01 -2.517065405845642090e-01 1.340173631906509399e-01 3.110829889774322510e-01 4.272588714957237244e-02 1.879519671201705933e-01 1.765273660421371460e-01 3.986389562487602234e-02 -2.389536052942276001e-01 -7.891943305730819702e-02 4.629598557949066162e-01 -1.260665416717529297e+00 -6.271659135818481445e-01 -9.800461530685424805e-01 4.546461701393127441e-01 2.315871953964233398e+00 -2.829106330871582031e+00 2.697283506393432617e+00
-2.525215744972229004e-01 -2.221717983484268188e-01 -4.058939218521118164e-01 -4.109542816877365112e-02 -3.639762699604034424e-01 -1.678927242755889893e-01 -2.304745316505432129e-01 2.095100581645965576e-01 2.510226368904113770e-01 -4.749668836593627930e-01 3.223441839218139648e-01 -4.722350090742111206e-02 -5.712502598762512207e-01 1.469735205173492432e-01 2.375657111406326294e-01 -2.686204910278320312e-01 4.460645839571952820e-02 -3.198513686656951904e-01 -1.690562814474105835e-01 5.383247733116149902e-01
-6.634359247982501984e-03 -1.725452244281768799e-01 -1.561884582042694092e-01 -3.149340450763702393e-01 4.717158619314432144e-03 -3.102690577507019043e-01 -2.462428212165832520e-01 6.192417442798614502e-02 -3.385847061872482300e-02 -2.652305364608764648e-01 -9.798116981983184814e-02 1.574764251708984375e-01 -2.049935311079025269e-01 -6.877847313880920410e-01 4.076187312602996826e-01 -4.886248409748077393e-01 -2.364368140697479248e-01 -3.478919863700866699e-01 2.086353749036788940e-01 2.922427058219909668e-01
-1.505748601630330086e-03 -1.019072011113166809e-01 -4.773859679698944092e-02 -1.740397810935974121e-01 1.816332042217254639e-01 -1.138682197779417038e-02 1.408754289150238037e-01 1.652042865753173828e-01 2.037907950580120087e-02 2.908581867814064026e-02 1.744028329849243164e-01 3.411985933780670166e-02 -6.261936575174331665e-02 3.387970030307769775e-01 -6.650782823562622070e-01 4.419008791446685791e-01 4.495212435722351074e-01 2.597160041332244873e-01 -5.248201489448547363e-01 2.088428139686584473e-01
2.001171708106994629e-01 2.315231114625930786e-01 1.995021998882293701e-01 2.574498653411865234e-01 5.941389873623847961e-02 -2.713693492114543915e-02 3.119357526302337646e-01 -8.334282040596008301e-02 -3.014236688613891602e-01 -1.071035265922546387e-01 -2.179237604141235352e-01 -1.422791481018066406e-01 2.905373871326446533e-01 1.503505259752273560e-01 -2.400820851325988770e-01 9.110008180141448975e-02 1.401327699422836304e-01 4.789501428604125977e-01 -1.640971004962921143e-01 -2.501124516129493713e-02
7.645349949598312378e-02 3.099433481693267822e-01 8.703594803810119629e-01 4.838580489158630371e-01 7.084529399871826172e-01 4.891501963138580322e-01 7.990999817848205566e-01 -8.341476917266845703e-01 -9.746998548507690430e-01 1.331745505332946777e+00 -1.025219857692718506e-01 -1.568998326547443867e-03 1.024447321891784668e+00 -4.891387224197387695e-01 -3.434256553649902344e+00 1.025424003601074219e+00 -8.511345088481903076e-02 1.017302989959716797e+00 -2.753710269927978516e+00 2.303206682205200195e+00
1.361266076564788818e-01 4.969263914972543716e-03 9.568494558334350586e-02 -8.836973458528518677e-02 1.885411590337753296e-01 -1.851200014352798462e-01 -1.064263954758644104e-01 1.493441313505172729e-01 1.687398105859756470e-01 -3.366748243570327759e-02 -1.643525511026382446e-01 6.667081266641616821e-02 1.203866791911423206e-03 6.132327318191528320e-01 -1.892094016075134277e-01 2.587564885616302490e-01 8.314431309700012207e-01 3.212117403745651245e-02 -5.510179400444030762e-01 -8.027080446481704712e-02
5.621831119060516357e-02 -2.302047461271286011e-01 -3.844358399510383606e-02 2.738654799759387970e-02 -1.040465831756591797e-01 -2.120341807603836060e-01 -8.485137671232223511e-02 -3.370876610279083252e-02 -5.448185652494430542e-02 -2.324423044919967651e-01 -1.832865178585052490e-02 -2.316048182547092438e-02 -4.262491166591644287e-01 -5.886113643646240234e-01 -7.990040816366672516e-03 -1.911195665597915649e-01 1.120317634195089340e-02 -1.677419692277908325e-01 -2.376668602228164673e-01 4.118098616600036621e-01
-1.112596765160560608e-01 -4.649046063423156738e-02 -2.741626799106597900e-01 -1.744497120380401611e-01 -5.123262107372283936e-02 -2.628727257251739502e-02 -8.275327831506729126e-02 -1.659922748804092407e-01 7.009311020374298096e-02 -1.178598552942276001e-01 -1.468908339738845825e-01 1.285334229469299316e-01 6.512691080570220947e-02 -4.885330200195312500e-01 -2.014177292585372925e-01 -4.259018599987030029e-01 -7.945575714111328125e-01 -4.485662281513214111e-02 -1.335036605596542358e-01 2.887358665466308594e-01
-1.179582551121711731e-01 2.097159028053283691e-01 -6.716907024383544922e-02 -2.554863989353179932e-01 -2.458840459585189819e-01 -4.123126342892646790e-02 -1.534816771745681763e-01 -7.897573709487915039e-02 2.059153914451599121e-01 -1.169638410210609436e-01 9.347344934940338135e-02 2.226869165897369385e-01 -6.060468032956123352e-03 -4.273877143859863281e-01 1.376501172780990601e-01 -5.143260359764099121e-01 -3.477388024330139160e-01 -5.145230144262313843e-02 2.411155700683593750e-01 2.200607508420944214e-01
-2.522477693855762482e-02 -1.768493801355361938e-01 -1.708136945962905884e-01 -2.059938944876194000e-02 -6.662321835756301880e-02 -3.215275704860687256e-01 -2.724735438823699951e-02 -1.590998768806457520e-01 7.838794589042663574e-02 -1.336187124252319336e-01 -8.387219160795211792e-03 2.881366014480590820e-01 -3.481146991252899170e-01 7.313981056213378906e-01 -6.152552366256713867e-01 5.650238990783691406e-01 8.290114402770996094e-01 -1.921852082014083862e-01 -5.045714974403381348e-01 5.071286484599113464e-02
-1.330938935279846191e-01 -2.695530652999877930e-01 -1.384784579277038574e-01 -9.150560200214385986e-02 2.379982918500900269e-02 -2.775959372520446777e-01 -3.246245384216308594e-01 2.327182292938232422e-01 -3.896425291895866394e-02 -1.833830177783966064e-01 -2.047282643616199493e-02 1.834087073802947998e-01 -1.971376985311508179e-01 -7.883487343788146973e-01 4.234504401683807373e-01 -3.449492752552032471e-01 -3.556728959083557129e-01 -2.860451936721801758e-01 -4.055194091051816940e-03 1.797153502702713013e-01
-2.567894756793975830e-01 -2.885814905166625977e-01 -1.687044948339462280e-01 -3.371081054210662842e-01 -9.443731606006622314e-02 -1.636427789926528931e-01 -2.163280695676803589e-01 1.194224506616592407e-01 2.859432697296142578e-01 -1.039303466677665710e-01 6.008087843656539917e-02 1.106422245502471924e-01 -6.718025356531143188e-02 1.825549826025962830e-02 5.383602157235145569e-02 -2.285015136003494263e-01 -3.532036393880844116e-02 -3.324162364006042480e-01 1.244275718927383423e-01 1.230143606662750244e-01
1.472503542900085449e-01 -2.544380128383636475e-01 -1.621143668889999390e-01 -1.553641408681869507e-01 8.994117379188537598e-02 -1.592618077993392944e-01 -2.956857979297637939e-01 2.382701337337493896e-01 2.848552763462066650e-01 -3.681464791297912598e-01 1.932108104228973389e-01 -7.666788250207901001e-02 -1.432517319917678833e-01 -1.164204239845275879e+00 9.741671383380889893e-02 -6.416617035865783691e-01 -4.958983361721038818e-01 -2.267057299613952637e-01 1.044022068381309509e-01 4.871520698070526123e-01
-1.941133588552474976e-01 -1.003698445856571198e-02 -4.026097804307937622e-02 -1.784261763095855713e-01 -9.867669641971588135e-02 -1.856790930032730103e-01 -3.479499816894531250e-01 3.064419925212860107e-01 1.926506906747817993e-01 -9.936722926795482635e-03 2.319156229496002197e-01 3.693116307258605957e-01 -1.563901156187057495e-01 -3.251645267009735107e-01 5.785568952560424805e-01 -3.122114837169647217e-01 -1.731814295053482056e-01 -2.119309306144714355e-01 5.903137326240539551e-01 5.251072347164154053e-02
5.599572509527206421e-02 -2.261126190423965454e-01 -1.117308139801025391e-01 -5.101978182792663574e-01 -1.416929960250854492e-01 1.977425068616867065e-02 -2.502460181713104248e-01 6.135409474372863770e-01 5.656967163085937500e-01 -3.341681957244873047e-01 -2.115197032690048218e-01 4.252032935619354248e-01 2.309684604406356812e-01 -1.458811461925506592e-01 1.057771801948547363e+00 -8.464627861976623535e-01 -4.536085724830627441e-01 -4.464828595519065857e-02 1.067386627197265625e+00 -4.484380185604095459e-01
-3.152125775814056396e-01 -1.530737578868865967e-01 -2.833701074123382568e-01 -2.378639131784439087e-01 1.677677780389785767e-02 -8.981397747993469238e-02 -2.040164768695831299e-01 3.288307189941406250e-01 1.222422569990158081e-01 -1.349272876977920532e-01 1.106137596070766449e-02 1.680437773466110229e-01 -1.776867508888244629e-01 3.209180012345314026e-02 3.777526319026947021e-01 -2.706708610057830811e-01 1.756742969155311584e-02 -1.547656655311584473e-01 4.045719504356384277e-01 3.959159553050994873e-02
-1.933778822422027588e-01 4.407011438161134720e-03 -1.557255089282989502e-01 -3.127152621746063232e-01 -8.938988298177719116e-02 -1.173484325408935547e-01 -2.845798432826995850e-01 2.217079550027847290e-01 -1.687096082605421543e-03 -5.095062032341957092e-02 5.953228846192359924e-02 1.397792696952819824e-01 -2.350365817546844482e-01 3.777743279933929443e-01 2.525187134742736816e-01 -1.119291633367538452e-01 -2.190498262643814087e-01 -4.984791278839111328e-01 1.503890305757522583e-01 -1.021287441253662109e-01
