-4.627617001533508301e-01 -4.389825463294982910e-01 -2.969515919685363770e-01 -2.294512242078781128e-01 -3.192994892597198486e-01 -1.769323050975799561e-01 -3.256842195987701416e-01 -5.157262086868286133e-01 -2.296613901853561401e-01 9.617065638303756714e-02 -3.082983791828155518e-01 -7.994281649589538574e-01 2.816711366176605225e-01 3.375793620944023132e-02 6.627231836318969727e-01 2.593843042850494385e-01 -1.090379729866981506e-01 -1.702260971069335938e-01 -2.447755187749862671e-01 1.431444138288497925e-01
-3.742697834968566895e-01 -5.240947604179382324e-01 3.498188033699989319e-02 -2.101207524538040161e-01 -2.603479847311973572e-02 -3.740754425525665283e-01 -1.754537411034107208e-02 -2.797836363315582275e-01 1.140929386019706726e-01 1.406671404838562012e-01 -1.791322231292724609e-01 -5.094217658042907715e-01 8.489677309989929199e-02 3.805134594440460205e-01 6.766551136970520020e-01 3.112584650516510010e-01 -2.622293122112751007e-02 -2.670106291770935059e-01 -1.108066216111183167e-01 8.760481141507625580e-03
6.088327243924140930e-02 3.442293107509613037e-01 7.787185162305831909e-02 2.920914590358734131e-01 5.453859567642211914e-01 4.915998503565788269e-02 2.501599788665771484e-01 3.586441278457641602e-01 5.104637742042541504e-01 2.161295562982559204e-01 2.243265509605407715e-01 4.534533917903900146e-01 -1.605589538812637329e-01 -1.250717788934707642e-02 -2.877171039581298828e-01 -1.204948425292968750e-01 3.012682497501373291e-01 6.216322630643844604e-02 -2.217149436473846436e-01 -8.196425437927246094e-02
-1.567785888910293579e-01 -3.630479872226715088e-01 1.273110061883926392e-01 3.657193481922149658e-01 8.775016069412231445e-01 -4.767654091119766235e-02 -1.018199846148490906e-01 3.321405351161956787e-01 4.243733286857604980e-01 -4.011344313621520996e-01 -2.306862324476242065e-01 2.258024066686630249e-01 -9.751648902893066406e-01 -6.176067590713500977e-01 2.536549866199493408e-01 4.140800535678863525e-01 -4.756873548030853271e-01 5.230467915534973145e-01 5.265768766403198242e-01 -1.995986327528953552e-02
6.933992356061935425e-02 3.517629504203796387e-01 4.538388550281524658e-01 2.952319979667663574e-01 6.523471474647521973e-01 2.168548107147216797e-01 4.311955869197845459e-01 3.291896283626556396e-01 1.890403181314468384e-01 2.014817148447036743e-01 3.428094983100891113e-01 5.603044629096984863e-01 -2.552169859409332275e-01 -2.235488891601562500e-01 -2.016562968492507935e-01 -2.397320792078971863e-02 1.555618941783905029e-01 1.402249634265899658e-01 2.828067839145660400e-01 1.062910854816436768e-01
1.142938807606697083e-01 1.524822264909744263e-01 2.165327668190002441e-01 8.948942273855209351e-02 1.831501163542270660e-02 4.277513027191162109e-01 6.931863725185394287e-02 2.391233742237091064e-01 1.302596330642700195e-01 2.147754728794097900e-01 3.155284523963928223e-01 1.801232993602752686e-01 4.505901634693145752e-01 1.401933431625366211e-01 -4.425838589668273926e-01 -4.867753982543945312e-01 2.797564566135406494e-01 -3.656972050666809082e-01 -3.085206449031829834e-01 1.392883360385894775e-01
1.814284771680831909e-01 1.735282540321350098e-01 3.258531093597412109e-01 1.389111671596765518e-02 7.443467527627944946e-02 2.898882031440734863e-01 2.928017973899841309e-01 1.525048017501831055e-01 4.077931120991706848e-02 1.839998066425323486e-01 4.422399774193763733e-02 2.319143563508987427e-01 3.833931386470794678e-01 1.844770610332489014e-01 -4.003107845783233643e-01 -2.722453176975250244e-01 4.107307195663452148e-01 -2.833216488361358643e-01 -1.421795189380645752e-01 2.284210920333862305e-01
7.873983681201934814e-02 3.520860373973846436e-01 3.568589687347412109e-02 3.476934432983398438e-01 4.344708621501922607e-01 3.534076213836669922e-01 4.046649038791656494e-01 2.464278191328048706e-01 3.554036617279052734e-01 2.518416941165924072e-01 7.928542792797088623e-02 2.527346834540367126e-02 4.728991538286209106e-02 1.153189018368721008e-01 -3.901092708110809326e-01 -8.490883558988571167e-02 3.044124841690063477e-01 -2.251266986131668091e-01 -8.597543090581893921e-02 1.225633695721626282e-01
-2.543148994445800781e-01 -3.147301673889160156e-01 -3.027634322643280029e-01 -1.413958519697189331e-01 -1.520269215106964111e-01 -9.974872320890426636e-02 -6.259648501873016357e-02 -2.557425796985626221e-01 2.981308288872241974e-02 -2.205717377364635468e-02 -1.729667335748672485e-01 -1.139113605022430420e-01 -1.128279417753219604e-01 -2.906959354877471924e-01 3.438909351825714111e-01 5.190027505159378052e-02 -2.388143688440322876e-01 2.256559580564498901e-01 2.664526104927062988e-01 1.020835489034652710e-01
3.095054030418395996e-01 1.419764310121536255e-01 2.322833538055419922e-01 3.895389735698699951e-01 6.031316146254539490e-02 -4.978515952825546265e-02 3.513304293155670166e-01 3.102675080299377441e-01 2.577090263366699219e-01 2.417283654212951660e-01 4.853467270731925964e-02 2.755904793739318848e-01 1.825897246599197388e-01 8.007752150297164917e-02 -2.062134444713592529e-01 -3.584314286708831787e-01 7.985230535268783569e-02 -4.602592289447784424e-01 -3.725450932979583740e-01 9.659464657306671143e-02
-1.498926877975463867e-01 -2.884142398834228516e-01 -3.119347989559173584e-01 -1.557286381721496582e-01 -2.037034481763839722e-01 -2.971092760562896729e-01 -3.148636817932128906e-01 -2.212541401386260986e-01 -1.408185660839080811e-01 -1.508254855871200562e-01 -2.391760498285293579e-01 -2.279115617275238037e-01 5.831446126103401184e-02 -2.956818044185638428e-01 2.827034294605255127e-01 7.396426051855087280e-02 2.656868845224380493e-02 3.375253975391387939e-01 5.336527526378631592e-02 4.657055810093879700e-02
-1.695081740617752075e-01 -8.287785202264785767e-02 -2.898574471473693848e-01 -2.772902250289916992e-01 -3.924719989299774170e-01 -2.594779133796691895e-01 -3.635165393352508545e-01 -1.217727512121200562e-01 -2.363650649785995483e-01 -2.323663607239723206e-02 -3.297367095947265625e-01 -3.844199776649475098e-01 9.875220805406570435e-02 7.083890587091445923e-02 2.277873456478118896e-01 3.370915725827217102e-02 -8.091773837804794312e-02 7.286777347326278687e-02 -1.518702954053878784e-01 -3.123104758560657501e-02
-3.199217319488525391e-01 -6.452764570713043213e-02 -1.837000995874404907e-01 1.125106029212474823e-02 -5.267017483711242676e-01 -2.783450484275817871e-01 -3.916923701763153076e-02 -4.333866238594055176e-01 -2.484861314296722412e-01 -4.012451693415641785e-02 -4.675558209419250488e-02 -3.817768394947052002e-01 -1.149408519268035889e-02 -9.315361082553863525e-02 1.237538680434226990e-01 1.246556639671325684e-01 9.224562346935272217e-02 3.328520432114601135e-02 2.352128922939300537e-01 -3.646649792790412903e-02
1.464686822146177292e-02 2.581260800361633301e-01 3.113924264907836914e-01 -1.861465722322463989e-01 1.135921222157776356e-03 1.931084133684635162e-02 -8.181698620319366455e-03 -1.151679307222366333e-01 2.152048200368881226e-01 3.410299420356750488e-01 2.767453789710998535e-01 -4.878990352153778076e-02 6.551442146301269531e-01 7.643940448760986328e-01 -1.670749485492706299e-01 -4.743672609329223633e-01 4.791039526462554932e-01 -5.178932547569274902e-01 -4.547252058982849121e-01 -5.558906123042106628e-02
9.018283337354660034e-02 3.030124902725219727e-01 1.460525989532470703e-01 2.757356762886047363e-01 -4.398038610816001892e-02 2.349623739719390869e-01 1.806080043315887451e-01 2.001110166311264038e-01 1.348726898431777954e-01 3.084263205528259277e-01 4.447651654481887817e-02 3.058894770219922066e-03 4.022310972213745117e-01 1.093141809105873108e-01 -2.620437443256378174e-01 -2.978267371654510498e-01 2.018406987190246582e-01 -9.650635719299316406e-02 -2.477171719074249268e-01 8.797434717416763306e-02
7.746111601591110229e-02 4.660163819789886475e-02 2.789579331874847412e-01 1.569700688123703003e-01 -1.023748815059661865e-01 1.328950375318527222e-01 2.629614770412445068e-01 2.456068061292171478e-02 2.942761220037937164e-02 2.527314238250255585e-02 1.671945899724960327e-01 3.447495028376579285e-02 3.497793078422546387e-01 5.196787118911743164e-01 -5.832150578498840332e-02 -3.637156188488006592e-01 1.621505469083786011e-01 -1.985673010349273682e-01 -3.122735917568206787e-01 -1.729012727737426758e-01
4.321033954620361328e-01 3.658541440963745117e-01 1.393614113330841064e-01 2.020984143018722534e-01 2.521060109138488770e-01 1.680307239294052124e-01 3.011879026889801025e-01 4.481512308120727539e-01 1.121715679764747620e-01 8.313080668449401855e-02 2.521030306816101074e-01 4.850082099437713623e-01 -7.045870646834373474e-03 -1.440386921167373657e-01 -5.467550754547119141e-01 -3.997304737567901611e-01 1.356983184814453125e-01 -2.805068790912628174e-01 8.262684941291809082e-02 2.055896632373332977e-02
5.319736897945404053e-02 -3.185214102268218994e-01 -2.347989082336425781e-01 2.627857401967048645e-02 4.701312780380249023e-01 -1.698524057865142822e-01 1.230521425604820251e-01 -9.561233967542648315e-02 1.991737335920333862e-01 -3.872821927070617676e-01 -3.873285651206970215e-01 -1.403876245021820068e-01 -5.585049390792846680e-01 -4.420969784259796143e-01 1.879778802394866943e-01 3.227521777153015137e-01 -2.536924779415130615e-01 3.701027631759643555e-01 4.730390012264251709e-01 -1.779133826494216919e-01
1.917046457529067993e-01 1.186520159244537354e-01 1.559179127216339111e-01 4.168645143508911133e-01 5.887466073036193848e-01 2.585954964160919189e-01 3.945956230163574219e-01 2.826782166957855225e-01 4.810239076614379883e-01 2.237881422042846680e-01 -1.512208729982376099e-01 3.412036299705505371e-01 -3.341789841651916504e-01 -1.858356446027755737e-01 -2.449320405721664429e-01 -1.238310039043426514e-01 2.677719891071319580e-01 -1.131884530186653137e-01 -3.627310693264007568e-02 1.106082722544670105e-01
4.109350442886352539e-01 8.686012029647827148e-02 2.263814210891723633e-01 6.739309430122375488e-02 1.785446852445602417e-01 3.451775312423706055e-01 3.515087962150573730e-01 9.556575119495391846e-02 2.787635624408721924e-01 7.898439466953277588e-02 1.650477387011051178e-02 4.394429028034210205e-01 -3.268559649586677551e-02 3.040736019611358643e-01 -2.667473852634429932e-01 -2.675749063491821289e-01 3.463557064533233643e-01 -2.414131164550781250e-01 -9.835273027420043945e-02 -1.552546620368957520e-01
