2.016192972660064697e-01 2.277268469333648682e-01 1.288558691740036011e-01 3.202531114220619202e-02 9.645420312881469727e-02 2.971640415489673615e-02 -1.286110132932662964e-01 -1.630501002073287964e-01 -2.586488127708435059e-01 -9.277760982513427734e-02 1.772752255201339722e-01 -3.248329758644104004e-01 -5.167627930641174316e-01 2.968389093875885010e-01 4.880088567733764648e-01 7.232160568237304688e-01 2.142232954502105713e-01 4.423326849937438965e-01 -3.742769062519073486e-01 -1.714798212051391602e-01
-3.037915229797363281e-01 2.951346337795257568e-01 3.024309873580932617e-01 -2.310377508401870728e-01 6.772293448448181152e-01 2.132080346345901489e-01 -6.510345935821533203e-01 -3.716748654842376709e-01 -2.682348787784576416e-01 4.185058176517486572e-01 5.372895598411560059e-01 9.034193307161331177e-02 -5.268070697784423828e-01 7.205045223236083984e-01 4.311819076538085938e-01 1.009851098060607910e+00 3.795584440231323242e-01 2.114669084548950195e-01 -2.954843640327453613e-01 -2.752628624439239502e-01
-1.026754230260848999e-01 1.717772483825683594e-01 3.348047286272048950e-02 -2.669204771518707275e-01 4.409169852733612061e-01 4.368174374103546143e-01 -3.238874673843383789e-01 -9.149734675884246826e-02 -2.737589180469512939e-01 9.229735285043716431e-02 2.963165566325187683e-02 1.956250369548797607e-01 2.799616158008575439e-01 -6.885658204555511475e-02 -8.653290569782257080e-02 -4.533533006906509399e-02 -1.927567422389984131e-01 -3.545341193675994873e-01 3.431132137775421143e-01 4.576582014560699463e-01
-2.420729696750640869e-01 2.771045565605163574e-01 -8.805046230554580688e-02 1.035406440496444702e-02 -6.683895364403724670e-03 2.444077283143997192e-01 -2.823421657085418701e-01 -1.107936725020408630e-01 -2.205250263214111328e-01 2.278694510459899902e-01 -8.366642892360687256e-02 2.153997570276260376e-01 -1.153168678283691406e+00 4.140360653400421143e-01 2.686653733253479004e-01 2.813254892826080322e-01 3.396794199943542480e-01 -7.431098818778991699e-01 9.560210108757019043e-01 6.492330431938171387e-01
-5.226510763168334961e-02 1.584735885262489319e-02 3.636673465371131897e-02 -2.319239675998687744e-01 1.317370831966400146e-01 2.686170339584350586e-01 -3.986434936523437500e-01 -1.535662710666656494e-01 -2.550476193428039551e-01 3.400064706802368164e-01 3.978906273841857910e-01 -4.073217138648033142e-02 -7.786589115858078003e-02 -8.415818959474563599e-02 -4.229563176631927490e-01 -1.424017101526260376e-01 -3.621354103088378906e-01 -6.143583655357360840e-01 7.286509275436401367e-01 4.962826371192932129e-01
-2.054495066404342651e-01 -2.147734723985195160e-02 2.695252597332000732e-01 6.818675994873046875e-02 -4.645167663693428040e-02 4.768162220716476440e-02 6.432919949293136597e-02 -3.878432512283325195e-02 -1.737430244684219360e-01 4.530645906925201416e-02 4.027525186538696289e-01 8.728272467851638794e-02 4.416932165622711182e-01 -4.201209843158721924e-01 -2.332214117050170898e-01 -2.477323561906814575e-01 -5.356763601303100586e-01 1.220789328217506409e-01 2.182366102933883667e-01 2.019719481468200684e-01
-1.190339997410774231e-01 3.999210298061370850e-01 8.915925025939941406e-02 -4.337308704853057861e-01 1.313964575529098511e-01 -2.858562860637903214e-03 -3.966688811779022217e-01 -4.034011662006378174e-01 -1.314657330513000488e-01 6.314049009233713150e-03 1.546748131513595581e-01 2.943570017814636230e-01 3.931214809417724609e-01 -5.273400545120239258e-01 -3.439123034477233887e-01 -3.848630189895629883e-01 -3.517796397209167480e-01 -3.011800348758697510e-01 1.098643988370895386e-02 1.444412618875503540e-01
-3.001092672348022461e-01 2.826780080795288086e-01 3.085400760173797607e-01 -1.479529142379760742e-01 2.211384922266006470e-01 3.630070984363555908e-01 -2.146946787834167480e-01 -2.990548312664031982e-01 -1.711115241050720215e-01 3.798692524433135986e-01 3.444094955921173096e-01 3.460047841072082520e-01 5.033506453037261963e-02 -3.508234322071075439e-01 -4.004118740558624268e-01 -1.996612399816513062e-01 -1.397377401590347290e-01 -3.351514637470245361e-01 1.831387518905103207e-03 3.023921549320220947e-01
2.582104206085205078e-01 -9.770900942385196686e-03 6.036437675356864929e-02 -9.030058048665523529e-03 6.656349450349807739e-02 2.759246900677680969e-02 1.507041323930025101e-02 2.307791858911514282e-01 1.583058983087539673e-01 -1.557729244232177734e-01 -2.877604067325592041e-01 -2.768628001213073730e-01 -2.275683879852294922e-01 1.938359439373016357e-01 1.329512447118759155e-01 2.441012412309646606e-01 4.404664337635040283e-01 1.850761324167251587e-01 7.229691743850708008e-02 -1.047266572713851929e-01
-2.813943326473236084e-01 2.867362201213836670e-01 3.814315795898437500e-01 -3.718502521514892578e-01 5.178462862968444824e-01 1.816843152046203613e-01 -3.939520418643951416e-01 -2.614172995090484619e-01 -1.343640983104705811e-01 1.266215592622756958e-01 4.074874222278594971e-01 2.728050053119659424e-01 2.502373158931732178e-01 -6.727147102355957031e-02 -3.288459479808807373e-01 -1.372410058975219727e-01 -4.450119435787200928e-01 -2.716915309429168701e-01 1.657924503087997437e-01 9.261109679937362671e-02
2.925530076026916504e-01 2.224093116819858551e-02 -1.541617959737777710e-01 1.334911137819290161e-01 -9.936850517988204956e-02 -1.334323585033416748e-01 1.889888942241668701e-01 1.596316844224929810e-01 2.223869562149047852e-01 -2.545540332794189453e-01 -2.735756039619445801e-01 -1.698912978172302246e-01 -1.908640712499618530e-01 4.032892882823944092e-01 3.155784010887145996e-01 2.036228775978088379e-01 2.717880010604858398e-01 1.368191791698336601e-03 -2.696893215179443359e-01 -4.306899383664131165e-02
7.727948576211929321e-02 -5.174854770302772522e-02 -3.392945230007171631e-02 -1.942430138587951660e-01 1.546720857731997967e-03 -1.716697812080383301e-01 1.639741957187652588e-01 -5.760100856423377991e-02 -3.069708347320556641e-01 2.662371098995208740e-01 1.508175134658813477e-01 -5.624042078852653503e-02 -6.361637115478515625e-01 5.208320021629333496e-01 3.852354288101196289e-01 5.810168385505676270e-01 5.223939418792724609e-01 3.057444393634796143e-01 -3.044101297855377197e-01 -2.810703217983245850e-01
2.456066161394119263e-01 -2.674532830715179443e-01 -1.300004869699478149e-01 1.938177198171615601e-01 7.298952341079711914e-02 -3.103457689285278320e-01 2.996435575187206268e-02 -4.401788488030433655e-02 1.771492809057235718e-01 4.206902906298637390e-02 -1.390137672424316406e-01 -3.784986734390258789e-01 -9.533579647541046143e-02 5.521085113286972046e-02 1.943681240081787109e-01 3.016371726989746094e-01 4.134663939476013184e-01 3.236685097217559814e-01 -3.462348878383636475e-01 -6.065703555941581726e-02
-3.916321992874145508e-01 3.662554025650024414e-01 5.855583548545837402e-01 -5.667339563369750977e-01 6.460469961166381836e-01 4.508525729179382324e-01 -4.623874723911285400e-01 -4.652178585529327393e-01 -4.784086644649505615e-01 9.563469141721725464e-02 6.686576604843139648e-01 8.163917660713195801e-01 9.479201436042785645e-01 -2.825470864772796631e-01 -2.513342797756195068e-01 -4.777179956436157227e-01 -5.178700685501098633e-01 3.536268174648284912e-01 -2.512153983116149902e-01 5.585749447345733643e-02
-2.568787038326263428e-01 4.148458242416381836e-01 2.748549878597259521e-01 -2.263236492872238159e-01 1.496851891279220581e-01 3.680882155895233154e-01 -1.308686137199401855e-01 -3.069001734256744385e-01 9.390939027070999146e-02 3.259961009025573730e-01 2.797468900680541992e-01 2.994347214698791504e-01 6.711293458938598633e-01 -3.310768008232116699e-01 -2.332011908292770386e-01 -4.295323491096496582e-01 -2.714894711971282959e-01 -5.897741392254829407e-02 3.062969744205474854e-01 2.485887706279754639e-01
-2.233056724071502686e-01 3.214708268642425537e-01 2.718188464641571045e-01 -2.691654562950134277e-01 2.606897354125976562e-01 9.852898120880126953e-02 -2.217257320880889893e-01 -9.223648160696029663e-02 -3.698525130748748779e-01 1.711426526308059692e-01 3.806998133659362793e-01 3.037747144699096680e-01 6.672040820121765137e-01 -3.748798668384552002e-01 -2.783360779285430908e-01 -4.341997206211090088e-01 -5.200217962265014648e-01 3.637168705463409424e-01 -1.979981064796447754e-01 2.346604168415069580e-01
-1.900996565818786621e-01 4.227527081966400146e-01 3.976174890995025635e-01 6.163269281387329102e-03 3.933797478675842285e-01 1.244082376360893250e-01 -3.156619966030120850e-01 -1.963075399398803711e-01 -3.501796424388885498e-01 2.024954110383987427e-01 9.707408025860786438e-03 3.074290454387664795e-01 3.557472229003906250e-01 -1.576682180166244507e-01 -4.268073141574859619e-01 -3.086930811405181885e-01 -3.924042880535125732e-01 -4.937944412231445312e-01 4.329581558704376221e-01 4.602311849594116211e-01
1.673973053693771362e-01 1.357662677764892578e-01 -1.494863778352737427e-01 4.262641817331314087e-02 -3.045504912734031677e-02 1.234899461269378662e-01 -2.113627456128597260e-02 1.420402824878692627e-01 1.073856875300407410e-01 -1.550870835781097412e-01 -3.457086533308029175e-02 -2.464289963245391846e-01 -3.355867862701416016e-01 4.931289255619049072e-01 -3.197504952549934387e-02 4.881008267402648926e-01 1.545272320508956909e-01 -4.253448545932769775e-01 4.465030431747436523e-01 5.611940026283264160e-01
-2.204388678073883057e-01 2.850258946418762207e-01 4.345394670963287354e-01 -3.564305305480957031e-01 3.354713916778564453e-01 3.938638567924499512e-01 -3.392172977328300476e-02 -2.797304987907409668e-01 -1.801130771636962891e-01 3.815814256668090820e-01 1.656884402036666870e-01 2.906447947025299072e-01 -1.160254180431365967e-01 -3.172690868377685547e-01 -2.994496524333953857e-01 -1.097335916711017489e-04 -1.527270525693893433e-01 -4.276551902294158936e-01 1.689401715993881226e-01 5.194922685623168945e-01
-8.131443709135055542e-02 3.067213296890258789e-01 1.186829712241888046e-02 -8.969393372535705566e-02 1.346628963947296143e-01 3.684451282024383545e-01 -1.348785012960433960e-01 -1.485498100519180298e-01 -2.076599150896072388e-01 2.906672060489654541e-01 -1.732804067432880402e-02 1.705296486616134644e-01 2.898465096950531006e-01 -4.727661013603210449e-01 -9.274578094482421875e-02 -2.019591480493545532e-01 -4.637939035892486572e-01 -3.755220174789428711e-01 2.103280834853649139e-02 3.896627128124237061e-01
