5.179095268249511719e-01 4.785467386245727539e-01 5.104222297668457031e-01 -9.056883864104747772e-03 -1.922107115387916565e-02 9.536398574709892273e-03 1.057287212461233139e-02 -3.900723159313201904e-01 -2.870439887046813965e-01 -4.512872397899627686e-01
2.213308364152908325e-01 4.555437564849853516e-01 4.161847233772277832e-01 -6.691798567771911621e-01 -6.390023827552795410e-01 1.221058815717697144e-01 -3.163615465164184570e-01 -2.442805320024490356e-01 1.050405297428369522e-02 3.067782521247863770e-02
-2.473587691783905029e-01 -4.270817339420318604e-01 -5.102682709693908691e-01 4.358995258808135986e-01 3.812107741832733154e-01 1.155854761600494385e-02 1.990717500448226929e-01 2.202290743589401245e-01 -6.708843261003494263e-02 3.833977580070495605e-01
5.815073847770690918e-01 2.802026867866516113e-01 4.908850789070129395e-01 -4.671105444431304932e-01 -2.514997124671936035e-01 2.353789061307907104e-01 1.004200726747512817e-01 -3.352362513542175293e-01 1.883819848299026489e-01 -1.723147928714752197e-01
-1.153942048549652100e-01 -4.331611990928649902e-01 -2.808048725128173828e-01 5.357252955436706543e-01 4.197410047054290771e-01 -3.388878656551241875e-03 3.831430673599243164e-01 1.499571651220321655e-01 2.028974741697311401e-01 3.757044970989227295e-01
-4.293185845017433167e-02 4.215029627084732056e-02 -9.722940623760223389e-03 5.236381292343139648e-01 1.837413012981414795e-01 1.055959053337574005e-02 2.099653035402297974e-01 4.361086487770080566e-01 1.385213341563940048e-02 5.950111523270606995e-02
-3.858564496040344238e-01 2.959407120943069458e-02 -5.248999595642089844e-01 4.853730201721191406e-01 1.663367897272109985e-01 -3.524049520492553711e-01 2.601030468940734863e-01 2.327925711870193481e-01 1.646666973829269409e-01 -1.315934062004089355e-01
2.566017508506774902e-01 1.645678281784057617e-01 5.489479303359985352e-01 5.171493291854858398e-01 -5.076701641082763672e-01 5.076349377632141113e-01 5.253529548645019531e-01 -4.859211742877960205e-01 -5.389952659606933594e-01 -2.284850031137466431e-01
1.236347481608390808e-01 -5.549734830856323242e-01 -4.563953876495361328e-01 -9.700947999954223633e-01 3.258069753646850586e-01 -2.036652415990829468e-01 -9.798644781112670898e-01 5.394294261932373047e-01 6.132329106330871582e-01 6.117504835128784180e-01
1.098768785595893860e-01 4.598714113235473633e-01 3.418118357658386230e-01 -1.655875444412231445e-01 -3.821427822113037109e-01 4.029121696949005127e-01 -2.019270807504653931e-01 -7.353106141090393066e-02 -1.667511165142059326e-01 -5.253288149833679199e-01
