-5.456885099411010742e-01 1.390341967344284058e-01 3.722879886627197266e-01 -2.916809916496276855e-01 2.539164125919342041e-01 6.160800531506538391e-02 1.624544858932495117e-01 -6.200579926371574402e-02 -5.376997590065002441e-01 1.865173280239105225e-01
8.366279304027557373e-03 2.999215424060821533e-01 -2.602186501026153564e-01 2.592141926288604736e-01 2.764787375926971436e-01 -8.261911571025848389e-02 1.768190413713455200e-01 1.687485575675964355e-01 -4.709146171808242798e-02 1.030643358826637268e-01
-4.117334485054016113e-01 9.750560857355594635e-03 -3.110712766647338867e-02 -1.403365135192871094e-01 1.305145025253295898e-01 6.975369900465011597e-02 2.247924059629440308e-01 -9.129139780998229980e-02 -1.315781772136688232e-01 6.691029667854309082e-02
4.848629236221313477e-02 2.916109263896942139e-01 -6.265187263488769531e-02 4.540005326271057129e-02 6.970793008804321289e-03 1.875995695590972900e-01 2.642588913440704346e-01 1.072109043598175049e-01 3.145230710506439209e-01 6.613799929618835449e-02
-6.668008118867874146e-02 1.336517781019210815e-01 4.975130259990692139e-01 -1.437589675188064575e-01 3.873549103736877441e-01 -7.581885457038879395e-01 1.691241115331649780e-01 -1.698213070631027222e-01 -4.060285687446594238e-01 -1.015651449561119080e-01
-3.032949566841125488e-01 -1.632388830184936523e-01 2.622332870960235596e-01 -2.352751940488815308e-01 4.381746053695678711e-01 -2.032873034477233887e-02 1.560092270374298096e-01 -8.459859341382980347e-02 -3.884461522102355957e-01 2.006646618247032166e-02
-4.075873792171478271e-01 1.007190197706222534e-01 2.271607220172882080e-01 -3.270613849163055420e-01 1.331694237887859344e-02 3.543784096837043762e-02 6.411275863647460938e-01 -2.481438815593719482e-01 -1.045506745576858521e-01 -8.618811517953872681e-02
-3.772416412830352783e-01 -2.142407894134521484e-01 1.772036850452423096e-01 2.938300073146820068e-01 -2.784236706793308258e-02 -3.383950293064117432e-01 -2.848100364208221436e-01 3.205986022949218750e-01 5.792304873466491699e-01 -2.630293369293212891e-02
6.355285644531250000e-03 -2.536029815673828125e-01 -2.134782671928405762e-01 -2.577120065689086914e-01 2.483346164226531982e-01 -1.934853196144104004e-01 2.996978163719177246e-02 1.185443997383117676e-01 3.624257445335388184e-02 -2.564490735530853271e-01
3.003499507904052734e-01 -4.446261748671531677e-02 -8.612054586410522461e-02 -3.290149569511413574e-01 -1.048907041549682617e-01 2.169775724411010742e+00 5.256125926971435547e-01 -7.585878968238830566e-01 -2.237038612365722656e-01 5.565824732184410095e-02
