-2.984626293182373047e-01 6.095597743988037109e-01 2.176491469144821167e-01 2.771741449832916260e-01 2.759255468845367432e-01 4.916188865900039673e-02 3.806869089603424072e-01 -3.600703775882720947e-01 4.517702162265777588e-01 9.260095655918121338e-02
-4.054897129535675049e-01 2.085341811180114746e-01 6.305359005928039551e-01 1.838810592889785767e-01 2.619517445564270020e-01 -6.477965712547302246e-01 3.948231041431427002e-01 -2.736231982707977295e-01 -1.381923556327819824e-01 3.906414508819580078e-01
-3.609996438026428223e-01 5.265966430306434631e-02 -7.005679607391357422e-01 -5.930845141410827637e-01 -4.922907948493957520e-01 1.999272964894771576e-03 -6.030306220054626465e-01 3.893482983112335205e-01 -5.282829999923706055e-01 -1.140583958476781845e-02
-1.305468529462814331e-01 3.748752176761627197e-01 2.006675601005554199e-01 2.745986282825469971e-01 4.954313337802886963e-01 -1.568864285945892334e-01 2.488313913345336914e-01 -1.705485284328460693e-01 -1.020690053701400757e-01 3.248524293303489685e-02
4.208437725901603699e-02 -3.712776899337768555e-01 -5.986073613166809082e-01 -5.677937269210815430e-01 -5.259604007005691528e-02 1.900178194046020508e-01 -2.985442280769348145e-01 1.857925653457641602e-01 -1.849635243415832520e-01 -4.595331549644470215e-01
-4.533388614654541016e-01 -3.638993948698043823e-02 -7.282441854476928711e-01 -5.069811940193176270e-01 -9.258406609296798706e-02 1.505185104906558990e-02 -6.813516020774841309e-01 7.247322797775268555e-02 2.221457101404666901e-02 -1.178511381149291992e-01
-1.461511552333831787e-01 -4.221196770668029785e-01 -3.866524994373321533e-01 -7.556543946266174316e-01 -6.763191819190979004e-01 -1.550892293453216553e-01 -1.190587639808654785e+00 3.151980787515640259e-02 -3.302906155586242676e-01 -3.624100685119628906e-01
-1.741853058338165283e-01 4.390774071216583252e-01 6.509438753128051758e-01 5.950543284416198730e-01 5.312156677246093750e-01 -1.731269508600234985e-01 5.428968071937561035e-01 1.500499155372381210e-02 6.643849611282348633e-01 -1.535258349031209946e-02
-3.192139863967895508e-01 6.199744939804077148e-01 4.496510922908782959e-01 -3.659306168556213379e-01 -2.762559652328491211e-01 -6.909538507461547852e-01 5.726996064186096191e-02 -5.947653055191040039e-01 -1.208154201507568359e+00 3.083727359771728516e-01
1.274135708808898926e-01 3.121271133422851562e-01 7.075198292732238770e-01 2.221077382564544678e-01 3.475484549999237061e-01 -2.854258716106414795e-01 5.876566171646118164e-01 -1.910440772771835327e-01 4.919645190238952637e-01 2.588345408439636230e-01
