3.041127622127532959e-01 -1.418791711330413818e-01 1.183658987283706665e-01 -2.326970696449279785e-01 5.683768987655639648e-01 -1.995223462581634521e-01 1.887417882680892944e-01 -1.702466309070587158e-01 1.730222553014755249e-01 -1.241906359791755676e-01
2.414127290248870850e-01 -3.069291710853576660e-01 -7.271867943927645683e-04 2.451974153518676758e-01 8.407253026962280273e-02 1.686870865523815155e-02 2.299036681652069092e-01 1.602192223072052002e-01 -1.797385513782501221e-01 -2.995722591876983643e-01
1.944422125816345215e-01 -3.877788782119750977e-01 -3.341952338814735413e-02 -7.391931116580963135e-02 3.478012681007385254e-01 1.207691282033920288e-01 5.232827067375183105e-01 -1.662046909332275391e-01 3.878636658191680908e-01 1.911577954888343811e-02
-3.064435124397277832e-01 1.523119807243347168e-01 -2.508434653282165527e-01 -1.658054888248443604e-01 2.019163966178894043e-02 1.345470845699310303e-01 -2.031160742044448853e-01 -1.638245582580566406e-02 5.911120772361755371e-02 -3.015924394130706787e-01
-2.327322065830230713e-01 3.859181702136993408e-01 4.972608685493469238e-01 -4.699964523315429688e-01 5.374436974525451660e-01 6.548442691564559937e-02 5.567957758903503418e-01 -3.296074569225311279e-01 2.951317131519317627e-01 3.486808538436889648e-01
-3.123517893254756927e-02 -5.752264261245727539e-01 3.149447441101074219e-01 -4.401936829090118408e-01 2.762217819690704346e-01 4.759499430656433105e-02 4.106938540935516357e-01 -1.996620446443557739e-01 1.983251422643661499e-01 4.530588090419769287e-01
1.784066706895828247e-01 -2.635648846626281738e-01 3.893316090106964111e-01 -4.614710211753845215e-01 2.505986690521240234e-01 7.893257588148117065e-02 2.574662864208221436e-02 -1.749053746461868286e-01 1.464823186397552490e-01 -1.553376019001007080e-01
1.770521849393844604e-01 5.263240337371826172e-01 1.761997938156127930e-01 5.136496424674987793e-01 2.682969868183135986e-01 2.225337177515029907e-01 -5.909376740455627441e-01 -2.105140239000320435e-01 3.051126897335052490e-01 2.430006414651870728e-01
-2.177077531814575195e-01 2.508969008922576904e-01 -1.204994916915893555e-01 2.381873130798339844e-02 1.453069746494293213e-01 -4.507917165756225586e-02 2.605936229228973389e-01 1.415504515171051025e-01 1.903268694877624512e-02 -9.347490966320037842e-02
1.127915680408477783e-01 -9.313713014125823975e-02 2.196215093135833740e-01 -2.653887569904327393e-01 4.989370405673980713e-01 -5.924762487411499023e-01 5.203824639320373535e-01 -3.033722639083862305e-01 6.632893085479736328e-01 -4.230796694755554199e-01
