-4.067386984825134277e-01 -4.874678254127502441e-01 -4.295817911624908447e-01 -5.489538908004760742e-01 -5.094172954559326172e-01 -4.358541592955589294e-02 1.580351032316684723e-02 4.259366542100906372e-02 2.915842831134796143e-01 1.646565049886703491e-01
-1.212244015187025070e-02 1.359780598431825638e-02 -4.792155325412750244e-01 -3.432734012603759766e-01 -3.655320107936859131e-01 -3.857204616069793701e-01 4.535500705242156982e-01 8.215313404798507690e-02 -3.039314150810241699e-01 -2.288870513439178467e-01
-4.648697972297668457e-01 -4.891005754470825195e-01 -2.241792343556880951e-02 -6.864056587219238281e-01 -4.649936556816101074e-01 -2.458090186119079590e-01 -1.922284364700317383e-01 -2.560228407382965088e-01 -1.575791649520397186e-02 -3.832596540451049805e-01
9.289177833124995232e-04 3.807671666145324707e-01 -4.314389228820800781e-01 -9.190365076065063477e-01 -3.230837881565093994e-01 -5.528980493545532227e-01 2.162473052740097046e-01 6.022798418998718262e-01 -4.519914984703063965e-01 2.929532825946807861e-01
-5.409013032913208008e-01 -2.169763110578060150e-02 -2.732995152473449707e-01 -1.696510463953018188e-01 -2.224721610546112061e-01 -6.434574127197265625e-01 4.411754310131072998e-01 -1.340159773826599121e-01 1.930424571037292480e-01 -1.878586262464523315e-01
-3.853660821914672852e-01 8.673349022865295410e-02 -5.684762001037597656e-01 -5.354810357093811035e-01 -5.391308069229125977e-01 -4.463689625263214111e-01 2.470182776451110840e-01 3.040128201246261597e-02 2.911846935749053955e-01 1.049001514911651611e-01
-4.714707136154174805e-01 4.421309828758239746e-01 -4.467586576938629150e-01 1.199298262596130371e+00 -5.786950588226318359e-01 -7.312044501304626465e-01 9.486513733863830566e-01 -1.325945734977722168e+00 3.060104548931121826e-01 -4.099793136119842529e-01
4.107883572578430176e-01 2.585474252700805664e-01 6.240604519844055176e-01 5.907387137413024902e-01 3.651483058929443359e-01 2.231039851903915405e-01 -6.297131776809692383e-01 -1.212848052382469177e-01 -3.876469135284423828e-01 1.906972937285900116e-02
3.132508397102355957e-01 4.306938946247100830e-01 2.622519433498382568e-01 5.011165738105773926e-01 2.092660367488861084e-01 3.300372064113616943e-01 -4.635582268238067627e-01 -1.054572090506553650e-01 -4.426899254322052002e-01 2.278566658496856689e-01
-6.448759138584136963e-02 5.039260387420654297e-01 -1.865618526935577393e-01 8.030864596366882324e-01 3.016879260540008545e-01 9.102003276348114014e-02 -4.151249676942825317e-02 -2.984984964132308960e-02 -3.277571201324462891e-01 2.013843953609466553e-01
