2.298360913991928101e-01 6.401578187942504883e-01 5.084341764450073242e-01 1.380172520875930786e-01 -5.500496029853820801e-01 2.364201545715332031e-01 -1.689279675483703613e-01 4.790253043174743652e-01 1.339381784200668335e-01 3.199310898780822754e-01
-4.436658322811126709e-02 4.706148803234100342e-01 2.104105949401855469e-01 -6.030626893043518066e-01 -3.574283421039581299e-01 5.548557639122009277e-01 -2.554863393306732178e-01 -3.405191469937562943e-03 -6.308646202087402344e-01 8.437813520431518555e-01
7.115969061851501465e-01 8.050457239151000977e-01 9.350531101226806641e-01 6.182740926742553711e-01 -5.576996803283691406e-01 8.039718866348266602e-01 -5.706048011779785156e-01 8.560661673545837402e-01 -3.803049325942993164e-01 -2.086637169122695923e-01
5.067638680338859558e-02 1.091872900724411011e-01 6.094343960285186768e-02 -4.822394251823425293e-01 -8.161986470222473145e-01 1.406336575746536255e-01 -2.076458185911178589e-01 -3.029968738555908203e-01 -6.614052057266235352e-01 9.926413893699645996e-01
3.849373459815979004e-01 4.035025835037231445e-01 1.043419167399406433e-01 -3.221845030784606934e-01 -4.888521730899810791e-01 2.307040840387344360e-01 -1.074554547667503357e-01 4.698783755302429199e-01 3.592551872134208679e-02 5.748677253723144531e-01
2.672900557518005371e-01 3.379226624965667725e-01 3.279206752777099609e-01 -4.570175111293792725e-01 -4.584268629550933838e-01 7.054660320281982422e-01 -2.253612130880355835e-01 5.229336023330688477e-01 -2.054476886987686157e-01 5.648586750030517578e-01
1.228106260299682617e+00 9.279667735099792480e-01 1.204145908355712891e+00 -1.450881838798522949e+00 -8.850465416908264160e-01 1.000399589538574219e+00 -3.225307762622833252e-01 6.822627186775207520e-01 -2.033077180385589600e-01 3.001492917537689209e-01
-2.716902196407318115e-01 -7.670933604240417480e-01 -2.887119650840759277e-01 1.375441551208496094e+00 5.157094001770019531e-01 -7.466082572937011719e-01 2.832882404327392578e-01 -3.714281022548675537e-01 -2.340008690953254700e-02 -9.276825934648513794e-02
-6.198848485946655273e-01 -5.306935906410217285e-01 -6.937063336372375488e-01 1.182722091674804688e+00 7.486762404441833496e-01 -6.098916530609130859e-01 3.612864911556243896e-01 -4.195412695407867432e-01 5.503475666046142578e-01 -1.471777409315109253e-01
-1.214810848236083984e+00 -1.422235608100891113e+00 -1.287680864334106445e+00 2.714197874069213867e+00 1.622077345848083496e+00 -1.054611444473266602e+00 3.710630834102630615e-01 -8.056402206420898438e-01 6.668010950088500977e-01 -9.446669220924377441e-01
