-7.715399265289306641e-01 4.756534993648529053e-01 -3.310017585754394531e-01 5.059014558792114258e-01 -5.257799029350280762e-01 -8.973306417465209961e-01 -3.293624222278594971e-01 -7.677467167377471924e-02 -4.949218034744262695e-01 -2.113546580076217651e-01
-2.733216881752014160e-01 -1.277733296155929565e-01 -3.536466956138610840e-01 5.099633932113647461e-01 -5.384773612022399902e-01 -6.039175987243652344e-01 -2.767544686794281006e-01 -3.350013867020606995e-02 -8.992817252874374390e-02 -2.081707119941711426e-01
9.444730281829833984e-01 3.235852718353271484e-01 2.938620448112487793e-01 -3.842820227146148682e-01 8.679237365722656250e-01 -8.927592039108276367e-01 8.725336790084838867e-01 -3.296928703784942627e-01 -2.423581331968307495e-01 -3.376853466033935547e-01
-3.630120158195495605e-01 -7.545895874500274658e-02 -5.974632501602172852e-01 3.129752874374389648e-01 -2.409203946590423584e-01 -7.497934103012084961e-01 -2.397747188806533813e-01 -4.904968440532684326e-01 -4.972576498985290527e-01 6.759685277938842773e-02
-7.389835715293884277e-01 -2.403021454811096191e-01 -6.124044656753540039e-01 3.152100145816802979e-01 2.143996059894561768e-01 -5.832149386405944824e-01 -5.429297685623168945e-01 -7.864242792129516602e-01 -5.234711170196533203e-01 -5.923300385475158691e-01
1.871105283498764038e-01 7.593156695365905762e-01 5.863705277442932129e-01 -4.369668066501617432e-01 -5.423903465270996094e-01 4.270774126052856445e-01 6.740946769714355469e-01 5.508257150650024414e-01 1.978055834770202637e-01 4.713727831840515137e-01
-2.170978784561157227e-01 -4.252706170082092285e-01 -4.047492146492004395e-02 2.352145314216613770e-01 7.245950400829315186e-02 -2.618677914142608643e-01 -6.528331041336059570e-01 4.899932444095611572e-02 -3.367297053337097168e-01 -1.277524679899215698e-01
-4.510123133659362793e-01 3.987499326467514038e-02 -7.068657875061035156e-01 6.035104393959045410e-01 -1.599397957324981689e-01 -6.233076453208923340e-01 -2.491717785596847534e-01 -4.583715200424194336e-01 -4.473421871662139893e-01 -3.431858718395233154e-01
3.713495433330535889e-01 -8.358982205390930176e-01 5.392146110534667969e-02 -1.245762705802917480e-01 1.324478268623352051e+00 7.531519532203674316e-01 -1.980426311492919922e-01 -1.506768465042114258e-01 -2.510423362255096436e-01 -3.856802582740783691e-01
3.490646481513977051e-01 7.675421237945556641e-01 6.840103864669799805e-01 -3.051668405532836914e-01 -9.369010925292968750e-01 3.997579813003540039e-01 6.316553950309753418e-01 4.137516319751739502e-01 8.227200806140899658e-02 2.787055671215057373e-01
