-5.138021707534790039e-01 2.392401397228240967e-01 1.068476662039756775e-01 2.662835121154785156e+00 -8.308913707733154297e-01 -1.782691359519958496e+00 -9.957119822502136230e-01 1.296413421630859375e+00 -3.185943961143493652e-01 -4.736344814300537109e-01
-7.775985002517700195e-01 6.874198317527770996e-01 3.562174737453460693e-01 3.688694238662719727e-01 -1.271517574787139893e-01 -1.062372326850891113e+00 -5.942919850349426270e-01 4.618654549121856689e-01 -1.655236184597015381e-01 -4.367658793926239014e-01
5.477998256683349609e-01 -6.846083998680114746e-01 -6.547691822052001953e-01 -2.913754463195800781e+00 -7.085535675287246704e-02 1.713298410177230835e-01 1.673921644687652588e-01 -1.176914453506469727e+00 2.108431309461593628e-01 1.847323894500732422e+00
-8.466971516609191895e-01 4.562296867370605469e-01 5.593030452728271484e-01 5.021988749504089355e-01 1.637474745512008667e-01 -8.942257165908813477e-01 -5.250791311264038086e-01 5.741730332374572754e-01 -6.402670145034790039e-01 -4.513807892799377441e-01
-1.562681049108505249e-01 4.710634052753448486e-01 3.889431059360504150e-01 2.391059994697570801e-01 4.347091913223266602e-01 -3.221011161804199219e-01 -4.123937785625457764e-01 -1.350412815809249878e-01 9.841200709342956543e-02 3.123616240918636322e-02
5.541576743125915527e-01 -4.018733203411102295e-01 -5.740598440170288086e-01 -4.434259235858917236e-01 -5.785412788391113281e-01 1.079589843750000000e+00 7.211439013481140137e-01 -6.093914508819580078e-01 5.099028348922729492e-01 1.506845802068710327e-01
-3.902345299720764160e-01 -1.465022116899490356e-01 3.046893477439880371e-01 9.156117588281631470e-02 -4.984563291072845459e-01 -1.075410004705190659e-02 -5.783150792121887207e-01 7.148745059967041016e-01 -3.527950942516326904e-01 1.644013077020645142e-01
-7.553163170814514160e-01 3.839834034442901611e-01 5.114136338233947754e-01 2.998156547546386719e-01 5.866630077362060547e-01 -1.021680831909179688e+00 -5.902835130691528320e-01 1.215259358286857605e-01 -1.287664175033569336e-01 -3.960368633270263672e-01
-1.487185955047607422e-01 1.706978827714920044e-01 4.863340854644775391e-01 1.184816598892211914e+00 -5.535914897918701172e-01 -6.357278227806091309e-01 -1.154749631881713867e+00 1.016256451606750488e+00 -2.983607351779937744e-01 1.428583025932312012e+00
3.083350062370300293e-01 -6.805340647697448730e-01 -5.443437099456787109e-01 -5.989856123924255371e-01 4.313382133841514587e-02 8.991216421127319336e-01 5.317798852920532227e-01 -8.438344001770019531e-01 5.127962827682495117e-01 1.493162959814071655e-01
